SVM-light Version V6.01
0 # kernel type
3 # kernel parameter -d 
1 # kernel parameter -g 
1 # kernel parameter -s 
1 # kernel parameter -r 
empty# kernel parameter -u 
7764 # highest feature index 
4751 # number of training documents 
480 # number of support vectors plus 1 
0.83255729 # threshold b, each following line is a SV (starting with alpha*y)
-0.0011832935545958887194745168258692 9:1 10:1 11:1 13:1 23:1 29:1 33:1 90:1 95:1 97:1 98:1 123:1 147:1 152:2 153:1 211:1 238:1 244:1 250:1 253:1 255:1 258:1 274:1 281:1 291:1 323:1 332:1 376:1 386:1 415:1 428:1 496:1 504:1 524:1 553:1 587:1 588:1 619:1 624:1 647:1 659:2 667:1 750:1 751:1 755:1 756:1 780:1 801:1 804:1 820:1 829:1 830:1 845:1 895:1 940:2 952:1 983:1 986:1 987:1 991:1 992:1 998:1 1016:1 1018:1 1021:1 1026:1 1037:1 1069:1 1098:2 1104:1 1134:1 1135:1 1158:1 1164:1 1178:1 1258:1 1301:1 1346:1 1355:1 1366:1 1371:1 1379:1 1452:1 1464:1 1465:1 1475:1 1509:1 1581:1 1700:1 1721:1 1764:1 1888:1 1896:1 1914:1 1957:1 1961:1 1963:1 2108:1 2171:1 2244:2 2358:1 2364:1 2377:1 2395:1 2487:1 2549:1 2553:1 2602:1 2615:1 2690:1 2692:1 2722:1 2731:1 2943:1 2968:1 2984:1 3002:1 3016:1 3039:1 3055:1 3091:1 3112:1 3125:1 3132:1 3233:1 3260:1 3261:1 3561:1 3583:1 3735:1 3742:1 3806:1 3853:1 3902:1 3946:1 4170:1 4185:1 4323:1 4485:1 4643:1 4731:1 4800:1 5050:1 5146:1 5175:2 5330:1 5419:1 5500:1 5507:1 5540:1 5684:1 5800:1 5888:1 6009:1 6128:1 #
-0.00057733866892858379683134417703627 9:1 10:1 34:1 37:1 41:1 66:1 67:1 68:1 82:1 87:2 88:1 89:1 90:1 158:1 159:1 160:1 161:1 162:1 163:1 164:1 165:1 166:1 167:1 168:1 169:1 170:1 171:1 172:1 173:1 174:2 175:2 176:2 177:1 178:1 179:1 180:1 181:1 182:1 183:1 184:1 185:1 186:1 187:1 188:1 189:1 190:1 191:1 192:1 193:1 194:1 195:1 196:1 197:1 198:1 199:1 200:1 201:1 202:1 203:1 204:1 205:1 206:1 207:1 208:1 209:1 210:1 211:1 212:1 213:1 214:1 215:1 216:1 217:1 218:2 219:2 220:1 221:1 222:1 223:1 224:1 225:1 226:1 227:1 228:1 229:1 230:1 231:1 232:1 233:1 234:1 235:1 236:1 237:1 238:1 239:1 240:1 241:1 242:1 243:1 244:1 245:1 246:1 247:1 248:1 249:1 250:1 251:1 252:1 253:1 254:1 255:1 256:1 257:1 258:1 259:1 260:1 261:1 262:1 263:1 264:1 265:1 266:1 267:1 268:1 269:1 270:1 271:1 272:1 273:1 274:1 275:1 276:1 277:1 278:1 279:1 280:1 281:1 282:1 283:1 284:1 285:1 286:1 287:1 288:1 289:1 290:1 291:1 292:1 293:1 #
-0.0019869814713487582782946994086615 34:1 37:1 87:1 88:1 89:1 90:1 118:1 173:1 174:1 175:1 176:1 177:1 182:1 192:1 193:1 194:1 199:1 201:1 207:1 238:1 239:1 240:1 241:1 242:1 249:1 250:1 251:1 261:1 262:1 269:1 281:1 289:1 294:1 295:2 296:2 297:1 298:1 299:1 300:1 301:1 302:1 303:1 304:1 305:1 306:1 307:1 308:1 309:1 310:1 311:1 312:1 313:1 314:1 315:1 316:1 317:1 318:2 319:1 320:1 321:1 322:1 323:1 324:1 325:1 326:1 327:1 328:2 329:1 330:1 331:1 332:1 333:1 334:1 335:1 336:1 337:1 338:1 339:1 340:1 341:1 342:1 343:1 344:1 345:1 346:1 347:1 348:1 349:1 350:1 351:1 352:1 353:1 354:1 355:1 356:1 357:1 358:1 359:1 360:1 361:2 362:1 363:1 364:1 365:2 366:2 367:1 368:1 369:1 370:1 371:1 372:2 373:1 374:1 375:1 376:1 377:1 378:1 379:1 380:1 381:1 382:1 383:1 384:1 385:1 386:1 387:1 388:1 389:1 390:1 391:1 392:1 393:1 394:1 395:1 396:1 397:1 398:1 399:1 400:1 401:1 402:1 403:1 404:1 405:1 406:1 407:1 408:1 #
-0.00050205129360817194947297359419736 2:1 33:1 39:1 40:1 41:1 43:1 63:1 110:1 115:1 130:1 131:1 146:1 165:1 172:1 181:1 214:1 265:1 291:1 303:1 313:1 314:1 420:1 429:1 502:1 542:1 553:1 572:1 591:1 620:1 624:1 703:1 715:1 717:1 845:1 860:1 866:1 872:1 883:1 945:1 955:1 957:1 996:1 1018:1 1137:1 1182:1 1222:1 1253:1 1254:1 1265:1 1290:1 1325:1 1335:1 1345:1 1378:1 1428:1 1463:1 1483:1 1505:1 1556:1 1560:1 1580:1 1615:1 1616:1 1667:1 1725:1 1727:1 1733:1 1767:1 1783:1 1829:1 1843:1 1844:1 1884:1 1897:1 1987:1 2006:1 2015:1 2016:1 2031:1 2070:1 2159:1 2220:1 2254:1 2292:1 2312:1 2331:1 2342:1 2349:1 2355:1 2373:1 2416:1 2447:1 2448:1 2461:1 2483:1 2486:1 2550:1 2595:1 2632:1 2674:1 2702:1 2804:1 2810:1 2863:1 2876:1 2915:1 2991:1 3060:1 3113:1 3218:1 3247:1 3352:1 3361:1 3400:1 3422:1 3471:1 3612:1 3619:1 3645:1 3758:1 3829:1 3878:1 3926:1 3983:1 3993:1 4015:1 4044:1 4157:1 4190:1 4254:1 4282:1 4388:1 4399:1 4670:1 4691:1 4893:1 5003:1 5042:1 5044:1 5203:1 5295:1 5535:1 5554:1 5618:2 5631:1 5663:1 5770:1 5792:1 5798:1 5971:1 6106:1 6639:1 6640:1 6713:1 6726:1 6744:1 6750:1 6988:1 6992:1 7012:1 7018:1 7071:1 7072:1 7168:1 7268:1 #
-1.7130205634490189628687389911121e-05 9:1 10:1 11:1 12:1 75:1 89:1 90:1 116:1 123:1 149:1 169:1 174:1 202:1 249:1 290:1 301:1 302:1 303:1 323:1 339:1 397:1 414:1 467:1 499:1 515:1 571:1 589:1 595:1 620:1 621:1 622:1 645:1 647:1 736:1 775:1 839:1 847:1 890:1 893:1 907:1 930:1 996:1 1000:1 1002:1 1018:1 1048:1 1082:1 1087:1 1111:1 1112:1 1123:1 1129:1 1142:1 1189:1 1193:1 1210:1 1211:1 1222:1 1243:2 1291:1 1344:1 1417:1 1452:1 1464:1 1472:1 1496:1 1561:1 1579:1 1696:1 1719:1 1740:1 1801:1 1869:1 1871:1 1912:1 1938:1 1971:1 2089:1 2120:1 2123:1 2124:1 2133:1 2303:1 2319:1 2337:1 2347:1 2450:1 2479:1 2549:1 2593:1 2634:1 2656:1 2692:1 2786:1 2808:1 2855:1 2897:1 2917:1 2960:1 3120:1 3173:1 3239:1 3250:1 3252:1 3325:1 3370:1 3381:1 3398:1 3486:1 3490:1 3491:1 3559:1 3561:1 3607:1 3653:1 3666:1 3699:1 3718:1 4058:1 4109:1 4119:1 4120:1 4181:1 4227:1 4249:1 4259:1 4485:1 4504:1 4536:1 4723:1 4800:1 4848:1 4851:1 4899:1 4915:1 4969:1 5243:1 5311:1 5365:1 5469:1 5485:1 5650:1 5888:1 5961:1 5983:1 5993:1 6315:1 6458:1 6687:1 #
0.00028812555940742052944247841850256 15:1 19:1 48:1 63:1 75:1 103:1 104:1 123:1 124:1 172:1 218:1 226:1 236:1 261:1 262:1 263:1 280:1 281:1 298:1 302:1 307:1 323:1 344:1 364:1 387:1 395:1 396:1 413:1 466:1 477:1 501:1 526:1 572:1 573:1 576:1 577:1 587:1 588:1 622:1 638:1 699:1 706:1 754:1 785:1 841:1 861:1 882:2 892:1 917:1 978:1 984:1 1013:1 1020:1 1026:1 1058:1 1092:1 1142:1 1230:1 1281:1 1317:1 1345:1 1360:1 1399:2 1417:1 1422:1 1428:1 1434:2 1495:1 1511:1 1517:1 1596:1 1597:1 1634:1 1723:1 1735:1 1764:1 1776:1 1794:1 1830:1 1839:1 1844:1 1858:1 1922:1 1929:1 1958:1 2044:1 2134:1 2138:1 2295:1 2346:1 2378:1 2471:1 2489:1 2518:1 2525:1 2553:1 2554:1 2555:1 2605:1 2762:1 2911:1 2919:1 2924:1 2965:1 2994:1 3016:1 3018:1 3028:1 3051:1 3082:1 3089:1 3096:1 3119:1 3159:1 3241:1 3244:1 3273:1 3278:1 3331:1 3361:1 3383:1 3397:1 3415:1 3433:1 3435:1 3490:1 3493:1 3494:1 3495:1 3496:1 3497:1 3498:1 3499:1 3500:2 3501:1 3502:1 3503:1 3504:1 3505:1 3506:1 3507:1 3508:1 3509:1 3510:1 3511:1 3512:1 3513:1 3514:1 3515:1 3516:1 3517:1 3518:1 3519:1 3520:1 3521:1 3522:1 3523:1 3524:1 3525:1 3526:1 3527:1 3528:1 #
0.0027497075555910069008525020706202 6:1 8:1 9:1 10:1 33:1 36:1 44:1 63:1 90:1 91:2 92:1 97:1 123:1 210:1 211:1 257:1 258:1 270:1 302:1 321:1 323:1 335:1 360:1 393:1 401:1 422:1 427:1 436:1 477:1 484:1 495:1 511:1 529:1 534:1 588:1 592:1 605:1 606:1 623:1 624:1 643:1 758:1 762:1 779:1 782:1 789:1 821:1 828:1 846:1 853:1 858:1 892:1 894:1 934:1 987:1 1004:1 1022:1 1032:2 1085:1 1095:1 1201:1 1273:1 1283:1 1387:1 1432:1 1476:1 1491:1 1499:1 1500:2 1513:1 1529:1 1533:1 1547:1 1550:2 1551:1 1562:1 1615:1 1634:1 1659:1 1678:1 1727:1 1787:1 1788:1 1804:1 1809:1 1815:1 1844:1 1853:1 1869:1 1872:1 1903:1 2010:1 2032:1 2042:1 2045:1 2052:1 2064:1 2123:1 2164:1 2189:1 2206:1 2268:1 2358:1 2422:1 2439:1 2440:1 2487:1 2490:1 2600:1 2602:1 2648:1 2783:1 2837:1 2858:1 2907:1 2912:1 2952:1 2994:1 3094:1 3115:1 3161:1 3230:2 3235:1 3371:1 3429:1 3519:1 3531:1 3561:1 3595:1 3601:1 3602:1 3653:1 3665:1 3668:1 3735:1 3761:1 3852:1 3853:1 3867:1 3963:1 3979:1 4022:1 4255:1 4373:1 4417:1 4551:1 4563:1 4577:1 4618:1 4744:1 4814:1 4955:1 5397:1 5441:1 5664:1 6115:1 6559:1 6970:1 6987:1 #
0.0033440057782544766427912374950893 9:1 10:1 11:1 26:1 34:2 88:1 89:1 90:1 97:1 115:1 172:1 193:1 194:1 236:1 263:1 322:1 323:1 327:1 342:1 361:1 378:1 385:1 417:1 418:1 427:1 533:1 605:1 638:2 743:1 761:1 777:1 779:1 780:1 875:1 879:1 968:1 1023:1 1085:1 1120:1 1154:1 1155:1 1188:1 1262:1 1340:1 1342:1 1352:1 1374:1 1387:1 1494:1 1495:1 1500:1 1503:1 1531:1 1547:1 1621:1 1679:1 1700:1 1713:1 1764:1 1869:1 1885:1 1933:1 1978:1 2060:1 2123:1 2203:1 2245:1 2268:1 2337:1 2354:1 2358:1 2359:1 2370:1 2527:1 2553:1 2586:1 2587:1 2616:1 2621:1 2625:1 2647:1 2691:1 2695:1 2718:1 2725:1 2760:1 2793:1 2862:1 2888:1 2948:1 2997:1 3000:1 3051:1 3113:1 3283:1 3358:1 3475:1 3481:1 3499:1 3500:1 3501:1 3502:1 3593:1 3626:1 3632:1 3668:1 3711:1 3736:1 3820:1 3821:1 3848:1 3852:1 3853:1 3856:1 3860:1 3861:1 3884:1 3902:1 3914:1 3948:1 3983:1 4062:1 4064:1 4065:1 4066:1 4067:1 4068:1 4069:1 4070:1 4071:1 4072:1 4587:1 5066:1 5128:1 5369:1 5381:1 5800:1 5958:1 5975:1 6185:1 6525:1 6654:1 6655:1 6656:1 6657:1 6658:1 6659:1 6660:1 #
0.00058846128217750139251240870663651 16:1 18:1 26:1 75:1 87:1 123:1 124:1 125:1 146:1 172:1 195:1 210:1 236:1 263:1 270:1 274:1 290:1 293:1 313:1 323:1 335:1 343:1 364:1 365:1 380:1 409:1 415:1 436:1 442:1 455:1 468:1 477:1 523:1 537:1 587:1 588:1 592:1 606:1 626:1 780:1 802:1 804:1 814:1 843:1 862:1 878:1 895:1 927:1 931:1 969:1 976:1 991:1 1039:1 1080:1 1081:1 1092:1 1156:1 1217:2 1218:1 1230:1 1268:1 1311:1 1345:1 1387:1 1406:1 1409:1 1436:1 1491:1 1514:1 1528:1 1541:1 1551:1 1560:1 1604:1 1705:1 1723:1 1727:1 1759:1 1779:1 1780:1 1807:1 1809:1 1835:1 1853:1 1875:1 1921:1 1959:1 1961:1 1962:1 1964:1 1976:1 2026:1 2029:1 2094:1 2109:1 2114:1 2115:1 2120:1 2164:1 2168:1 2202:1 2254:1 2335:1 2346:1 2357:1 2389:1 2431:1 2445:1 2450:1 2461:1 2471:1 2499:1 2536:1 2542:1 2577:1 2619:1 2647:1 2661:1 2727:1 2837:1 2845:1 2917:1 2936:1 2938:1 2983:1 3039:1 3079:1 3088:1 3131:1 3140:1 3149:1 3166:1 3185:1 3273:1 3274:1 3403:1 3433:1 3439:1 3470:1 3483:1 3499:1 3500:1 3501:1 3502:1 3596:1 3605:1 3650:1 3651:1 3652:1 3653:1 3654:1 3655:1 3656:1 3657:1 3658:1 3659:1 3660:1 3661:1 3662:1 3663:1 3664:1 3665:1 3666:1 3667:1 3668:1 3669:1 3670:1 3671:1 3672:1 3673:1 3674:1 3675:1 3676:1 3677:1 3678:1 3679:1 3680:1 3681:1 3682:1 3683:1 3684:1 3685:1 3686:1 3687:1 3688:1 3689:1 3690:1 3691:1 3692:1 3693:1 3694:1 3695:1 3696:1 3697:1 3698:1 #
0.0027118819004344580855803137353632 3:1 26:1 34:1 41:1 65:1 70:1 77:1 123:1 174:1 175:1 184:1 196:1 197:2 236:1 244:1 245:1 250:1 263:1 279:1 359:1 588:1 647:1 691:1 729:1 755:1 756:1 784:1 788:1 789:1 861:1 864:1 929:1 1026:1 1181:1 1205:1 1246:1 1335:1 1341:1 1348:1 1375:1 1384:1 1385:1 1433:1 1435:1 1449:1 1450:1 1483:1 1498:1 1505:1 1547:1 1596:1 1597:1 1599:1 1623:1 1691:1 1700:1 1720:1 1768:1 1790:1 1805:1 1817:1 1873:1 1913:1 1977:1 1991:1 1994:1 2001:2 2111:1 2117:1 2167:1 2171:1 2176:1 2211:1 2255:1 2325:1 2337:1 2341:1 2342:1 2343:1 2358:1 2458:1 2470:1 2537:1 2588:1 2658:1 2728:1 2740:1 2803:1 2832:1 2862:1 2931:1 2948:1 2980:1 2987:1 3070:1 3115:1 3135:1 3139:1 3147:1 3176:1 3225:1 3259:1 3319:1 3320:1 3499:1 3500:2 3501:1 3502:1 3524:1 3597:1 3603:1 3605:1 3631:1 3635:1 3636:1 3640:1 3662:1 3668:1 3695:1 3721:1 3722:1 3735:1 3839:1 3840:1 3844:1 3867:1 3872:1 3890:1 3891:1 3972:1 4000:1 4018:1 4132:1 4164:1 4233:1 4258:1 4587:1 4853:1 5034:1 5274:1 5446:1 5507:1 5533:1 5569:1 5629:1 5783:1 5926:1 5989:1 5990:1 5991:1 5992:1 5993:1 #
-0.0016869858208601298723422479142187 26:1 42:1 65:1 68:1 69:1 85:1 87:1 88:1 90:1 91:1 123:1 124:1 172:1 173:1 187:2 194:1 210:1 219:1 249:1 263:1 320:1 323:1 335:1 381:1 408:1 416:1 420:1 429:1 433:1 469:1 477:1 527:1 545:1 553:1 571:1 572:1 581:1 588:1 592:1 595:1 606:1 613:1 623:1 672:1 734:1 766:1 780:1 794:2 812:1 827:1 831:1 846:1 847:1 865:1 882:1 920:1 944:1 969:1 999:1 1032:1 1040:1 1077:1 1085:1 1092:1 1099:2 1146:1 1212:1 1227:1 1231:1 1248:1 1253:1 1276:1 1340:1 1384:1 1401:1 1437:1 1496:1 1525:1 1526:1 1551:1 1568:1 1599:1 1722:1 1728:1 1749:1 1770:1 1885:1 2009:1 2010:1 2087:1 2192:1 2216:1 2224:1 2254:1 2268:1 2310:1 2417:1 2464:1 2474:1 2511:1 2548:1 2549:1 2576:1 2593:1 2604:1 2610:1 2621:1 2643:1 2656:1 2678:2 2687:1 2719:1 2778:1 2779:1 2852:1 2904:1 2926:1 3133:1 3139:1 3164:1 3248:1 3252:1 3299:1 3335:1 3346:1 3356:1 3401:1 3402:1 3406:1 3516:1 3645:1 3651:1 3665:1 3690:1 3735:1 3795:1 3812:1 3836:1 3848:1 3863:1 3867:1 3957:1 4192:1 4209:1 4233:1 4282:1 4367:1 4434:1 4450:1 4485:1 4513:1 4629:1 4775:1 5009:1 5035:1 5256:1 5258:1 5268:1 5530:1 5625:1 5686:1 5874:1 5876:1 5992:1 6017:1 6037:1 6045:1 6523:1 6636:1 6653:1 6779:1 6787:1 6926:1 7035:1 7523:1 7668:1 #
-0.00052220679380449348556264554943596 9:1 10:1 11:1 23:1 33:1 36:1 38:1 45:1 46:1 47:1 53:1 54:1 83:2 87:1 90:1 150:1 190:1 191:1 200:1 244:1 245:1 273:1 323:1 343:1 386:1 400:1 415:1 429:1 439:1 453:1 478:1 517:2 535:1 536:2 618:1 645:1 659:1 689:1 730:1 731:1 751:1 828:1 845:1 847:1 879:1 880:1 994:1 995:1 1079:1 1200:1 1217:1 1303:1 1314:1 1332:1 1347:1 1352:2 1361:1 1388:1 1440:1 1476:1 1501:1 1559:1 1560:1 1585:1 1601:1 1651:1 1673:1 1674:1 1723:1 1727:1 1760:1 1770:1 1851:1 1883:1 1885:1 1890:1 1896:1 1902:1 1950:1 1951:1 1954:1 2032:1 2089:1 2093:1 2153:1 2239:1 2287:1 2353:1 2376:1 2394:1 2475:1 2481:1 2518:1 2519:1 2573:1 2587:1 2684:1 2698:1 2706:1 2715:1 2760:1 2783:1 2837:1 2849:1 2896:1 2939:1 2961:1 2977:1 2993:1 3004:1 3034:1 3101:1 3105:1 3200:1 3253:1 3344:1 3379:1 3402:1 3409:1 3473:1 3513:1 3660:1 3707:2 3848:1 3949:1 3950:1 4066:1 4124:1 4134:1 4142:1 4152:1 4165:1 4312:1 4448:1 4636:1 4667:1 4676:1 4699:1 4945:1 4980:1 5186:1 5195:1 5222:1 5499:1 5622:1 5625:1 5658:1 5686:1 6161:1 6859:1 7120:1 7439:1 #
-0.0008863231879878596041963390028684 19:1 25:1 26:1 40:1 43:1 45:1 58:1 121:1 122:1 123:1 124:1 129:1 172:1 210:1 220:1 224:1 236:1 237:1 246:1 266:1 279:1 284:1 290:1 311:1 321:1 413:1 430:1 439:1 448:1 457:1 511:1 534:1 556:1 558:1 573:1 589:1 590:1 638:1 647:1 658:1 691:1 740:1 756:1 764:1 773:1 775:1 792:1 815:1 831:1 854:1 878:1 894:1 895:1 897:1 899:1 908:1 942:1 945:1 979:1 1007:1 1026:1 1039:1 1054:1 1056:1 1058:1 1079:1 1086:1 1100:1 1112:1 1119:1 1124:1 1189:1 1265:1 1309:1 1325:1 1357:1 1359:1 1363:1 1370:1 1394:1 1398:1 1432:1 1434:2 1436:2 1476:1 1491:1 1528:1 1547:1 1573:1 1589:1 1672:1 1673:1 1675:1 1677:1 1687:1 1690:1 1697:1 1727:1 1809:1 1818:1 1856:1 1857:1 1858:1 1859:1 1870:1 1946:1 1959:1 1965:1 1998:1 2009:1 2010:1 2017:1 2018:1 2094:1 2107:1 2134:1 2142:1 2174:1 2186:1 2229:1 2230:1 2247:1 2258:1 2295:1 2304:1 2317:1 2336:1 2364:1 2395:1 2405:1 2420:1 2477:1 2489:1 2504:1 2556:1 2589:1 2592:1 2618:1 2630:1 2652:1 2656:1 2665:2 2673:1 2695:1 2702:1 2740:1 2751:1 2774:1 2834:1 2856:1 2869:1 2889:1 2908:1 2917:1 2952:1 2961:1 2970:1 3003:1 3009:1 3011:1 3016:1 3034:1 3144:1 3149:1 3169:1 3233:1 3239:1 3244:1 3278:1 3284:1 3330:1 3337:1 3388:1 3434:1 3498:1 3589:1 3640:1 3686:1 3701:1 3736:1 3750:1 3784:1 3803:1 3804:1 3809:1 3863:1 3869:1 3872:1 3893:1 3918:1 3925:1 3931:1 3946:1 3977:1 4108:1 4132:1 4133:1 4167:1 4214:1 4223:1 4265:1 4312:1 4345:1 4362:1 4437:1 4572:1 4606:1 4607:1 4662:1 4678:1 4929:1 4931:1 5010:1 5049:1 5068:1 5154:1 5174:1 5215:1 5223:1 5261:1 5347:1 5403:1 5697:1 5723:1 5728:1 5806:1 5807:1 5812:1 5877:1 6052:1 6183:1 6194:1 6375:1 6523:1 6600:1 6697:1 6756:1 6822:1 6953:1 7105:1 7136:1 7208:1 7443:1 7444:1 #
-0.00038684468825417306619279811386036 13:1 22:1 45:1 59:1 69:1 81:2 108:1 109:1 123:1 124:1 147:1 149:1 172:1 223:1 233:1 259:1 360:1 379:1 380:1 439:1 470:1 480:1 561:1 564:1 573:1 587:1 588:1 609:1 623:1 638:1 658:1 691:1 747:1 749:2 773:1 809:1 840:1 858:1 864:1 895:1 908:1 945:1 949:1 951:1 957:1 974:1 976:1 1018:1 1020:1 1084:1 1094:1 1183:1 1206:1 1209:1 1217:1 1218:1 1248:1 1313:1 1325:1 1361:2 1370:1 1371:1 1385:1 1411:1 1419:1 1461:1 1476:1 1528:1 1560:1 1600:1 1634:1 1635:1 1671:1 1727:1 1805:1 1857:1 1859:1 1879:1 1885:1 1892:1 1900:1 1915:1 1941:1 1961:1 1984:1 2017:1 2018:1 2026:1 2028:1 2033:1 2105:1 2108:1 2155:1 2164:1 2208:1 2209:1 2215:1 2246:1 2285:1 2330:1 2331:2 2358:1 2362:1 2405:1 2448:1 2454:1 2490:1 2530:1 2536:1 2555:1 2610:1 2620:1 2639:1 2640:1 2665:1 2683:1 2694:1 3016:1 3034:1 3052:1 3061:1 3070:1 3087:1 3113:1 3127:1 3149:1 3173:1 3232:1 3247:1 3289:1 3345:1 3498:1 3587:1 3600:1 3615:1 3630:1 3648:1 3649:1 3650:1 3665:1 3729:1 3735:1 3812:1 3867:1 3925:1 3933:1 3966:1 4025:1 4044:1 4090:1 4106:1 4133:1 4167:1 4246:1 4247:1 4258:1 4274:1 4319:1 4333:1 4434:1 4439:1 4441:1 4445:1 4446:1 4447:1 4450:1 4456:1 4553:1 4567:1 4636:1 4667:1 4714:1 4734:1 4764:1 4870:2 4873:1 4931:1 5006:1 5050:1 5056:1 5083:1 5215:1 5254:1 5295:1 5444:1 5457:1 5468:2 5601:1 5640:1 5683:1 5739:1 5794:1 5808:1 5968:1 6579:1 6640:1 6665:1 6743:1 6749:1 6754:1 6860:1 6922:1 6926:1 7058:1 7184:1 7502:1 7503:1 7513:1 #
-0.00056470350708970318536622512439749 6:1 7:1 8:1 9:1 10:1 18:1 45:1 48:1 73:1 90:1 91:1 119:1 150:1 154:1 157:1 172:1 173:1 202:1 210:1 250:1 288:1 302:1 346:1 377:1 387:1 388:1 389:1 396:1 413:1 431:1 439:1 471:1 492:1 493:1 532:1 555:1 606:1 607:1 623:1 626:1 678:1 693:1 694:1 707:1 714:1 740:1 801:1 802:1 831:1 857:2 858:2 878:1 887:1 894:1 970:1 996:1 1002:1 1014:1 1020:1 1039:1 1040:1 1079:1 1122:1 1202:1 1209:1 1212:1 1213:1 1219:1 1258:1 1291:1 1421:1 1435:1 1453:1 1501:1 1503:1 1512:1 1535:1 1541:1 1559:1 1561:1 1562:1 1578:1 1579:1 1581:1 1599:1 1698:1 1709:1 1771:1 1785:1 1794:1 1811:1 1824:1 1879:1 1880:1 1883:1 1955:1 1967:1 1971:1 2025:1 2026:1 2027:1 2052:1 2095:1 2125:1 2126:1 2156:1 2166:1 2302:1 2318:1 2347:1 2357:1 2451:1 2479:1 2490:1 2537:1 2604:1 2659:1 2702:1 2704:1 2843:1 2919:1 2934:1 3034:1 3223:1 3270:1 3306:1 3525:1 3589:1 3634:1 3717:1 3829:1 3835:1 3845:1 3853:1 3892:1 3991:1 4017:1 4021:1 4022:1 4024:1 4057:1 4152:1 4160:1 4171:1 4328:1 4480:1 4944:1 5031:1 5258:1 5326:1 5342:1 5345:1 5350:1 5381:1 5626:1 5842:1 5947:1 5986:1 6041:1 6177:1 6406:1 6804:1 7026:1 7057:1 #
0.00524985370367915885059240110877 9:1 10:1 34:1 35:1 36:1 63:1 69:1 76:1 88:1 89:1 90:2 91:1 115:1 124:1 138:1 160:1 172:2 173:1 174:1 238:1 245:1 258:2 265:1 304:1 323:1 332:1 360:1 384:1 385:1 411:1 420:1 424:1 425:1 438:1 478:1 505:1 532:1 573:1 605:1 606:1 618:1 619:1 645:1 659:1 686:1 691:1 698:1 711:1 728:1 762:1 827:1 829:2 830:1 831:1 845:1 892:1 933:1 935:1 971:1 990:1 998:1 1014:1 1100:1 1173:1 1178:1 1222:1 1301:1 1355:1 1380:1 1421:1 1424:1 1477:1 1534:1 1548:1 1549:1 1553:1 1596:1 1615:1 1691:1 1700:1 1727:1 1732:1 1742:1 1761:1 1779:1 1801:1 1809:1 1815:1 1870:1 1871:1 1899:1 1985:1 2050:1 2075:1 2094:1 2169:1 2194:1 2203:1 2276:1 2337:1 2363:1 2435:1 2479:1 2508:1 2515:1 2538:1 2553:1 2557:1 2575:1 2579:1 2605:1 2609:1 2656:1 2664:1 2702:1 2713:1 2714:1 2732:1 2820:1 2828:1 2837:1 2894:1 2897:1 2905:1 2924:1 2937:1 2948:1 2951:1 2959:1 3001:1 3090:1 3180:1 3211:1 3288:1 3454:1 3625:1 3626:1 3628:1 3629:1 3631:1 3658:1 3677:1 3702:1 3703:1 3710:1 3770:1 3771:1 3802:1 3842:1 3853:1 3868:1 3871:1 3884:1 3885:1 3886:1 3971:1 3972:1 3982:1 3990:1 4090:1 4100:1 4177:1 4189:1 4239:1 4284:1 4417:1 4439:1 4530:1 4536:1 4682:1 4718:1 4812:1 4904:1 4909:1 4979:1 5093:1 5172:1 5261:1 5299:1 5493:1 5533:1 5554:1 5579:1 5625:1 5686:1 5711:1 5764:1 5789:1 5834:1 5865:1 5975:1 5992:1 6033:1 6055:1 6106:1 6136:1 6296:1 6300:1 6329:1 6330:1 6331:2 6332:1 6333:1 6334:1 6335:1 6336:1 6337:1 #
0.0043516896014431814473932824682834 15:1 25:1 26:1 34:1 35:1 44:1 67:1 69:1 88:1 89:1 90:1 123:1 144:1 146:1 152:1 177:1 190:1 245:1 250:1 276:1 323:1 328:1 339:1 342:1 380:2 401:1 414:1 429:1 467:1 481:1 492:1 493:1 495:1 511:1 556:1 557:1 599:1 603:1 604:1 605:1 615:1 644:1 650:1 651:2 659:1 691:1 694:1 707:1 802:1 822:1 906:1 966:1 967:1 1018:1 1079:1 1175:1 1188:1 1189:1 1253:1 1305:1 1340:1 1355:1 1409:1 1423:1 1435:1 1436:1 1477:1 1502:1 1503:1 1599:1 1602:1 1609:1 1625:1 1633:1 1634:1 1635:1 1654:1 1655:1 1674:1 1727:2 1793:1 1795:1 1946:1 1950:1 1973:1 1989:1 1990:1 2101:1 2177:1 2211:1 2235:1 2316:1 2333:1 2337:1 2338:1 2346:1 2352:1 2406:1 2463:1 2489:1 2523:1 2552:1 2553:1 2629:1 2632:1 2672:1 2705:1 2776:1 2838:1 2862:1 2872:1 2896:1 2918:1 2924:1 2948:1 3021:1 3022:1 3053:1 3097:1 3098:1 3149:1 3178:1 3203:1 3240:1 3268:1 3332:1 3408:1 3475:1 3500:1 3532:1 3596:1 3597:1 3608:1 3628:1 3629:1 3630:1 3632:1 3673:1 3733:1 3736:1 3737:1 3766:1 3771:1 3817:1 3823:1 3826:1 3829:1 3853:1 3869:2 3870:1 3913:1 3915:1 3953:1 3954:1 3957:1 3968:1 4041:1 4124:1 4125:1 4126:1 4172:1 4193:1 4201:1 4206:1 4240:1 4241:1 4249:1 4342:1 4365:1 4417:1 4460:1 4569:1 4634:1 4747:1 4782:1 4825:1 4893:1 4904:1 4935:1 4963:1 5049:1 5111:1 5173:1 5197:1 5408:1 5435:1 5442:1 5593:1 5649:1 5760:1 5825:1 6035:1 6265:1 6319:1 6347:1 6473:1 6513:1 6546:1 6547:1 6548:1 6549:1 6550:1 6551:1 #
0.00524985370367915885059240110877 9:1 10:1 11:1 22:1 23:1 26:1 47:2 66:1 67:1 90:1 91:1 123:1 124:1 171:1 172:1 187:1 191:1 236:1 249:1 263:1 280:1 293:1 323:1 345:1 356:1 385:1 410:1 436:1 469:1 484:1 502:1 535:1 567:1 585:1 586:1 594:1 654:1 706:1 707:1 713:1 716:1 717:1 731:1 757:1 794:1 831:1 833:1 895:1 928:1 955:1 964:1 969:1 998:1 1001:1 1031:1 1040:1 1041:1 1046:1 1080:1 1126:1 1283:1 1361:1 1375:1 1387:1 1397:1 1455:1 1459:1 1483:1 1535:1 1547:1 1561:1 1600:2 1642:1 1655:1 1676:1 1705:1 1730:1 1762:1 1770:1 1837:1 1938:1 1953:1 2004:1 2009:1 2136:1 2172:1 2183:1 2303:1 2307:1 2329:1 2337:1 2358:1 2404:1 2414:1 2428:1 2443:1 2491:1 2493:1 2595:1 2604:1 2618:1 2625:1 2633:1 2639:1 2649:1 2702:1 2758:1 2783:1 2790:1 2791:1 2797:1 2843:1 2912:1 2913:1 2914:1 2917:1 2999:1 3086:1 3095:1 3115:1 3158:1 3172:1 3173:1 3206:1 3217:1 3241:1 3256:1 3317:1 3318:1 3436:1 3439:1 3490:1 3491:1 3499:1 3535:1 3569:1 3589:1 3632:1 3635:1 3652:1 3656:1 3665:1 3680:1 3749:1 3839:1 3840:1 3928:1 3948:1 4257:1 4260:1 4286:1 4287:1 4296:1 4307:1 4308:1 4344:1 4412:1 4516:1 4567:1 4637:1 4708:1 4740:1 4849:1 4898:1 5033:1 5174:1 5283:1 5370:1 5392:1 5408:1 5461:1 5678:1 5892:1 5898:1 5915:1 5945:1 5957:1 6092:1 6106:1 6212:1 6350:1 6464:1 6586:1 6724:1 6890:1 6911:1 6912:1 6913:1 6914:1 6915:1 #
0.0021629115228443051774376293394653 5:1 6:1 26:1 33:1 38:1 41:1 48:1 54:1 69:1 83:1 84:1 150:1 169:1 201:1 204:1 211:1 283:1 309:1 323:1 332:1 334:1 335:1 358:1 360:1 379:1 380:1 385:1 393:1 401:1 425:1 498:1 511:1 531:1 534:1 548:1 559:1 606:1 667:1 689:1 740:1 741:1 747:1 803:1 845:1 848:1 877:1 895:1 915:1 964:1 1036:1 1054:1 1089:1 1092:1 1098:1 1119:1 1121:1 1170:1 1179:1 1188:1 1216:1 1217:1 1280:1 1287:1 1311:1 1345:1 1380:1 1431:1 1436:1 1442:1 1454:1 1517:1 1518:1 1562:1 1576:1 1586:1 1729:1 1759:1 1815:1 1819:1 1828:1 1829:1 1903:1 1915:1 1941:1 1969:1 1994:1 2047:1 2081:1 2095:1 2096:1 2117:1 2168:1 2234:1 2269:1 2307:1 2338:1 2395:1 2396:1 2428:1 2450:1 2475:1 2496:1 2524:1 2531:1 2592:1 2648:1 2727:1 2780:1 2790:1 2915:1 2981:1 3008:1 3055:1 3105:1 3110:1 3116:1 3213:1 3218:1 3277:1 3298:1 3351:1 3381:1 3418:1 3464:1 3500:1 3501:1 3502:1 3602:1 3626:1 3640:1 3665:1 3666:1 3667:1 3670:1 3672:1 3710:1 3736:1 3754:1 3767:1 3871:1 3874:1 3923:1 4030:1 4057:1 4103:1 4139:1 4160:1 4170:1 4258:1 4286:1 4436:1 4474:1 4481:1 4484:1 4485:1 4486:1 4488:1 4495:1 4496:1 4497:1 4498:1 4537:1 4551:1 4555:1 4605:1 4802:1 4861:1 4915:1 5037:1 5314:1 5443:1 5507:1 5687:1 5855:1 6036:1 6395:1 6714:1 6715:1 6780:1 6872:1 #
0.0003605527316296617884247566188094 11:1 34:1 35:1 52:1 67:1 80:1 82:1 90:1 97:1 155:1 162:1 172:1 218:1 236:1 238:1 263:1 281:1 295:1 302:1 318:1 321:1 345:1 354:1 385:2 393:1 448:1 534:1 543:1 544:1 554:1 572:1 589:2 602:1 609:1 613:1 623:1 624:1 625:1 638:1 711:1 729:1 783:1 801:1 804:1 841:1 846:1 853:1 877:1 882:1 926:1 935:1 936:1 937:1 942:1 946:1 964:1 1004:1 1072:1 1105:1 1113:1 1120:1 1217:1 1316:1 1335:1 1339:1 1342:1 1357:1 1365:1 1385:1 1439:1 1483:1 1518:1 1551:1 1572:1 1591:1 1615:1 1690:1 1691:1 1696:1 1701:1 1730:1 1776:1 1778:1 1801:1 1826:1 1837:1 1838:1 1839:1 1844:1 1915:1 1961:1 1997:1 2005:1 2033:2 2034:1 2035:1 2043:1 2064:1 2118:1 2121:1 2125:1 2259:1 2344:1 2358:1 2378:1 2429:1 2435:1 2450:1 2502:1 2541:1 2550:1 2603:1 2605:1 2611:1 2709:1 2786:2 2907:1 2943:1 2968:1 2977:1 2986:1 2989:1 3105:1 3155:1 3218:1 3292:1 3328:1 3413:1 3428:1 3433:1 3467:1 3469:1 3470:1 3479:1 3485:1 3491:1 3499:1 3500:2 3501:1 3502:1 3524:1 3589:1 3651:1 3666:1 3667:1 3707:1 3718:1 3727:1 3757:1 3807:1 3808:1 3839:1 3840:1 3853:1 3863:1 3867:1 3869:1 3945:1 4032:1 4041:1 4072:1 4171:1 4204:1 4215:1 4306:1 4354:1 4382:1 4402:1 4403:1 4457:1 4637:1 4662:1 4674:2 4756:1 4792:1 4795:1 4825:1 4884:1 4933:1 5011:1 5012:1 5036:1 5081:1 5146:1 5162:1 5347:1 5352:1 5357:1 5358:1 5359:1 5360:1 5361:1 5362:1 5363:1 5365:1 5369:1 5370:1 5389:1 5456:1 5787:1 5962:1 6362:1 6513:1 6617:1 #
-0.0010896087569859259219784419769894 5:1 48:1 65:1 89:1 108:1 141:1 181:2 183:1 292:1 301:1 306:1 315:1 333:1 334:1 351:1 352:1 374:1 439:1 448:1 474:1 481:1 492:1 493:1 494:1 522:1 533:1 555:1 603:1 618:1 638:1 646:1 691:1 734:1 755:1 756:1 768:2 795:1 804:2 823:1 831:2 840:1 877:1 878:1 879:1 881:1 894:1 998:1 1010:1 1076:1 1198:1 1205:1 1219:1 1260:1 1266:1 1276:1 1317:1 1435:1 1512:1 1555:1 1556:1 1578:1 1579:1 1588:1 1709:1 1764:1 1775:1 1781:1 1844:1 1858:1 1971:1 1990:1 2084:1 2108:1 2111:1 2148:1 2222:1 2239:1 2266:1 2271:1 2301:1 2327:1 2362:1 2395:1 2398:1 2496:1 2497:1 2539:1 2552:1 2593:1 2594:1 2741:2 2766:1 2832:1 2843:1 2919:1 2982:1 2995:1 3034:1 3096:1 3153:1 3161:1 3339:1 3361:1 3370:1 3452:1 3637:1 3658:1 3698:1 3733:1 3748:1 3766:1 3771:1 3774:1 3825:1 3874:1 3886:1 4017:1 4137:1 4165:1 4271:1 4284:1 4380:1 4401:1 4419:1 4501:1 4518:1 4549:1 4562:1 4587:1 4669:1 4867:1 5049:1 5154:1 5243:1 5294:1 5456:1 5513:1 5531:1 5557:1 5565:1 5912:1 5985:1 5986:1 6036:1 6121:1 6357:1 6400:1 6449:1 6497:1 6530:1 6868:1 6982:1 6996:1 7347:1 7444:1 7751:1 7757:1 #
-0.00035191925469244981833014107586166 6:1 7:1 11:1 12:1 23:1 33:2 39:1 40:1 41:1 42:1 43:1 44:1 48:1 49:1 50:1 51:1 52:1 53:1 60:1 65:1 68:1 69:1 70:1 71:1 72:1 73:1 77:1 83:1 84:1 89:1 90:2 117:1 118:1 119:1 120:1 128:1 142:1 143:1 152:1 191:1 197:1 238:2 265:1 274:1 323:1 328:1 344:1 345:1 401:1 467:1 500:1 505:1 526:1 529:1 535:1 557:1 563:1 569:1 570:1 593:1 609:1 614:1 615:1 635:1 639:1 657:1 658:1 667:1 689:1 702:1 703:1 707:1 731:1 750:1 758:1 832:1 833:1 840:1 844:1 845:1 846:1 847:1 873:1 884:1 887:1 893:1 894:1 920:1 924:1 962:1 963:1 964:1 1042:1 1054:1 1055:1 1085:1 1123:1 1202:1 1242:1 1243:1 1244:1 1245:1 1246:1 1247:1 1253:1 1255:1 1256:2 1260:1 1261:1 1262:1 1263:1 1264:1 1267:1 1268:1 1269:1 1270:1 1271:1 1272:1 1273:1 1274:1 1275:1 1276:1 1278:1 1283:1 1284:1 1285:1 1286:1 1287:1 1290:1 1291:1 1295:1 1296:1 1338:1 1343:1 1550:1 1725:1 1896:1 2041:1 2052:1 2053:1 2054:1 2055:1 2056:1 2057:1 2058:1 2059:1 2060:1 2061:1 2062:1 2063:1 2064:1 #
-0.0011798362025659042337522031118624 9:1 10:1 17:1 26:1 33:1 42:1 58:1 63:1 64:1 65:1 69:1 70:1 87:1 88:1 89:2 90:1 97:1 123:1 124:1 147:1 172:1 187:1 201:1 237:1 249:1 313:1 323:1 343:1 358:1 359:1 401:1 420:1 477:1 484:1 490:1 506:1 509:1 519:1 545:1 585:1 588:1 595:1 606:1 663:1 686:1 691:1 719:1 734:1 746:1 794:1 865:1 1001:1 1009:1 1040:1 1051:1 1087:1 1092:1 1099:1 1116:1 1170:1 1178:1 1184:1 1199:1 1207:1 1231:1 1254:1 1346:1 1347:1 1348:1 1401:1 1437:1 1496:1 1536:1 1550:1 1600:1 1749:1 1851:1 1880:1 1885:1 1936:1 1948:1 2009:1 2032:1 2049:1 2072:1 2204:1 2212:1 2254:1 2268:1 2358:1 2417:1 2450:1 2464:1 2474:1 2548:1 2549:1 2559:1 2598:1 2604:1 2610:1 2614:1 2644:1 2656:1 2678:1 2692:1 2795:1 2804:1 2858:1 2874:1 2883:1 2904:1 2916:1 2952:1 2979:1 2984:1 3016:1 3019:1 3020:1 3046:1 3047:1 3099:1 3173:1 3218:1 3244:1 3248:1 3252:1 3335:1 3346:1 3349:1 3401:1 3402:1 3406:1 3665:1 3666:1 3667:1 3714:1 3735:1 3795:1 3814:1 3834:1 3836:1 3867:1 3957:1 3979:1 4023:1 4086:1 4227:1 4263:1 4266:1 4312:1 4411:1 4485:1 4629:1 4661:1 4800:1 4845:1 4853:1 5091:1 5256:1 5411:1 5459:1 5484:1 5676:1 5733:1 5747:1 5779:1 5812:1 5874:1 6517:1 6636:1 6653:1 6693:1 6697:1 6749:1 6879:1 7685:1 #
-0.0010358624984439404430325293304804 9:1 10:1 22:1 26:1 29:1 30:1 31:1 32:1 33:2 53:1 88:1 97:2 152:1 172:1 184:1 244:1 249:1 250:1 263:1 291:1 300:1 318:1 323:1 341:1 342:1 360:1 363:1 377:1 398:1 399:1 440:1 453:2 477:1 572:1 573:1 601:1 602:1 647:1 667:1 681:1 694:1 731:1 788:1 828:1 829:1 830:1 845:1 936:1 992:1 994:1 995:1 1092:1 1141:1 1222:1 1231:1 1277:1 1309:1 1341:1 1345:1 1346:1 1371:1 1387:1 1436:2 1452:2 1502:1 1520:1 1539:1 1540:1 1559:1 1599:2 1620:1 1706:1 1735:1 1766:1 1779:1 1853:1 1877:1 1885:1 1888:1 1893:1 1896:1 1952:1 2032:1 2058:1 2103:1 2143:1 2149:1 2254:1 2306:1 2450:1 2511:1 2518:1 2519:1 2524:1 2527:1 2549:1 2674:1 2692:1 2719:1 2792:1 2855:1 2869:1 2896:1 2960:1 3000:1 3055:1 3070:1 3115:1 3139:1 3205:1 3264:1 3285:1 3409:1 3411:1 3429:1 3519:1 3645:1 3666:1 3678:1 3869:1 3972:1 4049:1 4184:1 4227:1 4231:1 4241:1 4290:1 4451:1 4485:1 4646:1 4704:1 4719:1 4791:1 4800:1 4831:1 4948:1 5086:1 5146:1 5258:1 5408:1 5574:1 5622:1 5763:1 5888:1 6325:1 6478:1 6858:1 7216:1 #
-0.00060313564515945166429750079473138 9:1 10:1 13:1 26:1 33:1 34:1 37:1 41:2 42:1 43:1 44:1 45:1 49:1 63:1 69:1 87:1 89:1 90:1 136:1 171:1 172:1 186:1 187:1 191:2 192:1 196:1 197:2 217:1 238:1 249:1 250:1 293:1 361:1 384:1 385:1 388:1 389:1 390:1 402:1 412:1 457:1 479:1 480:2 520:1 532:1 535:1 559:1 564:1 571:1 597:1 602:1 627:1 706:1 721:1 746:1 747:1 765:1 802:1 803:1 804:1 851:1 862:1 892:1 914:2 921:1 937:1 955:1 979:1 1032:1 1059:1 1216:1 1231:1 1267:1 1297:1 1329:1 1330:1 1347:1 1363:1 1390:1 1391:1 1392:1 1393:1 1394:1 1395:1 1396:1 1397:1 1398:1 1399:1 1400:1 1401:1 1402:1 1403:1 1404:1 1405:2 1406:1 1407:1 1408:2 1409:1 1410:1 1411:1 1412:1 1413:1 1414:1 1415:1 1416:1 1417:1 1418:1 1419:1 1420:1 1421:1 1422:1 1423:1 1424:1 1425:1 1426:1 1427:1 1428:1 1429:1 1430:1 1431:1 1432:1 1433:1 1434:1 1435:1 1436:1 1437:1 1438:1 1439:1 1440:1 1441:1 1442:1 1443:1 1444:1 1445:1 1446:1 1447:1 1448:1 1449:1 1450:1 1451:1 1452:1 1453:1 1454:1 1455:1 1456:1 1457:1 1458:1 1459:1 1460:1 1461:1 #
0.0017183153649239749256871778726463 39:2 64:1 78:1 123:1 124:1 140:1 168:1 170:1 189:1 208:1 248:1 261:1 262:1 279:1 283:1 302:1 310:1 323:1 345:1 362:1 387:1 388:1 395:1 401:1 413:1 467:1 468:1 477:1 508:1 523:1 530:1 534:1 572:1 573:1 575:1 576:1 587:1 588:1 598:1 607:1 613:1 614:1 623:1 631:1 638:1 643:1 668:1 732:1 741:1 756:1 775:1 807:1 830:1 853:1 880:1 882:1 905:1 969:1 1032:1 1053:1 1058:1 1061:1 1091:1 1092:1 1094:1 1106:1 1195:1 1196:1 1265:1 1283:1 1352:1 1360:1 1361:1 1371:1 1402:1 1434:1 1439:1 1452:1 1466:1 1501:2 1550:1 1581:1 1583:1 1591:1 1592:1 1621:1 1762:1 1766:1 1776:1 1780:1 1811:1 1828:1 1835:1 1842:1 1844:1 1890:1 1902:1 1916:1 1955:1 2027:1 2028:1 2030:1 2086:1 2140:1 2147:2 2219:1 2221:1 2269:2 2316:1 2339:1 2356:1 2417:1 2442:1 2443:1 2459:1 2487:1 2505:1 2519:1 2562:1 2609:1 2618:1 2702:1 2719:1 2757:1 2768:1 2792:1 2811:1 2856:1 2870:1 2947:1 3018:1 3082:1 3127:1 3169:1 3246:1 3287:1 3291:1 3299:1 3322:1 3338:1 3410:1 3497:1 3498:1 3499:1 3500:2 3501:1 3502:1 3519:1 3524:1 3607:1 3665:1 3685:1 3695:1 3716:1 3735:1 3747:1 3750:1 3839:1 3840:1 3872:1 3933:1 4014:1 4044:1 4045:1 4140:1 4147:1 4152:1 4154:1 4163:1 4166:1 4206:1 4210:1 4283:1 4301:1 4302:1 4327:1 4344:1 4353:1 4375:1 4662:1 4694:1 4719:1 4808:1 4816:1 4923:1 5047:1 5181:1 5187:1 5188:1 5225:1 5329:1 5384:1 5426:1 5600:1 5662:1 5707:1 6133:1 6169:1 6277:1 6278:1 6279:1 6280:1 6281:1 6282:1 6283:1 #
8.051860965872377723200059573827e-05 13:1 17:1 56:1 75:1 105:1 106:1 115:1 116:1 125:2 126:1 145:1 153:1 167:1 172:1 184:1 194:1 220:1 236:1 261:1 262:1 263:1 265:1 280:1 290:1 298:1 322:1 323:1 378:1 387:1 401:1 415:1 449:1 461:1 462:1 468:1 477:1 495:1 521:1 524:1 534:1 553:1 572:1 573:1 587:1 588:1 638:1 755:1 768:1 842:1 856:1 883:1 888:2 942:1 980:1 987:1 1040:1 1053:1 1058:1 1090:1 1091:1 1114:1 1162:1 1175:1 1207:1 1254:1 1265:1 1301:1 1315:1 1371:1 1381:3 1386:1 1415:1 1430:1 1435:1 1437:1 1452:1 1457:1 1469:1 1501:1 1523:1 1524:1 1533:1 1633:1 1658:1 1660:1 1728:1 1749:1 1766:1 1815:1 1830:1 1897:1 1922:1 1929:1 1941:1 1959:1 1998:1 2002:1 2027:1 2028:1 2050:1 2131:1 2186:1 2187:1 2200:1 2261:1 2316:1 2447:2 2448:1 2553:1 2579:1 2597:1 2609:1 2614:1 2641:1 2703:1 2722:1 2735:1 2755:1 2906:1 2939:1 3028:1 3045:1 3060:1 3110:1 3173:1 3198:1 3228:1 3330:1 3331:1 3371:1 3410:1 3469:1 3498:1 3499:1 3500:1 3501:1 3502:2 3524:1 3525:1 3526:1 3550:1 3626:1 3631:1 3640:1 3646:1 3665:1 3708:1 3725:1 3748:1 3754:1 3777:1 3858:1 3919:1 3925:1 3963:1 3983:1 3990:1 4050:1 4052:1 4105:1 4131:1 4163:1 4164:1 4165:1 4259:1 4344:1 4417:1 4489:1 4563:1 4571:1 4698:1 4702:1 4719:1 4723:1 4743:1 4765:1 4815:1 4817:1 4918:1 4919:1 4952:1 5018:1 5045:2 5046:1 5057:1 5103:1 5154:1 5203:1 5259:1 5379:1 5498:1 5622:1 6170:2 6320:2 6380:1 6514:1 6566:1 6788:1 6789:1 6790:1 6791:1 6792:1 6793:1 #
0.0021894261272963665490576268268796 5:1 6:1 49:1 64:1 109:1 116:1 123:1 124:1 172:1 220:1 236:1 270:1 271:1 313:1 321:1 333:1 335:1 349:1 360:1 365:1 378:1 380:1 417:1 442:1 467:2 495:1 496:1 534:1 551:1 555:1 572:1 587:2 588:1 623:2 624:1 646:1 648:1 667:1 741:1 742:1 747:1 757:1 798:1 804:1 846:1 861:1 864:1 887:1 928:1 929:1 931:1 1039:1 1072:1 1094:1 1095:1 1124:1 1170:1 1182:1 1200:1 1217:1 1218:1 1311:1 1335:1 1339:1 1340:1 1371:2 1412:1 1450:1 1479:1 1483:1 1513:1 1520:1 1526:1 1536:1 1537:1 1559:1 1560:1 1564:1 1589:1 1596:1 1680:1 1728:1 1750:1 1759:1 1768:1 1815:1 1859:1 1879:1 1961:1 1999:1 2027:1 2094:1 2111:1 2166:1 2254:1 2349:1 2357:1 2373:1 2431:1 2442:1 2443:1 2450:1 2472:1 2476:1 2490:1 2553:1 2619:1 2695:1 2773:1 2891:1 2894:1 3053:1 3066:1 3109:1 3110:1 3131:1 3191:1 3218:1 3250:1 3388:1 3401:1 3501:1 3502:1 3566:1 3616:1 3618:1 3640:1 3665:1 3667:2 3694:1 3695:1 3835:1 3853:1 3867:1 4028:1 4041:1 4042:1 4043:1 4044:1 4045:1 4046:1 4047:2 4048:1 4052:1 4059:1 4060:1 4063:1 4075:1 4125:1 4170:1 4270:1 4321:1 4335:1 4336:1 4497:1 4511:1 4567:1 4601:1 4691:1 4731:1 4761:1 4765:1 4773:1 4775:1 4858:1 4925:1 5003:1 5427:1 5480:1 5838:1 5879:1 6085:1 6095:1 6129:1 6686:1 6687:1 #
0.00524985370367915885059240110877 6:1 8:1 13:1 33:1 36:1 44:1 63:1 87:1 88:1 89:1 90:2 91:2 92:1 97:1 108:1 210:3 257:1 258:1 302:1 321:1 323:1 335:1 360:1 393:1 401:1 422:1 427:1 436:1 484:1 495:1 511:1 529:1 534:1 549:1 588:1 605:1 606:1 621:1 623:1 624:1 643:1 758:1 762:1 779:1 782:1 789:1 821:1 846:1 853:1 858:1 866:1 934:1 1004:1 1022:1 1032:1 1085:1 1255:1 1271:1 1273:1 1283:1 1341:1 1359:1 1387:1 1415:1 1476:1 1491:1 1500:1 1513:1 1525:1 1529:1 1533:1 1541:1 1547:1 1550:2 1562:1 1600:1 1634:1 1659:1 1678:1 1727:1 1768:1 1787:1 1804:1 1809:1 1815:1 1844:1 1853:1 1869:1 1872:1 2042:1 2045:1 2052:1 2123:1 2155:1 2164:2 2189:1 2206:1 2268:1 2289:1 2358:1 2414:1 2422:1 2439:1 2440:1 2487:1 2490:1 2535:1 2595:1 2600:1 2602:1 2648:1 2755:1 2837:1 2907:1 2912:1 2913:1 2952:1 2994:1 3094:1 3115:1 3161:1 3235:1 3355:1 3371:1 3429:1 3452:1 3519:1 3595:1 3601:1 3602:1 3653:1 3665:1 3668:1 3735:1 3778:1 3852:1 3853:1 3867:1 3918:1 3979:1 4022:1 4160:1 4255:1 4373:1 4417:1 4551:1 4563:1 4577:1 4618:1 4855:1 4955:1 5419:1 5441:1 5664:1 6559:1 6807:1 6987:1 7022:1 #
-0.00015617525336018530431742012964946 29:1 33:1 48:1 53:1 89:1 90:1 120:1 139:1 160:1 175:1 176:1 185:1 263:1 323:1 358:2 372:1 380:1 387:1 401:2 446:1 487:1 496:1 504:1 508:1 523:1 524:1 525:1 542:1 563:1 573:2 586:1 590:1 694:1 697:1 802:1 868:1 885:1 910:1 919:1 933:1 956:1 966:1 967:1 1025:1 1026:1 1053:1 1069:1 1079:1 1098:1 1143:1 1163:1 1230:1 1314:1 1315:1 1340:1 1346:1 1361:1 1398:1 1409:1 1423:1 1434:1 1436:1 1452:1 1514:1 1533:1 1534:1 1633:1 1693:1 1776:1 1801:1 1831:1 1842:1 1850:1 1859:1 1869:1 1924:1 1930:1 1952:1 1991:1 2036:1 2041:1 2105:1 2132:1 2221:1 2241:1 2246:1 2292:1 2308:1 2511:1 2549:1 2551:1 2579:1 2662:1 2692:1 2772:1 2897:1 2965:1 2993:1 2996:1 3022:1 3028:1 3030:1 3040:1 3054:1 3072:1 3099:1 3147:1 3164:1 3199:1 3205:1 3248:1 3290:1 3416:1 3549:1 3851:1 3858:1 3873:1 3874:1 3946:1 4124:1 4125:1 4146:1 4215:1 4258:1 4267:1 4277:1 4430:1 4434:1 4485:1 4494:1 4643:1 4722:1 4723:1 4800:1 4831:1 4897:1 4915:1 4938:1 4977:1 5330:1 5583:1 5631:1 5663:1 5748:1 5805:1 5881:1 5888:1 5936:1 6063:1 6070:1 6095:1 6154:1 6187:1 6270:1 6332:1 6518:1 6735:1 6939:1 6944:1 6960:1 7081:1 7461:1 7521:1 7675:1 #
-0.0020610289671033283145917813783399 6:1 16:1 76:1 86:1 88:1 147:1 158:1 195:1 323:1 378:1 414:1 448:1 537:1 563:1 571:1 572:2 587:1 588:1 592:1 623:1 624:1 662:1 781:1 802:1 804:1 825:1 840:1 858:1 864:1 988:1 1021:1 1025:1 1026:1 1032:1 1053:1 1079:1 1098:1 1108:1 1164:1 1174:1 1184:1 1231:1 1345:1 1346:1 1347:1 1348:1 1359:1 1364:1 1399:1 1456:1 1483:1 1500:1 1533:1 1534:1 1551:1 1580:1 1588:1 1589:1 1597:1 1737:1 1779:1 1809:1 2032:1 2047:1 2091:1 2094:1 2224:1 2266:1 2268:1 2342:1 2347:1 2447:1 2470:1 2490:1 2523:1 2578:1 2596:1 2623:1 2648:2 2651:1 2657:1 2675:1 2699:1 2813:1 2827:1 2837:1 2849:1 2894:1 2924:1 2927:1 2938:1 2939:1 2990:1 3128:1 3185:1 3218:1 3257:1 3282:1 3308:1 3340:1 3341:1 3371:1 3392:1 3401:1 3404:1 3406:1 3412:1 3570:1 3583:1 3666:1 3693:1 3831:1 3863:1 3976:1 3995:1 4030:1 4214:1 4225:1 4296:1 4344:1 4564:1 4678:1 4765:1 4793:1 4830:1 4859:1 4925:1 5072:1 5235:1 5246:1 5270:1 5533:1 5622:1 5817:1 5826:1 5966:1 6294:1 6297:1 6364:1 6451:1 6529:1 6534:1 6716:1 6850:1 6992:1 7656:1 7667:1 #
-0.00036608836783492526133904076957037 5:1 24:1 33:1 34:1 48:1 69:1 73:1 77:1 89:1 90:2 91:1 102:1 119:1 172:1 173:1 238:2 373:1 430:1 495:1 532:1 571:1 599:1 614:1 624:1 625:1 683:1 709:1 734:1 783:1 801:1 811:1 899:1 940:1 982:1 1007:1 1018:1 1020:1 1039:2 1068:1 1083:1 1084:2 1085:1 1230:1 1243:1 1254:1 1347:1 1387:1 1410:1 1421:1 1422:1 1435:1 1439:1 1496:1 1497:1 1518:1 1530:1 1559:1 1561:1 1562:1 1597:1 1599:1 1680:1 1759:1 1786:1 1793:1 1826:1 1858:1 1878:1 1929:1 1955:1 2074:1 2154:1 2167:1 2168:1 2215:1 2234:1 2318:1 2352:1 2391:1 2422:1 2431:2 2478:1 2496:1 2593:1 2659:1 2693:1 2703:1 2721:1 2741:1 2742:1 2776:1 2792:1 2923:1 2938:1 2939:1 2987:1 3013:1 3054:1 3063:1 3135:1 3136:1 3175:1 3181:1 3209:1 3223:1 3304:1 3416:1 3480:1 3570:1 3623:1 3639:1 3702:1 3784:1 3852:1 3900:1 3922:1 3947:1 4081:1 4091:1 4097:1 4098:1 4260:1 4287:1 4343:1 4380:1 4405:1 4487:1 4522:1 4539:1 4553:1 4659:1 4811:1 4813:1 4880:1 4959:1 5077:1 5114:1 5176:1 5199:1 5278:1 5483:1 5585:1 5649:1 5881:1 5897:1 5991:1 6008:1 6165:1 6352:1 6850:1 6948:1 7050:1 7170:1 7307:1 7747:1 7748:1 #
-0.00028814187439936276213456323169737 4:1 5:1 39:1 108:1 127:1 520:1 559:1 572:1 573:1 591:1 611:1 612:1 613:1 622:1 623:1 624:1 625:1 643:1 688:1 692:1 693:1 708:1 735:1 742:1 757:1 772:1 831:1 845:1 846:1 853:1 860:1 866:1 903:1 935:1 956:1 978:1 1010:1 1021:1 1026:1 1034:1 1043:1 1056:1 1068:1 1069:1 1086:1 1119:1 1146:1 1170:1 1173:1 1182:1 1218:1 1245:1 1255:1 1266:1 1287:1 1308:1 1348:1 1417:1 1431:1 1434:1 1442:1 1457:1 1458:1 1483:1 1497:1 1519:1 1569:1 1570:1 1573:1 1601:1 1616:1 1632:1 1756:1 1759:1 1879:1 1935:1 1952:1 1964:1 1966:1 1987:1 2005:1 2080:1 2094:1 2111:1 2154:1 2159:1 2256:1 2294:1 2328:1 2331:1 2336:1 2337:1 2346:1 2347:1 2363:1 2426:1 2484:1 2502:1 2650:1 2671:1 2705:1 2730:1 2736:1 2850:1 2866:1 2872:1 2874:1 2888:1 2936:1 2946:1 3017:1 3050:1 3099:1 3159:1 3187:1 3218:1 3221:1 3243:1 3398:1 3412:1 3460:1 3568:1 3603:1 3635:1 3654:1 3803:1 3871:1 3951:1 4122:1 4161:1 4172:1 4256:1 4286:1 4324:1 4339:1 4386:1 4554:1 4584:1 4637:1 4666:1 4744:1 4851:1 4974:1 4987:1 5032:1 5161:1 5162:1 5172:1 5247:1 5260:1 5637:1 5695:1 5772:1 6232:1 6293:1 6596:1 6705:1 7140:1 7141:1 #
-0.00073057412154232980513318684856472 4:1 5:1 39:1 75:1 98:1 108:1 127:1 140:1 172:1 202:1 208:1 284:1 362:1 387:1 397:1 411:1 471:1 520:1 572:1 573:1 591:1 612:1 613:1 622:1 623:1 624:1 625:1 655:1 698:2 708:1 744:1 775:1 792:1 812:1 813:2 831:1 846:1 853:1 860:1 866:1 931:1 978:1 1010:1 1026:1 1034:1 1043:1 1057:1 1083:1 1116:1 1171:1 1173:1 1245:1 1266:1 1287:1 1294:1 1412:1 1417:1 1431:1 1434:1 1457:1 1483:1 1484:1 1493:1 1505:1 1519:1 1550:1 1569:1 1573:1 1577:1 1580:1 1616:1 1667:1 1677:1 1678:1 1679:1 1759:1 1902:1 1937:1 1948:1 1964:1 1970:1 1987:1 2059:1 2116:1 2139:1 2154:1 2294:1 2295:1 2316:1 2328:1 2337:1 2553:1 2671:1 2732:1 2788:1 2850:1 2866:1 2870:1 2872:1 2874:1 2888:1 2955:1 2958:1 3017:1 3033:1 3130:1 3138:1 3150:1 3159:1 3218:1 3221:1 3243:1 3398:1 3409:1 3460:1 3603:1 3611:1 3612:1 3654:1 3704:1 3706:1 3716:1 3803:1 4033:1 4122:1 4142:1 4161:1 4166:1 4171:1 4180:1 4286:1 4386:1 4443:1 4554:1 5028:1 5131:1 5158:1 5159:1 5160:1 5161:1 5162:1 5261:1 5269:1 5407:1 5618:1 5747:1 5865:1 5977:1 6232:1 6256:1 6282:1 6293:1 6680:1 6773:1 7140:1 7141:1 7173:1 #
-0.0018895757536124496798329852609299 26:1 33:1 34:1 42:1 65:1 69:1 70:1 87:1 88:1 90:1 91:1 116:1 122:1 123:1 124:1 172:1 173:1 210:1 249:1 278:1 313:1 323:1 359:1 388:1 408:1 416:1 484:1 491:1 524:1 571:3 572:1 585:1 606:1 613:1 657:1 734:1 780:1 813:1 846:1 865:1 997:1 999:1 1004:1 1005:1 1022:1 1040:1 1085:1 1118:1 1231:1 1340:1 1345:2 1346:1 1384:1 1400:1 1401:1 1437:1 1496:1 1525:1 1526:1 1549:1 1551:1 1600:1 1613:1 1614:1 1650:1 1651:1 1658:2 1661:1 1666:1 1728:1 1759:1 1790:1 1851:1 1885:1 1991:1 2016:1 2066:1 2072:1 2153:1 2192:1 2216:1 2254:1 2274:1 2338:2 2362:1 2385:1 2417:1 2450:1 2464:1 2511:1 2538:1 2548:1 2549:1 2610:1 2664:1 2691:1 2692:1 2720:1 2778:1 2820:1 2852:1 2887:1 2890:1 2904:1 2924:1 2926:1 3008:1 3016:1 3065:1 3173:1 3185:1 3235:1 3248:1 3252:1 3317:1 3318:1 3339:1 3346:1 3356:1 3402:1 3406:1 3471:1 3479:1 3518:1 3570:1 3595:1 3626:1 3627:1 3665:1 3666:1 3667:1 3714:1 3735:1 3769:1 3863:1 3867:1 3886:1 3957:1 3979:1 4023:1 4026:1 4053:1 4176:1 4192:1 4221:1 4376:1 4461:1 4485:1 4504:1 4664:1 4800:1 4851:1 4908:1 4974:1 5035:1 5037:1 5091:1 5195:1 5214:1 5256:1 5408:1 5483:1 5492:1 5530:1 5568:1 5726:1 5733:1 5978:1 6031:1 6169:1 6331:1 6409:1 6653:1 6693:1 6779:1 7005:1 7245:1 7304:1 #
0.00524985370367915885059240110877 4:1 9:1 10:1 13:1 40:1 97:1 101:1 111:1 123:1 147:1 172:1 177:1 188:1 194:1 195:1 226:1 281:1 291:1 302:1 307:1 308:1 318:1 323:1 347:1 361:1 370:1 375:1 395:1 401:1 410:1 430:1 455:1 496:1 512:1 532:1 534:1 571:1 572:1 583:1 588:1 619:1 623:1 654:1 667:1 714:1 731:1 775:1 779:1 784:1 795:1 830:1 831:2 929:1 936:1 950:1 1021:1 1022:1 1026:1 1107:1 1175:1 1254:1 1290:1 1332:1 1345:1 1346:1 1352:1 1417:1 1420:1 1434:1 1483:2 1486:1 1500:1 1538:1 1553:1 1599:1 1615:1 1723:1 1809:1 1843:1 1844:1 1852:1 1885:1 1892:1 1938:1 1994:1 2026:1 2050:1 2062:2 2108:1 2123:1 2133:1 2155:1 2174:1 2193:1 2259:1 2302:1 2377:1 2388:1 2414:1 2534:1 2555:1 2556:1 2579:1 2595:1 2643:1 2706:1 2708:1 2782:1 2837:1 2890:1 2984:1 2999:1 3000:1 3004:1 3089:1 3110:1 3124:1 3163:1 3204:1 3205:1 3244:1 3249:1 3299:1 3320:1 3338:1 3397:1 3471:1 3490:1 3514:1 3516:1 3558:1 3569:1 3597:1 3603:1 3615:1 3673:1 3710:1 3714:1 3718:1 3730:1 3731:1 3807:1 3863:1 3871:1 3931:1 4037:1 4256:1 4329:1 4431:1 4439:1 4600:1 4601:1 4620:1 4621:1 4644:1 4678:1 4815:1 4856:1 4951:1 4957:1 4984:1 5021:1 5074:1 5355:1 5554:1 5555:1 5556:1 5557:1 5558:1 #
0.0051476066953515349153280844518576 8:1 33:1 36:1 54:1 65:1 122:1 139:1 150:1 152:1 168:1 171:1 184:1 202:1 237:1 261:1 263:1 274:1 275:1 290:1 323:1 328:1 358:1 401:1 479:1 519:1 523:1 526:1 550:1 558:1 563:1 564:1 566:1 593:1 650:1 658:1 762:1 773:1 804:1 842:1 845:1 855:1 879:1 880:1 889:1 895:1 923:1 930:1 931:1 933:1 945:1 974:1 998:1 1004:1 1005:1 1009:1 1053:1 1056:1 1077:1 1085:1 1112:1 1171:1 1178:1 1218:1 1229:1 1247:1 1309:1 1316:1 1319:1 1357:1 1362:1 1370:1 1379:2 1380:1 1435:1 1436:1 1437:1 1464:1 1465:1 1476:1 1480:1 1524:1 1562:1 1576:1 1656:1 1672:1 1680:1 1788:1 1801:1 1815:2 1831:1 1836:1 1845:1 1866:1 1896:1 1904:1 1936:2 1978:1 2014:1 2019:1 2024:1 2030:1 2060:1 2088:1 2148:1 2159:1 2290:1 2328:2 2329:1 2332:1 2393:1 2406:1 2440:1 2450:1 2544:1 2553:1 2582:1 2634:1 2670:1 2786:1 2837:1 2841:1 2911:1 2935:1 2939:1 2970:1 3002:1 3050:1 3127:1 3197:1 3244:1 3331:1 3340:1 3361:1 3371:1 3372:1 3485:1 3500:1 3501:1 3502:1 3516:1 3579:1 3580:1 3600:1 3612:1 3628:1 3666:1 3667:1 3707:2 3821:1 3840:1 3852:1 3854:1 3863:1 4084:1 4105:1 4133:1 4262:1 4345:1 4367:1 4461:1 4473:1 4503:1 4536:1 4548:1 4612:1 4668:1 4669:1 4814:1 4871:1 4925:1 5037:1 5081:1 5146:1 5148:1 5247:1 5248:1 5287:1 5361:1 5419:1 5836:1 6345:1 6523:1 6700:1 6701:1 6702:1 6703:1 #
0.0020717740212803895279158883369064 33:2 34:1 90:1 91:1 101:1 111:1 146:1 147:1 172:1 191:1 215:1 236:1 251:1 263:1 275:1 276:1 296:1 318:1 321:1 323:1 328:1 354:1 361:1 373:1 380:2 387:1 389:1 472:1 524:1 534:2 561:1 568:1 573:1 588:1 593:1 606:1 619:1 623:1 647:1 667:1 680:1 699:1 734:1 773:1 777:1 790:1 791:1 804:1 925:1 929:1 949:1 950:1 976:1 1021:1 1026:1 1054:1 1055:1 1058:1 1080:1 1088:1 1089:1 1095:1 1133:1 1158:1 1165:1 1192:1 1248:1 1271:1 1362:1 1370:1 1387:1 1447:1 1509:1 1579:1 1599:1 1656:1 1665:1 1727:1 1735:1 1852:1 1853:1 1915:1 1968:1 1976:1 1977:1 2033:1 2045:1 2058:1 2109:1 2111:1 2125:1 2126:1 2140:1 2156:1 2164:1 2192:1 2211:1 2223:1 2310:1 2414:1 2422:1 2425:1 2451:1 2452:1 2461:1 2470:1 2476:1 2499:1 2533:1 2553:1 2595:1 2601:1 2692:1 2703:1 2732:1 2747:1 2855:1 2858:1 2859:1 2862:1 2906:1 2990:1 3017:1 3119:1 3147:1 3152:1 3160:1 3330:1 3390:1 3415:1 3416:1 3439:1 3475:1 3490:1 3491:2 3498:1 3499:1 3500:1 3509:1 3524:1 3583:1 3597:1 3600:1 3609:1 3807:1 3839:1 3840:1 3863:1 3870:1 3900:1 3924:1 3990:1 4037:1 4112:1 4133:1 4149:1 4152:1 4200:1 4214:1 4281:1 4369:1 4485:1 4788:1 4800:1 4933:1 4950:1 5021:1 5026:1 5053:1 5119:1 5189:1 5211:1 5274:1 5321:1 5360:1 5380:1 5471:1 5539:1 5603:1 5661:1 5673:1 5712:1 6344:1 6394:1 6417:1 6455:1 6459:1 6462:1 6463:1 #
0.0012846474805260782187793511255336 9:1 10:1 11:1 16:1 22:1 23:1 33:1 36:1 60:1 62:1 68:1 101:1 128:1 147:1 167:1 172:1 174:1 187:1 233:1 236:1 263:1 274:1 323:1 361:1 373:1 393:1 423:1 449:1 470:1 474:1 477:1 484:1 499:1 513:1 526:1 531:1 573:1 585:1 586:1 588:1 592:1 593:1 625:1 730:1 731:1 742:1 775:1 777:1 785:1 794:1 801:1 821:1 839:1 900:1 905:1 950:1 974:1 984:1 993:1 1004:1 1019:1 1043:1 1048:1 1058:1 1164:1 1181:1 1215:1 1231:1 1248:1 1305:1 1338:1 1347:1 1348:1 1450:1 1476:1 1482:1 1491:1 1537:1 1577:1 1596:1 1609:1 1610:1 1611:1 1658:1 1673:1 1750:1 1786:1 1805:1 1809:1 1818:1 1853:1 1866:1 1936:1 1991:2 2045:1 2061:1 2099:1 2100:1 2111:1 2139:1 2163:1 2291:1 2310:1 2328:1 2347:1 2478:1 2536:1 2541:1 2553:1 2573:1 2605:1 2620:1 2709:1 2795:1 2837:1 2948:1 3078:1 3317:1 3371:1 3492:1 3498:1 3499:1 3500:1 3501:1 3502:1 3538:1 3558:1 3579:1 3580:1 3594:1 3604:1 3607:1 3612:1 3635:1 3636:1 3640:1 3650:1 3651:1 3665:1 3690:1 3756:1 3831:1 3856:1 3863:1 3947:1 3963:1 3979:1 4060:1 4074:1 4161:1 4180:1 4248:1 4262:1 4373:1 4374:1 4486:1 4487:1 4510:1 4563:1 4578:1 4591:1 4863:1 4992:1 5319:1 5453:1 5538:1 5798:1 5984:1 6046:1 6173:1 6316:1 #
0.0036231620412217249022068799035878 9:1 10:1 39:1 77:1 89:1 90:2 91:1 172:1 184:1 236:1 249:1 250:1 263:1 270:1 271:1 323:1 348:1 349:1 350:1 354:1 359:1 379:1 395:1 431:1 445:1 503:1 516:1 541:1 558:1 588:1 623:1 660:1 677:1 691:2 712:1 768:1 784:1 788:1 789:1 800:1 806:1 828:1 857:1 858:1 864:1 905:1 923:1 929:1 958:1 973:1 987:1 1056:1 1068:1 1132:1 1182:1 1183:1 1232:1 1278:1 1335:1 1432:1 1435:2 1449:1 1462:1 1483:1 1504:2 1505:1 1531:1 1573:1 1599:1 1603:1 1615:1 1643:1 1720:1 1764:1 1766:1 1769:1 1788:1 1805:1 1807:1 1811:1 1836:1 1885:1 1977:1 2050:1 2115:1 2124:2 2171:1 2224:1 2249:1 2256:1 2302:1 2328:1 2342:1 2372:1 2400:1 2433:1 2490:1 2495:1 2517:1 2649:1 2682:1 2723:1 2741:1 2784:1 2794:1 2835:1 2898:1 2940:1 2941:1 2984:1 2987:1 3018:1 3079:1 3090:1 3108:1 3114:1 3134:1 3149:1 3180:1 3242:1 3262:1 3335:1 3337:1 3468:1 3475:1 3499:1 3500:1 3509:1 3532:1 3549:1 3567:1 3581:1 3605:1 3608:1 3631:1 3640:1 3673:1 3710:1 3714:1 3719:1 3742:1 3766:1 3803:1 3823:1 3880:1 3890:1 3898:1 3933:1 3934:1 3972:1 3986:1 4027:1 4106:1 4114:1 4115:1 4116:1 4118:1 4119:1 4120:1 4121:1 4129:1 4130:1 4131:1 4137:1 4165:1 4182:1 4244:1 4249:1 4270:1 4360:1 4378:1 4388:1 4446:1 4449:1 4501:1 4702:1 4716:1 4719:1 4720:1 4721:1 4722:1 4723:1 4724:1 4725:1 4726:1 4727:1 4728:1 4729:1 4730:1 4731:1 4732:1 4733:1 4734:1 4735:1 #
-0.0013040228268068432097848141637542 9:1 10:1 11:1 45:1 46:1 50:1 70:1 90:1 91:1 94:1 95:1 108:1 109:1 123:1 124:1 172:1 255:1 267:1 290:1 299:1 313:1 321:1 323:1 370:1 379:1 433:1 439:1 484:1 518:1 525:1 546:1 579:1 588:1 600:1 620:1 623:1 632:1 634:1 643:1 658:1 666:1 730:1 733:1 755:1 825:1 831:1 858:1 894:1 905:1 930:1 974:1 1021:1 1032:1 1054:1 1055:1 1058:1 1082:1 1131:1 1147:1 1199:1 1205:1 1220:1 1227:1 1254:1 1255:1 1266:1 1272:1 1324:1 1325:1 1351:1 1354:1 1355:1 1370:1 1371:1 1485:1 1521:1 1528:1 1535:1 1536:1 1556:1 1560:1 1608:1 1611:1 1618:1 1639:1 1674:1 1706:1 1766:1 1776:1 1805:1 1809:1 1884:1 1902:1 1934:1 1948:1 1955:1 2014:1 2017:1 2018:1 2028:1 2111:1 2189:1 2215:1 2255:1 2307:1 2328:1 2331:1 2357:1 2399:1 2408:1 2443:1 2490:1 2515:1 2516:1 2518:1 2553:1 2555:1 2559:1 2595:1 2618:1 2682:1 2690:1 2691:1 2789:1 2807:1 2820:1 2837:1 2847:1 2864:1 3034:1 3052:1 3087:1 3099:1 3113:1 3115:2 3125:1 3127:1 3149:1 3154:1 3194:1 3294:1 3295:1 3338:1 3345:1 3498:1 3583:1 3587:1 3588:1 3594:1 3601:1 3602:1 3619:1 3636:1 3640:1 3665:1 3730:1 3735:1 3736:1 3803:1 3898:1 3914:1 4044:1 4138:1 4146:1 4167:1 4169:1 4198:1 4267:1 4274:1 4282:1 4284:1 4311:1 4314:1 4318:1 4361:1 4447:1 4471:1 4645:1 4741:1 4749:1 4824:1 4865:1 4889:1 4931:1 4969:1 5088:1 5102:1 5253:1 5254:1 5318:1 5439:1 5487:1 5491:1 5566:1 5632:1 5789:1 5957:1 5968:1 6027:1 6184:1 6242:1 6256:1 6389:1 6401:1 6461:1 6752:1 6785:1 6907:1 7008:1 7184:1 7263:1 7327:1 7408:1 7538:1 7563:1 7564:1 #
-0.0017453418646846347375700680970567 1:1 10:1 79:1 80:1 119:1 152:1 216:1 244:1 271:1 293:2 354:1 363:1 373:1 375:1 408:1 410:1 413:1 439:1 471:1 472:1 534:1 545:1 553:1 554:1 571:1 572:1 588:1 625:1 638:1 643:1 647:1 667:1 670:1 714:1 729:1 740:1 746:1 765:1 768:1 865:1 897:1 899:1 914:1 920:1 943:1 946:1 967:1 985:1 986:2 1005:1 1015:1 1018:1 1021:1 1054:1 1055:1 1058:1 1078:1 1085:1 1091:1 1109:1 1113:1 1134:1 1140:1 1142:1 1253:1 1255:1 1266:1 1341:1 1342:1 1373:1 1387:1 1396:1 1427:1 1432:1 1514:1 1522:1 1528:1 1536:1 1540:1 1541:1 1601:1 1609:1 1631:1 1650:1 1652:1 1689:1 1690:1 1701:2 1717:1 1718:1 1744:1 1852:1 1853:1 1873:1 1884:1 1914:1 1934:1 1948:2 2064:1 2066:1 2103:1 2124:1 2182:1 2186:1 2259:1 2265:1 2306:1 2325:1 2333:1 2346:1 2348:1 2376:1 2420:1 2421:1 2422:1 2465:1 2470:1 2481:1 2489:1 2535:1 2542:1 2545:1 2588:1 2619:1 2638:1 2658:1 2660:1 2664:1 2742:1 2743:1 2748:1 2811:1 2832:1 2847:1 2913:1 2950:1 2951:1 2988:1 3002:1 3034:1 3053:1 3149:1 3152:1 3169:1 3204:1 3232:1 3242:2 3279:1 3323:1 3335:1 3390:1 3397:1 3402:1 3411:1 3483:1 3498:1 3500:1 3501:1 3502:1 3504:1 3505:1 3516:1 3587:1 3588:1 3600:1 3652:1 3779:1 3785:1 3839:1 3840:1 3873:1 3925:1 4112:1 4113:1 4141:1 4167:1 4171:1 4220:1 4330:1 4432:1 4555:1 4627:1 4699:1 4860:1 4874:1 4893:1 4930:1 4931:1 4963:1 4980:1 4981:1 4998:1 5075:1 5108:1 5124:1 5171:1 5230:1 5254:1 5363:1 5373:1 5612:1 5657:1 5663:1 5682:1 6002:1 6115:1 6454:1 6523:1 6626:1 6653:1 6697:1 7296:1 7420:1 #
-0.0011640883991360245503648984666256 10:1 14:1 30:1 36:1 53:1 54:1 64:1 87:1 88:1 90:1 109:1 122:1 123:1 204:1 323:1 336:1 358:1 359:1 388:1 389:1 401:1 414:1 556:1 570:1 619:1 667:2 668:1 673:1 705:1 729:1 731:1 786:1 879:1 928:1 929:1 943:1 992:1 1000:1 1018:1 1053:1 1085:1 1183:1 1244:1 1345:1 1346:2 1379:1 1407:1 1447:1 1452:1 1476:1 1491:1 1501:1 1504:1 1539:1 1540:1 1559:1 1560:1 1573:1 1633:1 1643:1 1701:1 1703:1 1709:1 1772:1 1815:1 1816:1 1834:1 1853:1 1867:1 1888:1 1902:1 1913:1 1935:1 1950:1 1955:1 2043:1 2058:1 2144:1 2155:1 2176:1 2207:1 2219:1 2271:1 2290:1 2304:1 2385:1 2425:1 2432:1 2450:1 2487:1 2523:1 2524:1 2533:1 2549:1 2583:1 2615:1 2650:1 2655:1 2666:1 2720:1 2809:1 2827:1 2837:1 2855:1 2887:1 2894:1 2907:1 2938:1 2939:1 3143:1 3150:1 3159:1 3225:1 3344:1 3381:1 3405:1 3664:1 3666:1 3746:1 3835:1 3875:1 4024:1 4121:1 4406:1 4514:1 4751:1 4752:1 4775:1 4848:1 4937:1 4945:1 4980:1 5022:1 5037:1 5123:1 5360:1 5497:1 5841:1 5888:1 5939:1 6146:1 6196:1 6297:1 6298:1 6446:1 6654:1 7268:1 #
-0.00058220748208360996109322904601413 9:1 10:1 18:1 48:3 69:1 73:1 74:1 89:1 90:1 91:1 147:1 148:2 149:2 171:1 172:1 183:1 202:1 261:1 270:1 292:1 293:1 300:1 301:1 318:1 333:1 347:1 351:1 352:1 377:1 378:1 471:1 479:1 493:1 504:1 533:1 536:1 552:1 559:1 567:1 592:1 612:1 622:1 623:1 626:1 627:1 632:1 694:1 706:1 713:1 718:1 734:1 736:1 743:1 754:1 776:1 777:1 790:1 791:1 801:1 831:1 858:1 864:1 892:1 912:1 922:1 923:1 935:1 965:1 983:2 991:1 1016:1 1054:1 1055:1 1062:1 1205:1 1258:1 1280:1 1314:1 1348:1 1371:1 1440:1 1459:2 1461:1 1484:1 1485:1 1504:1 1505:1 1513:1 1533:2 1559:1 1578:1 1579:1 1599:1 1618:1 1691:1 1714:1 1720:1 1748:1 1779:1 1794:1 1809:1 1814:1 1821:1 1828:1 1829:1 1836:1 1844:1 1861:1 1880:1 1896:1 1991:1 2045:1 2055:1 2123:1 2176:1 2254:1 2320:1 2330:1 2490:1 2496:1 2517:1 2585:1 2592:1 2606:1 2672:1 2714:1 2793:1 2875:1 2894:1 2897:1 2976:1 2982:1 2983:1 3050:1 3283:1 3431:1 3439:1 3532:1 3606:1 3725:1 3874:1 3931:1 4021:1 4032:1 4198:1 4233:1 4264:1 4403:1 4512:1 4985:1 5043:1 5146:1 5171:1 5350:1 5484:1 5711:1 5798:1 6075:1 6357:1 6510:1 6687:1 7451:1 7655:1 #
-0.00082760540933800156616906296136449 25:1 26:1 69:1 70:1 106:1 119:1 123:1 129:1 146:1 147:1 153:1 172:1 180:1 195:1 196:1 254:1 279:1 280:1 312:1 318:1 330:1 350:1 360:1 375:1 380:1 414:1 422:1 425:1 434:1 471:1 484:1 531:1 534:1 553:1 555:1 561:1 573:1 589:1 608:1 619:1 621:1 623:1 630:1 643:1 674:1 713:2 714:1 730:1 766:1 787:1 804:1 831:1 848:1 858:1 879:1 893:1 933:1 942:1 945:1 949:1 964:1 968:1 998:1 999:1 1001:1 1007:1 1014:1 1021:1 1037:1 1076:1 1185:1 1188:1 1189:1 1198:1 1234:1 1237:1 1246:1 1249:1 1254:1 1266:1 1291:1 1325:1 1329:1 1330:1 1340:1 1354:1 1373:1 1374:1 1375:1 1382:1 1412:1 1413:1 1430:1 1431:1 1435:1 1436:1 1461:1 1462:1 1478:1 1484:1 1500:1 1528:1 1535:1 1536:1 1540:1 1573:1 1598:1 1600:1 1671:1 1692:1 1718:1 1719:1 1779:1 1839:1 1843:1 1844:1 1853:1 1859:1 1907:1 1973:1 2037:1 2102:1 2117:1 2221:1 2254:1 2266:1 2276:1 2336:1 2345:1 2397:1 2416:1 2470:1 2490:2 2514:1 2575:1 2596:1 2643:1 2658:1 2683:1 2776:1 2860:1 2918:1 2938:1 2939:1 3003:1 3008:1 3040:1 3096:1 3115:1 3129:1 3143:1 3144:1 3149:1 3169:1 3193:1 3194:1 3246:1 3247:1 3250:1 3258:1 3345:1 3359:1 3390:1 3397:1 3405:1 3418:1 3434:1 3466:1 3483:1 3498:3 3511:1 3514:1 3516:1 3587:1 3661:1 3665:1 3742:1 3777:1 3811:1 3873:1 3880:1 3925:1 3967:1 3981:1 4029:1 4100:1 4127:1 4133:1 4161:1 4170:1 4265:1 4274:1 4276:1 4309:1 4357:1 4361:1 4382:1 4480:1 4520:1 4553:1 4564:1 4850:1 4857:1 4861:1 4931:1 5050:1 5446:1 5462:1 5540:1 5727:1 5789:1 5794:1 5916:1 5942:1 5957:1 6004:1 6216:1 6309:1 6519:1 6710:1 6826:1 7395:1 7399:1 7437:1 7480:1 7486:1 7487:1 7531:1 #
0.0049221698651316578287939762503811 10:1 13:1 15:1 47:1 48:2 64:1 128:1 170:1 172:2 187:1 216:1 247:1 280:1 283:1 322:1 323:1 340:1 367:1 473:1 477:1 488:1 510:1 542:1 572:1 573:1 587:1 591:1 604:1 614:1 618:1 639:1 647:1 669:1 689:1 693:1 705:1 782:1 794:1 831:1 839:1 848:1 874:1 927:1 964:1 977:1 978:1 1036:1 1058:1 1092:1 1172:1 1178:1 1190:1 1203:1 1217:1 1218:1 1230:1 1231:1 1280:1 1287:1 1292:1 1303:1 1305:1 1310:1 1326:1 1344:1 1395:1 1401:1 1450:1 1452:1 1469:1 1481:1 1522:1 1565:1 1581:1 1583:1 1591:1 1611:1 1633:1 1640:1 1642:1 1655:1 1658:1 1659:1 1665:2 1713:1 1767:1 1776:1 1805:1 1829:1 1836:1 1857:1 1859:1 1908:1 1922:1 1952:1 1955:1 1965:1 2008:1 2035:1 2048:1 2119:1 2153:1 2160:1 2201:1 2221:1 2234:1 2271:1 2307:1 2328:1 2345:1 2394:1 2414:1 2434:1 2437:1 2442:1 2443:1 2490:1 2496:1 2508:1 2534:1 2573:1 2579:1 2589:1 2595:1 2604:1 2650:1 2659:1 2693:1 2730:1 2774:1 2791:1 2806:1 2841:1 2944:1 3028:1 3030:1 3105:1 3107:1 3129:1 3258:1 3314:1 3377:1 3393:1 3443:1 3466:1 3498:1 3500:2 3509:1 3512:1 3513:1 3594:1 3639:1 3665:1 3784:1 3863:1 3868:1 3908:1 3933:1 4017:1 4079:1 4149:1 4150:1 4164:1 4165:1 4209:1 4268:1 4270:1 4387:1 4421:1 4441:1 4476:1 4522:1 4567:1 4615:1 4621:1 4628:1 4735:1 4765:1 4816:1 4859:1 4950:1 4963:1 5031:1 5038:1 5254:1 5284:1 5350:1 5447:2 5448:1 5449:1 5450:1 5451:1 5452:1 5453:1 5454:1 5455:1 5456:1 5457:1 5458:1 5459:1 5460:1 5461:1 #
0.0025567225454348869138898603381449 18:1 48:1 57:1 61:1 64:1 67:1 69:1 76:1 124:1 145:1 172:1 202:1 209:1 210:1 236:1 263:1 280:1 302:1 323:1 333:1 395:1 396:1 416:1 431:1 432:1 466:1 467:1 468:1 517:1 552:1 570:1 573:1 591:1 592:1 612:1 621:1 638:1 645:1 647:1 689:1 754:1 776:1 777:1 780:1 793:1 825:1 852:1 864:1 882:1 931:1 984:1 992:1 1020:1 1058:1 1079:1 1086:1 1169:1 1189:1 1209:1 1217:1 1229:1 1230:1 1253:1 1267:1 1279:1 1283:1 1360:1 1385:1 1452:1 1457:1 1460:1 1497:1 1562:1 1614:1 1658:1 1728:1 1759:1 1779:1 1844:1 1857:1 1882:1 1897:1 1955:1 1958:2 1971:1 1984:1 2027:1 2035:1 2051:2 2066:1 2118:1 2170:1 2202:1 2234:1 2254:1 2316:1 2339:1 2370:1 2371:1 2414:1 2487:1 2491:1 2529:1 2531:2 2545:1 2595:1 2633:1 2638:1 2663:1 2690:1 2712:1 2754:1 2904:1 2919:1 2923:1 2924:1 2987:1 3030:1 3051:1 3080:1 3083:1 3173:1 3198:1 3250:1 3259:1 3304:1 3329:1 3372:1 3419:1 3490:1 3498:1 3499:1 3500:1 3501:1 3502:1 3503:1 3507:1 3512:1 3518:1 3519:1 3524:1 3525:2 3526:1 3535:1 3668:1 3825:1 4044:1 4045:1 4095:1 4147:1 4148:1 4149:1 4150:1 4211:1 4308:1 4318:1 4341:1 4342:1 4343:1 4344:1 4417:1 4512:1 4522:1 4566:1 4719:1 4734:1 4783:1 4890:1 4908:1 4931:1 4945:1 5004:1 5018:1 5074:1 5163:1 5321:1 5400:1 5622:1 5685:1 5935:1 5942:1 6473:1 6592:1 #
0.0033470961800970908117669466719235 57:1 67:1 125:1 170:1 172:1 180:1 217:1 222:1 226:1 236:1 263:1 322:1 323:1 359:1 360:1 364:1 396:1 411:1 413:1 502:1 523:1 524:1 550:1 562:1 572:1 573:1 583:1 599:1 603:1 638:1 668:1 690:1 699:1 815:1 882:1 1004:1 1049:1 1057:1 1058:1 1116:1 1147:1 1157:1 1254:1 1259:1 1301:1 1313:1 1340:1 1345:1 1361:1 1394:1 1449:1 1461:1 1464:1 1487:1 1511:1 1597:1 1608:2 1610:1 1658:1 1723:1 1735:1 1772:1 1815:2 1824:1 1847:1 2094:1 2097:1 2140:1 2170:1 2194:1 2201:1 2213:1 2297:1 2380:1 2398:1 2414:1 2500:1 2518:1 2524:1 2553:1 2557:1 2595:1 2612:1 2639:1 2647:1 2672:1 2674:1 2691:1 2704:1 2767:1 2776:1 2790:1 2795:1 2805:2 2851:1 2852:1 2936:1 2996:1 3034:1 3051:1 3103:1 3133:1 3139:1 3214:2 3258:1 3293:1 3331:1 3348:1 3371:1 3462:1 3490:1 3498:1 3499:1 3500:1 3501:1 3502:1 3507:1 3512:1 3515:1 3517:1 3557:1 3603:1 3685:1 3699:1 3717:1 3721:1 3736:1 3769:1 3776:1 3875:1 3895:1 3896:1 3933:1 3956:1 3977:1 4150:1 4184:1 4192:1 4222:1 4272:1 4280:1 4298:1 4307:1 4328:1 4334:1 4368:1 4457:1 4467:1 4762:1 4776:1 5008:1 5021:1 5107:2 5254:1 5299:1 5320:1 5401:1 5465:1 5493:1 5760:1 5778:1 5849:1 5902:1 5977:1 6133:1 6288:1 6319:1 6426:1 6478:1 6568:1 6569:1 6570:1 6571:1 6572:1 6573:1 #
0.0041533262320735155059825416401509 18:1 23:1 35:1 76:1 118:1 153:1 154:1 166:1 172:1 216:1 236:1 252:1 263:1 295:1 312:1 321:2 323:1 352:1 424:2 464:1 534:1 535:2 536:1 537:1 551:1 572:1 638:1 643:1 645:1 686:1 740:1 749:1 756:1 764:1 784:1 811:1 852:1 855:1 865:1 879:1 920:1 931:1 992:1 998:1 1011:1 1032:1 1040:1 1116:1 1161:1 1191:1 1195:1 1217:1 1271:1 1355:1 1372:1 1415:1 1477:1 1504:1 1546:1 1562:1 1572:1 1604:1 1632:1 1638:1 1654:1 1691:1 1713:1 1723:1 1727:1 1729:1 1794:1 1959:1 1968:1 1973:1 1990:1 2006:1 2008:1 2009:1 2013:1 2031:1 2038:1 2062:1 2070:1 2147:1 2164:1 2182:1 2202:1 2233:1 2290:1 2326:1 2434:1 2442:1 2443:1 2479:1 2514:1 2545:1 2555:1 2655:1 2656:1 2789:1 2791:1 2849:1 2878:1 2897:1 2909:1 3016:1 3022:1 3073:1 3078:1 3159:1 3250:1 3266:1 3390:1 3430:1 3485:1 3499:1 3500:1 3501:1 3502:1 3519:1 3536:1 3579:1 3580:1 3611:1 3613:1 3630:1 3697:1 3735:1 3856:1 3888:1 3934:1 3957:1 3960:1 4032:1 4156:1 4157:1 4181:1 4321:1 4497:1 4583:1 4590:1 4600:1 4601:1 4614:1 4637:1 4679:1 4736:1 4775:1 4851:1 4867:1 4868:1 4973:1 5030:1 5133:1 5247:1 5267:1 5279:1 5309:1 5356:1 5421:1 5703:1 6021:1 6031:1 6141:1 6175:1 6185:1 6208:1 6350:1 6386:1 6492:1 6493:1 6494:1 #
0.005229231773223022051999553383439 29:1 33:1 34:1 88:1 131:1 165:1 210:1 250:1 321:1 327:1 333:1 334:1 394:1 401:1 410:1 525:1 535:1 571:1 572:1 573:1 593:1 611:1 638:1 645:1 686:1 736:1 768:1 773:1 780:1 827:1 830:1 876:1 877:1 916:1 923:1 926:1 927:1 933:1 967:1 1001:1 1034:1 1058:1 1181:1 1387:1 1409:1 1423:2 1435:1 1504:1 1525:1 1697:1 1728:1 1768:1 1795:1 1830:1 1877:1 1962:1 1969:1 1990:1 2025:1 2027:1 2028:1 2239:1 2244:1 2319:1 2324:1 2327:1 2363:1 2395:1 2427:1 2433:1 2438:1 2479:1 2500:1 2527:1 2537:1 2553:1 2557:1 2615:1 2677:1 2723:1 2740:1 2741:1 2865:1 2875:1 2948:1 2972:1 3199:1 3203:1 3313:1 3323:1 3498:1 3499:1 3500:1 3501:1 3502:1 3632:1 3635:1 3636:1 3637:1 3638:1 3653:1 3714:1 3747:1 3771:1 3776:1 3777:1 3802:1 3809:1 3820:1 3821:1 3829:1 3852:1 3853:1 3868:1 3892:1 3904:1 3931:1 3968:1 3973:1 4065:1 4068:1 4071:1 4072:1 4114:1 4206:1 4360:1 4432:1 4446:1 4536:1 4587:1 4619:1 4630:1 4631:1 4632:1 4633:1 4634:1 4756:1 4764:1 4792:1 5027:1 5274:1 5453:1 5498:1 5652:1 5734:1 5789:1 5809:1 5832:1 5883:1 6024:1 6097:1 6098:1 6099:1 6100:1 6101:1 6102:1 #
-0.00090080002185343669828671009369714 13:2 127:1 150:1 151:1 154:1 170:1 201:2 209:1 217:1 245:1 267:1 269:1 272:1 313:1 327:1 360:1 435:1 436:1 437:1 492:1 502:1 504:1 556:1 572:2 575:1 632:1 634:1 667:1 698:1 732:1 792:1 826:1 831:1 845:1 864:1 935:1 985:1 1001:1 1050:1 1091:1 1146:1 1180:1 1217:1 1224:1 1234:1 1237:1 1245:1 1264:1 1305:1 1347:1 1359:1 1389:1 1412:1 1425:1 1428:1 1483:1 1495:1 1502:1 1504:1 1529:1 1534:1 1569:1 1574:1 1577:1 1600:1 1616:1 1626:1 1632:1 1643:1 1656:1 1678:1 1697:1 1717:1 1724:1 1759:1 1779:1 1780:1 1815:1 1866:1 1897:1 1907:1 1916:1 1945:1 1952:1 1958:1 2011:1 2013:1 2139:1 2153:1 2188:1 2302:2 2312:1 2372:1 2384:1 2400:1 2415:1 2428:1 2519:1 2544:1 2593:1 2595:1 2620:1 2625:1 2648:1 2672:1 2674:1 2677:1 2718:1 2753:1 2772:1 2788:1 2790:2 2801:1 2907:1 2968:1 2981:1 2982:1 2984:1 3000:1 3017:1 3018:3 3040:1 3070:1 3135:1 3137:1 3148:1 3194:1 3218:1 3223:1 3242:1 3252:1 3263:1 3278:1 3279:1 3338:1 3348:1 3352:1 3511:1 3517:1 3534:1 3544:1 3591:1 3630:1 3767:1 3821:1 3845:1 3957:1 3980:1 4075:1 4112:1 4142:1 4165:1 4258:1 4267:1 4283:1 4319:1 4345:1 4431:1 4469:1 4495:1 4512:1 4584:1 4622:1 4673:1 4708:1 4881:1 4915:1 4945:1 4950:1 4967:1 4968:1 4989:1 5024:1 5102:1 5181:1 5261:1 5287:1 5618:1 5638:1 5671:1 5700:1 5902:1 6315:1 6344:1 6429:1 6586:1 7101:1 #
-1.1096454572463963501437883563128e-05 33:2 43:1 47:1 67:1 73:1 119:1 174:1 181:1 183:1 184:1 216:1 250:1 293:1 303:1 311:1 358:1 373:1 380:1 393:1 451:1 465:1 470:1 491:1 492:1 493:1 494:1 506:1 512:1 524:1 532:1 535:1 536:1 554:1 572:1 609:1 611:1 643:1 651:1 747:1 761:1 780:1 783:1 840:1 845:1 896:1 907:1 917:1 922:1 923:1 972:1 1057:1 1062:1 1063:2 1208:1 1219:1 1265:1 1267:1 1269:1 1348:1 1350:1 1371:1 1385:1 1387:1 1440:1 1471:1 1496:1 1559:1 1599:1 1602:1 1634:1 1670:1 1727:1 1729:1 1747:1 1755:1 1785:1 1807:1 1826:1 1843:1 1844:1 1858:1 1859:1 1931:1 1955:1 2026:1 2097:1 2106:1 2109:1 2231:1 2249:1 2258:1 2289:1 2301:1 2318:1 2327:1 2389:1 2423:1 2429:1 2434:1 2451:1 2506:1 2525:1 2536:1 2537:1 2539:1 2559:1 2586:1 2603:1 2618:1 2637:1 2645:1 2735:1 2748:1 2760:1 2784:1 2902:1 2907:1 2916:1 2926:1 2954:1 3001:1 3109:1 3202:1 3225:1 3382:1 3428:1 3439:1 3461:1 3463:1 3495:1 3533:1 3586:1 3771:1 3804:1 3922:1 3980:1 4068:1 4107:1 4152:1 4171:1 4185:1 4233:1 4403:1 4434:1 4570:1 4662:1 4768:1 4892:1 5012:1 5068:1 5124:1 5203:1 5220:1 5865:1 5944:1 5991:1 6080:1 6112:1 6464:1 6743:1 7017:1 7097:1 7120:1 #
-0.0018824582781614817433846198468927 2:1 9:1 10:1 24:1 43:1 44:1 73:1 76:1 161:1 171:1 172:1 183:1 236:1 238:1 258:1 259:1 263:1 265:1 291:1 335:1 373:1 409:2 410:1 468:2 492:1 493:1 496:1 505:1 520:1 521:1 523:1 530:1 535:1 550:1 614:1 626:1 632:1 636:1 637:1 638:1 645:1 705:1 714:1 718:1 733:1 741:1 746:1 773:1 775:1 819:1 829:1 830:1 831:1 907:1 922:1 935:1 1006:1 1011:1 1027:1 1032:1 1056:1 1062:1 1068:1 1071:1 1080:1 1095:1 1139:1 1146:1 1214:1 1245:1 1248:1 1302:1 1344:1 1373:1 1399:1 1401:1 1421:1 1422:1 1429:1 1456:1 1559:1 1597:1 1599:2 1601:1 1602:1 1626:1 1704:1 1721:1 1788:1 1812:1 1814:1 1859:1 1879:1 1896:1 1920:1 1928:1 1948:1 1978:1 2010:1 2045:1 2163:1 2329:1 2451:1 2471:1 2478:1 2479:1 2491:1 2532:1 2560:1 2589:1 2597:1 2619:1 2639:1 2651:1 2659:1 2879:1 2972:1 2982:1 2986:1 2999:1 3016:1 3054:1 3091:1 3177:1 3178:1 3255:1 3329:1 3389:1 3402:1 3439:1 3465:1 3529:1 3589:1 3612:1 3819:1 3873:1 3910:1 4004:1 4044:1 4139:1 4152:1 4171:1 4209:1 4282:1 4412:1 4501:1 4699:1 4722:1 4761:1 4785:1 4807:1 5174:1 5193:1 5204:1 5222:1 5381:1 5507:1 5593:1 5626:1 6112:1 6332:1 6352:1 6824:1 7005:1 #
-0.003431190295672516613056934886572 9:1 10:1 16:1 24:1 29:1 33:1 34:1 35:1 49:1 65:1 69:1 70:1 71:1 74:1 76:1 87:1 88:1 140:1 172:1 173:1 174:1 175:1 176:1 177:1 183:1 198:1 199:1 200:1 201:1 206:1 218:1 219:1 239:1 240:1 241:1 242:1 245:1 250:1 251:1 280:1 281:1 283:1 291:1 319:1 320:1 321:1 323:1 329:1 348:1 349:1 360:1 370:1 371:1 372:1 517:1 535:1 564:1 565:1 571:1 572:1 573:1 587:1 588:1 600:1 715:1 774:1 804:1 830:1 883:1 895:1 917:1 926:1 936:1 940:1 949:1 1001:1 1026:1 1095:1 1196:1 1215:1 1217:1 1218:1 1227:1 1308:1 1396:1 1423:1 1477:1 1486:1 1500:1 1508:1 1518:1 1562:1 1603:1 1604:1 1605:1 1609:1 1622:1 1623:1 1728:1 1752:1 1756:1 1757:1 1759:1 1779:1 1787:1 1793:1 1803:1 1813:1 1815:1 1891:1 1900:1 1997:1 2003:1 2025:1 2042:1 2163:1 2175:1 2244:1 2256:1 2260:1 2262:1 2263:1 2273:1 2289:1 2304:1 2359:1 2376:1 2396:1 2398:1 2511:1 2550:1 2582:1 2801:1 2806:1 2807:1 2839:1 3268:1 3361:1 3365:1 3366:1 3367:1 3368:1 3369:1 3370:1 3371:1 3372:1 3373:1 3374:1 3375:1 3376:1 #
-0.00084315482470638471092921895078121 25:1 68:1 107:1 147:1 152:1 172:1 173:1 198:1 209:1 210:1 250:1 274:1 291:1 301:1 315:1 323:1 350:1 386:1 398:1 402:1 408:1 455:1 457:1 462:1 477:1 499:1 514:1 563:1 571:1 572:1 733:1 765:1 905:1 1002:1 1044:1 1083:1 1091:2 1092:1 1147:1 1154:1 1203:1 1226:1 1306:1 1308:1 1310:1 1340:1 1346:1 1353:1 1358:1 1364:1 1378:1 1379:1 1381:1 1401:1 1423:1 1497:1 1547:1 1553:1 1576:1 1614:1 1801:1 1841:1 1869:1 1885:1 1938:1 1941:1 1953:1 1965:1 1971:2 1996:1 2031:1 2070:1 2089:1 2182:1 2209:1 2226:1 2326:1 2327:1 2329:1 2342:1 2423:1 2443:1 2450:1 2463:1 2478:1 2503:1 2511:1 2518:1 2519:2 2549:1 2619:1 2712:1 2790:1 2809:1 2907:1 2916:1 2938:1 3142:1 3151:1 3224:1 3242:1 3244:1 3251:1 3278:1 3279:1 3301:1 3382:1 3407:1 3522:1 3653:1 3666:1 3667:1 3749:1 3784:1 3904:1 4067:1 4153:1 4223:1 4270:1 4322:1 4338:1 4415:1 4428:1 4448:1 4485:1 4487:1 4577:1 4619:1 4736:1 5079:1 5247:1 5446:1 5485:1 5538:1 5556:1 5654:1 5871:1 5999:1 6041:1 6069:1 6170:1 6173:1 6427:1 6492:1 6725:1 #
0.0024319048873538773661295842032359 7:1 13:1 48:1 58:1 69:2 70:1 71:1 72:1 79:1 87:1 91:1 108:2 109:1 140:1 152:1 172:1 174:1 175:1 193:1 194:1 199:1 202:1 211:1 236:1 263:1 274:1 318:1 322:1 323:1 339:1 378:1 379:1 413:1 423:1 457:1 476:1 532:1 611:1 622:1 663:1 667:1 668:1 679:1 684:1 691:1 705:2 706:1 710:1 745:1 746:1 747:1 779:1 783:1 847:1 862:1 942:1 965:1 967:1 969:1 1017:1 1026:1 1068:1 1141:1 1169:1 1189:1 1193:1 1243:1 1254:1 1257:1 1258:1 1271:1 1296:1 1308:1 1309:1 1345:1 1346:2 1360:1 1408:2 1409:1 1411:1 1415:1 1429:1 1434:1 1442:1 1496:1 1500:1 1528:1 1530:1 1548:1 1549:2 1593:1 1596:1 1672:1 1691:1 1727:1 1759:1 1775:1 1780:1 1794:1 1805:1 1818:1 1879:1 1881:1 1898:1 1900:1 1936:1 1949:1 1998:1 1999:1 2029:1 2031:1 2037:1 2050:1 2072:2 2119:1 2123:1 2141:1 2148:1 2157:1 2167:1 2176:1 2203:1 2219:1 2227:1 2234:1 2239:1 2268:1 2310:1 2337:1 2348:1 2373:1 2376:1 2414:1 2418:1 2429:1 2440:1 2448:1 2449:1 2489:1 2496:1 2526:1 2550:1 2573:1 2595:1 2605:1 2625:1 2687:1 2713:1 2725:1 2792:1 2810:1 2865:1 2878:1 2907:1 2913:1 2941:1 2988:1 2989:1 3017:1 3055:1 3097:1 3119:1 3127:1 3149:2 3150:1 3200:1 3203:1 3205:1 3218:1 3244:1 3274:1 3348:2 3402:1 3455:1 3490:1 3499:1 3500:2 3521:1 3560:1 3600:1 3605:1 3606:1 3620:1 3623:1 3641:1 3651:1 3662:1 3699:1 3710:1 3738:2 3743:1 3751:1 3778:1 3805:1 3844:1 3914:1 3972:1 4004:1 4125:1 4138:1 4144:1 4164:1 4176:1 4209:1 4240:1 4248:1 4256:1 4257:1 4319:1 4338:1 4373:1 4374:1 4395:1 4429:1 4514:1 4548:1 4627:1 4683:1 4684:1 4751:2 4812:1 4986:1 5068:1 5107:1 5128:1 5138:1 5172:1 5181:1 5186:1 5196:1 5210:1 5211:1 5212:1 5213:1 5214:1 5215:1 5216:1 5217:1 5218:1 5219:1 5220:1 5221:1 5222:1 5223:1 5224:1 5225:1 5226:1 5227:1 5228:1 5229:1 5230:1 5231:1 #
0.00524985370367915885059240110877 7:1 13:1 69:2 70:1 89:1 90:2 91:1 101:1 108:1 115:1 172:1 193:1 236:1 247:1 253:1 263:1 281:1 305:1 306:1 313:1 318:1 321:1 323:1 360:1 385:1 395:1 412:1 431:1 471:1 494:1 509:1 526:1 553:1 556:1 557:1 558:1 600:1 624:1 645:1 675:1 691:1 712:1 732:1 748:1 762:1 773:1 779:1 802:1 878:1 915:1 926:1 941:1 966:1 967:1 1010:1 1041:1 1070:1 1085:1 1158:1 1162:1 1170:1 1193:1 1199:1 1200:1 1317:1 1416:1 1434:1 1476:1 1500:1 1577:1 1581:1 1584:1 1603:1 1615:1 1627:1 1673:1 1727:1 1735:1 1766:1 1779:1 1805:1 1807:1 1815:1 1866:1 1896:1 2050:1 2081:1 2085:1 2123:1 2124:1 2254:1 2257:1 2269:1 2354:1 2375:1 2377:1 2385:1 2405:1 2449:1 2496:1 2592:1 2601:1 2611:1 2658:1 2693:1 3002:1 3017:1 3089:1 3119:1 3175:1 3203:1 3306:1 3322:1 3413:1 3430:1 3438:1 3490:1 3499:1 3500:1 3621:1 3625:1 3626:1 3710:1 3750:1 3765:1 3835:1 4171:1 4203:1 4419:1 4432:1 4444:1 4485:1 4504:1 4522:1 4539:1 4668:1 4723:1 4737:1 4750:1 4800:1 4863:1 4882:1 4894:1 5172:1 5173:1 5174:1 5175:1 5176:1 #
0.00012517880507332889783791984861239 7:1 11:1 13:1 43:1 48:1 58:1 69:2 70:1 71:1 72:1 79:1 87:1 89:1 90:1 91:1 94:1 108:1 109:1 111:1 136:1 140:1 152:1 172:1 174:1 175:1 193:1 194:1 199:1 202:1 236:1 263:1 274:1 293:1 302:1 318:1 321:1 322:1 323:1 339:1 340:1 378:1 379:1 393:1 416:1 423:1 457:1 476:1 532:1 611:1 622:1 663:1 667:1 679:1 691:1 705:2 710:1 745:1 763:1 764:1 779:1 783:1 847:1 862:1 941:1 965:1 967:1 969:1 1017:1 1026:1 1068:1 1083:1 1085:1 1116:1 1169:1 1170:1 1193:1 1243:1 1254:1 1257:1 1258:1 1271:1 1296:1 1330:1 1345:1 1346:2 1360:1 1400:1 1408:2 1409:1 1411:1 1415:1 1429:1 1434:1 1442:1 1496:1 1500:1 1528:1 1530:1 1549:2 1572:1 1593:1 1596:1 1633:1 1691:1 1727:1 1732:1 1759:1 1775:1 1780:1 1805:1 1818:1 1844:1 1881:1 1898:1 1900:1 1936:1 1949:1 1998:1 1999:2 2027:1 2031:1 2032:1 2040:1 2050:1 2072:1 2081:1 2119:1 2123:1 2141:1 2148:1 2157:1 2203:1 2207:1 2219:1 2227:1 2234:1 2239:1 2268:1 2310:1 2337:1 2348:1 2373:1 2414:1 2429:1 2440:1 2448:1 2496:1 2526:1 2550:1 2573:1 2595:1 2605:1 2625:1 2687:1 2690:1 2713:1 2725:1 2792:1 2810:1 2865:1 2878:1 2907:1 2913:1 2941:1 2989:1 3007:2 3017:1 3029:1 3055:1 3119:1 3149:2 3150:1 3200:1 3203:1 3205:1 3218:2 3244:1 3274:1 3330:1 3402:1 3454:1 3455:2 3499:1 3500:2 3521:1 3522:1 3600:1 3623:1 3641:1 3651:1 3662:1 3667:1 3710:1 3718:1 3719:1 3738:2 3743:1 3746:1 3751:1 3778:1 3805:1 3844:1 4004:1 4007:1 4079:1 4144:1 4164:1 4176:1 4209:1 4240:1 4248:1 4256:1 4257:1 4319:1 4338:1 4373:1 4374:1 4429:1 4514:1 4548:1 4594:1 4684:1 4751:2 4812:1 4986:1 4992:1 5128:1 5138:1 5172:1 5181:1 5186:1 5196:1 5212:1 5216:1 5217:1 5218:1 5219:1 5221:1 5222:1 5223:1 5225:1 5229:1 5230:1 5231:1 5316:1 5317:1 #
0.00065929885160143704859320168409909 34:1 35:1 86:1 96:1 97:1 149:1 150:1 155:1 172:1 198:1 209:1 210:1 211:1 231:1 236:1 245:1 263:1 281:1 290:1 318:1 321:1 354:1 370:1 377:1 380:1 385:2 534:1 543:1 544:2 572:1 589:1 604:1 624:1 625:1 638:1 668:1 713:1 729:1 804:1 831:1 841:1 846:1 887:1 920:1 922:1 926:1 935:1 936:1 937:1 946:1 1078:1 1080:2 1104:1 1113:1 1120:1 1123:1 1210:1 1211:1 1217:1 1246:1 1255:1 1316:1 1335:1 1339:1 1344:1 1357:1 1365:1 1367:1 1456:1 1472:1 1483:1 1495:1 1518:1 1533:1 1551:1 1553:1 1609:1 1611:1 1615:1 1687:1 1696:1 1842:1 1847:1 1858:1 1892:1 1915:1 1947:1 1996:1 1997:1 2011:1 2033:1 2034:1 2035:1 2043:1 2084:1 2094:1 2100:1 2114:1 2137:1 2155:1 2189:1 2193:1 2227:1 2312:1 2332:1 2389:1 2390:1 2420:1 2429:1 2450:1 2541:1 2605:1 2611:1 2663:1 2707:1 2786:1 2789:1 2812:1 2867:1 2900:1 2907:1 2929:1 2946:1 2947:1 2968:1 2989:1 2999:1 3090:1 3105:1 3166:1 3187:1 3218:1 3330:1 3335:1 3413:1 3433:1 3467:1 3479:2 3499:1 3500:2 3501:1 3502:1 3524:1 3561:2 3616:1 3666:1 3667:1 3718:1 3724:1 3725:1 3743:1 3807:1 3839:1 3840:1 3863:1 3867:1 3869:1 3874:1 3945:1 3946:1 4041:1 4072:1 4127:1 4171:1 4204:1 4285:1 4306:1 4354:1 4382:1 4403:1 4434:1 4513:1 4530:1 4570:1 4662:1 4674:1 4756:1 4792:1 4793:1 4795:1 4803:1 4825:1 4884:1 4933:1 5012:1 5051:1 5081:1 5162:1 5278:1 5347:1 5357:1 5358:1 5359:1 5361:1 5362:1 5363:1 5365:1 5366:1 5369:1 5370:1 6036:1 6039:1 6696:1 #
0.0030761446461695729839846968900474 13:1 15:1 16:1 26:1 27:1 89:1 90:1 125:1 156:1 172:1 188:1 195:1 204:1 211:1 217:1 220:1 236:1 240:1 279:1 290:1 293:1 321:1 335:1 343:1 364:1 380:1 387:1 434:1 436:1 465:1 466:1 467:1 473:1 523:1 534:1 537:1 550:1 587:2 591:1 608:1 632:1 638:1 669:1 800:1 807:1 848:1 853:1 895:1 914:1 927:1 931:1 937:1 969:1 976:1 1004:1 1005:1 1036:1 1039:1 1056:1 1092:1 1095:1 1189:1 1229:1 1256:1 1280:1 1287:1 1345:1 1346:1 1363:1 1387:1 1416:1 1436:1 1449:1 1491:1 1530:1 1537:1 1550:2 1551:1 1559:1 1560:1 1739:1 1759:1 1780:1 1785:1 1793:1 1807:1 1809:1 1813:1 1853:1 1877:1 1879:1 1882:1 1888:1 2026:1 2119:1 2155:1 2202:1 2229:1 2233:1 2316:1 2338:1 2362:1 2369:1 2431:1 2442:1 2450:1 2472:1 2494:1 2505:1 2514:1 2518:1 2523:1 2530:1 2589:1 2607:1 2619:1 2640:1 2662:1 2782:1 2861:1 2864:1 2870:1 2914:1 2915:1 2938:1 3026:1 3079:1 3115:1 3124:1 3146:1 3151:1 3185:1 3211:1 3212:1 3318:1 3401:1 3409:1 3437:1 3483:1 3501:1 3502:1 3563:1 3596:1 3618:1 3640:1 3654:1 3662:1 3665:1 3667:1 3676:1 3677:1 3680:1 3685:1 3690:1 3692:1 3693:1 3694:1 3714:1 3845:1 3902:1 4043:1 4044:1 4045:1 4074:1 4138:1 4212:1 4318:1 4434:1 4451:1 4495:1 4601:1 4671:1 4788:1 4924:1 4931:1 5040:1 5071:1 5073:1 5135:1 5136:1 5137:1 5139:1 5140:1 5142:1 5143:1 5146:1 5193:1 5362:1 5427:1 5536:1 6168:1 #
-0.00047731990332472136809305318649876 2:1 5:1 11:1 18:1 26:1 63:1 68:1 89:1 90:2 111:1 166:1 172:1 192:1 238:1 270:1 301:1 323:1 383:1 384:1 393:1 401:1 447:2 477:2 490:1 522:1 532:1 554:1 588:1 592:1 628:1 669:1 687:1 715:1 745:1 765:1 793:1 827:1 828:1 847:1 850:1 882:1 892:1 947:1 956:1 977:1 1010:1 1016:1 1057:1 1071:1 1092:1 1125:1 1209:1 1214:1 1231:1 1309:1 1316:1 1317:1 1318:1 1348:1 1363:1 1380:1 1408:1 1409:1 1426:1 1525:1 1531:1 1533:1 1536:1 1561:1 1589:1 1611:1 1632:1 1634:1 1793:1 1818:1 1934:1 1935:1 1990:1 2032:1 2048:1 2089:1 2092:1 2203:1 2224:1 2288:1 2389:1 2399:1 2404:1 2450:1 2464:1 2487:1 2515:1 2549:1 2567:1 2569:1 2593:1 2610:1 2694:1 2702:1 2725:1 2782:1 2889:1 3244:1 3248:1 3320:1 3341:1 3493:1 3560:1 3649:1 3664:1 3666:1 3667:2 3672:1 3697:1 3714:1 3718:1 3766:1 3833:1 3901:1 3902:1 3916:1 3923:1 3942:1 3947:1 4195:1 4203:1 4227:1 4233:1 4284:1 4321:1 4330:1 4360:1 4447:1 4450:1 4481:1 4485:1 4502:1 4530:1 4542:1 4549:1 4618:1 4658:1 4723:1 4725:1 4750:1 4831:1 5180:1 5305:1 5306:1 5389:1 5494:1 5518:1 5722:1 5846:1 6003:1 6183:1 6282:1 6329:1 6355:1 6492:1 6653:1 6725:1 6820:1 6954:1 6990:1 7126:1 7154:1 7168:1 7180:1 7287:1 7631:1 #
-0.0015410749496627689121563964391726 5:2 7:1 23:1 53:1 87:1 88:1 90:1 116:1 118:1 155:1 167:1 195:1 257:1 263:1 290:1 323:1 360:1 365:1 366:1 372:1 397:1 435:1 478:1 479:1 516:1 523:1 524:1 533:1 537:1 570:1 571:2 572:1 601:1 650:1 663:1 664:1 672:1 673:1 674:1 732:1 866:1 931:1 994:1 1037:1 1058:1 1095:2 1217:1 1218:1 1297:1 1340:1 1346:1 1347:1 1348:1 1362:1 1370:1 1387:1 1412:1 1452:1 1504:1 1541:1 1602:1 1651:1 1673:1 1691:1 1727:1 1779:1 1815:1 1826:1 1857:1 1879:1 1913:1 1935:1 1941:2 1946:1 1951:1 1955:1 2109:1 2155:1 2167:1 2189:1 2224:1 2254:1 2272:1 2305:1 2328:1 2332:1 2354:1 2406:1 2425:1 2458:1 2484:1 2527:1 2541:1 2549:1 2605:1 2639:1 2685:1 2690:1 2837:1 2938:1 2939:1 2985:1 3049:1 3055:1 3132:1 3199:1 3225:1 3229:1 3237:1 3383:1 3401:1 3408:1 3531:1 3614:1 3620:1 3863:1 3893:1 4152:1 4185:1 4231:1 4286:1 4384:1 4451:1 4482:1 4540:1 4704:1 4723:1 4731:1 4774:1 4791:1 4949:1 4982:1 5061:1 5352:1 5540:1 5573:1 5837:1 5888:1 5971:1 6123:1 6551:1 6824:1 #
-0.00043053567641990414874286763335931 2:1 28:1 39:1 40:1 41:1 42:1 144:1 149:2 172:1 213:2 342:1 432:1 559:1 611:1 613:1 631:1 651:1 674:1 676:1 717:1 747:1 751:1 776:1 784:1 810:1 814:1 828:2 856:1 870:1 872:1 873:1 875:1 929:1 965:1 966:1 1001:1 1040:1 1105:1 1106:1 1110:1 1219:1 1243:1 1257:1 1278:1 1289:1 1290:1 1325:1 1336:1 1349:1 1361:1 1396:1 1513:1 1535:1 1546:1 1574:1 1580:1 1582:1 1659:1 1667:1 1730:1 1747:1 1873:1 1882:1 1890:2 2000:1 2011:1 2026:1 2032:1 2080:1 2133:1 2143:1 2187:1 2192:1 2209:1 2220:1 2249:2 2250:1 2266:1 2268:1 2269:1 2270:2 2335:1 2342:1 2365:1 2372:1 2373:1 2375:1 2376:1 2453:1 2552:1 2702:2 2703:1 2723:1 2779:1 2825:1 2891:1 2900:1 2901:1 2909:1 2914:2 2919:1 2934:1 2963:1 2981:1 3051:1 3071:1 3099:1 3114:1 3138:1 3262:1 3301:1 3330:2 3340:1 3370:1 3397:1 3430:1 3431:1 3483:2 3521:1 3549:1 3607:1 3632:1 3644:1 3662:1 3681:1 3684:1 3697:1 3698:1 3722:1 3766:2 3776:1 3825:1 3852:1 3874:1 3903:1 3960:1 3974:1 3997:1 4032:1 4059:1 4156:1 4172:1 4181:1 4190:1 4209:1 4214:1 4222:1 4258:1 4296:1 4331:1 4340:1 4402:1 4405:1 4437:2 4445:1 4464:1 4530:1 4562:1 4587:1 4612:1 4618:2 4623:1 4666:1 4736:1 4737:1 4750:1 4768:1 4769:1 4806:1 4851:1 4874:1 4877:1 4922:1 4965:1 4989:1 5024:1 5046:1 5099:1 5133:1 5144:1 5208:1 5223:1 5225:1 5266:1 5315:1 5325:1 5550:1 5552:1 5554:1 5788:1 5820:1 5837:1 5845:1 5925:1 5947:1 5977:1 6059:1 6219:1 6276:1 6285:2 6326:1 6380:1 6417:1 6496:1 6586:2 6591:1 6615:1 6617:1 6832:1 6855:1 6992:1 7018:1 7068:1 7108:1 7109:1 7110:1 7111:1 7121:1 7136:1 7190:1 7191:1 7235:1 7251:1 #
-0.00048766318433222639958796174042277 12:1 26:1 59:1 61:1 84:1 89:1 90:1 94:1 124:1 172:1 173:1 254:1 255:1 270:1 285:1 323:1 383:1 384:1 385:1 432:1 549:1 555:1 556:1 565:1 579:1 622:1 627:1 645:2 653:1 715:1 747:1 776:1 781:1 847:1 851:1 870:1 876:1 1002:1 1010:1 1041:1 1088:1 1089:1 1090:1 1158:1 1209:1 1214:1 1230:1 1401:1 1408:1 1432:1 1459:1 1486:1 1495:1 1529:1 1531:1 1533:1 1562:1 1578:1 1588:1 1621:1 1634:1 1672:1 1770:1 1818:1 1839:1 1934:1 1935:1 1938:1 1971:1 1994:1 2066:1 2089:1 2118:1 2123:1 2173:1 2277:1 2327:1 2414:1 2418:1 2421:1 2479:1 2496:1 2523:1 2548:1 2549:1 2569:1 2603:1 2631:1 2678:1 2704:1 2824:1 2851:1 2878:2 2913:2 2923:1 2940:1 2965:1 3028:1 3088:1 3145:1 3174:1 3175:1 3208:1 3229:1 3244:1 3252:1 3257:1 3426:1 3427:1 3449:1 3478:1 3532:1 3560:1 3570:1 3623:1 3668:1 3681:1 3697:1 3718:1 3732:1 3813:1 3814:1 3819:1 3862:1 3930:1 3942:1 4026:1 4082:1 4083:1 4160:1 4171:1 4255:1 4270:1 4298:1 4401:1 4436:1 4485:1 4599:1 4618:1 4643:1 4670:1 4717:1 4723:1 4736:1 4800:1 4832:1 4883:1 4913:1 4945:1 4980:1 5036:1 5138:1 5215:1 5268:1 5306:1 5348:1 5373:1 5392:1 5518:1 5647:1 5654:1 5691:1 5785:1 5808:1 5812:1 5846:1 5848:1 5868:1 5896:1 5947:1 6026:1 6175:1 6485:1 6592:1 6653:2 6676:1 6693:1 #
-0.0019572441367989570557006651085885 16:1 17:1 26:1 59:1 69:1 73:1 86:1 90:1 184:1 250:1 270:1 291:1 333:1 393:1 424:1 439:1 491:1 492:1 493:1 494:1 505:1 532:1 552:1 611:1 612:1 629:1 643:1 742:1 775:1 841:1 854:1 941:1 1019:1 1041:1 1084:1 1257:1 1275:1 1276:1 1348:1 1371:1 1385:1 1393:1 1414:1 1424:1 1435:1 1436:1 1459:1 1550:1 1559:1 1563:1 1573:1 1596:1 1599:1 1687:1 1709:1 1727:1 1807:1 1830:1 1871:1 1879:1 1931:1 2003:1 2012:1 2024:1 2027:1 2034:1 2039:1 2082:1 2113:1 2167:1 2233:1 2240:1 2304:1 2347:1 2349:1 2375:1 2398:1 2434:1 2438:1 2444:1 2457:1 2515:1 2536:1 2537:1 2539:1 2550:1 2672:1 2714:1 2760:1 2799:1 2810:1 2929:1 2994:1 3034:1 3050:1 3054:1 3079:1 3114:1 3127:1 3161:1 3183:1 3222:1 3249:1 3296:1 3375:1 3392:1 3455:1 3468:1 3474:1 3495:1 3570:1 3586:1 3603:1 3611:1 3635:1 3745:1 3771:1 3825:1 3827:1 3886:1 3944:1 4063:1 4233:1 4322:1 4344:1 4357:1 4403:1 4520:1 4550:1 4572:1 4594:1 4660:1 4691:1 4722:2 4728:1 4752:1 4764:1 4768:1 4884:1 4903:1 5004:1 5013:1 5021:1 5043:1 5062:1 5082:1 5146:1 5269:1 5347:1 5426:1 5433:1 5531:1 5839:1 5996:1 6023:1 6026:1 6112:1 6118:1 6276:1 6357:1 6416:1 6481:1 7097:1 7183:1 7415:1 #
0.0040216556681780413901039494817269 3:1 4:1 19:1 33:1 38:1 41:1 75:1 77:1 141:1 170:1 174:1 206:1 210:1 211:1 212:1 236:1 263:1 265:1 290:2 304:1 323:1 380:1 395:1 399:1 416:1 433:1 452:1 475:1 481:1 487:1 519:1 525:1 574:1 593:1 603:1 606:1 611:1 667:1 684:1 700:1 740:1 741:2 788:1 804:1 845:1 846:1 848:1 861:1 862:1 912:1 930:1 931:1 962:1 1054:1 1077:1 1089:1 1091:1 1092:1 1119:1 1121:1 1171:1 1183:1 1239:1 1267:1 1277:1 1287:1 1340:1 1345:1 1380:1 1387:1 1396:1 1460:1 1491:1 1519:1 1525:1 1572:1 1575:1 1600:1 1669:1 1672:1 1853:1 1875:1 1885:1 1892:1 1917:1 1941:1 1950:1 2041:1 2103:1 2111:1 2116:1 2156:1 2163:1 2245:1 2307:1 2337:1 2339:1 2394:1 2398:1 2422:1 2450:1 2451:1 2452:1 2527:1 2553:1 2619:1 2659:1 2664:1 2715:1 2727:1 2748:1 2837:1 2942:1 2980:1 3053:1 3055:1 3065:1 3072:1 3110:1 3136:1 3199:1 3207:1 3298:1 3320:1 3369:1 3409:1 3418:1 3465:1 3499:1 3500:1 3555:1 3602:1 3626:1 3640:1 3665:1 3666:1 3670:1 3672:1 3730:1 3767:1 3873:1 3962:1 3995:1 4063:1 4084:1 4113:1 4208:1 4303:1 4322:1 4346:1 4408:1 4491:1 4493:1 4495:1 4496:1 4593:1 4723:1 4807:1 4839:1 5166:1 5171:1 5408:1 5477:1 5517:1 5543:1 5633:1 5764:1 6118:1 6185:1 6186:1 6187:1 6188:1 6189:1 6190:1 6191:1 6192:1 #
0.0041893268196195329947095764566711 4:1 8:1 9:1 10:1 26:1 35:1 36:1 69:1 87:2 91:1 110:1 123:1 124:1 149:1 150:1 161:1 166:1 172:1 174:1 184:1 187:1 196:1 226:1 233:1 249:1 250:1 323:1 335:1 352:1 393:1 395:1 401:1 538:1 545:1 588:1 611:1 614:1 628:1 652:1 664:1 667:1 691:1 731:1 747:1 766:1 780:1 787:1 792:1 794:1 846:1 847:1 857:1 925:1 944:1 971:1 972:1 979:1 1032:1 1043:1 1084:1 1086:1 1099:1 1110:1 1138:1 1224:1 1244:1 1251:1 1264:1 1387:1 1390:1 1395:1 1403:1 1416:1 1417:1 1435:1 1489:1 1490:1 1491:1 1516:1 1526:1 1596:1 1600:1 1602:1 1621:1 1651:1 1727:1 1783:1 1805:1 1809:1 1885:1 1902:1 1938:1 2162:1 2199:1 2218:1 2234:1 2288:1 2330:1 2336:1 2414:1 2478:1 2534:1 2595:1 2604:1 2605:1 2713:1 2719:1 2748:1 2837:1 2946:1 2948:1 2977:2 3016:2 3173:1 3337:1 3402:1 3411:1 3418:1 3469:1 3474:1 3489:1 3500:1 3501:1 3502:1 3539:1 3557:1 3601:1 3602:1 3614:1 3640:1 3646:1 3649:1 3665:1 3690:1 3812:1 3867:1 3908:1 3934:1 3986:1 4060:1 4083:1 4152:1 4159:1 4436:1 4487:1 4536:1 4634:1 4678:1 4796:1 4958:1 4992:1 5084:1 5135:2 5146:1 5294:1 5329:1 5458:1 5509:1 5556:1 5585:1 6021:1 6027:1 6036:1 6119:1 6240:1 6494:1 6629:1 6807:1 6867:1 6970:1 #
0.0020758510821016996558685541174327 8:1 9:1 10:1 24:1 63:1 90:1 91:1 98:1 123:1 152:1 157:1 172:2 184:1 189:1 196:1 236:1 261:1 263:1 279:1 294:1 395:1 411:1 412:1 477:1 505:1 511:1 534:1 567:1 574:1 576:1 589:1 592:1 623:1 638:1 779:1 786:1 787:1 823:1 840:1 858:1 897:1 918:1 932:1 1005:1 1015:1 1016:1 1018:1 1020:1 1037:1 1054:1 1055:2 1064:1 1106:1 1132:1 1148:1 1195:1 1229:1 1242:1 1256:1 1260:1 1262:1 1329:1 1339:1 1367:1 1408:1 1431:1 1455:1 1465:1 1476:1 1500:2 1504:1 1505:1 1528:1 1547:1 1561:1 1579:1 1582:1 1615:1 1617:1 1645:1 1651:1 1673:1 1713:1 1729:1 1780:1 1783:1 1793:1 1882:1 1948:1 2016:1 2025:1 2061:1 2062:1 2065:1 2123:1 2124:1 2151:1 2167:1 2181:1 2189:1 2190:1 2195:1 2205:1 2300:1 2306:1 2316:1 2330:1 2350:1 2358:1 2395:1 2423:1 2447:1 2479:1 2490:1 2553:1 2563:1 2625:1 2667:1 2682:1 2734:1 2736:1 2747:1 2763:1 2858:1 2917:1 2933:1 2991:1 2995:1 3063:1 3064:1 3135:1 3214:1 3352:1 3397:1 3414:1 3452:1 3470:1 3499:1 3500:1 3501:1 3502:1 3588:1 3632:1 3640:1 3665:1 3684:1 3742:1 3762:1 3763:1 3812:1 3819:1 3853:1 3855:1 3856:1 3924:1 3963:1 3991:1 4000:1 4015:1 4112:1 4198:1 4238:1 4240:1 4252:1 4450:1 4563:1 4572:1 4627:1 4703:1 4744:1 4888:1 4920:1 4923:1 4937:1 5021:1 5068:1 5131:1 5135:1 5173:1 5252:1 5289:1 5304:1 5373:1 5436:1 5453:1 5535:1 5588:1 5598:1 5599:1 5600:1 5601:1 5602:1 5603:1 5604:1 5605:1 5606:1 5607:1 5608:1 5609:1 5610:1 5611:1 5612:1 5613:1 5614:1 5615:1 #
0.0013510248059132997852649360481792 8:1 9:1 10:1 18:1 36:1 60:1 82:1 87:1 139:1 149:1 154:1 155:1 166:1 167:1 172:1 174:1 184:1 196:1 201:1 218:1 236:1 245:1 250:1 251:1 256:1 263:1 291:1 296:1 313:1 323:1 335:1 336:1 395:1 400:1 472:1 572:1 588:1 623:1 649:1 686:1 691:1 700:1 712:1 713:1 858:1 892:1 894:1 1013:1 1018:1 1032:1 1040:1 1095:1 1181:1 1226:1 1244:1 1301:1 1304:1 1342:1 1345:1 1346:1 1366:1 1432:1 1434:2 1450:1 1476:1 1486:1 1491:1 1516:1 1533:1 1534:1 1551:1 1596:1 1600:1 1615:1 1629:1 1642:1 1787:1 1805:1 1809:1 1815:1 1816:1 1853:1 1955:1 1959:1 1960:1 1961:1 1965:1 2022:1 2073:1 2109:1 2151:1 2176:1 2221:2 2222:1 2248:1 2275:1 2295:1 2362:1 2443:1 2445:1 2447:1 2470:1 2479:1 2490:1 2537:1 2541:1 2553:1 2562:1 2579:1 2620:1 2630:1 2647:1 2747:1 2837:1 2913:1 3049:1 3115:1 3149:1 3159:1 3204:1 3218:1 3263:1 3371:1 3401:1 3410:1 3471:1 3499:1 3500:1 3501:1 3502:1 3635:1 3636:1 3640:1 3665:1 3683:1 3748:1 3762:1 3812:1 3818:1 3853:1 3863:1 3926:1 3934:1 4152:1 4160:1 4331:1 4388:1 4449:1 4450:1 4563:1 4821:1 4844:1 4855:1 4938:1 5050:1 5054:1 5060:1 5305:1 5330:1 5341:1 5429:1 5461:1 5968:1 6021:1 6059:1 6098:1 6405:1 6494:1 6611:1 6612:1 6633:1 6723:1 6792:1 7031:1 7032:1 #
0.0021443683353440452961369278028769 33:1 36:1 43:1 49:1 69:1 70:1 97:1 123:1 124:1 169:1 172:1 175:1 201:1 220:1 236:1 250:1 256:1 258:1 261:1 262:1 263:1 281:1 305:1 306:1 323:1 332:1 333:1 338:1 339:1 340:1 374:1 378:1 471:1 484:1 547:1 548:1 551:1 576:1 587:1 588:1 600:1 622:1 623:1 638:1 662:1 675:1 685:1 706:1 747:1 779:1 861:1 913:1 944:1 983:1 988:1 1031:1 1032:1 1092:1 1115:1 1142:1 1209:1 1221:1 1222:1 1262:1 1353:1 1364:1 1371:1 1432:1 1435:1 1476:2 1491:1 1500:2 1583:1 1592:1 1637:1 1756:1 1853:1 1866:1 1878:1 1885:1 1951:1 1954:1 1981:1 2062:1 2073:1 2123:1 2178:1 2225:1 2257:1 2268:1 2358:1 2375:1 2454:1 2457:1 2460:1 2537:1 2591:1 2599:1 2600:1 2621:1 2647:1 2736:1 2762:1 2824:1 2837:1 2862:1 2913:1 2927:1 2979:1 3003:1 3090:1 3096:1 3098:1 3100:1 3135:1 3144:1 3145:1 3228:1 3232:1 3296:1 3307:1 3328:1 3404:1 3407:1 3426:1 3431:1 3499:1 3500:1 3501:1 3502:1 3640:1 3665:1 3735:1 3848:1 3887:1 3888:1 3897:1 3979:1 4014:1 4021:1 4070:1 4388:1 4444:1 4486:1 4489:1 4515:1 4551:1 4625:1 4735:1 4736:1 4760:1 4776:1 4825:1 4878:1 5028:1 5066:1 5332:1 5345:1 5444:1 5486:1 5624:1 5836:1 5945:1 5990:1 6342:1 6519:1 6524:1 6850:1 6908:1 6909:1 6910:1 #
-0.0023219975044876579352293166635945 22:1 29:1 33:1 53:1 84:1 87:1 97:2 105:1 108:1 124:1 136:1 184:1 209:1 210:2 211:1 218:1 249:1 250:1 311:1 323:1 361:1 380:1 381:1 383:1 384:1 385:1 388:1 397:1 453:1 477:1 572:1 575:1 595:1 606:1 628:1 729:1 730:1 784:1 801:1 844:1 845:1 917:1 979:1 1053:1 1078:1 1094:1 1164:1 1165:1 1227:2 1296:1 1301:1 1337:1 1345:1 1346:1 1359:1 1371:1 1377:1 1392:1 1452:1 1503:1 1525:1 1550:1 1600:1 1735:1 1794:1 1801:1 1806:1 1809:1 1836:1 1859:1 1885:1 1887:1 1944:1 1945:1 1964:1 1975:1 2007:1 2023:1 2047:1 2103:1 2171:1 2212:1 2221:1 2222:1 2257:1 2271:1 2337:1 2400:1 2444:1 2553:1 2570:1 2579:1 2692:1 2767:1 2783:1 2794:1 2796:1 2861:1 2895:1 2904:1 2915:1 2948:2 2953:1 2984:1 3061:1 3098:1 3112:1 3173:1 3191:1 3290:1 3331:1 3418:1 3432:1 3517:1 3678:1 3730:1 3766:1 3848:1 3979:1 4096:1 4318:1 4388:1 4391:1 4444:1 4485:1 4751:1 4800:1 5090:1 5106:1 5143:1 5225:1 5258:1 5330:1 5334:1 5500:1 5520:1 5588:1 5888:1 5989:1 6104:2 6304:1 6378:1 6695:1 7181:1 7379:1 #
-0.00035644751233993005436542778063824 10:1 11:1 29:1 45:1 57:1 58:1 69:1 70:1 77:1 97:1 116:1 124:1 125:1 146:1 149:1 150:1 167:1 172:1 187:1 216:1 217:1 256:1 270:1 271:1 282:1 290:2 396:1 412:1 439:1 519:1 525:1 546:1 551:1 554:1 555:1 560:1 573:1 589:1 604:1 623:1 699:1 703:1 730:1 742:1 754:1 778:1 780:1 888:1 909:1 930:1 931:1 945:1 1037:1 1053:1 1054:1 1055:1 1058:1 1094:1 1177:1 1209:1 1217:1 1227:1 1246:1 1255:1 1304:2 1305:1 1324:1 1325:1 1333:1 1364:1 1366:1 1398:1 1437:1 1450:1 1463:1 1488:1 1528:2 1536:1 1600:1 1657:1 1719:1 1739:1 1762:1 1805:1 1809:1 1830:1 1832:1 1929:1 1934:1 2009:1 2015:1 2017:1 2018:1 2028:1 2049:1 2117:1 2139:1 2159:1 2221:1 2303:1 2307:1 2364:1 2385:1 2398:1 2467:1 2472:1 2491:1 2515:1 2568:1 2636:1 2715:1 2717:1 2773:1 2818:1 2849:1 2892:1 2938:1 2981:1 3016:1 3025:1 3026:1 3034:1 3094:1 3109:1 3149:2 3169:1 3173:1 3212:1 3213:1 3258:1 3269:1 3291:1 3321:1 3325:1 3329:1 3356:1 3360:1 3411:1 3426:1 3440:1 3457:1 3486:1 3489:1 3498:1 3519:1 3561:1 3594:1 3640:1 3673:1 3690:1 3695:1 3729:1 3736:1 3770:1 3813:1 3814:1 3838:1 3839:2 3840:1 3925:1 3988:1 4020:1 4041:1 4044:1 4063:1 4097:1 4107:1 4147:1 4201:1 4266:1 4345:1 4382:1 4397:1 4398:1 4568:1 4749:1 4773:1 4793:1 4819:1 4820:1 4825:1 4882:1 4919:1 4931:1 5020:1 5050:1 5057:1 5090:1 5121:1 5313:1 5374:1 5532:1 5556:1 5663:1 5680:1 5715:1 5849:1 5881:1 6020:1 6322:1 6341:1 6342:1 6462:1 6519:1 6627:1 6677:1 6755:1 6927:1 7467:1 7522:1 7576:1 7602:1 #
-7.6287763522375474879375079062527e-05 6:1 7:1 8:1 13:1 14:1 26:1 48:1 58:1 74:1 76:1 81:1 85:1 89:1 90:2 91:1 104:1 128:1 140:1 152:1 174:1 175:1 273:1 274:1 323:1 358:1 374:1 378:1 384:1 385:1 415:1 489:1 544:1 563:1 589:1 592:1 635:1 667:1 705:1 782:1 846:1 847:1 901:1 910:1 987:1 1019:1 1037:1 1055:1 1061:1 1118:1 1122:1 1161:1 1254:1 1293:1 1354:1 1364:1 1378:1 1379:1 1380:1 1417:1 1437:1 1452:1 1463:1 1573:1 1596:1 1723:1 1794:1 1853:1 1870:1 1887:1 1894:1 1932:1 1961:1 1971:1 1980:1 1988:1 1989:1 2016:1 2105:1 2112:1 2124:1 2128:1 2162:1 2284:1 2420:1 2549:1 2552:1 2553:1 2590:1 2623:1 2651:1 2711:1 2849:1 2883:1 2927:1 2939:1 2956:1 2991:1 3023:1 3061:1 3099:1 3100:1 3125:1 3132:1 3249:1 3311:1 3316:1 3341:1 3371:1 3666:1 3809:1 3892:1 3914:1 3918:1 3980:1 3995:1 4008:1 4040:1 4279:1 4296:1 4297:1 4332:1 4343:1 4394:1 4456:1 4485:1 4545:1 4547:1 4745:1 4807:1 4830:1 4875:1 4880:1 4977:1 5073:1 5106:1 5314:1 5499:1 5539:1 5588:1 5621:1 5694:1 5740:1 5776:1 5876:1 5888:1 5976:1 6023:1 6297:1 6451:1 6715:1 6772:1 6777:1 7039:1 #
0.0023510254675127195862771589673912 9:1 10:1 97:1 123:1 147:1 171:1 172:2 195:1 236:1 240:1 263:1 269:1 270:1 271:1 298:1 360:1 375:1 384:1 385:1 395:1 423:1 429:1 430:1 455:1 456:1 457:1 519:1 532:1 534:1 537:1 544:1 594:1 649:1 654:1 692:1 693:1 755:1 756:1 785:1 788:1 802:1 882:1 914:1 929:1 937:1 1042:2 1070:1 1087:1 1107:1 1132:1 1188:1 1268:1 1300:1 1309:1 1346:1 1365:1 1417:1 1449:1 1459:1 1463:1 1469:1 1483:1 1512:1 1518:1 1559:1 1573:1 1599:1 1615:1 1634:1 1711:1 1730:1 1756:1 1843:1 1870:1 1924:1 1981:1 2026:1 2050:1 2081:1 2095:1 2100:1 2112:1 2124:1 2155:1 2171:1 2174:1 2190:1 2193:1 2304:1 2358:1 2416:1 2428:1 2429:1 2430:1 2435:1 2445:1 2586:1 2593:1 2647:1 2664:1 2713:1 2714:1 2723:1 2739:1 2741:1 2782:1 2858:1 2879:1 2894:2 2910:1 2984:1 3023:1 3052:1 3110:1 3126:1 3183:1 3249:1 3336:1 3343:1 3397:1 3455:2 3499:1 3500:1 3516:1 3524:1 3532:1 3583:1 3596:1 3607:1 3619:1 3663:1 3671:1 3710:1 3711:1 3713:1 3743:1 3744:1 3764:1 3802:1 3804:1 3820:1 3832:1 3835:1 3890:1 3911:1 3933:1 3934:1 3997:1 4045:1 4060:1 4229:1 4232:1 4283:1 4287:1 4387:1 4590:1 4591:1 4661:1 4662:1 4666:1 4671:1 4676:1 4680:1 4681:1 4742:1 4743:1 4744:1 4745:1 4747:1 4748:1 4751:1 4752:1 4755:1 4756:1 4816:1 4821:1 4876:1 4946:1 5056:1 5180:1 5251:1 5266:1 5268:1 5299:1 5464:1 5484:1 5603:1 5921:1 6282:1 6587:1 6588:1 6589:1 6590:1 #
0.0023737221157589948224153619804611 26:1 34:1 35:1 48:1 64:1 69:1 88:1 95:1 123:1 146:1 190:1 245:1 250:1 265:1 323:1 328:1 352:1 359:1 376:1 401:2 414:1 420:1 467:1 474:1 485:1 492:1 493:1 495:1 571:1 572:1 582:1 583:1 588:1 620:1 638:1 647:1 650:1 691:1 780:1 802:1 826:1 845:1 899:1 965:1 967:2 970:1 974:1 988:1 991:1 1018:1 1084:1 1097:1 1164:1 1166:1 1175:1 1188:2 1253:1 1301:1 1355:1 1387:1 1423:1 1435:1 1436:1 1457:1 1477:1 1504:1 1532:1 1543:1 1602:1 1609:1 1625:1 1701:1 1727:1 1766:1 1782:1 1834:1 1859:1 1883:1 1946:2 1955:1 1989:1 2049:1 2121:1 2169:1 2203:1 2221:1 2232:1 2254:1 2337:1 2463:1 2553:1 2582:1 2705:1 2723:1 2724:1 2725:1 2732:1 2870:1 2887:1 2912:1 2918:1 2948:1 2991:1 3163:1 3201:1 3203:1 3217:1 3223:1 3237:1 3401:1 3425:1 3475:1 3499:1 3500:1 3501:1 3502:1 3596:1 3608:1 3628:2 3629:1 3632:1 3636:1 3659:1 3662:1 3673:1 3736:2 3747:1 3826:1 3835:1 3853:1 3870:1 3875:1 3889:1 3909:1 3968:1 4032:1 4041:1 4206:1 4219:1 4233:1 4249:1 4417:1 4420:1 4458:1 4487:1 4504:1 4505:1 4567:1 4652:1 4714:1 4761:1 4825:1 4862:1 4893:1 4911:1 4979:1 5173:1 5218:1 5219:1 5316:1 5459:1 5479:1 5544:1 5671:1 6060:1 6071:1 6072:1 6136:1 6418:1 6448:1 6552:1 6553:1 6554:1 6555:1 #
0.0010668896789071641122148559333027 1:1 9:1 10:1 14:1 24:1 42:1 75:1 97:1 107:1 131:1 147:1 150:1 172:2 195:1 236:1 240:1 246:1 263:1 265:1 290:1 299:1 321:1 360:1 375:1 380:1 384:1 385:1 388:1 389:1 395:1 409:1 430:1 455:1 532:1 534:1 594:1 649:1 667:1 692:1 693:1 755:1 756:1 802:1 852:1 914:1 929:1 934:1 937:1 1016:1 1026:1 1042:1 1070:1 1107:1 1132:1 1133:1 1170:1 1188:1 1231:1 1254:1 1268:1 1275:1 1280:1 1300:1 1346:1 1349:1 1350:1 1357:1 1379:1 1380:1 1416:1 1417:1 1427:1 1428:1 1453:1 1457:1 1483:1 1501:1 1532:1 1559:1 1573:2 1599:1 1608:1 1615:1 1688:1 1711:1 1730:2 1807:1 1815:1 1870:1 1892:1 1924:1 1968:1 2012:1 2026:1 2050:1 2112:1 2124:1 2155:1 2174:1 2190:1 2210:1 2336:1 2358:1 2406:1 2466:1 2514:1 2562:1 2647:1 2664:1 2687:1 2704:1 2713:1 2714:1 2723:1 2739:1 2782:1 2789:1 2858:1 2894:1 2910:1 2984:1 3023:1 3110:1 3138:1 3183:1 3203:1 3211:1 3249:1 3307:1 3372:1 3388:1 3397:1 3483:1 3499:1 3500:1 3516:1 3524:1 3532:1 3607:1 3637:1 3706:1 3707:1 3710:1 3711:1 3743:1 3744:1 3762:1 3802:1 3804:1 3805:1 3818:1 3820:1 3830:1 3835:1 3871:1 3934:1 4045:1 4060:1 4283:1 4387:1 4590:1 4632:1 4662:1 4670:1 4671:1 4676:1 4680:1 4681:1 4742:1 4744:1 4745:1 4747:1 4748:1 4751:2 4752:1 4821:1 4861:1 4925:1 4937:1 4985:1 5180:1 5251:1 5266:1 5361:1 5410:1 5921:1 5967:1 6080:1 6303:1 6590:1 6640:1 6772:1 6807:1 6917:1 #
0.0037401951376822791840714987898764 2:1 5:1 6:1 19:1 26:1 49:1 57:1 146:1 155:1 172:1 195:1 201:1 236:1 240:1 290:2 292:1 335:1 364:1 365:1 378:1 379:1 380:1 430:1 431:1 435:1 453:1 481:1 504:1 511:1 530:1 534:1 537:1 566:1 572:1 587:1 590:1 603:1 604:1 613:1 626:1 700:1 741:1 765:1 784:1 788:1 846:1 848:1 861:1 862:1 889:1 931:1 937:1 956:1 977:1 1021:1 1025:1 1057:1 1078:1 1150:1 1183:1 1189:1 1199:1 1217:1 1219:1 1236:1 1280:2 1296:1 1303:1 1311:1 1341:1 1346:1 1347:1 1364:1 1370:1 1387:1 1399:1 1440:2 1457:1 1460:1 1673:1 1728:1 1809:1 1821:1 1852:1 1853:1 1857:2 1875:1 1915:1 1936:1 1937:1 1949:1 2029:1 2111:1 2124:1 2154:1 2191:1 2254:1 2289:1 2291:1 2320:1 2339:1 2353:1 2354:1 2357:1 2369:1 2450:1 2553:1 2719:1 2727:1 2730:1 2761:1 2867:1 2876:1 2917:1 2926:1 2970:1 2987:1 3096:1 3105:1 3110:1 3125:1 3179:1 3236:1 3255:1 3277:1 3331:1 3338:1 3501:1 3502:1 3509:1 3540:1 3566:1 3600:1 3615:1 3651:1 3665:1 3667:2 3694:1 3747:1 3761:1 3767:1 3904:1 4028:1 4041:1 4043:1 4045:1 4057:1 4059:1 4060:1 4112:1 4126:1 4403:1 4478:1 4496:1 4580:1 4601:1 4629:1 4671:1 4825:1 4988:1 5037:1 5153:1 5362:1 5427:1 5744:1 5836:1 5901:1 5927:1 6221:1 6257:1 6330:1 6552:1 6642:1 6916:1 #
-0.0015077383229459505840919231189901 39:1 52:1 95:1 98:1 110:1 171:1 172:1 257:1 263:1 266:1 295:1 352:1 387:1 411:1 414:1 416:1 435:1 504:2 516:1 517:1 536:1 537:1 541:1 644:1 655:1 668:1 698:1 784:1 789:1 792:1 800:1 826:1 866:1 872:1 907:1 922:1 923:1 931:2 992:1 1010:1 1026:1 1033:1 1034:1 1043:1 1068:1 1092:1 1132:1 1214:1 1218:2 1234:1 1244:1 1245:1 1282:1 1308:1 1309:1 1387:1 1421:1 1425:1 1440:1 1447:1 1483:1 1501:1 1514:1 1519:1 1573:1 1574:1 1585:1 1596:1 1766:1 1784:1 1789:1 1821:1 1834:1 1843:1 1903:1 1935:1 1949:1 1970:1 2008:1 2031:1 2058:1 2085:1 2118:1 2121:1 2133:1 2139:1 2154:1 2172:1 2189:1 2201:1 2300:1 2354:1 2437:1 2452:1 2479:1 2518:1 2522:1 2630:1 2719:1 2722:1 2773:1 2870:1 2934:1 2942:1 2968:1 2969:1 2987:1 3049:1 3097:1 3161:1 3243:1 3292:1 3398:1 3609:1 3654:1 3696:1 3706:1 3747:1 3852:1 3863:1 4045:1 4112:1 4176:1 4199:1 4201:1 4233:1 4283:1 4286:1 4299:1 4324:1 4349:1 4386:1 4465:1 4552:1 4585:1 4619:1 4666:1 4823:1 4999:1 5162:1 5174:1 5260:1 5261:1 5283:1 5355:1 5393:1 5457:1 5468:1 5850:1 6232:1 6283:1 6447:1 6784:1 6836:1 6931:1 7062:1 7322:1 #
-0.00066136266159654347445567834640201 18:1 33:1 39:1 40:1 41:1 47:1 48:1 111:1 143:1 192:1 219:1 264:1 290:1 334:1 343:1 352:1 402:1 409:1 523:1 536:1 537:1 545:1 547:1 549:1 579:1 594:1 607:1 626:1 627:1 645:1 706:1 740:1 750:1 766:1 768:1 778:1 787:1 839:1 843:1 847:1 877:1 878:1 907:1 930:1 931:1 969:1 1039:1 1040:1 1056:1 1115:1 1154:1 1174:1 1234:1 1243:1 1244:1 1261:1 1297:1 1325:1 1345:1 1371:1 1391:1 1405:1 1415:1 1434:1 1457:1 1476:1 1482:1 1493:1 1524:1 1529:1 1530:1 1533:1 1539:1 1577:1 1599:1 1642:1 1658:1 1672:1 1723:1 1756:1 1759:1 1768:1 1826:1 1879:1 1914:1 1941:1 1958:1 1961:1 1970:1 2046:1 2082:1 2193:1 2218:1 2231:1 2233:1 2266:1 2268:1 2269:1 2304:1 2309:1 2316:1 2330:1 2337:1 2342:1 2358:1 2406:1 2418:1 2422:1 2445:1 2471:2 2503:1 2522:1 2543:1 2631:1 2655:1 2665:1 2671:1 2674:1 2702:1 2748:1 2773:1 2840:1 2894:1 2908:1 2946:1 2957:1 2962:1 2970:1 2975:1 2987:1 2990:1 2994:1 3055:1 3134:1 3135:1 3159:1 3177:1 3178:1 3183:1 3232:1 3240:1 3279:1 3436:1 3443:1 3447:1 3459:1 3510:1 3532:1 3561:1 3646:1 3651:1 3696:1 3743:1 3755:1 3764:1 3821:1 3852:1 3863:1 3919:1 3982:1 4080:1 4108:1 4172:1 4207:1 4227:1 4228:1 4263:1 4273:1 4334:1 4345:1 4403:1 4435:1 4460:1 4536:1 4611:1 4744:1 4859:1 4861:1 4876:1 4894:1 4921:1 4980:2 5102:1 5206:1 5279:1 5464:1 5553:1 5648:1 5653:1 5681:1 5868:1 5930:1 6175:1 6183:1 6371:1 6651:1 6931:1 6992:1 7105:1 #
-0.0013904115635492060327332852764926 3:1 110:1 131:1 154:2 182:1 184:1 190:1 191:1 192:1 211:1 212:1 257:1 327:1 336:1 380:1 396:1 397:1 431:1 435:1 436:1 437:1 469:1 492:1 592:1 667:1 698:1 706:1 715:1 719:1 747:2 773:1 781:1 784:1 792:1 870:1 875:1 881:1 895:1 899:1 920:1 943:1 944:1 970:1 1031:1 1050:1 1068:1 1089:1 1115:1 1118:1 1119:1 1133:1 1156:1 1213:1 1217:1 1223:1 1369:1 1370:1 1408:1 1411:1 1413:1 1414:1 1434:1 1460:1 1483:1 1487:1 1488:1 1573:1 1629:1 1630:1 1668:1 1673:1 1678:1 1679:1 1719:1 1721:1 1726:1 1788:1 1790:1 1803:1 1867:1 1876:1 2139:1 2156:1 2172:1 2183:1 2232:1 2233:1 2293:1 2302:1 2336:2 2345:1 2445:1 2466:1 2477:1 2480:1 2547:1 2556:1 2567:1 2574:1 2595:1 2643:1 2660:1 2671:1 2676:1 2719:1 2751:1 2801:1 2934:1 2981:1 3059:1 3064:1 3097:1 3183:1 3198:1 3221:1 3232:1 3297:1 3307:1 3337:1 3348:1 3469:1 3649:1 3681:1 3697:1 3737:1 3747:1 3821:1 3863:1 3874:1 3944:1 3962:1 3977:1 3981:1 4017:1 4112:1 4138:1 4181:1 4266:1 4308:1 4346:1 4412:1 4424:1 4458:1 4567:1 4580:1 4605:1 4626:1 4667:1 4728:1 4832:1 4967:1 4970:1 5010:1 5046:1 5177:1 5229:1 5288:1 5406:1 5421:1 5432:1 5452:1 5495:1 5500:1 5671:1 5841:1 5864:1 5935:1 6016:1 6036:1 6175:1 6194:1 6643:1 7062:1 #
-0.0012483810004211685386332764124973 39:1 40:1 41:1 65:1 75:1 79:1 118:1 123:1 182:1 192:1 256:1 257:1 264:1 270:1 280:1 290:1 303:1 327:1 410:1 502:1 520:1 591:1 592:1 620:1 800:1 802:1 842:1 846:1 899:1 903:1 998:1 1100:1 1123:1 1146:1 1201:1 1217:1 1224:1 1280:1 1325:1 1357:1 1370:1 1403:1 1447:1 1503:1 1550:1 1551:1 1590:1 1632:1 1642:1 1649:1 1668:1 1681:1 1754:1 1821:1 1857:1 1864:1 1867:1 1914:1 1929:1 1937:1 1946:1 1970:1 2023:1 2119:1 2148:1 2246:1 2254:1 2294:1 2309:1 2342:1 2366:1 2425:1 2466:1 2531:1 2553:1 2609:1 2671:1 2753:1 2763:1 2765:1 2784:1 2788:1 2835:1 2863:1 2873:1 2921:1 2922:1 2924:1 2946:1 2988:1 3016:1 3020:1 3063:1 3090:1 3102:1 3125:1 3164:1 3198:1 3305:1 3312:1 3447:1 3511:1 3534:1 3662:1 3780:1 3816:1 3820:1 3831:1 3844:1 3868:1 3871:1 4017:1 4033:1 4044:1 4048:1 4091:1 4092:1 4093:1 4138:1 4180:1 4238:1 4268:1 4395:1 4420:1 4431:1 4434:1 4472:1 4530:1 4577:1 4731:1 4851:1 4866:1 5065:1 5116:1 5152:1 5172:2 5248:1 5250:1 5319:1 5369:1 5420:1 5554:1 5621:1 6039:1 6121:1 6127:1 6135:1 6221:1 6251:1 6267:1 6332:1 6367:1 6427:1 6429:1 6934:1 6945:1 6992:1 7254:1 #
-0.00063319859986922738884218553323535 6:1 17:1 26:1 39:1 65:1 89:1 169:1 209:1 257:1 289:1 352:1 371:1 518:1 520:1 524:1 526:1 545:1 572:1 574:1 591:1 619:1 631:1 647:1 651:1 654:1 734:1 735:1 768:1 784:1 792:1 798:1 895:1 903:1 926:1 969:1 976:1 1002:1 1005:1 1080:1 1086:1 1143:1 1174:1 1186:1 1224:1 1244:1 1255:1 1265:1 1282:1 1323:1 1341:1 1346:1 1353:1 1354:1 1357:1 1371:1 1425:1 1428:1 1440:1 1449:2 1483:2 1501:1 1504:1 1554:1 1573:1 1574:1 1600:1 1633:1 1668:1 1701:1 1763:1 1768:1 1772:1 1779:1 1805:1 1810:1 1929:1 1935:1 1936:1 1938:1 1949:1 1961:1 2007:1 2011:1 2049:1 2064:1 2072:1 2101:1 2105:1 2171:1 2254:1 2294:1 2316:1 2338:1 2342:1 2501:1 2522:1 2579:1 2589:1 2671:1 2674:1 2732:1 2870:1 2917:1 2936:1 3006:1 3020:1 3049:1 3069:1 3077:1 3117:1 3211:1 3398:1 3639:1 3665:1 3696:1 3747:1 3854:1 3861:1 3863:1 3952:1 4032:1 4140:1 4142:1 4176:1 4282:1 4283:1 4555:1 4629:1 4666:1 4678:1 4775:1 4778:1 4829:1 4838:1 4851:2 5047:1 5128:1 5129:1 5162:1 5172:1 5261:1 5392:1 5468:1 5566:1 5770:1 6002:1 6212:1 6713:1 6931:1 6992:1 7019:1 7033:1 7096:1 7109:1 7160:1 #
