SVM-light Version V6.01
0 # kernel type
3 # kernel parameter -d 
1 # kernel parameter -g 
1 # kernel parameter -s 
1 # kernel parameter -r 
empty# kernel parameter -u 
7764 # highest feature index 
4751 # number of training documents 
370 # number of support vectors plus 1 
0.93023139 # threshold b, each following line is a SV (starting with alpha*y)
-0.00063713037871613578330687310824487 9:1 10:1 48:1 53:2 54:1 74:1 85:1 90:1 91:1 97:1 109:1 115:1 172:1 250:1 262:1 263:1 264:1 323:1 372:1 378:1 379:1 413:1 442:1 461:1 475:1 477:1 478:1 496:1 536:1 552:1 561:1 619:1 627:1 639:1 643:1 731:1 742:1 746:1 829:1 847:1 855:1 907:1 932:1 943:1 944:1 962:1 966:1 1021:1 1026:2 1037:1 1055:1 1071:1 1118:1 1190:1 1217:1 1219:1 1243:1 1255:1 1279:1 1304:1 1305:1 1344:1 1345:1 1396:1 1422:1 1452:1 1497:1 1553:1 1554:1 1585:1 1632:1 1651:1 1656:1 1662:1 1680:1 1722:1 1766:1 1809:1 1904:1 1965:1 1978:1 1996:1 2017:1 2018:2 2104:1 2119:1 2208:1 2254:1 2259:1 2537:1 2549:1 2597:1 2623:1 2790:1 2794:1 2961:1 3132:1 3173:1 3205:1 3276:1 3396:1 3431:1 3515:1 3594:1 3620:2 3630:1 3650:1 3690:1 3699:1 3730:1 3774:1 3819:1 3957:1 4021:1 4165:1 4179:1 4227:1 4284:1 4330:1 4385:1 4408:1 4485:1 4580:1 4742:1 4746:1 4831:2 4838:1 4898:1 4908:1 4955:1 5050:1 5128:1 5151:1 5159:1 5318:1 5330:1 5354:1 5433:1 5500:1 5601:1 5622:1 5664:1 5876:1 5888:1 6552:1 6805:1 7065:1 7296:1 7675:1 #
-0.00055060290000254262336720767478937 9:1 10:1 23:1 26:1 32:1 33:1 36:1 48:1 88:1 89:1 90:2 97:1 111:1 139:2 172:1 173:1 219:1 250:1 284:1 323:1 336:1 342:1 366:1 372:1 379:1 383:1 393:1 396:1 416:1 438:1 470:1 533:1 572:1 631:1 643:1 645:1 658:1 774:1 818:1 825:1 847:1 931:1 932:1 943:1 951:1 992:1 1057:1 1266:1 1267:1 1338:1 1364:1 1387:1 1412:1 1452:1 1476:1 1492:1 1532:1 1580:1 1612:1 1662:1 1668:1 1673:1 1674:1 1691:1 1749:1 1761:1 1853:1 1857:1 1869:1 1871:1 1902:1 1903:1 1951:1 1952:1 1953:1 1973:1 2008:1 2017:1 2018:1 2028:1 2058:1 2062:1 2077:1 2085:1 2086:1 2109:1 2154:1 2319:1 2358:1 2405:1 2444:1 2479:1 2491:1 2523:1 2549:1 2623:1 2627:1 2655:1 2660:1 2757:1 2794:1 2837:1 2878:1 2965:1 2977:1 3055:1 3096:1 3108:1 3125:1 3128:1 3132:1 3148:2 3212:1 3296:1 3381:1 3383:1 3390:1 3409:1 3549:1 3594:1 3654:1 3706:1 3719:1 3730:1 3946:1 3996:1 3998:1 4043:1 4209:1 4296:1 4334:1 4343:1 4355:1 4734:1 4945:1 4969:1 5330:1 5411:1 5468:1 5569:1 5781:1 5805:1 5840:1 5841:1 5888:1 5983:1 6134:1 6695:1 7310:1 7538:1 7666:1 7675:1 #
-0.0018570880396598906172944687398285 6:1 8:1 13:1 33:1 36:1 44:1 63:1 87:1 88:1 89:1 90:2 91:2 92:1 97:1 108:1 210:3 257:1 258:1 302:1 321:1 323:1 335:1 360:1 393:1 401:1 422:1 427:1 436:1 484:1 495:1 511:1 529:1 534:1 549:1 588:1 605:1 606:1 621:1 623:1 624:1 643:1 758:1 762:1 779:1 782:1 789:1 821:1 846:1 853:1 858:1 866:1 934:1 1004:1 1022:1 1032:1 1085:1 1255:1 1271:1 1273:1 1283:1 1341:1 1359:1 1387:1 1415:1 1476:1 1491:1 1500:1 1513:1 1525:1 1529:1 1533:1 1541:1 1547:1 1550:2 1562:1 1600:1 1634:1 1659:1 1678:1 1727:1 1768:1 1787:1 1804:1 1809:1 1815:1 1844:1 1853:1 1869:1 1872:1 2042:1 2045:1 2052:1 2123:1 2155:1 2164:2 2189:1 2206:1 2268:1 2289:1 2358:1 2414:1 2422:1 2439:1 2440:1 2487:1 2490:1 2535:1 2595:1 2600:1 2602:1 2648:1 2755:1 2837:1 2907:1 2912:1 2913:1 2952:1 2994:1 3094:1 3115:1 3161:1 3235:1 3355:1 3371:1 3429:1 3452:1 3519:1 3595:1 3601:1 3602:1 3653:1 3665:1 3668:1 3735:1 3778:1 3852:1 3853:1 3867:1 3918:1 3979:1 4022:1 4160:1 4255:1 4373:1 4417:1 4551:1 4563:1 4577:1 4618:1 4855:1 4955:1 5419:1 5441:1 5664:1 6559:1 6807:1 6987:1 7022:1 #
-0.00047492359301452066050464040358747 2:1 8:1 9:1 10:1 11:1 15:1 26:2 27:1 28:1 29:1 30:1 37:1 45:1 46:1 47:1 48:1 49:1 50:1 51:1 52:1 53:1 54:1 61:1 62:1 63:1 64:1 65:1 66:1 67:1 68:1 69:1 70:1 71:1 79:1 83:1 89:1 90:1 91:1 92:1 93:1 107:1 117:1 118:1 119:1 145:1 146:1 147:1 148:1 172:1 173:1 197:1 201:1 327:1 377:2 409:2 410:1 411:1 412:1 413:1 414:1 415:1 416:1 417:1 418:1 419:1 420:1 421:1 422:1 423:1 424:1 425:1 426:1 427:1 428:1 429:1 430:1 431:1 432:1 433:1 434:1 435:1 436:1 437:1 438:1 439:1 440:1 441:1 442:1 443:1 444:1 445:1 446:1 447:1 448:1 449:1 450:1 451:1 452:1 453:1 454:1 455:1 456:1 457:1 458:1 459:1 460:1 461:1 462:1 463:1 464:1 465:1 466:1 467:1 468:1 469:1 470:1 471:1 472:1 473:1 474:1 475:1 476:1 477:1 478:1 479:1 480:1 481:1 482:1 483:1 484:1 485:1 486:1 487:1 488:1 489:1 490:1 491:1 492:1 493:1 494:1 495:1 496:1 497:1 498:1 499:1 500:1 501:1 502:1 503:1 504:1 505:1 506:1 #
0.00037614108963252257085765895006091 9:1 10:1 13:1 19:1 32:2 33:1 34:1 35:1 45:1 69:1 70:1 115:1 123:1 124:1 125:1 172:1 184:1 218:1 249:1 256:1 291:1 350:1 361:1 373:1 396:1 422:1 439:1 441:1 446:1 476:1 535:1 551:1 555:1 560:1 561:1 571:1 573:1 575:1 576:1 597:1 607:1 650:1 658:1 665:1 691:2 703:1 765:1 838:1 862:1 917:1 942:1 964:1 1038:1 1056:1 1057:1 1095:1 1171:1 1200:1 1217:1 1219:1 1236:1 1247:1 1255:1 1305:1 1311:1 1325:1 1329:1 1330:1 1339:1 1413:1 1415:1 1452:1 1457:1 1468:1 1520:1 1528:1 1541:1 1547:1 1560:1 1586:1 1600:1 1673:1 1674:1 1691:1 1717:1 1727:1 1735:1 1760:1 1776:1 1805:1 1809:1 1814:1 1815:1 1833:1 1843:1 1844:1 1859:1 1865:1 1866:1 1878:1 1887:1 1938:1 1947:1 1951:1 1952:1 2139:1 2141:1 2148:1 2216:1 2217:2 2318:1 2378:1 2405:1 2467:1 2493:1 2555:1 2575:1 2622:1 2639:1 2719:1 2720:1 2748:1 2761:1 2811:1 2897:1 2975:1 2999:1 3025:1 3034:1 3040:1 3087:1 3097:1 3099:1 3100:1 3113:1 3136:1 3149:1 3221:1 3235:1 3247:1 3278:1 3291:1 3446:1 3466:1 3489:1 3493:1 3498:1 3517:1 3556:1 3587:1 3588:2 3626:1 3640:1 3703:1 3730:1 3737:1 3804:1 3828:1 3876:1 3925:1 3927:1 3933:1 3960:1 3983:1 4075:1 4078:1 4106:1 4130:1 4131:1 4164:1 4166:1 4277:1 4295:1 4335:1 4336:1 4447:1 4458:1 4506:1 4651:1 4690:1 4699:1 4719:1 4772:1 4773:1 4779:1 4873:1 4888:1 4931:1 5080:1 5089:1 5167:1 5225:1 5287:1 5352:2 5459:1 5510:1 5541:1 5663:1 5676:1 5713:1 5817:1 5875:1 5885:1 5971:2 6020:1 6091:1 6115:1 6157:1 6211:1 6573:1 6614:1 6630:1 6832:1 6863:1 6989:1 7414:1 7472:1 7522:1 #
-0.00054440114595509091644648380636795 9:1 10:1 24:1 52:1 63:1 69:1 73:1 116:1 152:1 168:1 169:1 170:1 171:1 172:1 173:1 183:1 196:1 201:1 218:1 219:1 220:1 250:1 405:1 412:1 439:1 449:1 492:1 493:1 494:1 504:1 505:1 521:1 552:1 571:1 609:2 611:1 612:1 614:1 618:1 622:1 624:1 652:1 655:1 683:1 691:2 734:1 754:2 780:1 819:1 830:1 847:1 872:1 932:1 939:1 981:1 987:1 1016:1 1018:1 1023:1 1033:1 1051:1 1055:1 1135:1 1139:1 1252:1 1253:1 1254:1 1348:1 1363:1 1371:1 1386:1 1387:1 1405:1 1448:1 1490:1 1496:1 1546:1 1557:1 1559:1 1599:1 1602:1 1609:1 1610:1 1634:1 1662:1 1664:1 1700:1 1709:1 1831:1 1832:1 1858:1 1859:1 1879:1 1920:1 1948:1 2041:1 2055:1 2066:1 2083:1 2196:1 2203:1 2223:1 2258:1 2261:1 2319:1 2372:1 2398:2 2435:1 2517:1 2618:1 2619:1 2649:1 2667:1 2702:1 2758:1 2773:1 2833:1 2907:1 2934:1 2972:1 2987:1 3010:1 3016:1 3034:1 3050:2 3109:1 3244:1 3260:1 3402:1 3432:1 3439:1 3760:1 3784:1 3956:1 4152:1 4233:1 4258:1 4281:1 4403:1 4469:1 4512:1 4662:1 4751:1 4775:1 4785:1 4916:1 5012:1 5081:2 5445:1 5522:1 6112:1 6365:1 6901:1 7065:1 7120:1 7568:1 #
-0.00063144001633238860601848863041141 5:1 6:1 39:1 40:1 41:1 43:1 182:1 208:1 220:1 264:1 265:1 313:1 381:1 393:1 477:1 478:1 492:1 500:1 520:1 572:1 657:1 666:1 667:1 672:1 743:1 762:1 872:1 873:1 926:1 937:1 1041:1 1068:1 1111:1 1133:1 1182:2 1201:1 1325:1 1400:1 1410:1 1411:1 1412:1 1416:1 1425:1 1428:1 1439:1 1452:1 1456:1 1470:1 1471:1 1483:1 1497:1 1529:1 1534:1 1536:1 1574:1 1577:1 1581:1 1619:1 1629:1 1658:1 1720:2 1724:1 1730:1 1742:1 1759:1 1768:1 1769:1 1803:1 1826:1 1843:1 1859:1 1948:1 2116:1 2118:1 2122:1 2123:1 2125:1 2164:1 2172:1 2204:1 2232:1 2250:1 2294:1 2303:1 2304:1 2317:1 2427:1 2430:1 2443:1 2453:1 2485:1 2535:1 2557:1 2581:1 2639:1 2640:1 2668:1 2669:1 2671:1 2674:1 2741:1 2788:1 2801:1 2897:1 2909:1 2935:1 3027:1 3034:1 3180:1 3181:1 3218:1 3231:1 3249:1 3263:1 3307:1 3341:1 3379:1 3455:1 3511:1 3624:1 3625:1 3645:1 3701:1 3749:1 3785:1 3797:1 3803:1 3820:1 3845:1 3863:1 3867:1 4035:1 4036:1 4166:1 4171:1 4173:1 4194:1 4199:1 4254:1 4267:1 4283:1 4345:1 4402:1 4444:1 4465:1 4487:1 4512:1 4611:1 4660:1 4764:1 4775:1 4786:1 4806:1 4819:1 4941:1 4965:1 4967:1 5044:1 5175:1 5231:1 5254:1 5258:1 5261:1 5341:1 5537:1 5615:1 5633:1 5748:1 5881:1 5888:1 6037:1 6055:1 6077:1 6271:1 6396:1 6556:1 #
0.00017474794487661659083722887064738 28:1 45:1 70:1 80:1 108:1 119:1 146:1 172:1 202:1 211:1 221:1 267:1 280:1 291:1 293:1 331:1 347:1 351:1 353:1 354:1 376:1 396:1 439:1 482:1 495:1 496:1 534:1 561:1 626:1 628:1 638:1 673:1 689:1 699:1 743:1 747:1 756:1 768:1 774:1 801:1 846:1 847:1 848:1 874:1 882:1 888:1 891:1 936:1 964:1 1005:1 1054:2 1055:1 1068:1 1088:1 1090:1 1091:1 1092:2 1094:1 1133:1 1134:1 1135:1 1141:1 1209:1 1232:1 1255:1 1266:1 1325:1 1346:1 1371:1 1458:1 1467:1 1484:1 1528:1 1535:1 1536:1 1575:1 1588:1 1599:1 1622:1 1629:1 1636:1 1652:1 1671:1 1690:1 1726:1 1861:1 1870:1 1872:1 1884:1 1889:1 1934:1 1938:1 1948:2 1959:1 1983:1 2009:1 2017:1 2018:1 2022:1 2043:1 2064:1 2093:1 2154:1 2174:1 2236:1 2237:1 2306:1 2416:1 2422:1 2462:1 2472:1 2483:1 2542:1 2559:1 2606:1 2612:1 2618:1 2630:1 2638:1 2648:1 2660:1 2665:1 2733:1 2820:1 2830:1 2845:1 2874:1 2913:1 2982:1 3003:1 3034:1 3052:1 3115:1 3125:1 3134:1 3149:1 3152:1 3233:1 3311:1 3323:1 3407:1 3482:1 3561:1 3600:1 3601:1 3602:2 3706:1 3748:1 3774:1 3796:1 3839:1 3840:1 3873:1 4062:1 4167:1 4187:1 4191:1 4318:1 4336:1 4386:1 4428:1 4439:1 4487:1 4572:1 4582:1 4682:1 4723:1 4727:1 4729:1 4758:1 4793:1 4797:1 4832:1 4874:1 4930:1 4931:1 4989:1 4999:1 5010:1 5076:1 5077:1 5135:1 5254:1 5261:1 5311:1 5347:1 5363:1 5381:1 5443:1 5493:1 5573:1 5608:1 5640:1 5673:1 5805:1 5814:1 5924:1 5971:1 6026:1 6092:1 6268:1 6356:1 6375:1 6430:1 6615:1 6687:1 6711:1 6743:1 6756:1 7080:1 7106:1 7396:1 #
0.00025173419987863381204473700591961 5:1 23:1 26:1 28:1 40:1 45:1 64:1 68:1 69:1 77:1 90:1 97:1 167:1 172:1 216:1 244:1 261:1 274:1 299:1 300:1 346:1 358:1 360:1 372:1 378:1 380:1 387:1 439:1 472:1 477:1 511:1 534:1 549:1 551:2 552:1 560:1 574:1 588:1 664:1 680:1 681:1 691:1 692:1 732:1 740:1 742:1 756:1 765:1 773:1 791:2 792:1 839:1 847:1 872:1 880:1 920:1 945:1 966:1 991:1 1014:1 1039:1 1040:1 1055:1 1082:1 1118:1 1155:1 1190:1 1224:1 1232:1 1265:1 1266:1 1325:1 1341:1 1363:1 1370:1 1397:1 1434:1 1436:1 1449:1 1463:1 1471:1 1488:1 1528:1 1536:1 1668:1 1690:1 1701:1 1723:1 1736:1 1766:1 1778:1 1802:1 1832:1 1857:1 1884:1 1914:1 1943:1 1946:1 1972:1 1980:1 2008:1 2009:1 2017:1 2018:1 2028:1 2041:1 2088:1 2103:1 2151:1 2161:2 2166:1 2208:1 2271:1 2276:1 2297:1 2306:1 2307:1 2317:1 2347:2 2357:1 2370:1 2402:1 2450:1 2467:1 2483:1 2572:1 2578:1 2589:1 2622:1 2659:1 2708:1 2719:1 2722:1 2726:1 2727:1 2743:1 2855:1 2985:1 2988:1 3008:1 3033:1 3034:1 3125:2 3135:1 3149:1 3188:1 3232:1 3252:1 3271:1 3381:1 3399:1 3405:2 3411:1 3413:1 3416:1 3498:1 3516:1 3589:1 3603:1 3640:1 3667:1 3730:1 3736:1 3868:1 3893:1 3933:1 3957:1 4044:1 4112:1 4132:1 4133:1 4141:1 4165:1 4167:1 4226:1 4256:1 4361:1 4362:1 4487:1 4490:1 4520:1 4709:1 4775:1 4793:1 4832:1 4844:1 4931:1 5124:1 5133:1 5254:1 5337:1 5347:1 5381:1 5403:1 5404:1 5408:1 5915:1 5973:1 6028:1 6555:1 6730:1 6805:1 7101:1 7105:1 7164:1 7307:1 7373:1 7436:1 7470:1 #
0.00055424206098557188184677846365389 6:1 9:1 10:1 11:1 13:1 15:1 45:1 108:1 109:1 116:1 119:1 124:1 166:1 167:1 172:1 195:1 234:1 290:1 297:1 317:1 357:1 360:1 396:1 439:1 442:1 450:1 453:1 459:1 471:1 490:1 497:1 511:1 527:1 534:1 561:1 572:1 573:1 585:1 608:1 623:1 638:1 643:1 646:1 711:1 729:1 730:1 731:1 772:1 773:1 779:1 780:1 882:1 915:1 916:1 922:1 925:1 930:1 933:1 945:1 949:1 964:1 1031:1 1032:1 1040:1 1082:2 1095:1 1119:1 1124:1 1133:1 1148:1 1215:1 1231:1 1248:1 1266:1 1296:1 1313:1 1325:1 1359:1 1370:1 1371:1 1373:1 1404:1 1411:1 1430:1 1454:1 1461:1 1489:1 1500:1 1519:1 1532:1 1614:1 1635:1 1660:1 1667:1 1728:1 1729:1 1799:1 1800:1 1804:1 1809:1 1827:1 1859:1 1876:1 1896:1 1913:1 1941:1 1946:1 1976:1 2012:1 2017:1 2018:1 2019:1 2026:1 2037:1 2108:1 2131:1 2150:1 2153:1 2155:1 2232:1 2288:1 2289:1 2318:1 2435:1 2510:1 2519:1 2589:1 2601:1 2606:1 2610:1 2637:1 2643:1 2648:1 2656:1 2659:1 2660:2 2702:1 2725:1 2769:1 2835:1 2860:1 2919:1 2989:1 3034:1 3064:1 3125:1 3149:1 3205:1 3233:1 3240:1 3310:1 3400:1 3408:1 3415:1 3489:1 3498:1 3525:1 3556:1 3571:1 3587:1 3588:1 3640:1 3735:1 3756:1 3828:1 3845:1 3869:1 3925:1 3927:1 3946:1 3967:1 3983:1 4063:1 4133:1 4136:1 4182:1 4344:1 4410:1 4434:1 4539:1 4568:1 4570:1 4584:1 4669:1 4714:1 4898:1 4931:1 4989:1 5006:1 5020:1 5062:1 5076:1 5077:1 5083:1 5167:1 5349:1 5709:1 5794:1 5841:1 5876:1 5934:1 5977:1 6027:1 6177:1 6288:1 6562:1 6613:1 6665:1 6749:1 7033:1 7167:1 7360:1 7408:1 7415:1 7416:1 7445:1 7502:1 #
-0.0018144218906656064613236445381972 16:1 39:1 40:1 41:1 42:1 48:1 71:1 75:1 293:1 299:1 300:1 303:1 339:1 414:1 439:1 441:1 442:1 475:1 555:1 620:1 645:1 690:1 704:1 706:1 749:2 760:1 825:1 831:2 847:1 852:1 881:1 893:1 906:1 915:1 916:1 964:1 979:1 983:1 998:1 1010:1 1054:1 1082:1 1091:1 1110:1 1112:1 1121:1 1189:1 1253:1 1266:1 1267:1 1291:1 1325:1 1358:1 1370:1 1385:1 1394:1 1401:1 1416:1 1417:1 1421:1 1424:1 1425:1 1461:1 1471:1 1483:1 1488:1 1520:1 1526:1 1540:1 1569:1 1574:1 1575:1 1632:1 1643:1 1645:1 1704:1 1720:1 1779:1 1826:1 1832:1 1843:1 1867:1 1873:1 1953:1 1961:1 1966:1 2072:1 2076:1 2085:1 2090:1 2095:1 2139:1 2156:1 2232:1 2331:1 2337:1 2404:1 2448:1 2453:1 2551:1 2555:1 2574:1 2595:1 2650:1 2659:1 2671:1 2704:1 2801:1 2870:1 2874:1 2892:1 2939:1 2982:1 3015:1 3017:1 3034:2 3080:1 3087:1 3135:1 3136:1 3161:1 3218:1 3223:1 3252:1 3260:1 3274:1 3352:1 3391:1 3395:1 3528:1 3534:1 3544:1 3558:1 3611:1 3632:1 3747:1 3807:1 3838:1 3874:1 3988:1 4022:1 4113:1 4121:1 4137:1 4165:1 4180:1 4190:1 4265:1 4308:1 4319:1 4367:1 4406:2 4460:1 4501:1 4620:1 4859:1 4866:1 4899:1 4980:1 5024:1 5065:1 5068:1 5072:1 5082:1 5186:1 5191:1 5259:1 5260:1 5376:1 5471:1 5645:1 5825:1 6344:1 6472:1 6607:1 6730:1 7062:1 7148:1 #
-0.00045099548988095935304551420408359 97:1 155:1 166:1 172:1 211:1 236:1 263:2 281:1 318:1 321:1 344:1 354:1 364:1 375:1 377:1 380:1 385:2 406:1 442:1 479:1 522:1 534:1 544:1 564:1 589:1 604:1 611:1 625:1 638:1 729:1 754:1 802:1 804:1 826:1 846:1 870:1 877:1 903:1 922:1 937:1 1095:1 1105:1 1120:1 1184:1 1217:1 1246:1 1254:1 1316:1 1335:1 1339:1 1357:1 1365:1 1370:1 1385:1 1442:1 1456:1 1500:1 1518:1 1521:1 1535:1 1536:1 1615:1 1626:1 1665:1 1687:1 1691:1 1696:1 1709:1 1730:1 1801:1 1817:1 1821:1 1876:1 1897:1 1915:1 1959:2 1969:1 1978:1 1984:1 1993:1 1997:1 2007:1 2035:1 2038:1 2041:1 2043:2 2088:1 2094:1 2108:1 2163:1 2164:1 2220:1 2316:1 2338:1 2344:1 2429:1 2434:1 2450:1 2491:1 2502:1 2524:1 2606:1 2607:1 2611:1 2620:1 2659:1 2663:1 2717:1 2783:1 2786:1 2789:1 2812:1 2868:1 2893:1 2900:1 2940:1 2941:1 2947:1 2986:1 2989:1 3007:1 3025:1 3049:1 3105:1 3218:1 3244:1 3247:1 3291:1 3329:1 3330:1 3361:1 3413:1 3433:1 3462:1 3499:1 3500:2 3501:1 3502:1 3524:1 3561:1 3562:1 3600:1 3640:1 3651:1 3666:1 3667:1 3707:1 3711:1 3718:1 3727:1 3757:1 3807:1 3808:1 3839:1 3840:1 3867:1 3869:1 3962:1 4041:1 4072:1 4106:1 4144:1 4185:1 4192:1 4266:1 4306:1 4319:1 4354:1 4382:1 4391:1 4402:1 4404:1 4605:1 4637:1 4662:1 4674:1 4720:1 4756:1 4758:1 4768:1 4778:1 4792:1 4793:1 4795:1 4825:1 4884:1 4933:1 5077:1 5081:1 5162:1 5347:1 5352:1 5357:1 5358:1 5359:1 5360:1 5361:1 5362:1 5365:1 5366:1 5367:1 5368:1 5369:1 5640:1 5697:1 5786:1 5787:1 #
-0.00074646814069588161757312638755479 5:1 6:1 85:1 89:1 110:1 127:1 146:1 147:1 198:1 245:1 266:1 267:1 274:1 290:1 292:1 293:1 352:1 359:1 387:1 436:1 466:1 503:1 516:1 555:1 570:1 572:1 605:1 626:1 627:1 647:1 656:1 658:1 698:1 704:1 756:1 792:1 801:1 851:1 866:1 872:1 900:1 908:1 935:2 937:1 1002:1 1010:1 1026:1 1043:1 1068:1 1086:1 1091:1 1099:1 1173:1 1174:1 1179:1 1182:1 1183:1 1239:1 1245:1 1256:1 1271:1 1302:1 1308:1 1342:1 1363:1 1364:1 1394:1 1412:1 1417:1 1421:1 1447:1 1449:1 1455:1 1504:1 1505:1 1552:1 1569:1 1573:1 1577:1 1662:1 1691:1 1692:1 1723:1 1727:1 1768:1 1835:1 1864:1 1865:1 1872:1 1940:1 1948:1 1949:1 1970:1 1984:1 2008:1 2017:1 2029:1 2031:1 2171:1 2218:1 2276:1 2328:1 2336:1 2375:1 2399:1 2443:1 2467:1 2531:1 2551:1 2556:1 2595:1 2613:1 2674:1 2705:1 2873:1 2904:1 2907:1 2916:1 2918:1 2979:1 3020:1 3049:1 3077:1 3109:1 3192:1 3285:1 3328:1 3346:1 3352:1 3447:1 3474:1 3544:1 3609:1 3810:1 4164:1 4209:1 4286:2 4308:1 4347:1 4399:1 4531:1 4775:1 4925:1 4929:1 5047:1 5110:1 5160:1 5260:1 5261:1 5422:1 5484:1 5603:1 6315:1 6610:1 7008:1 7062:1 7096:1 7376:1 #
-0.0003725176113467986490496164364572 89:1 90:1 97:1 200:1 209:1 210:1 211:1 282:1 300:1 318:1 335:1 345:1 388:1 389:1 449:1 458:1 469:1 552:1 561:1 587:1 619:1 624:1 647:1 659:1 663:1 667:1 689:1 698:1 747:1 748:1 749:1 761:1 768:1 804:1 814:1 876:1 877:1 887:2 899:1 987:1 1019:1 1021:1 1032:1 1040:1 1098:1 1116:1 1178:1 1188:1 1209:1 1210:1 1346:1 1355:1 1379:1 1380:1 1452:1 1472:1 1485:1 1492:1 1526:1 1533:1 1541:1 1662:1 1665:1 1717:1 1745:1 1779:1 1801:1 1824:1 1825:1 1869:1 1881:1 1924:1 1934:2 1935:1 1972:1 2016:1 2017:1 2018:1 2064:1 2083:1 2254:1 2346:1 2358:1 2450:1 2479:1 2499:1 2549:1 2580:1 2593:1 2601:1 2624:1 2654:1 2660:1 2692:1 2702:1 2725:1 2757:1 2794:1 2878:1 2907:1 2919:1 2984:1 3003:1 3020:1 3028:1 3108:1 3114:1 3120:1 3130:1 3150:1 3218:1 3278:1 3290:1 3375:1 3447:1 3449:1 3561:1 3594:1 3666:1 3749:1 3803:1 3843:1 3874:1 3947:1 3998:1 4099:1 4185:1 4227:1 4258:1 4283:1 4335:1 4336:1 4543:1 4898:1 4915:1 5031:1 5090:1 5322:1 5850:1 5888:1 6109:1 6216:1 6248:1 6364:1 6371:1 6733:1 6780:1 6781:1 7700:1 #
-0.00055784819650171670220306641141406 4:1 5:1 32:1 125:1 126:1 152:1 157:1 170:1 272:1 289:1 290:1 313:1 334:1 341:1 373:1 424:1 435:1 478:1 480:1 492:1 496:1 555:1 561:1 572:1 602:1 605:1 613:1 667:1 693:1 704:1 787:1 845:1 873:1 910:1 964:1 979:1 985:1 1024:1 1036:1 1052:1 1082:1 1086:1 1091:1 1094:1 1163:1 1171:1 1235:1 1237:1 1244:1 1250:1 1255:1 1278:1 1305:1 1333:1 1352:1 1359:1 1394:1 1425:1 1483:1 1534:1 1553:1 1569:1 1574:1 1577:1 1586:1 1616:1 1629:1 1632:1 1643:1 1652:1 1658:1 1697:1 1717:1 1724:1 1759:1 1797:1 1834:1 1859:1 1885:1 1887:1 1888:1 1996:2 2025:1 2056:1 2058:1 2064:1 2089:1 2150:1 2153:1 2168:1 2214:1 2217:1 2224:1 2247:1 2269:1 2278:1 2348:1 2363:1 2372:1 2377:1 2385:1 2427:1 2444:1 2471:1 2518:1 2567:1 2595:1 2609:1 2625:1 2656:1 2674:1 2690:1 2732:2 2748:2 2761:1 2801:2 2811:1 2825:1 2850:1 2907:1 2968:1 2979:1 2984:1 3061:1 3148:2 3218:1 3265:1 3278:1 3279:1 3352:1 3399:1 3414:1 3447:1 3544:1 3556:1 3751:1 3802:1 3806:1 3837:1 3852:1 3878:1 3914:1 3923:1 3924:1 3927:1 3928:1 4092:1 4112:1 4142:1 4174:1 4201:1 4209:1 4240:1 4272:1 4282:1 4283:1 4370:1 4444:1 4495:1 4505:1 4531:1 4547:1 4584:1 4622:1 4624:1 4717:1 4782:1 4785:1 4787:1 4840:1 4915:1 5024:1 5082:1 5091:1 5102:1 5160:1 5188:1 5264:1 5502:1 5508:1 5618:1 5817:1 5826:1 5875:1 5888:1 5968:1 6087:1 6274:1 6315:1 6344:1 6400:1 6472:1 6513:1 6610:1 6756:1 7027:1 7065:1 7082:1 7101:1 #
0.0017291879676775388785525677803889 9:1 10:1 11:1 13:1 23:1 24:1 28:1 29:1 32:1 35:1 36:1 45:1 48:1 67:1 115:1 124:1 172:1 187:1 223:1 245:1 249:1 270:1 279:1 304:1 319:1 384:1 385:1 413:1 425:1 426:1 439:1 470:1 519:1 532:1 549:1 553:1 554:1 560:1 571:1 573:1 574:1 585:1 658:1 665:1 691:1 703:1 719:1 726:1 730:1 742:1 748:1 774:1 794:1 822:1 829:1 838:1 850:1 865:1 894:1 909:1 949:1 1112:1 1138:1 1180:1 1188:1 1227:1 1245:1 1258:1 1300:1 1302:1 1325:1 1329:1 1330:1 1337:1 1348:1 1352:1 1372:1 1387:1 1449:1 1478:1 1509:1 1545:1 1560:1 1574:1 1586:1 1591:1 1592:1 1600:1 1652:1 1700:1 1735:1 1805:1 1873:1 1877:1 1885:1 1947:1 1971:1 1974:1 2006:1 2026:1 2064:1 2121:1 2139:1 2171:1 2295:1 2307:1 2346:1 2372:1 2378:1 2384:1 2398:1 2402:1 2415:1 2466:1 2470:1 2475:1 2488:1 2515:1 2535:1 2552:1 2582:1 2604:1 2673:1 2676:1 2772:1 2804:1 2887:1 2892:1 2896:1 2912:1 2959:1 2965:1 2993:1 3016:1 3034:1 3065:1 3069:1 3098:1 3113:1 3134:1 3149:1 3173:1 3174:1 3209:1 3269:1 3278:1 3291:1 3315:1 3348:1 3402:1 3423:1 3432:1 3481:1 3498:2 3532:1 3571:1 3587:1 3588:1 3594:1 3614:1 3619:1 3621:1 3622:1 3626:1 3637:1 3665:1 3711:1 3729:1 3755:1 3790:1 3812:1 3872:1 3925:1 3962:1 3995:1 4073:1 4138:2 4157:1 4173:1 4201:1 4267:1 4277:1 4355:1 4361:1 4362:1 4382:1 4434:1 4445:1 4446:1 4447:1 4471:1 4501:1 4584:1 4684:1 4931:1 5040:1 5076:1 5265:1 5272:1 5359:1 5363:1 5464:1 5531:1 5591:1 5632:1 5673:1 5779:1 5788:1 5817:1 5986:1 6009:1 6310:1 6324:1 6329:1 6375:1 6377:1 6449:1 6519:1 6530:1 6573:1 6668:1 6719:1 6926:1 6949:1 7167:2 7407:1 7502:1 7516:1 7621:1 #
0.001224729010819996513279028782506 9:1 10:1 13:1 17:1 23:1 29:1 31:1 35:1 36:1 45:1 57:1 58:1 69:1 70:1 87:1 90:1 102:1 108:1 109:1 115:1 116:1 124:1 133:1 172:2 203:1 219:2 220:1 238:1 242:1 245:1 249:1 336:1 361:1 364:1 388:1 389:1 396:1 411:2 439:1 496:1 551:1 555:1 560:1 561:1 573:1 613:1 680:1 691:1 703:1 731:1 742:1 783:1 829:1 830:1 838:1 933:1 984:1 987:1 1040:1 1052:1 1057:1 1079:1 1095:1 1138:1 1150:1 1157:1 1171:1 1217:1 1221:1 1248:1 1255:1 1302:1 1309:1 1322:1 1325:1 1329:1 1330:1 1337:1 1366:1 1379:1 1419:1 1420:1 1449:1 1452:1 1475:1 1560:1 1563:1 1580:1 1600:1 1604:1 1652:1 1691:1 1703:1 1776:1 1805:1 1806:1 1814:1 1815:1 1859:1 1946:1 1975:1 2047:1 2093:1 2104:1 2122:1 2133:1 2139:1 2171:1 2211:1 2315:1 2325:1 2359:1 2384:1 2394:1 2419:1 2467:1 2493:1 2552:1 2564:1 2579:1 2582:1 2594:1 2597:1 2676:1 2748:1 2781:1 2811:1 2853:1 2939:1 2968:1 3034:1 3040:1 3054:1 3070:1 3105:1 3132:1 3143:1 3149:1 3184:1 3187:1 3192:1 3208:1 3225:1 3247:1 3252:1 3278:1 3286:1 3291:1 3313:1 3426:1 3498:1 3509:1 3561:1 3587:1 3588:1 3616:1 3626:1 3640:1 3668:1 3670:1 3828:1 3855:1 3900:1 3904:1 3905:1 3925:1 3927:1 3933:1 3946:1 3983:1 4078:1 4100:1 4106:1 4130:1 4131:1 4164:1 4382:1 4391:1 4412:1 4447:1 4464:1 4470:1 4475:1 4520:1 4636:1 4733:1 4896:1 4931:1 4937:1 4953:1 4957:1 5090:1 5122:1 5167:1 5247:1 5346:1 5359:1 5396:1 5487:1 5608:1 5663:1 5781:1 5855:1 5888:1 6024:1 6055:1 6157:1 6211:1 6293:1 6324:1 6378:1 6436:1 6531:1 6565:1 6573:1 7588:1 7627:1 7644:1 #
0.0028017922053500746160104029058857 5:1 9:1 10:1 21:1 22:1 23:1 29:1 39:1 45:1 58:1 69:1 70:1 90:1 91:1 108:1 109:1 115:1 124:1 125:1 170:1 187:1 193:1 216:1 218:2 219:1 249:1 257:1 273:1 275:1 310:1 341:1 350:1 361:1 364:1 373:1 396:1 439:1 506:1 551:1 555:1 560:1 561:2 575:1 589:1 599:1 600:1 605:2 631:1 639:1 665:1 691:1 703:1 732:1 734:1 765:1 905:1 931:1 932:2 933:1 1018:1 1095:1 1170:1 1203:1 1217:2 1236:1 1255:1 1301:1 1302:1 1304:1 1305:1 1324:1 1325:1 1329:1 1330:1 1339:1 1350:1 1365:1 1366:1 1476:1 1528:1 1560:1 1586:1 1591:1 1600:1 1608:1 1642:1 1652:1 1673:1 1674:1 1691:1 1735:1 1760:1 1805:1 1809:1 1814:1 1833:1 1835:2 1856:1 1859:1 1951:1 1952:2 1953:1 2016:1 2200:1 2216:1 2235:1 2328:1 2405:1 2444:1 2460:1 2467:1 2519:1 2534:1 2535:1 2579:1 2582:1 2604:1 2630:1 2698:1 2715:1 2716:1 2774:1 2811:1 2872:1 2897:1 2939:1 2960:1 2976:1 3034:1 3040:1 3070:1 3105:1 3149:1 3235:1 3324:1 3338:1 3355:1 3408:1 3429:1 3446:1 3489:1 3587:1 3588:1 3605:1 3626:1 3640:1 3926:1 3927:1 3964:1 3983:1 3986:1 3988:1 3992:1 4044:1 4106:1 4318:1 4335:1 4447:1 4448:1 4568:1 4652:1 4699:1 4709:1 4719:1 4735:1 4756:1 4819:1 4931:1 4951:1 4953:1 5036:1 5055:1 5081:1 5316:1 5373:1 5396:1 5459:1 5461:1 5541:1 5678:1 5781:1 5925:1 6157:1 6436:1 6486:1 6730:1 6749:1 6756:1 6781:1 6832:1 7017:1 7404:1 7508:1 #
0.00022526753007119103863580000801647 10:2 17:1 22:1 23:1 26:1 29:1 34:1 35:1 36:1 45:1 65:1 69:1 70:1 90:1 91:1 108:1 115:1 119:1 124:1 125:1 146:1 170:1 171:1 172:3 187:1 218:1 267:1 275:1 279:1 337:1 338:1 339:1 340:1 360:1 373:2 396:1 413:1 422:1 439:1 480:1 488:1 506:1 513:1 530:1 546:1 561:1 566:1 573:1 575:1 583:1 605:1 658:1 666:1 691:1 703:1 754:1 945:1 1005:1 1095:1 1138:1 1140:1 1234:1 1236:1 1255:1 1267:1 1306:1 1309:2 1311:1 1325:1 1329:1 1330:1 1339:1 1344:1 1345:1 1367:1 1399:1 1400:1 1528:1 1560:1 1600:2 1651:1 1739:1 1798:1 1805:1 1809:1 1834:1 1866:1 1873:1 1904:1 1944:1 1978:1 1990:1 2015:1 2139:1 2235:1 2258:1 2265:1 2330:1 2384:1 2385:1 2398:1 2405:1 2518:2 2550:1 2555:1 2579:1 2604:1 2610:1 2619:1 2630:1 2640:1 2672:1 2682:1 2684:1 2718:1 2722:1 2748:1 2812:1 2813:1 2829:1 2832:1 2842:1 2847:2 2938:1 2952:1 2981:1 3034:1 3052:1 3087:1 3113:1 3115:1 3132:1 3149:2 3169:1 3173:1 3177:1 3286:1 3325:1 3337:1 3348:1 3377:1 3410:1 3426:1 3489:1 3498:1 3594:2 3621:1 3626:1 3639:1 3640:1 3729:1 3736:1 3741:1 3755:1 3837:1 3872:1 3884:1 3925:1 3927:1 3963:1 3969:1 3987:1 3988:1 3999:1 4100:1 4106:1 4131:1 4152:1 4210:1 4267:1 4300:1 4382:1 4444:1 4447:1 4543:1 4568:1 4819:1 4894:1 4912:1 4931:1 5013:1 5027:1 5081:1 5090:1 5290:1 5299:1 5363:1 5493:1 5507:1 5541:1 5615:1 5629:1 5683:1 5753:1 5779:1 5998:1 6048:1 6157:1 6293:1 6519:1 6730:1 6832:1 6927:1 6949:1 7486:1 7606:1 #
0.00066327096313656137404474177898805 9:1 10:1 13:1 23:1 29:1 45:1 57:1 67:1 69:2 70:1 88:1 90:1 91:1 115:1 124:1 125:1 126:1 171:1 172:1 182:1 187:1 199:1 200:1 216:1 218:1 219:2 255:1 280:1 290:1 360:1 364:1 381:1 415:1 435:1 439:1 511:1 531:1 551:1 554:1 555:1 560:1 561:2 572:1 573:1 591:1 610:1 691:1 694:1 703:1 734:1 762:1 838:1 909:1 931:1 932:1 937:1 945:1 1018:1 1036:1 1057:1 1079:1 1095:1 1116:1 1255:1 1266:1 1304:1 1323:1 1325:1 1329:1 1330:1 1334:1 1341:1 1399:1 1411:1 1412:1 1413:1 1468:1 1476:1 1528:1 1530:1 1673:1 1674:1 1691:1 1727:1 1728:1 1780:1 1805:1 1809:1 1815:2 1849:1 1857:1 1866:1 1869:1 1872:1 1884:1 1885:1 1946:1 2007:2 2125:1 2161:1 2174:1 2201:1 2254:1 2395:1 2465:1 2467:1 2488:1 2519:1 2535:1 2555:1 2599:1 2604:1 2606:1 2630:1 2662:1 2697:1 2713:1 2714:1 2777:1 2781:1 2801:1 2886:1 2887:2 2912:1 2933:1 2938:1 2939:1 2973:1 3003:1 3019:1 3020:1 3024:1 3034:1 3040:1 3065:1 3070:1 3087:2 3149:1 3221:1 3247:1 3278:1 3325:1 3338:1 3364:1 3426:1 3437:1 3498:1 3519:1 3595:1 3621:1 3626:1 3696:1 3729:1 3736:1 3747:1 3755:1 3861:1 3868:1 3873:1 3894:1 3925:1 3933:1 3990:1 4063:1 4072:1 4120:1 4133:1 4164:1 4201:1 4209:1 4226:1 4286:1 4382:1 4427:1 4450:1 4468:1 4520:1 4699:1 4733:1 4793:1 4809:1 4859:1 4931:1 5040:1 5090:1 5258:1 5338:1 5359:1 5383:1 5396:1 5403:1 5428:1 5507:1 5534:1 5663:1 5676:1 6285:1 6295:1 6321:1 6334:1 6342:1 6377:1 6573:1 6681:1 7407:1 7513:1 7516:1 7517:1 7526:1 7527:1 #
0.00074512738712103265478758906681378 9:1 10:1 18:1 41:1 45:1 61:1 65:1 90:1 91:1 115:1 119:1 123:1 155:1 172:1 187:1 199:1 223:1 271:1 290:1 321:1 439:1 458:1 459:1 471:1 502:1 511:1 512:1 519:2 525:1 534:1 560:1 561:1 562:1 565:1 589:1 625:1 637:1 671:1 693:1 694:1 706:1 740:1 770:1 794:1 820:1 833:1 941:1 945:1 965:1 966:1 974:1 1055:1 1059:1 1060:1 1079:1 1124:1 1129:1 1164:1 1189:1 1250:1 1325:1 1357:1 1367:1 1373:1 1375:1 1400:1 1432:1 1457:1 1461:1 1465:1 1476:1 1485:1 1500:1 1528:1 1541:1 1560:1 1578:1 1582:1 1662:1 1691:1 1726:1 1744:1 1745:1 1809:1 1823:1 1845:1 1859:1 1873:1 1885:1 1928:1 1987:1 2001:1 2010:1 2016:1 2017:1 2018:1 2026:1 2028:1 2044:1 2101:1 2110:1 2124:1 2125:1 2153:1 2155:1 2180:1 2255:1 2302:1 2310:1 2336:1 2371:1 2473:1 2481:1 2486:1 2535:1 2555:1 2604:1 2618:1 2658:1 2663:1 2676:1 2701:1 2722:1 2786:1 2794:1 2807:1 2903:1 2907:1 3006:1 3034:1 3069:1 3087:1 3113:1 3115:1 3129:1 3145:1 3149:1 3185:1 3242:1 3319:1 3400:1 3429:1 3519:1 3587:1 3626:1 3664:1 3665:1 3697:1 3735:1 3737:1 3747:1 3755:1 3756:1 3814:1 3829:1 3838:1 3839:1 3840:1 3869:1 3989:1 4020:1 4040:1 4086:1 4133:1 4153:1 4173:1 4205:1 4219:1 4220:1 4234:1 4235:1 4254:1 4311:1 4318:1 4325:1 4330:1 4376:1 4399:1 4409:1 4434:1 4447:1 4553:1 4584:1 4611:1 4669:1 4701:1 4870:1 4882:1 4885:1 4913:1 4931:1 4955:1 5214:1 5235:1 5252:1 5359:1 5456:1 5610:1 5776:1 5789:1 5794:1 5808:1 6007:1 6019:1 6176:1 6177:1 6389:1 6397:1 6424:1 6526:1 6551:1 6926:1 7167:1 7408:1 7440:1 7445:1 7502:1 7590:1 #
0.0015877606808109563478470516173502 4:1 5:1 10:1 28:1 34:1 95:1 150:1 151:1 172:2 173:1 181:1 321:1 330:1 375:1 411:1 412:1 413:1 417:1 426:1 427:1 435:1 458:1 472:1 473:1 474:1 503:1 534:1 551:1 573:1 583:1 602:1 621:1 624:1 638:1 643:1 697:1 741:1 747:1 787:1 790:1 794:1 843:1 848:1 887:3 926:1 927:1 951:1 968:1 1020:1 1021:1 1032:1 1051:1 1053:1 1058:1 1084:1 1147:1 1183:1 1210:1 1245:1 1253:1 1255:1 1265:1 1266:1 1277:1 1280:1 1311:1 1325:1 1344:1 1363:1 1387:1 1432:1 1453:1 1491:1 1518:1 1528:1 1536:1 1617:1 1618:1 1652:1 1655:1 1690:1 1718:1 1720:1 1740:1 1832:1 1853:1 1859:1 1872:1 1875:1 1884:1 1889:1 1922:1 1928:1 1935:1 1948:1 1993:1 2013:1 2017:1 2018:1 2082:1 2084:1 2085:1 2095:1 2104:1 2127:1 2176:1 2182:1 2189:1 2196:1 2201:1 2259:1 2271:1 2348:1 2349:1 2422:2 2439:1 2458:1 2517:1 2592:1 2602:1 2609:1 2701:1 2702:1 2718:1 2719:1 2781:1 2782:1 2788:1 2789:1 2807:1 2864:1 2916:2 2992:1 2993:1 3136:1 3144:1 3149:1 3214:1 3232:1 3279:1 3292:1 3377:1 3394:1 3397:1 3413:1 3498:1 3516:1 3532:1 3558:1 3563:1 3600:1 3615:1 3632:1 3644:1 3712:1 3735:1 3736:1 3759:1 3760:1 3785:1 3812:1 3839:1 3840:1 3863:1 3867:1 3878:1 3915:1 3925:1 3932:1 3997:1 4043:1 4063:1 4099:1 4225:2 4308:1 4407:1 4441:1 4467:1 4508:1 4617:1 4650:1 4679:1 4688:1 4760:1 4875:1 4902:1 4931:1 5008:1 5036:1 5056:1 5162:1 5207:1 5254:1 5346:1 5363:1 5389:1 5392:1 5409:1 5485:1 5566:2 5568:1 5727:1 5789:1 5879:1 5902:1 5939:1 6001:1 6019:1 6020:1 6031:1 6063:1 6156:1 6386:1 6567:1 6580:1 6635:1 6710:1 6930:1 6997:1 7073:1 7146:1 7373:1 7396:1 #
-0.0002086187322927300765926239556336 9:1 10:1 13:1 16:1 73:1 90:1 91:1 108:1 172:1 183:1 218:1 250:1 253:1 265:1 298:1 350:1 351:1 352:1 367:1 396:1 412:1 451:1 526:1 535:1 559:1 571:1 584:1 603:1 610:1 624:1 626:1 633:1 691:1 692:1 693:1 698:1 730:1 733:1 734:1 780:1 840:1 842:1 874:1 875:1 885:1 917:1 922:1 923:1 980:1 990:1 1021:1 1030:1 1031:1 1080:1 1098:1 1100:1 1158:1 1205:1 1231:1 1232:1 1263:1 1282:1 1339:1 1380:1 1387:1 1399:1 1403:1 1421:1 1422:1 1440:1 1460:1 1465:1 1497:1 1501:1 1553:1 1559:1 1589:1 1599:1 1618:1 1722:1 1749:1 1775:1 1786:1 1826:1 1836:1 1858:1 1886:1 1896:1 1978:1 2024:1 2064:1 2081:1 2163:1 2209:1 2219:1 2228:1 2249:1 2289:1 2307:1 2318:1 2354:1 2398:1 2438:1 2463:1 2471:1 2496:1 2499:1 2584:1 2585:1 2607:1 2609:1 2686:1 2696:1 2730:1 2798:1 2833:1 2888:1 3008:1 3064:1 3105:1 3123:1 3209:1 3267:1 3318:1 3454:1 3595:1 3638:1 3717:1 3746:1 3810:1 3871:1 3931:1 3947:1 4008:1 4068:1 4155:1 4162:1 4185:1 4281:1 4404:1 4512:1 4606:1 4718:1 4783:1 4860:1 4887:1 5043:1 5269:1 5426:1 5734:1 5829:1 5986:1 6616:1 6617:1 6804:1 6806:1 6945:1 7009:1 7313:1 7405:1 7747:1 7751:1 #
-0.00018483148823750372301451261325411 9:1 10:1 14:1 22:1 23:1 24:1 25:1 29:1 33:1 34:1 35:1 66:1 69:1 70:1 71:1 72:1 87:1 111:1 118:1 127:1 171:1 172:2 182:1 183:1 197:1 205:1 211:1 216:1 236:1 263:1 268:1 303:1 318:1 323:1 327:1 343:1 352:1 359:1 360:1 382:1 395:1 410:1 415:1 454:1 457:1 479:1 519:1 545:1 554:1 560:1 605:1 634:4 635:1 663:1 688:1 691:1 712:1 728:1 730:1 731:2 750:1 755:2 756:1 774:1 779:1 784:1 804:1 807:1 862:1 878:1 880:1 917:1 929:1 930:1 933:1 936:1 965:1 986:1 1005:1 1026:1 1032:1 1057:1 1061:1 1087:1 1094:1 1112:1 1113:1 1170:1 1184:1 1234:1 1253:1 1259:1 1280:1 1309:1 1335:1 1346:1 1347:1 1379:1 1449:1 1475:1 1477:1 1483:1 1491:1 1496:1 1500:1 1509:1 1542:1 1553:1 1576:1 1599:1 1609:1 1615:1 1623:1 1626:1 1658:1 1689:1 1711:1 1727:1 1759:1 1761:1 1789:1 1792:1 1795:1 1805:2 1815:2 1857:1 1858:1 1860:1 1881:1 1937:1 1948:1 1972:1 2049:1 2050:1 2064:1 2100:1 2108:1 2123:1 2167:1 2171:1 2200:1 2208:1 2218:1 2254:1 2258:1 2333:1 2357:1 2373:1 2385:1 2405:1 2406:1 2444:1 2458:1 2477:1 2522:1 2568:1 2575:1 2630:2 2684:1 2691:1 2714:1 2718:1 2722:1 2734:1 2740:1 2760:1 2791:1 2805:1 2825:1 2874:2 2888:1 2897:1 2905:1 2906:1 2926:1 2940:2 2941:1 2947:1 2952:1 2982:1 3006:1 3019:2 3020:2 3050:1 3098:1 3138:1 3159:1 3169:1 3201:1 3225:1 3292:1 3298:1 3348:3 3457:1 3485:1 3499:1 3500:2 3524:1 3579:1 3580:1 3631:1 3633:1 3676:1 3703:1 3707:1 3710:1 3802:1 3807:1 3839:1 3840:1 3873:1 3884:1 3902:1 3929:1 3930:2 3957:1 4022:1 4124:1 4137:1 4138:1 4147:1 4185:1 4232:1 4238:1 4263:2 4306:1 4405:1 4410:1 4461:1 4472:1 4524:1 4665:1 4846:1 4927:1 4976:1 4984:1 4992:1 4993:1 5010:1 5039:1 5068:1 5162:1 5191:1 5215:1 5264:1 5278:1 5304:1 5416:1 5447:1 5514:1 5717:1 6039:1 6045:1 6080:1 6230:1 6242:1 6275:1 6296:1 6297:1 6298:1 6299:1 6300:1 6301:1 #
-0.00079001395741819127691712987271444 4:1 28:1 33:1 36:1 49:1 58:1 60:1 69:2 70:1 88:1 94:1 108:1 115:1 123:1 124:1 150:1 170:1 171:1 172:1 173:1 174:1 184:1 187:1 201:1 220:1 236:1 263:1 265:1 280:1 291:1 313:1 323:1 332:1 335:1 340:1 376:1 377:1 380:1 415:1 440:1 467:1 484:1 511:1 523:2 531:1 544:1 546:1 555:1 556:1 563:1 564:1 571:2 572:1 573:1 579:1 588:1 594:1 621:1 625:1 638:2 647:1 649:1 668:2 669:1 691:1 731:1 739:1 747:1 775:1 780:1 792:1 794:1 803:1 804:1 845:1 850:1 862:1 877:1 931:1 934:1 957:1 965:1 971:1 977:1 991:1 1019:1 1058:1 1112:1 1113:1 1170:1 1181:1 1182:1 1205:1 1226:1 1231:1 1234:1 1305:1 1426:1 1435:1 1441:1 1476:1 1491:1 1500:1 1525:2 1532:1 1550:1 1552:1 1561:1 1596:1 1598:1 1727:1 1729:1 1730:1 1731:1 1780:1 1805:1 1809:1 1815:1 1833:1 1834:1 1853:1 1885:1 1914:1 1915:1 1998:1 2038:1 2081:1 2083:1 2189:1 2269:1 2350:1 2448:1 2484:1 2514:1 2539:1 2600:1 2603:1 2604:1 2605:1 2609:1 2643:1 2684:1 2711:1 2748:1 2757:1 2769:1 2773:1 2837:1 2841:1 2912:1 2977:1 3010:1 3065:1 3114:1 3182:1 3212:1 3235:1 3317:1 3408:1 3498:1 3499:1 3500:1 3501:1 3502:1 3504:1 3558:1 3598:1 3601:1 3602:1 3616:1 3626:1 3635:1 3636:1 3640:1 3665:1 3719:1 3729:1 3755:1 3762:1 3763:1 3807:1 3867:1 3926:1 3930:1 3949:1 3979:1 4053:1 4060:1 4063:1 4201:1 4228:1 4256:1 4271:1 4388:1 4456:1 4481:1 4551:1 4863:1 4938:1 5061:1 5204:1 5313:1 5316:1 5336:1 5671:1 5723:1 5724:1 5781:1 5930:1 5960:1 6042:1 6622:1 6754:1 6755:1 6756:1 #
0.0013665288466712507877559579227977 8:1 22:1 26:1 34:1 40:1 64:1 86:1 108:1 109:1 119:1 120:1 121:1 122:1 123:1 124:1 129:1 155:2 172:1 181:1 189:1 195:1 231:1 292:2 330:1 335:1 337:1 360:1 501:1 531:1 534:1 536:1 573:1 579:2 580:1 625:1 674:1 675:1 681:1 742:1 766:1 779:1 820:1 826:1 843:1 882:1 883:1 885:1 922:1 943:1 945:1 968:1 1037:1 1077:1 1132:1 1140:1 1216:1 1255:1 1266:1 1278:1 1302:1 1325:1 1413:1 1436:1 1457:1 1465:1 1500:1 1513:1 1526:1 1540:1 1589:1 1590:1 1591:1 1606:1 1617:1 1618:2 1652:1 1665:1 1666:1 1674:1 1717:1 1721:1 1809:1 1811:1 1859:1 1880:1 1881:1 1938:1 1959:1 1960:1 1968:1 1989:1 2009:1 2017:1 2018:1 2034:1 2108:1 2143:1 2176:1 2189:1 2192:1 2218:1 2350:1 2384:1 2422:1 2425:1 2471:1 2482:1 2593:1 2703:1 2713:1 2738:1 2752:1 2779:1 2889:1 2909:1 2938:1 2951:1 2972:1 2999:1 3013:1 3065:1 3109:2 3115:1 3132:1 3144:2 3146:1 3149:1 3180:1 3258:1 3301:1 3323:1 3337:1 3387:1 3390:1 3405:1 3414:1 3498:1 3658:1 3665:1 3707:1 3718:1 3727:1 3750:1 3755:1 3824:1 3869:1 3870:1 3873:1 3925:1 3934:1 3940:1 3955:1 3960:1 4010:1 4015:1 4016:1 4133:1 4144:1 4167:1 4221:1 4339:1 4402:1 4426:1 4582:1 4599:1 4617:1 4620:1 4691:1 4719:1 4769:1 4894:1 4931:1 4945:1 5086:1 5198:1 5259:1 5301:1 5341:1 5444:1 5580:1 5659:1 5727:1 5871:1 5948:1 5985:1 5986:1 6015:1 6023:1 6037:1 6038:1 6109:1 6122:1 6123:1 6161:1 6188:1 6196:1 6255:1 6314:1 6467:1 6497:1 6514:1 6580:1 6622:1 6685:1 6781:1 6868:1 6869:1 6885:1 7034:1 7057:1 7094:1 7126:1 7154:1 7204:1 7261:1 7265:1 #
0.0028003918319457906348224351944509 13:1 33:1 35:1 45:1 69:1 70:1 79:1 92:1 106:1 129:1 158:1 172:1 181:1 223:1 251:1 272:1 349:1 350:1 374:1 375:1 387:1 388:2 389:1 439:1 448:1 459:1 477:1 532:1 555:1 573:1 623:1 626:1 657:1 662:1 665:1 686:1 743:1 755:1 765:1 792:1 827:1 865:1 934:1 956:1 979:1 992:1 999:1 1015:1 1016:1 1025:1 1051:1 1060:1 1079:1 1091:1 1092:1 1097:1 1116:1 1126:1 1182:1 1202:1 1212:1 1223:1 1231:1 1280:1 1283:1 1325:1 1345:1 1370:1 1402:1 1413:1 1461:1 1485:1 1500:1 1501:1 1521:1 1547:1 1560:1 1642:1 1713:1 1727:1 1745:1 1843:1 1844:1 1859:1 1902:2 1903:1 1931:1 1984:1 1987:1 2003:1 2017:1 2018:1 2028:1 2083:1 2099:1 2109:1 2152:1 2198:1 2213:1 2238:1 2243:1 2261:1 2317:1 2347:2 2358:1 2431:1 2545:1 2546:1 2594:1 2652:1 2675:1 2676:1 2719:1 2731:1 2824:1 2825:1 2834:1 2870:1 2897:1 2912:1 2957:1 2967:1 2977:1 3003:2 3034:1 3039:1 3087:1 3095:1 3140:1 3152:1 3156:1 3194:1 3205:1 3214:1 3247:1 3252:1 3285:1 3308:1 3309:1 3314:1 3429:1 3498:1 3511:1 3549:1 3606:1 3644:1 3649:1 3651:1 3652:1 3665:1 3736:1 3812:1 3834:1 3838:1 3839:1 3840:1 3925:1 3957:1 3995:1 4044:1 4161:1 4164:1 4267:1 4390:1 4406:1 4422:1 4456:1 4553:1 4623:1 4637:1 4736:1 4763:1 4788:1 4831:1 4832:1 4861:1 4958:1 5004:1 5212:1 5316:1 5356:1 5370:1 5374:1 5428:1 5461:1 5470:1 5548:1 5686:1 5732:1 5794:1 6059:1 6084:1 6097:1 6161:1 6194:1 6315:1 6336:1 6429:1 6683:1 6735:1 6781:1 6875:1 6918:1 6926:1 7022:1 7406:1 7407:1 7408:1 #
0.0052498537036790903290151000248898 45:1 59:1 172:1 413:1 439:1 500:1 638:1 717:1 786:1 853:2 870:1 888:2 889:1 897:1 969:1 998:1 1098:1 1110:1 1131:1 1229:1 1325:1 1402:1 1403:1 1408:1 1528:1 1536:1 1541:1 1701:1 1838:1 1844:1 1914:1 1959:1 1960:1 1996:1 2015:1 2017:1 2018:1 2090:1 2108:1 2182:1 2375:1 2535:1 2712:1 2882:1 3003:1 3034:1 3149:1 3474:1 3476:1 3483:1 3646:1 3681:1 3843:1 3862:1 3981:1 3998:1 4141:1 4222:1 4299:1 4342:1 4683:1 4736:1 4737:1 4874:1 4902:1 4903:1 4931:1 4934:1 4955:1 5031:1 5077:1 5133:1 5389:1 5440:1 5579:1 5643:1 5682:1 5734:1 5841:1 6015:1 6115:1 6173:1 6390:1 6440:1 6523:1 6544:1 6546:1 6582:1 6697:1 6736:1 6788:1 7049:1 7073:1 7087:1 7141:1 7208:1 7265:1 7370:1 #
0.0028424897108305759510504806542031 22:1 33:1 36:1 40:1 70:1 86:1 89:1 102:1 110:1 123:1 124:1 155:1 169:1 170:1 171:1 172:1 189:1 211:1 237:1 265:1 282:1 330:1 335:1 336:1 346:1 375:1 394:1 431:1 440:1 445:1 534:1 572:1 573:1 627:1 647:1 649:1 658:1 682:1 698:1 779:1 820:1 831:1 854:1 877:1 892:1 899:1 919:1 941:1 1006:2 1032:1 1185:1 1227:1 1228:1 1255:1 1278:1 1302:1 1309:1 1325:1 1350:1 1391:1 1392:1 1484:1 1537:1 1540:1 1589:1 1617:1 1652:1 1661:1 1669:1 1690:1 1691:1 1697:1 1810:1 1839:1 1880:1 1935:1 1980:1 1988:1 1995:1 2009:2 2017:1 2018:1 2020:1 2066:1 2083:1 2108:1 2123:1 2142:1 2150:1 2174:1 2176:1 2182:1 2194:1 2196:1 2231:1 2291:1 2292:1 2318:1 2384:1 2422:1 2535:1 2552:1 2612:1 2664:1 2738:1 2746:1 2763:1 2820:1 2829:1 2855:1 2874:1 2875:1 2889:1 2897:1 2982:1 2999:1 3045:1 3049:1 3093:1 3109:1 3112:1 3115:1 3132:1 3144:2 3149:1 3155:1 3194:1 3284:1 3311:1 3325:1 3336:1 3397:1 3410:1 3446:1 3498:1 3516:2 3625:1 3635:1 3652:1 3718:1 3729:1 3735:1 3801:1 3806:1 3862:1 3887:1 3906:1 3914:1 3925:1 3935:1 3936:1 3955:1 4078:1 4105:1 4177:1 4221:1 4335:1 4367:1 4369:1 4607:1 4617:1 4637:1 4719:1 4756:1 4776:1 4885:1 4894:1 4931:1 4998:1 5088:1 5146:1 5185:1 5198:1 5202:1 5462:1 5470:1 5597:1 5718:1 5725:1 5727:1 5755:1 5854:1 5865:1 5866:1 5985:1 6011:1 6017:1 6037:1 6098:1 6122:1 6161:1 6293:1 6337:1 6339:1 6500:1 6530:1 6602:1 6653:1 6827:1 6855:1 6885:1 6982:1 7049:1 7087:1 7094:1 7105:1 7116:1 7154:1 7207:1 7229:1 7265:1 7325:1 7339:1 7355:1 7409:1 7548:1 #
0.003382474988326626599149937746347 13:1 22:1 45:1 79:1 123:1 124:1 145:1 172:1 174:1 211:1 256:1 261:2 262:1 266:1 291:1 318:1 354:1 376:1 383:1 384:1 385:1 396:1 413:1 439:1 479:1 513:1 529:1 532:1 555:1 584:1 662:1 668:1 735:1 773:1 823:1 833:1 846:1 877:1 887:1 914:1 945:1 955:1 980:1 1009:1 1051:1 1056:1 1092:1 1141:1 1146:1 1167:1 1210:1 1221:1 1229:1 1253:1 1277:1 1319:1 1323:1 1325:2 1329:2 1330:1 1344:2 1346:1 1370:1 1376:1 1432:1 1497:1 1553:1 1559:1 1560:1 1573:1 1579:1 1589:1 1594:1 1602:1 1618:1 1653:1 1676:1 1692:1 1719:1 1728:2 1741:1 1749:1 1759:1 1778:1 1793:1 1832:1 1878:1 1943:1 2006:1 2007:1 2008:1 2024:1 2086:1 2095:1 2108:1 2166:1 2180:1 2202:1 2218:1 2231:1 2258:1 2283:1 2307:1 2313:1 2444:1 2460:1 2565:1 2618:1 2678:1 2689:1 2705:1 2749:1 2789:1 2846:1 2847:1 2886:1 2983:1 3008:1 3034:1 3060:1 3087:1 3096:1 3105:1 3115:1 3157:1 3167:1 3168:1 3193:1 3222:1 3272:1 3279:1 3381:1 3410:1 3438:1 3559:1 3561:1 3632:1 3661:1 3666:1 3686:1 3736:1 3737:1 3750:1 3752:2 3785:1 3807:1 3834:1 3867:1 3929:1 3934:1 3941:1 3955:1 4022:1 4024:1 4055:1 4086:1 4087:1 4088:1 4106:1 4133:1 4164:1 4182:1 4234:1 4309:1 4318:1 4362:1 4367:1 4369:1 4404:1 4543:1 4555:1 4620:1 4758:1 4793:2 4797:1 4874:1 4931:1 4946:1 4963:1 5039:1 5065:1 5108:1 5137:1 5172:1 5317:1 5347:1 5350:1 5560:1 5705:1 5715:1 5785:1 5868:1 5908:1 5930:1 5973:1 6215:1 6249:1 6275:1 6293:1 6323:1 6415:1 6469:1 6492:1 6494:1 6875:1 6997:1 7008:1 7049:1 7120:1 7132:1 7265:1 7492:1 7509:1 #
-0.00049221374170323466297471970420929 5:1 33:1 58:1 73:1 119:1 128:1 191:1 209:1 293:1 296:1 301:1 313:1 314:1 358:1 373:1 396:1 401:1 439:1 469:1 521:1 522:1 523:1 571:2 573:1 609:1 624:1 670:1 686:1 699:1 708:1 709:1 710:1 734:1 783:1 801:1 819:1 840:1 845:1 882:1 896:1 908:1 932:1 944:1 981:1 1056:1 1060:1 1122:1 1219:1 1265:2 1319:1 1348:1 1352:1 1371:1 1378:1 1396:1 1420:1 1424:1 1460:1 1496:1 1559:1 1576:1 1589:1 1599:2 1602:1 1634:1 1659:1 1709:1 1750:1 1779:1 1826:1 1879:1 1931:1 1953:1 1996:1 2026:1 2030:1 2071:1 2125:1 2126:1 2144:1 2167:1 2200:1 2218:1 2239:1 2240:1 2258:1 2261:1 2302:1 2310:1 2312:1 2330:1 2373:1 2427:1 2431:1 2537:1 2539:1 2573:1 2579:1 2613:1 2614:1 2672:1 2765:1 2865:1 2907:1 2931:2 2934:1 2976:1 3034:1 3091:1 3109:1 3157:1 3213:1 3252:1 3312:1 3338:1 3439:1 3461:1 3491:1 3495:1 3509:1 3586:1 3589:1 3632:1 3795:1 3828:1 3927:1 4026:1 4063:1 4171:1 4185:1 4233:1 4330:1 4344:1 4360:1 4403:1 4405:1 4412:1 4536:2 4751:1 4913:1 5004:1 5012:1 5381:1 5435:1 5735:1 5753:1 5764:1 5877:1 5978:1 5999:1 6012:1 6085:1 6112:1 6119:1 6159:1 6232:1 6352:1 6622:1 7097:1 7120:1 #
-0.00048996739153112350145802267320505 39:1 40:1 41:1 61:1 65:1 74:1 90:1 96:1 102:2 148:1 190:1 209:1 214:1 218:1 269:1 297:1 336:1 378:1 430:1 439:1 521:1 537:1 625:1 650:1 677:1 687:1 742:1 749:1 819:1 831:1 839:1 840:1 866:1 872:1 898:1 987:1 1030:1 1041:1 1078:1 1079:1 1084:1 1086:1 1092:1 1097:1 1182:1 1195:1 1260:1 1277:1 1325:1 1354:1 1364:1 1503:1 1504:2 1514:1 1535:1 1536:2 1573:1 1657:1 1685:1 1896:1 1923:1 1943:1 1959:1 1961:1 2035:1 2043:1 2044:1 2064:1 2094:1 2105:1 2109:1 2137:1 2156:1 2159:1 2165:1 2175:1 2189:1 2196:1 2223:1 2264:2 2309:1 2346:1 2461:1 2469:1 2545:1 2546:1 2547:1 2566:1 2575:1 2577:1 2659:1 2673:1 2674:1 2678:1 2732:1 2769:1 2779:1 2788:1 2820:1 2861:1 2917:1 2925:1 2982:1 3006:1 3028:1 3030:1 3034:1 3065:1 3102:1 3138:1 3161:1 3221:1 3232:1 3240:1 3241:1 3266:1 3410:1 3418:1 3431:1 3443:1 3525:1 3606:1 3646:1 3649:1 3659:1 3681:1 3764:1 3834:1 3862:1 3873:1 3888:1 3967:1 4012:1 4087:1 4221:1 4227:1 4256:1 4273:1 4283:1 4310:1 4333:1 4403:1 4431:1 4627:1 4775:1 4939:1 5007:1 5067:1 5105:1 5181:1 5196:1 5306:1 5677:1 5869:1 6010:1 6048:1 6215:1 6352:1 6711:1 7056:1 7060:1 7062:1 #
-0.00012909737897855155797088855251786 6:1 7:1 33:1 39:1 40:1 41:1 136:1 137:1 152:1 191:1 207:1 212:1 291:1 317:1 358:1 368:1 378:1 477:1 592:1 616:1 619:1 633:1 643:1 645:1 663:1 701:1 751:1 772:1 800:1 818:1 846:1 872:2 878:1 907:1 955:1 986:1 1014:1 1021:1 1054:1 1089:1 1090:1 1120:1 1195:1 1196:1 1201:1 1239:1 1325:1 1376:1 1437:1 1459:1 1476:1 1483:1 1518:1 1528:1 1549:1 1580:1 1617:1 1618:1 1621:1 1636:1 1642:1 1653:1 1673:1 1702:1 1786:1 1791:1 1904:1 1932:1 1953:1 1966:1 1977:1 2032:1 2035:1 2057:1 2091:1 2192:1 2197:1 2244:1 2256:1 2257:1 2271:1 2331:1 2342:1 2378:1 2416:1 2439:1 2448:1 2479:1 2487:1 2502:1 2582:1 2648:1 2659:1 2707:1 2711:1 2788:1 2915:1 2968:1 2981:1 2995:1 3060:1 3099:1 3178:1 3218:1 3257:1 3291:1 3295:1 3330:1 3352:1 3437:1 3473:1 3557:1 3558:1 3588:1 3668:1 3706:1 3766:1 3772:1 3912:1 3915:1 3996:1 4049:1 4180:1 4214:1 4328:1 4349:1 4393:1 4420:1 4577:1 4652:1 4744:1 4809:1 4814:1 4970:1 5016:1 5042:1 5090:1 5137:1 5162:1 5163:1 5183:1 5193:1 5261:1 5387:1 5413:1 5495:1 5527:1 5554:1 5583:1 5614:1 5638:1 5728:1 5788:1 5792:1 5950:1 5984:1 6009:1 6115:1 6197:1 6230:1 6344:1 6352:1 6565:1 6596:1 6611:1 6912:1 6970:1 6992:1 7018:1 7056:1 7068:1 7071:1 7079:1 7125:1 7126:1 7127:1 7128:1 7129:1 7130:1 #
-0.00029831285710897554935491782224233 3:1 110:1 131:1 154:2 182:1 184:1 190:1 191:1 192:1 211:1 212:1 257:1 327:1 336:1 380:1 396:1 397:1 431:1 435:1 436:1 437:1 469:1 492:1 592:1 667:1 698:1 706:1 715:1 719:1 747:2 773:1 781:1 784:1 792:1 870:1 875:1 881:1 895:1 899:1 920:1 943:1 944:1 970:1 1031:1 1050:1 1068:1 1089:1 1115:1 1118:1 1119:1 1133:1 1156:1 1213:1 1217:1 1223:1 1369:1 1370:1 1408:1 1411:1 1413:1 1414:1 1434:1 1460:1 1483:1 1487:1 1488:1 1573:1 1629:1 1630:1 1668:1 1673:1 1678:1 1679:1 1719:1 1721:1 1726:1 1788:1 1790:1 1803:1 1867:1 1876:1 2139:1 2156:1 2172:1 2183:1 2232:1 2233:1 2293:1 2302:1 2336:2 2345:1 2445:1 2466:1 2477:1 2480:1 2547:1 2556:1 2567:1 2574:1 2595:1 2643:1 2660:1 2671:1 2676:1 2719:1 2751:1 2801:1 2934:1 2981:1 3059:1 3064:1 3097:1 3183:1 3198:1 3221:1 3232:1 3297:1 3307:1 3337:1 3348:1 3469:1 3649:1 3681:1 3697:1 3737:1 3747:1 3821:1 3863:1 3874:1 3944:1 3962:1 3977:1 3981:1 4017:1 4112:1 4138:1 4181:1 4266:1 4308:1 4346:1 4412:1 4424:1 4458:1 4567:1 4580:1 4605:1 4626:1 4667:1 4728:1 4832:1 4967:1 4970:1 5010:1 5046:1 5177:1 5229:1 5288:1 5406:1 5421:1 5432:1 5452:1 5495:1 5500:1 5671:1 5841:1 5864:1 5935:1 6016:1 6036:1 6175:1 6194:1 6643:1 7062:1 #
-0.0008402572331933522847835504876457 18:1 33:1 39:1 40:1 41:1 61:1 65:1 71:1 76:1 80:1 96:1 140:1 161:1 162:1 245:1 273:1 297:1 341:1 378:1 440:1 532:1 600:1 610:1 614:1 621:1 625:1 626:2 699:1 742:2 743:1 755:1 761:1 804:1 817:1 830:1 831:1 839:1 866:1 935:1 939:1 965:1 968:1 1006:2 1014:1 1042:1 1050:1 1086:1 1094:1 1095:1 1163:1 1254:1 1259:1 1268:1 1278:1 1280:1 1306:1 1325:2 1330:1 1345:1 1349:1 1352:1 1364:1 1435:1 1461:1 1483:1 1487:1 1526:1 1527:1 1531:1 1536:1 1569:1 1573:1 1578:1 1600:1 1604:1 1626:1 1642:1 1652:1 1656:1 1672:1 1681:1 1722:1 1730:1 1761:1 1770:1 1822:1 1883:1 1935:1 1945:1 1959:1 2001:1 2105:1 2156:1 2188:1 2215:1 2217:1 2245:1 2254:1 2335:1 2342:1 2346:1 2347:2 2372:1 2437:1 2444:1 2474:1 2516:1 2522:1 2530:1 2566:1 2582:1 2598:1 2622:1 2623:1 2677:1 2724:1 2747:1 2770:1 2782:1 2812:1 2887:1 2894:1 2908:1 2919:1 2934:1 2990:1 3034:1 3063:1 3073:1 3095:1 3117:1 3134:1 3140:1 3146:1 3162:1 3194:1 3231:1 3232:1 3240:1 3241:1 3266:1 3287:1 3299:1 3395:1 3418:1 3514:1 3530:1 3534:1 3618:1 3652:1 3659:1 3696:1 3751:1 3775:1 3783:1 3908:1 3958:1 4017:2 4020:1 4031:1 4100:1 4165:1 4172:1 4177:1 4180:1 4214:1 4356:1 4420:1 4469:1 4506:1 4627:1 4654:1 4722:1 4793:1 4807:1 4866:1 4929:1 4952:1 5004:1 5072:1 5102:1 5171:1 5181:1 5195:1 5205:1 5209:1 5320:1 5447:1 5509:1 5554:1 5593:1 5850:1 5865:1 5984:1 6183:1 6215:1 6353:1 6833:1 6931:1 6940:1 6992:1 7026:1 7037:1 7060:1 7181:1 7276:1 #
0.002803657836157412604205507733468 4:2 10:1 26:1 65:1 69:1 70:2 76:1 106:1 115:1 117:1 146:1 207:1 209:1 210:1 265:1 315:1 321:1 330:1 364:1 375:1 413:1 425:1 426:1 449:1 462:1 470:1 534:1 553:1 554:1 555:1 560:2 572:1 590:1 618:1 638:1 668:2 689:1 691:1 740:1 756:1 768:1 783:1 790:1 800:1 828:1 831:1 897:1 925:1 934:1 946:1 977:1 998:1 1058:1 1113:1 1119:1 1125:1 1139:1 1203:1 1266:2 1279:1 1302:1 1314:1 1350:1 1373:1 1374:1 1399:1 1421:1 1436:1 1461:1 1483:1 1491:1 1497:1 1518:1 1528:1 1536:1 1547:1 1586:1 1619:1 1621:1 1631:1 1652:1 1658:1 1690:2 1691:2 1692:1 1786:1 1807:1 1836:1 1857:1 1875:1 1883:1 1884:1 1901:1 1902:1 1941:1 2017:1 2018:1 2134:1 2152:1 2163:1 2268:1 2316:1 2336:1 2358:1 2415:1 2449:1 2450:1 2463:1 2481:1 2483:1 2527:1 2529:1 2616:1 2685:1 2718:1 2770:1 2781:1 2789:1 2864:1 2869:1 2871:1 2907:1 2916:1 2917:1 2930:1 2940:1 2951:1 2979:1 3050:1 3070:1 3144:1 3149:1 3218:1 3235:1 3238:1 3288:1 3319:1 3330:1 3397:1 3413:1 3461:1 3481:1 3485:1 3498:1 3500:1 3516:1 3569:1 3570:1 3587:1 3626:1 3730:1 3856:2 3867:1 3892:1 3930:1 4104:1 4137:1 4192:1 4209:1 4220:1 4287:1 4361:1 4404:1 4435:1 4449:1 4470:1 4553:1 4561:1 4663:1 4729:1 4816:1 4889:1 4893:1 4931:1 4963:1 4979:1 4999:1 5104:1 5108:1 5122:1 5347:1 5363:1 5365:1 5439:1 5440:1 5531:1 5727:1 5786:1 5789:1 5863:1 5876:1 5925:1 5977:1 5991:1 6027:1 6307:1 6648:1 6785:1 6894:1 7017:1 7077:1 7101:1 7105:1 7116:1 7560:1 7561:1 #
0.0032310937036739428851461752856267 32:1 58:1 84:1 87:1 118:1 124:1 128:1 129:1 166:1 172:1 203:1 217:1 231:1 238:1 245:1 249:1 265:1 279:1 315:1 318:1 321:1 347:1 379:1 380:1 381:1 409:1 410:1 439:1 484:1 519:1 525:1 534:1 536:1 551:1 560:1 602:1 605:1 670:1 691:1 692:1 693:1 694:1 730:2 731:1 756:1 770:1 794:1 818:1 826:1 862:1 863:1 888:1 915:1 930:1 958:1 974:1 976:1 979:1 1017:1 1076:1 1079:1 1081:1 1157:1 1188:1 1189:1 1208:1 1221:1 1237:1 1255:1 1273:1 1295:1 1310:1 1325:1 1346:2 1347:1 1358:1 1361:1 1362:1 1366:1 1387:1 1456:1 1485:1 1528:1 1589:1 1617:1 1657:1 1659:1 1668:1 1718:1 1719:1 1726:1 1727:1 1728:1 1789:1 1809:1 1810:1 1838:1 1857:1 1885:1 1934:1 1941:1 1946:1 1953:1 1958:1 1967:1 2024:1 2026:1 2028:1 2033:1 2103:1 2116:1 2143:1 2155:1 2164:1 2224:1 2380:1 2397:1 2439:1 2524:1 2584:1 2643:1 2724:2 2728:1 2767:1 2782:1 2796:1 2807:1 2809:1 2824:1 2825:1 2830:1 2889:1 2937:1 2984:1 3034:1 3052:1 3103:1 3109:1 3149:1 3161:1 3194:1 3214:1 3223:1 3225:1 3330:1 3345:1 3524:1 3556:1 3595:1 3619:1 3665:1 3690:1 3695:1 3727:1 3730:1 3743:1 3757:1 3838:1 3839:1 3840:1 3852:1 3863:1 3872:1 3933:1 3946:1 4044:1 4086:1 4204:1 4219:1 4254:1 4256:1 4259:1 4267:1 4268:2 4274:1 4333:1 4361:1 4432:1 4458:1 4494:1 4498:1 4523:1 4713:1 4784:1 4823:1 4861:1 4873:1 4930:1 4931:1 4937:1 5131:1 5335:1 5430:1 5487:1 5493:1 5725:1 5729:1 5794:1 5912:1 5944:1 5986:1 6204:2 6674:1 6774:1 7004:1 7250:1 7275:1 7348:1 7408:1 7477:1 7613:1 #
-0.00050350171277679738567056855202964 5:1 6:1 12:1 15:1 16:1 26:1 49:1 89:1 117:1 118:1 119:1 172:1 175:1 177:1 210:1 211:2 220:1 236:1 263:1 290:1 293:1 313:1 328:1 333:1 335:1 339:1 349:1 350:1 364:1 365:1 436:1 471:1 472:1 473:1 511:1 534:1 556:1 601:1 648:1 663:1 667:1 698:1 747:1 768:1 846:1 853:1 861:1 887:1 927:1 931:1 954:1 969:1 1006:1 1036:1 1054:1 1080:1 1086:1 1095:1 1103:1 1119:1 1148:1 1183:1 1184:1 1191:1 1215:1 1231:1 1239:1 1244:1 1265:1 1280:1 1291:1 1297:1 1311:1 1357:1 1363:1 1387:1 1408:1 1436:1 1491:1 1533:1 1537:1 1559:1 1560:1 1596:1 1599:1 1605:1 1680:1 1717:1 1728:1 1809:1 1853:1 1875:1 1903:1 1941:1 1945:1 1946:1 1989:1 2079:1 2111:1 2199:1 2202:1 2254:1 2256:1 2276:1 2304:1 2338:1 2345:1 2357:1 2369:1 2431:1 2450:1 2472:1 2499:1 2550:1 2589:1 2605:1 2619:1 2620:1 2659:1 2727:1 2786:1 2798:1 2847:1 2891:1 2892:1 2905:1 2917:1 2938:1 3096:1 3110:1 3163:1 3401:1 3407:1 3437:1 3499:1 3500:1 3501:1 3502:1 3518:1 3566:1 3596:1 3640:1 3651:1 3652:1 3665:1 3667:1 3694:1 3841:1 4028:1 4034:1 4035:1 4036:1 4037:1 4038:1 4039:1 4040:1 4041:1 4042:1 4043:1 4044:1 4045:1 4046:1 4047:1 4048:1 4049:1 4050:1 4051:1 4052:1 4053:1 4054:1 4055:1 4056:1 4057:1 4058:1 4059:1 4060:1 4063:1 4199:1 4617:1 5259:1 5392:1 5514:1 6505:1 #
0.00097395993369250454148311479940503 9:1 10:1 26:1 64:1 123:1 124:1 129:1 146:1 162:1 171:1 172:1 199:1 210:1 290:1 321:1 343:1 346:1 364:1 376:1 394:1 396:1 413:1 448:1 472:1 475:1 511:1 534:1 549:1 583:1 588:1 589:1 590:1 638:1 647:1 691:1 692:1 706:1 740:1 746:1 773:1 783:1 784:1 800:1 827:1 850:1 879:1 916:1 940:1 943:1 945:1 950:1 955:1 1037:1 1054:1 1056:1 1058:1 1068:1 1086:1 1087:1 1120:1 1174:1 1189:1 1243:1 1247:1 1301:1 1325:1 1370:1 1379:1 1395:1 1432:1 1436:1 1522:1 1526:1 1528:1 1535:1 1536:1 1540:1 1575:1 1586:1 1597:1 1598:1 1652:1 1666:1 1675:1 1690:1 1691:1 1692:1 1718:1 1727:1 1804:1 1809:1 1857:1 1859:1 1961:1 1965:1 1966:1 1970:1 2005:1 2017:1 2018:1 2042:1 2048:1 2093:1 2103:1 2118:1 2136:1 2153:1 2164:1 2194:1 2232:1 2259:1 2276:1 2309:1 2310:1 2317:1 2336:1 2342:1 2362:1 2415:1 2517:1 2522:1 2555:1 2567:1 2592:1 2637:1 2658:1 2702:1 2777:1 2789:1 2854:1 2921:1 2930:1 2999:1 3003:1 3015:1 3066:1 3108:1 3147:1 3149:1 3183:1 3186:1 3221:1 3230:1 3233:1 3292:1 3309:1 3330:1 3337:1 3465:1 3469:1 3471:1 3518:1 3585:1 3589:1 3595:1 3718:1 3755:1 3803:1 3833:1 3856:1 3869:1 3888:1 3892:1 3893:1 3935:1 3946:1 3947:1 3949:1 3955:1 3960:1 4008:1 4113:1 4132:1 4133:1 4170:2 4198:1 4225:1 4284:1 4347:1 4532:1 4574:1 4577:1 4662:1 4699:1 4740:1 4812:1 4844:1 4870:1 4892:1 4931:1 5062:1 5198:1 5225:1 5251:1 5261:1 5269:1 5298:1 5373:1 5485:1 5662:1 5723:1 5728:1 5806:1 6052:1 6076:1 6169:1 6183:1 6272:1 6425:1 6599:1 6603:1 6647:1 6774:1 6822:1 6992:1 7105:1 7383:1 7410:1 #
0.0004707796896217758628871985493447 9:1 10:1 26:1 28:1 40:1 64:1 88:1 123:1 124:1 129:1 146:1 162:1 171:1 172:2 210:1 217:1 290:1 343:2 364:1 376:1 395:1 396:1 413:1 448:1 457:1 472:1 475:1 497:1 511:1 524:1 534:1 583:1 588:1 590:1 632:1 638:1 647:1 658:1 691:1 692:1 740:1 752:1 764:1 773:1 783:1 784:1 808:1 842:1 850:1 906:1 937:1 945:1 955:1 983:1 1037:1 1054:1 1056:1 1058:1 1119:1 1120:1 1174:1 1189:1 1207:1 1235:2 1247:1 1301:1 1309:1 1318:1 1325:1 1370:1 1379:1 1436:1 1461:1 1484:1 1520:1 1522:1 1526:1 1528:1 1529:1 1535:1 1536:1 1540:1 1617:1 1620:1 1652:1 1666:1 1672:1 1675:1 1691:2 1692:1 1718:1 1727:1 1743:1 1804:1 1809:1 1831:1 1857:1 1859:1 1881:1 1961:1 1965:1 1966:1 1970:1 2005:1 2017:1 2018:1 2048:1 2093:1 2103:1 2105:1 2136:1 2164:1 2176:1 2193:1 2259:1 2295:1 2309:1 2317:1 2336:1 2342:1 2349:1 2362:1 2380:1 2400:1 2466:1 2522:1 2553:1 2555:1 2589:1 2617:1 2637:1 2643:1 2665:1 2673:1 2702:1 2714:1 2833:1 2916:1 2921:1 2930:1 2961:1 2988:1 2994:1 2999:2 3003:1 3015:1 3048:1 3066:1 3131:1 3147:1 3149:1 3152:1 3221:1 3230:1 3233:1 3271:1 3292:1 3337:1 3348:10 3351:1 3375:1 3388:1 3413:1 3471:1 3518:1 3632:1 3690:1 3695:1 3718:2 3797:2 3803:1 3855:1 3856:1 3869:1 3873:1 3888:1 3893:1 3906:1 3907:1 3946:1 3947:1 3955:1 3960:1 4008:1 4089:1 4113:1 4133:1 4170:1 4173:1 4174:1 4180:1 4198:1 4225:1 4304:1 4345:2 4438:1 4446:1 4536:1 4553:1 4561:1 4574:1 4599:1 4647:1 4662:1 4699:1 4725:1 4740:1 4784:1 4844:1 4866:1 4892:1 4904:1 4931:1 4948:1 5039:1 5062:1 5092:1 5176:1 5197:1 5198:1 5261:1 5271:1 5279:1 5298:1 5314:1 5373:1 5484:1 5495:1 5532:1 5615:1 5662:1 5723:1 5728:1 5736:1 5806:1 5829:1 5887:1 5968:1 6052:1 6169:1 6232:1 6272:1 6358:1 6361:1 6402:1 6462:1 6921:1 6922:1 6926:1 6979:1 6992:1 7299:1 7300:1 7346:1 7534:1 7573:1 7574:1 #
-0.00089985781459613555476051427461925 7:1 17:1 53:1 54:1 71:1 79:1 80:1 108:1 180:1 189:1 238:1 269:1 333:1 334:1 339:1 347:1 388:1 409:1 414:1 415:1 419:1 435:1 457:1 505:1 508:1 537:1 574:1 577:1 592:1 619:1 647:1 765:1 910:1 914:1 969:1 972:1 983:1 986:1 994:1 1082:1 1146:1 1189:1 1212:1 1230:1 1249:1 1250:1 1265:1 1266:1 1345:1 1346:1 1378:1 1399:1 1431:1 1437:1 1452:1 1453:1 1491:1 1495:1 1501:1 1530:1 1532:1 1575:1 1579:1 1586:1 1592:1 1594:1 1609:1 1654:1 1659:1 1673:1 1674:1 1679:1 1724:1 1725:1 1735:1 1736:1 1806:1 1826:1 1835:1 1843:1 1849:1 1859:1 1884:1 1916:1 1919:1 1953:1 1960:1 2143:1 2159:1 2171:1 2224:1 2287:1 2299:1 2303:1 2320:1 2336:1 2337:1 2348:1 2378:1 2400:1 2416:1 2424:2 2449:1 2483:1 2534:1 2549:1 2612:1 2615:1 2642:1 2652:1 2660:1 2662:1 2684:1 2703:1 2711:1 2713:1 2732:1 2767:1 2830:1 2849:1 2853:1 2934:1 2961:1 2973:1 2987:1 2992:1 3002:1 3147:1 3172:1 3189:1 3199:1 3205:1 3232:1 3237:1 3254:1 3278:1 3279:1 3323:1 3341:1 3357:1 3390:2 3391:1 3455:1 3478:1 3562:1 3619:1 3730:1 3735:1 3775:1 3843:1 3867:1 3878:1 3913:1 3957:1 3976:1 3994:2 3995:1 4021:1 4077:1 4086:1 4139:1 4203:1 4225:2 4227:1 4256:1 4258:1 4294:1 4344:1 4501:1 4570:1 4572:1 4751:1 4785:1 4806:1 4859:1 4942:1 4944:1 5046:1 5056:1 5081:1 5157:1 5171:2 5228:1 5280:1 5330:1 5381:1 5500:1 5540:1 5713:1 5787:1 5888:1 6178:1 6375:1 6596:1 6674:1 6712:1 6736:1 #
-0.0006726992475505573281999160961675 53:1 74:1 85:1 108:1 219:1 249:1 302:1 323:1 332:1 349:1 372:1 388:1 389:1 396:1 415:1 442:1 460:1 461:1 530:1 536:1 569:1 618:1 620:1 639:1 746:1 763:1 768:1 820:1 829:1 846:1 864:1 962:1 966:1 1026:1 1077:1 1118:1 1121:1 1201:1 1204:1 1231:1 1243:1 1255:1 1279:1 1346:1 1359:1 1399:1 1452:1 1461:1 1501:1 1522:1 1585:1 1588:1 1589:1 1590:1 1617:1 1645:1 1650:1 1651:1 1722:1 1729:1 1748:1 1768:1 1799:1 1826:2 1873:1 1896:2 1904:1 1935:1 1974:1 1975:1 2012:1 2017:1 2018:1 2103:1 2154:1 2168:1 2222:1 2287:2 2330:1 2347:1 2399:1 2416:1 2463:1 2542:1 2549:1 2605:1 2632:1 2667:1 2686:1 2719:2 2734:1 2794:1 2843:1 2991:1 3120:1 3125:1 3199:2 3205:1 3257:1 3267:1 3330:1 3398:1 3431:1 3491:1 3594:1 3614:1 3650:1 3666:1 3690:1 3699:1 3803:1 3995:1 3998:1 4009:1 4092:1 4152:1 4154:1 4256:1 4343:1 4485:1 4487:1 4640:1 4691:1 4699:1 4723:1 4742:1 4756:1 4775:1 4831:1 4832:1 4838:1 4859:1 5128:1 5166:1 5622:1 5626:1 5709:1 5876:1 5882:1 5888:1 5977:1 6018:1 6106:1 6427:1 6552:1 6579:1 6735:1 6816:1 6930:1 7134:1 #
-0.001695050449691668046497960986585 5:1 10:1 11:1 12:1 89:1 90:1 120:1 136:1 137:1 197:1 210:1 211:1 221:1 238:1 251:1 281:1 323:1 346:1 370:1 371:1 387:1 413:1 414:1 415:1 417:1 418:1 476:1 477:1 518:1 524:1 525:1 530:1 560:1 569:1 570:1 572:1 593:1 638:1 764:1 828:1 847:1 888:1 915:1 976:1 994:1 1032:1 1051:1 1113:1 1142:1 1163:1 1178:1 1183:1 1187:1 1264:1 1289:1 1291:1 1296:1 1317:1 1371:2 1392:1 1410:1 1525:1 1584:1 1600:1 1620:1 1728:1 1806:1 1821:1 1827:1 1841:1 1842:1 1869:1 1900:1 1902:1 1950:1 2000:2 2017:1 2018:1 2025:1 2039:1 2047:1 2052:1 2058:1 2089:1 2143:2 2161:2 2187:1 2192:1 2207:1 2231:1 2287:1 2306:1 2394:1 2481:1 2491:1 2511:1 2531:1 2532:1 2549:1 2577:1 2620:1 2792:1 2794:1 2811:1 2847:1 2853:1 2855:1 2902:1 2953:1 2991:1 3070:1 3096:1 3125:1 3137:1 3152:1 3232:1 3253:1 3361:1 3410:1 3533:1 3560:1 3595:1 3686:1 3718:1 3878:1 3902:1 3948:1 3949:1 3950:1 4106:1 4167:1 4173:1 4412:1 4484:1 4485:1 4537:1 4630:1 4723:1 4783:1 4812:1 5330:1 5500:1 5527:1 5537:1 5622:1 5638:1 5947:1 5961:1 6124:1 6500:1 6850:1 7029:1 7124:1 #
-0.00054560304941143964851252290415573 2:1 39:1 40:1 41:1 61:1 65:1 74:1 90:1 102:1 123:1 131:1 150:1 190:1 209:1 360:1 394:1 430:2 439:1 504:1 521:1 533:1 537:1 581:1 625:1 677:1 689:2 715:1 831:1 839:1 862:1 866:1 872:1 898:1 1006:1 1041:1 1078:1 1092:1 1097:1 1182:1 1208:1 1209:1 1244:1 1277:1 1303:1 1304:1 1325:1 1348:1 1379:1 1412:1 1504:1 1514:1 1535:1 1536:2 1573:1 1609:1 1659:1 1661:1 1793:1 1804:1 1836:1 1857:1 1903:1 1923:1 1935:1 1943:1 1959:1 2035:1 2043:1 2044:1 2064:1 2093:1 2094:1 2105:1 2137:1 2159:1 2176:1 2239:1 2264:2 2309:1 2310:1 2420:1 2466:1 2469:1 2483:1 2539:1 2545:1 2546:1 2566:1 2610:1 2652:1 2659:1 2673:1 2678:1 2717:1 2732:1 2779:1 2788:1 2820:1 2830:1 2861:1 2863:1 2906:1 2982:1 2983:1 3007:1 3028:1 3034:1 3041:1 3161:1 3232:1 3240:1 3241:1 3287:1 3304:1 3410:1 3443:1 3447:1 3589:1 3591:1 3646:1 3649:1 3765:1 3786:1 3819:1 3834:1 3862:1 3944:1 4012:1 4221:1 4227:1 4256:1 4273:1 4310:1 4431:1 4481:1 4627:1 4686:1 4775:1 4777:1 5007:1 5081:1 5092:1 5138:1 5181:1 5193:1 5306:1 5506:1 5534:1 5563:1 5686:1 5850:1 5869:1 6010:1 6048:1 6192:1 6215:1 6353:1 6371:1 6711:1 6743:1 6770:1 7060:1 7062:1 7102:1 #
-0.00048464691059082879494995799163348 10:1 15:1 48:1 76:1 109:1 148:1 149:1 202:1 323:1 339:1 340:1 374:1 376:1 409:1 410:1 416:1 497:1 505:1 506:1 525:1 585:1 590:1 639:1 665:1 670:1 676:1 686:1 706:1 739:1 746:1 749:1 750:1 828:1 879:1 880:1 908:1 910:1 954:1 987:1 1071:1 1099:1 1122:1 1123:1 1157:1 1225:1 1229:1 1296:1 1309:1 1316:1 1317:1 1344:1 1346:1 1359:1 1374:1 1388:1 1392:1 1452:1 1472:1 1521:1 1526:1 1553:1 1572:1 1575:1 1576:1 1577:1 1581:1 1633:1 1674:1 1686:1 1713:1 1714:1 1740:1 1789:1 1801:1 1861:1 1908:1 2000:1 2017:1 2018:1 2027:1 2028:1 2032:1 2079:1 2120:1 2149:1 2171:1 2225:1 2235:1 2268:1 2279:1 2289:1 2304:1 2317:1 2347:1 2358:1 2375:1 2426:1 2438:2 2450:1 2485:1 2508:1 2549:1 2585:1 2696:1 2777:1 2779:1 2783:1 2897:1 2920:1 2984:1 3212:1 3247:1 3284:1 3367:1 3381:1 3410:1 3452:1 3509:1 3517:1 3609:1 3632:1 3666:1 3730:1 3759:1 3814:1 3842:1 3846:1 3887:1 3983:1 4000:1 4112:1 4187:1 4253:1 4270:1 4485:1 4511:1 4537:1 4570:1 4619:1 4638:1 4800:1 4809:1 4884:1 4913:1 4915:1 4937:1 5122:1 5244:1 5389:1 5588:1 5636:1 5857:1 5888:1 5983:1 6352:1 6523:1 6540:1 6569:1 6794:1 6942:1 7199:1 7465:1 7538:1 #
0.0035545650072891015955334204079463 14:1 28:1 45:1 57:1 110:1 111:1 119:1 155:1 211:1 299:1 310:1 318:1 354:1 376:1 409:1 413:1 439:1 442:1 458:1 471:1 472:1 490:1 554:1 579:1 588:1 590:1 625:1 638:1 640:1 662:1 668:2 670:1 699:1 728:1 729:1 730:1 762:1 768:1 773:1 824:1 825:1 865:1 882:1 951:1 1034:2 1035:1 1054:1 1086:1 1091:1 1095:1 1097:2 1133:1 1187:1 1370:1 1388:1 1396:1 1435:1 1476:1 1484:1 1504:1 1528:1 1586:1 1589:1 1609:1 1639:1 1937:1 1965:1 2017:1 2018:1 2024:1 2058:1 2182:1 2254:1 2346:1 2470:1 2489:1 2535:1 2545:1 2565:1 2581:1 2913:1 2919:1 2959:1 3030:1 3034:1 3046:1 3149:1 3180:1 3240:1 3333:1 3410:1 3483:1 3490:1 3498:1 3504:1 3505:1 3561:1 3650:1 3656:1 3711:1 3742:1 3785:1 3863:1 3925:1 3929:1 4112:1 4133:1 4269:1 4428:1 4531:1 4627:1 4761:1 4793:1 4824:1 4874:1 4931:1 4957:1 5212:1 5363:1 5373:1 5566:1 5728:1 5733:1 5743:1 5977:1 6002:1 6115:1 6188:1 6243:1 6298:1 6356:1 6523:1 6626:1 6769:1 6884:1 6963:1 7158:1 7405:1 7410:1 #
0.0022622065874853790334864100941559 26:1 28:1 45:1 64:1 69:1 77:1 102:1 116:1 117:1 119:1 128:1 167:1 172:1 175:1 190:1 209:1 237:1 244:1 261:1 274:1 299:1 351:1 352:1 359:1 360:1 387:1 396:1 409:1 439:1 440:1 458:1 471:1 472:1 511:1 512:1 534:1 536:1 549:1 551:1 552:1 555:1 560:1 561:1 572:1 574:1 588:1 608:1 667:1 681:1 684:1 740:1 742:2 765:1 775:1 791:1 828:1 847:1 880:1 888:1 897:1 945:1 976:1 1004:1 1021:1 1055:1 1097:1 1100:1 1118:1 1155:1 1195:1 1232:1 1234:1 1239:1 1265:1 1304:1 1305:1 1306:1 1307:1 1310:1 1311:1 1325:1 1345:1 1346:1 1362:1 1396:1 1436:1 1449:1 1504:1 1505:1 1513:1 1550:1 1590:1 1600:1 1621:1 1672:1 1676:1 1690:1 1701:1 1702:1 1723:1 1736:1 1759:1 1766:1 1802:1 1809:1 1879:1 1884:1 1903:1 1919:1 1943:1 1946:1 1980:1 2009:1 2015:1 2017:1 2018:1 2028:1 2041:1 2126:1 2151:1 2161:1 2162:1 2166:1 2171:1 2208:1 2271:1 2275:1 2306:1 2317:1 2332:1 2363:1 2402:1 2450:1 2552:1 2572:1 2577:1 2622:1 2640:1 2708:1 2719:1 2722:1 2727:1 2780:1 2830:1 2856:1 2861:1 2875:1 2907:1 2976:1 2985:1 3025:1 3033:1 3034:1 3125:1 3149:1 3155:1 3169:1 3188:1 3232:1 3238:1 3249:1 3266:1 3399:1 3405:1 3410:1 3411:1 3416:1 3491:1 3516:1 3541:1 3620:1 3640:1 3656:1 3667:1 3736:1 3839:1 3840:1 3868:1 3933:1 3972:1 4012:1 4026:1 4112:1 4226:1 4228:1 4465:1 4807:1 4832:1 4859:1 4931:1 4951:1 4975:1 5003:1 5006:1 5133:1 5370:1 5381:1 5403:1 5544:1 5836:1 5986:1 6425:1 6467:1 6504:1 6880:1 6884:1 6968:1 7101:1 7105:1 7307:1 7333:1 7410:1 7438:1 7531:1 #
0.0052498537036790903290151000248898 12:1 23:1 45:1 108:1 110:1 111:1 128:1 139:2 292:1 293:1 318:1 376:1 413:1 439:1 457:1 458:1 554:1 556:1 574:1 605:1 627:1 638:1 640:1 668:2 670:1 675:1 677:1 699:1 762:1 773:1 775:1 861:1 888:1 901:1 914:2 983:1 996:1 997:1 1020:1 1057:1 1086:1 1092:1 1095:1 1113:1 1134:1 1170:1 1184:1 1229:1 1230:1 1304:1 1370:1 1389:1 1396:1 1412:1 1435:1 1476:1 1486:1 1528:1 1574:2 1578:1 1579:1 1589:1 1609:2 1717:1 1736:1 1737:1 2017:1 2018:1 2024:1 2026:1 2109:1 2118:1 2254:1 2307:1 2444:1 2466:1 2479:1 2489:1 2531:1 2545:1 2636:1 2638:1 2689:1 2715:1 2748:1 2805:1 2811:1 2922:1 2997:1 3003:1 3034:1 3054:1 3099:1 3149:1 3193:1 3361:1 3574:1 3588:1 3649:1 3656:1 3701:1 3774:1 3880:1 3906:1 3952:1 3957:1 4021:1 4054:1 4082:1 4108:1 4133:1 4173:1 4199:1 4280:1 4404:1 4434:1 4471:1 4536:1 4617:1 4751:1 4761:1 4874:1 4922:1 4931:1 4972:1 5007:1 5179:1 5299:1 5338:1 5363:1 5502:1 5534:1 5566:1 5614:1 5615:1 5872:1 5873:1 5977:1 5979:1 6002:1 6018:1 6057:1 6112:1 6165:1 6226:1 6243:1 6261:1 6298:1 6299:1 6442:1 6771:1 6884:1 6944:1 7005:1 7079:1 7235:1 7279:1 7440:1 7539:1 7540:1 7541:1 #
0.0018853879321511532278499156944918 18:1 27:1 45:1 69:1 87:2 119:1 124:1 129:1 146:1 147:1 153:1 172:2 191:1 196:1 209:1 238:1 250:1 270:1 271:1 311:1 318:1 322:1 371:1 374:1 375:1 380:1 396:1 431:1 439:1 446:1 447:1 471:1 511:1 534:1 553:1 555:1 561:1 608:1 621:1 623:1 624:1 674:1 688:1 743:1 757:1 769:1 774:1 779:1 798:1 802:1 817:1 844:1 862:1 881:1 882:1 890:1 916:1 949:1 968:1 1016:1 1021:1 1037:1 1078:1 1095:1 1124:1 1132:1 1158:1 1170:1 1172:1 1177:1 1189:2 1200:1 1224:1 1238:1 1249:1 1259:1 1306:1 1325:1 1329:1 1330:1 1354:1 1366:1 1370:1 1372:1 1373:1 1382:1 1411:1 1413:1 1416:1 1417:1 1452:1 1500:1 1528:1 1536:1 1657:1 1728:1 1750:1 1775:1 1779:1 1853:1 1859:1 1876:1 1939:1 2041:1 2070:1 2096:1 2111:1 2123:1 2159:1 2202:1 2219:1 2230:1 2231:1 2232:1 2254:1 2307:1 2336:2 2343:1 2362:1 2397:1 2481:1 2488:1 2490:1 2492:1 2575:1 2580:1 2590:1 2605:1 2658:1 2711:1 2719:1 2772:1 2783:1 2787:1 2866:1 2869:1 2870:1 2912:1 3008:1 3034:1 3072:1 3096:1 3115:1 3129:1 3134:1 3149:1 3169:1 3194:1 3207:1 3247:1 3345:1 3397:1 3405:1 3489:1 3498:1 3509:1 3516:1 3556:1 3587:1 3615:1 3664:1 3665:1 3711:1 3738:1 3780:1 3781:1 3899:1 3908:1 3941:1 3967:1 3981:1 3983:1 4044:1 4086:1 4173:1 4224:1 4274:1 4309:1 4321:1 4335:1 4336:1 4361:1 4382:1 4384:1 4580:1 4775:1 4856:1 4857:1 4931:1 4944:1 5004:1 5064:1 5146:1 5207:1 5462:1 5507:1 5578:1 5593:1 5669:1 5709:1 5789:1 5794:1 5916:1 5935:1 5985:1 6108:1 6309:1 6456:1 6501:1 6519:1 6674:1 6686:1 6712:1 6716:1 6730:1 6906:1 7395:1 7399:1 7486:1 7487:1 7634:1 7640:1 #
0.0016579721575135772295567226919388 8:1 9:1 10:1 18:1 34:1 35:1 45:1 69:1 70:1 79:1 106:1 118:1 124:1 154:1 172:2 195:1 223:1 250:1 251:1 273:1 279:1 310:1 340:1 364:1 371:1 378:1 380:1 381:1 423:1 425:1 439:1 484:1 511:1 512:1 534:1 541:1 555:1 560:1 563:1 573:1 617:1 621:1 643:1 665:1 742:1 743:1 747:1 764:1 794:1 825:1 826:2 830:1 906:1 917:1 925:1 965:1 979:1 1013:1 1016:1 1032:1 1091:1 1120:2 1182:1 1202:1 1309:1 1325:1 1358:1 1370:1 1374:1 1380:1 1389:1 1391:1 1392:1 1393:1 1461:1 1465:1 1504:1 1509:1 1533:1 1600:1 1617:1 1673:1 1674:1 1701:1 1804:1 1809:1 1843:1 1859:1 1889:1 1902:1 1941:1 1954:1 2017:1 2018:1 2028:1 2054:1 2083:1 2097:1 2207:1 2221:1 2222:1 2255:1 2261:1 2289:1 2300:1 2305:1 2317:1 2335:1 2348:1 2357:1 2364:1 2399:1 2438:1 2451:1 2555:1 2586:1 2587:1 2637:1 2652:1 2702:1 2711:1 2804:1 2834:1 2910:1 2912:1 2983:1 3016:1 3030:1 3034:1 3093:1 3152:1 3173:2 3194:1 3252:1 3361:1 3429:1 3498:1 3620:1 3621:1 3622:1 3664:1 3665:1 3695:1 3698:1 3735:1 3872:1 3925:1 3939:1 4023:1 4085:1 4093:1 4160:1 4220:1 4267:1 4373:1 4374:1 4387:1 4390:1 4417:1 4447:1 4477:1 4503:1 4553:1 4563:1 4568:1 4580:1 4723:1 4747:1 4873:1 5004:1 5020:1 5027:1 5028:1 5030:1 5116:1 5192:1 5226:1 5275:1 5363:1 5548:1 5732:1 5794:1 5850:1 6437:1 6519:1 6687:1 6760:1 6824:1 6926:1 7043:1 7239:1 7375:1 7406:1 7416:1 7557:1 7558:1 #
-0.0018657703415291954345683889116003 13:1 15:1 16:1 26:1 27:1 89:1 90:1 125:1 156:1 172:1 188:1 195:1 204:1 211:1 217:1 220:1 236:1 240:1 279:1 290:1 293:1 321:1 335:1 343:1 364:1 380:1 387:1 434:1 436:1 465:1 466:1 467:1 473:1 523:1 534:1 537:1 550:1 587:2 591:1 608:1 632:1 638:1 669:1 800:1 807:1 848:1 853:1 895:1 914:1 927:1 931:1 937:1 969:1 976:1 1004:1 1005:1 1036:1 1039:1 1056:1 1092:1 1095:1 1189:1 1229:1 1256:1 1280:1 1287:1 1345:1 1346:1 1363:1 1387:1 1416:1 1436:1 1449:1 1491:1 1530:1 1537:1 1550:2 1551:1 1559:1 1560:1 1739:1 1759:1 1780:1 1785:1 1793:1 1807:1 1809:1 1813:1 1853:1 1877:1 1879:1 1882:1 1888:1 2026:1 2119:1 2155:1 2202:1 2229:1 2233:1 2316:1 2338:1 2362:1 2369:1 2431:1 2442:1 2450:1 2472:1 2494:1 2505:1 2514:1 2518:1 2523:1 2530:1 2589:1 2607:1 2619:1 2640:1 2662:1 2782:1 2861:1 2864:1 2870:1 2914:1 2915:1 2938:1 3026:1 3079:1 3115:1 3124:1 3146:1 3151:1 3185:1 3211:1 3212:1 3318:1 3401:1 3409:1 3437:1 3483:1 3501:1 3502:1 3563:1 3596:1 3618:1 3640:1 3654:1 3662:1 3665:1 3667:1 3676:1 3677:1 3680:1 3685:1 3690:1 3692:1 3693:1 3694:1 3714:1 3845:1 3902:1 4043:1 4044:1 4045:1 4074:1 4138:1 4212:1 4318:1 4434:1 4451:1 4495:1 4601:1 4671:1 4788:1 4924:1 4931:1 5040:1 5071:1 5073:1 5135:1 5136:1 5137:1 5139:1 5140:1 5142:1 5143:1 5146:1 5193:1 5362:1 5427:1 5536:1 6168:1 #
-0.00031059854120773128282120834064983 5:1 9:1 10:1 26:1 34:1 104:1 124:1 125:1 126:1 127:1 172:2 184:1 187:1 220:1 236:1 248:1 249:1 250:1 258:1 263:1 289:1 290:1 293:1 302:1 313:1 323:1 335:1 365:1 384:1 385:1 401:1 479:1 484:1 511:1 524:1 555:1 560:1 572:2 603:1 691:1 692:1 779:1 780:1 794:1 795:1 813:1 844:1 895:1 917:1 931:1 950:1 1024:1 1100:1 1133:1 1193:1 1200:1 1222:1 1334:1 1362:1 1371:1 1380:1 1387:2 1390:1 1399:1 1435:1 1436:1 1449:1 1472:1 1486:1 1491:1 1500:1 1510:1 1534:1 1556:1 1597:1 1768:1 1805:1 1809:1 1835:1 1853:1 1861:1 1879:1 1885:1 1907:1 1945:1 1959:1 2052:1 2119:1 2123:1 2161:1 2162:1 2171:1 2213:1 2358:1 2443:1 2451:1 2472:1 2525:1 2531:1 2547:1 2553:1 2601:1 2609:1 2618:1 2643:1 2672:1 2748:1 2749:1 2808:1 2857:1 2913:2 3028:1 3109:1 3148:1 3149:1 3237:1 3260:1 3292:1 3293:1 3335:1 3426:1 3427:1 3482:1 3499:1 3500:1 3501:1 3502:1 3504:1 3505:1 3566:1 3600:1 3609:1 3615:1 3624:1 3640:1 3665:1 3683:1 3694:1 3714:1 3853:1 3855:1 3863:1 3892:1 3908:1 4028:1 4059:1 4060:1 4166:1 4170:1 4391:1 4485:1 4491:1 4617:1 4765:1 4800:1 4915:1 4942:1 5054:1 5261:1 5381:1 5631:1 5636:1 5677:1 5832:1 6006:1 6095:1 6102:1 6255:1 6580:1 6650:1 6688:1 6689:1 6690:1 6691:1 #
-0.00069168219689564615880461584396244 1:1 9:1 10:1 16:1 111:1 116:1 172:2 182:1 190:1 191:1 236:1 240:1 253:1 263:1 271:1 290:1 311:1 318:1 354:1 360:1 380:2 384:1 385:1 410:1 433:1 470:1 532:1 534:1 592:2 646:1 676:1 714:1 772:1 802:1 804:1 826:1 865:1 882:1 883:1 914:1 929:1 937:1 950:1 964:1 976:1 1040:1 1063:1 1095:1 1106:1 1107:1 1108:1 1132:1 1139:1 1158:1 1170:1 1188:1 1226:1 1250:1 1253:1 1254:1 1309:1 1310:1 1333:1 1346:1 1375:1 1453:1 1465:1 1483:1 1505:1 1551:1 1578:1 1579:1 1599:1 1615:1 1653:1 1673:1 1674:1 1778:1 1809:1 1815:1 1870:1 1914:1 1924:1 1952:1 1961:1 1993:1 2003:1 2009:1 2018:1 2050:1 2095:1 2124:1 2161:1 2165:1 2174:1 2183:1 2190:1 2259:1 2333:1 2346:1 2380:1 2421:1 2428:1 2437:1 2445:1 2484:1 2520:1 2597:1 2647:1 2664:1 2708:1 2713:1 2714:1 2767:1 2779:1 2834:1 2849:1 2858:1 2910:1 2984:1 2994:2 3063:1 3070:1 3110:1 3113:1 3199:1 3288:1 3335:1 3341:1 3371:1 3401:1 3452:1 3471:1 3499:1 3500:2 3524:1 3530:1 3532:1 3597:1 3608:1 3619:1 3633:1 3698:1 3710:1 3711:1 3725:1 3733:1 3772:1 3807:1 3818:1 3917:1 3933:1 3934:1 4044:1 4045:1 4124:1 4198:1 4214:1 4244:1 4283:1 4287:1 4375:1 4474:1 4501:1 4569:1 4577:1 4590:1 4591:1 4619:1 4625:1 4670:1 4671:1 4676:1 4680:1 4681:1 4699:1 4723:1 4744:1 4745:1 4748:1 4816:1 4821:1 4822:1 4832:1 4908:1 4984:1 5222:1 5469:1 5593:1 5654:1 6728:1 6926:1 6927:1 #
-0.00023195204295913001866710767551183 1:1 9:1 10:1 28:1 97:1 116:1 172:2 182:1 190:1 211:1 236:1 240:1 248:1 249:1 263:1 281:1 290:2 321:1 360:1 370:1 379:1 380:2 384:1 385:1 387:1 395:1 429:1 430:1 433:1 455:1 470:1 477:1 534:1 544:1 564:1 623:1 667:1 712:1 747:1 748:1 773:1 802:1 807:1 839:1 879:1 880:1 887:1 929:1 933:1 934:1 937:1 945:1 964:1 976:1 986:1 1007:1 1095:1 1099:1 1100:1 1106:1 1107:1 1132:1 1158:1 1170:1 1207:1 1239:1 1254:1 1309:1 1346:1 1357:1 1379:1 1380:1 1483:1 1599:1 1609:1 1615:1 1621:1 1669:1 1672:1 1673:1 1674:1 1675:1 1711:1 1727:1 1746:1 1778:1 1801:1 1809:1 1815:1 1857:1 1865:1 1870:1 1878:1 1903:1 1944:1 1952:1 1961:2 2003:2 2015:1 2026:1 2050:1 2112:1 2124:1 2155:1 2161:1 2164:1 2190:1 2255:1 2269:1 2316:1 2362:1 2372:1 2376:1 2445:1 2500:1 2659:1 2706:1 2708:1 2713:1 2714:1 2767:1 2782:1 2858:1 2984:1 3034:1 3045:1 3110:1 3113:1 3152:1 3166:1 3288:1 3307:1 3326:1 3327:1 3401:1 3432:1 3433:1 3471:1 3499:1 3500:2 3519:1 3524:1 3561:1 3597:1 3633:1 3706:1 3707:1 3710:1 3718:1 3725:1 3733:1 3734:1 3738:1 3754:1 3802:1 3835:1 3848:1 3873:1 3917:1 3934:1 4032:1 4044:1 4045:1 4124:1 4181:1 4209:1 4231:1 4501:1 4569:1 4590:1 4661:1 4662:1 4671:1 4676:1 4680:1 4681:1 4744:1 4745:1 4793:1 4815:1 4822:1 4831:1 4860:1 4929:1 4947:1 4951:1 5124:1 5395:1 5618:1 6009:1 6077:1 6106:1 #
-0.00041323232636248947297064049166693 9:1 18:1 73:1 75:1 76:2 110:1 111:1 119:1 171:1 183:1 264:1 265:1 298:1 313:1 341:1 375:1 378:1 380:1 387:1 409:1 431:1 448:1 471:1 493:1 521:1 522:1 562:1 572:1 622:1 668:1 689:1 693:1 709:1 718:1 731:1 733:1 742:1 756:1 804:1 831:1 858:1 916:1 920:1 922:1 923:1 932:2 937:1 982:1 984:1 988:1 1039:2 1056:1 1205:1 1265:1 1279:1 1301:1 1323:1 1346:1 1362:1 1364:1 1386:1 1421:1 1422:1 1435:1 1440:1 1485:1 1512:1 1528:1 1539:1 1540:1 1553:1 1559:1 1599:1 1618:1 1709:1 1779:1 1828:1 1831:1 1858:1 1859:1 1861:1 1884:1 1892:1 1897:1 1928:1 1938:1 1940:1 1944:1 1952:1 1953:1 1958:1 1997:1 2010:1 2042:1 2043:1 2044:1 2148:1 2154:1 2168:1 2190:1 2234:1 2236:1 2254:1 2318:1 2346:1 2431:1 2471:2 2484:1 2490:1 2496:1 2512:1 2574:1 2688:1 2731:1 2761:1 2875:1 2975:1 2982:1 3008:1 3016:1 3040:1 3161:1 3179:1 3201:1 3385:1 3525:1 3541:1 3606:1 3764:1 3863:1 3931:1 3957:1 3993:1 4004:1 4022:1 4030:1 4210:1 4284:1 4426:1 4503:1 4684:1 4765:1 4890:1 4931:1 5043:1 5049:1 5146:1 5173:1 5344:1 5440:1 5653:1 5874:1 5986:1 6051:1 6112:1 6117:1 6298:1 6357:1 6530:1 6602:1 6826:1 6860:1 6930:1 7387:1 7652:1 #
0.0015274240302835910554346554590666 9:1 10:1 11:1 13:1 22:1 44:1 65:1 69:1 70:1 87:1 108:1 109:1 151:1 159:1 161:1 171:1 172:1 174:1 175:1 194:1 195:1 218:1 223:1 281:1 289:1 294:1 316:1 321:1 332:1 361:1 371:1 372:1 379:1 380:1 381:1 387:1 439:1 506:2 525:1 532:1 534:1 555:1 561:2 573:1 575:1 584:1 658:1 730:1 742:1 800:1 812:1 829:1 830:1 892:1 914:1 925:1 957:1 959:1 974:1 976:1 984:1 1020:1 1050:1 1072:1 1079:1 1157:1 1178:1 1202:1 1217:1 1229:1 1246:1 1298:1 1323:1 1325:1 1337:1 1339:1 1356:1 1375:1 1380:1 1435:1 1478:1 1522:2 1538:1 1652:1 1674:1 1680:1 1691:1 1700:1 1722:1 1762:1 1793:1 1809:1 1821:1 1833:1 1859:1 1884:1 1953:1 1960:1 1965:1 1998:1 2061:1 2077:1 2093:1 2102:1 2196:1 2204:1 2211:1 2221:1 2275:1 2289:1 2319:1 2384:1 2399:1 2426:1 2484:1 2531:1 2599:1 2600:1 2606:1 2636:1 2722:1 2757:1 2776:1 2993:1 3034:1 3052:1 3055:1 3065:1 3070:1 3101:1 3115:1 3148:1 3149:2 3194:1 3225:1 3242:1 3338:1 3345:1 3376:1 3405:1 3420:1 3439:1 3489:1 3498:1 3502:1 3556:1 3587:1 3601:1 3602:1 3622:1 3650:1 3730:1 3735:1 3863:1 3867:1 3893:1 3925:1 3933:1 4053:1 4104:1 4144:1 4152:1 4159:1 4167:1 4201:1 4232:1 4260:1 4274:1 4281:1 4424:1 4428:1 4450:1 4641:1 4694:1 4701:1 4730:1 4774:1 4931:1 4975:1 5008:1 5253:1 5254:1 5372:1 5393:1 5434:1 5502:1 5537:1 5666:1 5741:1 5784:1 5850:1 5902:1 5968:1 5995:1 5996:1 6091:1 6212:1 6251:1 6342:1 6565:1 6572:1 6634:1 6653:1 6693:1 6912:1 7164:1 7476:1 7502:1 7503:1 7646:1 #
0.0013649426994260212882975613624126 9:1 10:1 11:1 13:1 22:1 69:1 70:1 87:1 108:1 109:1 115:1 161:1 172:1 174:1 218:1 223:1 263:1 280:1 289:1 310:1 321:1 335:1 360:1 372:1 378:1 380:1 381:1 414:1 430:1 439:1 491:1 506:1 511:1 517:1 531:1 534:1 555:1 561:1 573:1 575:1 643:1 647:1 658:1 694:1 731:1 735:1 773:1 792:1 812:1 829:1 830:1 864:1 893:1 915:1 925:1 957:1 974:1 1018:1 1020:1 1078:1 1079:1 1139:1 1164:1 1186:1 1200:1 1228:1 1250:1 1254:1 1325:1 1333:1 1342:1 1375:1 1380:1 1413:1 1476:1 1478:1 1515:1 1522:2 1528:1 1532:1 1584:1 1596:1 1652:1 1674:2 1680:1 1691:1 1692:1 1727:1 1743:1 1773:1 1807:1 1809:1 1838:1 1859:1 1884:1 1885:1 1888:1 1938:1 1954:1 1965:1 1966:1 2009:1 2102:1 2124:1 2126:1 2164:1 2204:1 2215:1 2255:1 2289:1 2399:1 2453:1 2517:1 2548:1 2576:1 2599:1 2600:1 2606:1 2635:1 2636:1 2713:1 2722:1 2755:1 2757:1 2776:1 2810:1 2831:1 2870:1 2987:1 2993:1 3034:1 3065:1 3070:1 3079:1 3101:1 3113:1 3149:2 3152:1 3194:1 3212:1 3242:1 3247:1 3338:1 3345:1 3434:1 3439:1 3498:1 3587:1 3601:1 3602:1 3622:1 3637:1 3729:1 3730:1 3733:1 3735:1 3807:1 3863:1 3867:1 3878:1 3903:1 3925:1 3933:1 3980:1 3983:1 4103:1 4104:1 4167:1 4213:1 4260:1 4274:1 4276:1 4405:1 4421:1 4428:1 4450:1 4456:1 4623:1 4665:1 4682:1 4701:1 4765:1 4892:1 4931:1 4975:1 5007:1 5008:1 5146:1 5150:1 5166:1 5253:1 5254:1 5349:1 5502:2 5537:1 5666:1 5677:1 5741:1 5888:1 5995:1 5996:1 6091:1 6464:1 6570:1 6653:1 6693:1 6926:1 7083:1 7103:1 7502:1 7503:1 #
0.0024968983502806577773336371706137 13:1 22:1 33:1 36:1 102:1 108:1 109:1 121:1 122:1 123:1 124:1 155:1 172:1 200:1 218:1 219:1 238:1 248:1 291:1 330:1 335:1 352:1 415:1 423:1 511:1 512:1 534:1 570:1 681:1 682:1 691:1 733:1 753:1 768:1 774:1 795:1 820:1 913:1 926:1 930:1 937:1 945:1 946:1 992:1 1092:1 1138:1 1150:1 1165:1 1202:1 1249:1 1255:1 1259:1 1265:1 1278:1 1301:1 1302:1 1325:1 1350:2 1387:1 1466:1 1484:1 1500:1 1536:1 1540:1 1541:1 1547:2 1548:1 1581:1 1589:1 1590:1 1617:1 1627:1 1652:1 1657:1 1717:1 1758:1 1795:1 1809:1 1811:1 1838:1 1859:1 1880:1 1881:1 1893:1 1962:1 1963:1 2017:1 2018:1 2108:1 2140:1 2155:1 2176:1 2196:1 2218:1 2237:1 2255:1 2326:1 2364:1 2384:1 2432:1 2446:1 2506:1 2515:1 2617:1 2643:1 2712:1 2788:1 2851:1 2889:1 2916:1 2936:1 2978:1 2996:1 2999:1 3034:1 3042:1 3050:1 3093:1 3109:2 3115:1 3132:1 3144:1 3146:1 3149:1 3186:1 3336:1 3454:1 3457:1 3488:1 3585:1 3587:1 3603:1 3613:1 3650:1 3651:1 3653:1 3710:1 3718:1 3722:1 3743:1 3806:1 3869:1 3870:1 3901:1 3941:1 3955:1 3960:1 4164:1 4172:1 4174:1 4263:1 4334:1 4346:1 4369:1 4374:1 4550:1 4568:1 4596:1 4637:1 4768:1 4788:1 4853:1 4897:1 4931:1 4979:1 5008:1 5059:1 5287:1 5301:1 5305:1 5316:1 5331:1 5474:1 5478:1 5580:1 5727:1 5789:1 5856:1 5941:1 5985:1 6003:1 6013:1 6029:1 6161:1 6182:1 6195:1 6203:1 6251:1 6313:1 6314:1 6361:1 6415:1 6446:1 6497:1 6544:1 6569:1 6622:1 6663:1 6674:1 6685:1 6726:1 6885:1 6982:1 7049:1 7071:1 7154:1 7216:1 7265:1 7362:1 7383:1 7544:1 7547:1 #
0.0018275221416334047012247632224557 9:2 10:1 33:1 45:1 98:1 106:1 115:1 124:1 126:1 171:1 172:2 181:1 195:1 197:1 210:1 238:1 267:1 268:1 271:1 279:1 280:1 299:1 312:1 321:1 332:1 348:1 364:1 411:1 439:1 511:1 512:1 519:1 525:1 531:1 535:1 560:1 615:1 622:1 658:1 665:1 705:1 712:1 743:1 823:1 853:1 870:1 916:1 922:1 951:1 959:1 974:1 1000:1 1032:1 1035:1 1095:1 1126:1 1145:1 1237:1 1244:1 1301:1 1309:1 1325:1 1329:1 1330:1 1359:1 1366:1 1370:1 1373:1 1390:1 1396:1 1432:1 1476:1 1496:1 1500:1 1525:1 1528:1 1550:1 1560:1 1602:1 1677:1 1691:1 1718:1 1768:1 1809:1 1843:1 1844:1 1859:1 1866:1 1884:1 1885:1 1914:1 1966:1 2008:1 2026:1 2103:1 2108:1 2111:1 2122:1 2153:1 2155:1 2215:1 2221:1 2222:1 2232:1 2318:1 2324:1 2408:1 2443:1 2482:1 2516:1 2570:1 2581:1 2594:1 2598:1 2618:1 2663:1 2736:1 2759:1 2798:1 2897:1 2925:1 2989:1 3000:1 3034:1 3065:1 3091:1 3105:1 3115:1 3129:1 3140:1 3149:1 3247:1 3339:1 3366:1 3375:1 3429:1 3452:1 3477:1 3518:1 3521:1 3585:1 3586:1 3587:1 3588:1 3626:1 3653:1 3686:1 3727:1 3735:1 3755:1 3765:1 3854:1 3872:1 3905:1 3943:1 3957:1 3979:1 4037:1 4143:1 4174:1 4215:1 4254:1 4311:1 4318:1 4333:1 4345:1 4384:1 4399:2 4409:1 4434:2 4568:1 4618:1 4691:1 4892:1 4931:1 5020:1 5030:1 5079:1 5082:1 5090:1 5193:1 5209:1 5235:1 5292:1 5356:1 5405:1 5468:1 5507:1 5618:1 5671:1 5772:1 5881:1 5991:1 6012:1 6070:1 6382:1 6526:1 6551:1 6640:1 6810:1 6818:1 6880:1 7263:1 7394:1 7502:1 7504:1 7505:1 7506:1 7507:1 #
0.0011866930723011060236360414421597 6:1 13:1 39:1 45:1 46:1 62:2 108:1 109:1 110:1 117:1 123:1 124:1 172:1 187:1 201:1 210:2 249:1 258:1 279:1 292:1 360:1 371:1 428:1 439:1 451:1 466:1 467:1 491:1 511:1 518:1 561:1 572:1 573:1 579:1 587:1 588:1 615:1 658:1 724:1 731:1 742:1 794:1 809:1 870:1 906:1 945:1 949:1 984:1 1018:1 1049:1 1084:1 1094:1 1107:1 1119:2 1121:1 1187:1 1217:1 1218:1 1221:1 1231:1 1238:1 1259:1 1305:1 1313:1 1325:1 1374:1 1388:1 1419:1 1461:1 1465:1 1476:1 1489:1 1513:1 1521:1 1525:1 1528:1 1538:1 1553:1 1560:1 1589:1 1600:1 1604:1 1672:2 1691:1 1723:1 1776:1 1805:1 1809:1 1859:1 1878:1 1885:1 1892:1 1897:1 1941:1 1966:1 1987:1 2017:1 2018:1 2028:1 2030:1 2125:1 2187:1 2192:1 2212:1 2275:1 2459:1 2460:1 2470:1 2493:1 2515:1 2535:1 2579:1 2604:1 2629:1 2639:1 2640:1 2648:1 2659:1 2670:1 2686:1 2694:1 2733:1 2772:1 2787:1 2789:1 2867:1 2889:1 2897:1 2939:1 3034:1 3061:1 3065:1 3094:1 3102:1 3115:1 3125:1 3127:1 3133:1 3148:1 3163:1 3179:1 3194:1 3209:1 3235:1 3345:1 3406:1 3498:1 3525:1 3570:1 3587:1 3613:1 3635:1 3665:1 3667:1 3701:1 3707:1 3716:1 3735:1 3741:1 3812:1 3863:1 3867:1 3872:1 3930:1 3933:1 3990:1 4020:1 4106:1 4133:1 4194:1 4266:1 4274:1 4318:1 4434:1 4447:1 4450:1 4514:1 4553:1 4667:1 4698:1 4885:1 4887:1 4955:1 5006:1 5050:1 5107:1 5193:1 5254:1 5295:1 5332:1 5439:1 5468:1 5489:1 5683:1 5789:1 5794:1 5884:1 5995:1 6157:1 6161:1 6211:1 6343:1 6531:1 6640:1 6785:1 6818:1 6826:1 6842:1 6926:1 7058:1 7200:1 #
-0.0017335835382561609087359588698973 22:1 23:1 26:1 29:1 36:1 65:1 90:2 92:1 104:1 123:1 124:1 139:1 146:1 159:1 169:1 170:1 172:1 184:1 205:1 238:1 248:1 251:1 267:1 302:1 314:1 321:1 323:1 335:1 351:1 386:1 400:1 414:1 461:1 462:1 471:1 472:1 530:1 534:1 553:1 554:1 572:1 588:1 603:1 686:1 736:1 759:1 762:1 773:1 795:1 822:1 829:1 830:1 835:1 929:1 938:1 946:1 1018:1 1021:1 1059:1 1060:1 1061:1 1091:1 1092:1 1095:1 1111:1 1113:1 1141:1 1142:1 1150:1 1151:1 1175:2 1187:1 1381:1 1432:1 1436:1 1471:1 1476:1 1491:1 1640:1 1691:1 1727:1 1735:1 1782:1 1810:1 1815:1 1830:1 1847:1 1885:1 1990:1 2060:1 2101:1 2109:1 2124:1 2139:1 2164:1 2315:1 2337:1 2389:1 2394:1 2465:1 2519:1 2537:1 2553:1 2720:1 2740:1 2741:1 2760:1 2765:1 2805:1 2837:1 2941:1 2948:1 2969:1 2980:1 2993:1 3000:1 3070:1 3082:1 3100:1 3134:1 3149:1 3152:1 3194:1 3237:1 3345:1 3371:1 3401:1 3405:1 3500:1 3501:1 3502:1 3520:1 3524:1 3558:1 3600:1 3601:1 3602:1 3615:1 3635:1 3637:1 3640:1 3641:1 3647:1 3648:1 3649:1 3668:1 3735:1 3821:1 3839:1 3840:1 3852:1 3853:1 3861:1 3862:1 3868:1 3943:1 3944:1 3982:1 4098:1 4173:1 4180:1 4198:1 4249:1 4274:1 4451:1 4504:1 4569:1 4570:1 4580:1 4634:1 4840:1 4953:1 4987:1 5019:1 5061:1 5124:1 5330:1 5469:1 5704:1 5711:1 5847:1 6170:1 6225:1 6252:1 6604:1 6627:1 6628:1 6629:1 6630:1 6631:1 6632:1 6633:1 6634:1 #
-0.0010014769242775187294697269990706 57:1 67:1 125:1 170:1 172:1 180:1 217:1 222:1 226:1 236:1 263:1 322:1 323:1 359:1 360:1 364:1 396:1 411:1 413:1 502:1 523:1 524:1 550:1 562:1 572:1 573:1 583:1 599:1 603:1 638:1 668:1 690:1 699:1 815:1 882:1 1004:1 1049:1 1057:1 1058:1 1116:1 1147:1 1157:1 1254:1 1259:1 1301:1 1313:1 1340:1 1345:1 1361:1 1394:1 1449:1 1461:1 1464:1 1487:1 1511:1 1597:1 1608:2 1610:1 1658:1 1723:1 1735:1 1772:1 1815:2 1824:1 1847:1 2094:1 2097:1 2140:1 2170:1 2194:1 2201:1 2213:1 2297:1 2380:1 2398:1 2414:1 2500:1 2518:1 2524:1 2553:1 2557:1 2595:1 2612:1 2639:1 2647:1 2672:1 2674:1 2691:1 2704:1 2767:1 2776:1 2790:1 2795:1 2805:2 2851:1 2852:1 2936:1 2996:1 3034:1 3051:1 3103:1 3133:1 3139:1 3214:2 3258:1 3293:1 3331:1 3348:1 3371:1 3462:1 3490:1 3498:1 3499:1 3500:1 3501:1 3502:1 3507:1 3512:1 3515:1 3517:1 3557:1 3603:1 3685:1 3699:1 3717:1 3721:1 3736:1 3769:1 3776:1 3875:1 3895:1 3896:1 3933:1 3956:1 3977:1 4150:1 4184:1 4192:1 4222:1 4272:1 4280:1 4298:1 4307:1 4328:1 4334:1 4368:1 4457:1 4467:1 4762:1 4776:1 5008:1 5021:1 5107:2 5254:1 5299:1 5320:1 5401:1 5465:1 5493:1 5760:1 5778:1 5849:1 5902:1 5977:1 6133:1 6288:1 6319:1 6426:1 6478:1 6568:1 6569:1 6570:1 6571:1 6572:1 6573:1 #
-0.0023134096930428342704655353401222 5:1 9:1 12:1 24:1 49:1 50:1 51:1 52:1 53:1 57:1 60:1 67:1 73:1 77:1 86:1 90:1 91:1 92:2 117:1 123:1 128:1 129:1 152:1 156:1 166:1 167:1 216:1 274:1 337:1 345:1 438:1 439:1 447:1 451:1 467:1 472:1 473:1 483:1 494:1 500:1 525:1 570:1 572:1 575:1 588:1 608:1 615:1 616:1 627:1 628:1 632:1 633:1 634:1 635:1 636:1 637:1 638:1 639:1 640:1 644:1 647:1 648:1 652:2 653:1 654:1 655:1 656:1 657:1 658:1 662:1 675:1 676:1 677:1 681:2 682:1 686:1 690:1 691:1 692:1 703:1 704:1 705:1 706:1 707:1 708:1 709:1 717:1 718:1 743:1 744:1 750:1 761:1 857:1 870:1 878:1 884:1 885:1 888:1 917:1 945:1 946:1 996:1 1018:1 1021:1 1086:1 1087:1 1088:1 1089:1 1090:1 1091:1 1092:1 1093:1 1094:1 1095:1 1096:1 1097:1 1098:1 1099:1 1100:1 1101:1 1102:1 1103:1 1104:1 1105:1 1106:1 1107:1 1108:1 1109:1 1110:1 1111:1 1112:1 1113:1 1114:1 1115:1 1116:1 1117:1 1118:1 1119:1 1120:1 1121:1 1122:1 1123:1 1124:1 1125:1 1126:1 1127:1 1128:1 1129:1 1130:1 1131:1 1132:1 1133:1 #
-0.00011495772932515883652145050053406 11:1 13:1 19:1 39:1 104:1 106:1 119:1 121:1 125:1 146:1 161:1 167:1 172:2 195:1 225:1 236:1 245:2 263:1 279:1 311:1 323:1 354:1 425:1 426:1 427:1 466:1 473:1 481:1 512:1 524:1 534:1 541:1 559:1 572:1 573:2 591:1 595:1 631:1 638:1 667:1 692:1 842:1 843:1 882:1 883:1 889:1 940:1 998:1 1004:1 1020:1 1031:1 1040:1 1058:1 1080:1 1091:1 1099:1 1100:1 1224:1 1230:1 1256:1 1339:1 1352:1 1360:1 1370:1 1415:1 1419:1 1422:1 1511:1 1583:1 1596:1 1597:1 1600:1 1605:1 1728:1 1735:1 1755:1 1830:1 1844:1 1933:1 1938:1 1955:1 1958:1 1996:1 2003:1 2072:1 2073:1 2121:1 2147:1 2196:1 2203:1 2255:1 2292:1 2295:1 2307:1 2316:1 2380:1 2414:1 2436:1 2442:1 2443:1 2471:1 2479:1 2512:1 2595:1 2619:1 2649:1 2735:1 2837:1 2874:1 2881:1 2906:2 2916:1 3030:1 3051:1 3096:1 3252:1 3256:1 3328:1 3410:1 3433:1 3498:1 3499:1 3500:2 3501:1 3502:1 3503:1 3507:1 3524:1 3525:1 3526:1 3527:1 3528:1 3575:1 3597:1 3640:1 3650:1 3665:1 3667:1 3685:1 3831:1 3850:1 3870:1 3872:1 3877:1 3933:2 4014:1 4045:1 4105:1 4147:1 4148:1 4149:1 4150:1 4151:1 4152:1 4160:1 4163:1 4164:1 4165:1 4228:1 4298:1 4328:1 4523:1 4558:1 4603:1 4816:1 4880:1 5003:1 5065:1 5234:1 5329:1 5360:1 5401:1 5539:1 5553:1 5579:1 5607:1 5623:1 5791:1 5792:1 5793:1 5794:1 5795:1 5796:1 5797:1 5798:1 5799:1 #
0.0025992715280131325691903576569075 6:1 9:1 26:1 38:1 45:1 56:1 90:1 106:1 117:1 152:1 172:1 210:1 256:1 257:1 273:1 340:1 354:1 398:1 407:1 439:1 459:1 523:1 534:1 557:1 605:1 618:1 638:1 640:1 667:1 668:1 689:1 715:1 740:1 741:1 742:1 748:1 764:1 766:1 773:1 846:1 864:1 888:1 889:1 917:1 920:1 929:1 945:1 996:1 997:1 1015:1 1018:1 1086:1 1090:1 1091:1 1098:1 1119:1 1131:1 1140:1 1141:1 1154:1 1250:1 1253:1 1277:1 1311:1 1325:1 1364:1 1370:1 1374:1 1387:1 1408:1 1420:1 1436:1 1491:1 1525:1 1533:1 1559:1 1560:1 1599:1 1600:1 1618:1 1643:1 1653:1 1689:1 1690:1 1719:1 1739:1 1746:1 1775:1 1776:1 1779:1 1808:1 1831:1 1844:1 1853:1 1857:1 1878:1 1882:1 1889:1 1934:1 1941:1 1959:1 1960:1 1996:1 2017:1 2018:1 2064:1 2259:1 2295:1 2306:1 2307:1 2333:1 2347:1 2358:1 2377:1 2405:1 2406:1 2448:1 2484:1 2510:1 2520:1 2585:2 2629:1 2648:1 2750:1 2789:1 2870:1 2875:1 2987:1 3003:1 3008:1 3020:1 3034:1 3079:1 3115:1 3125:1 3137:1 3173:2 3174:1 3182:1 3231:1 3266:1 3268:1 3278:1 3279:1 3323:1 3324:2 3333:1 3335:1 3341:1 3381:1 3411:1 3516:1 3561:1 3640:1 3651:1 3710:1 3750:1 3760:1 3763:1 3814:1 3830:1 3964:1 4034:1 4106:1 4133:1 4167:1 4339:1 4369:1 4417:1 4491:1 4495:1 4555:1 4570:1 4666:1 4731:1 4739:1 4751:1 4775:1 4874:1 4913:1 4931:1 4952:1 4957:1 4995:2 5010:1 5104:1 5161:1 5167:1 5179:1 5212:1 5254:1 5483:1 5492:1 5565:1 5722:1 5953:1 6005:1 6047:1 6067:1 6107:1 6157:1 6169:1 6231:1 6243:1 6440:1 6544:1 6732:1 6736:1 6754:1 6855:1 7016:1 7049:1 7057:1 7140:1 7147:1 7394:1 7433:1 7542:1 #
0.0010818657110062757705642999539464 13:1 17:1 33:2 35:1 45:1 65:1 69:1 70:1 95:1 129:1 151:1 158:1 172:1 223:1 250:1 270:1 271:1 272:1 275:1 279:1 290:1 327:1 342:1 347:1 348:1 349:1 350:1 375:1 412:1 417:1 439:1 458:1 459:1 477:1 505:1 534:1 555:1 557:1 573:1 577:1 592:1 619:1 621:1 623:1 626:1 631:2 665:1 732:1 734:1 741:1 742:1 743:1 765:1 780:1 792:1 823:1 869:1 919:1 925:1 931:1 979:1 984:1 999:1 1021:2 1051:1 1054:1 1070:1 1091:1 1092:1 1097:1 1120:1 1182:1 1202:1 1290:2 1325:1 1334:1 1345:1 1349:1 1370:1 1402:1 1461:1 1465:1 1501:1 1521:1 1543:1 1560:1 1651:1 1713:1 1721:1 1723:1 1726:1 1728:1 1804:1 1843:1 1844:1 1859:1 1902:2 1916:1 1919:1 1920:1 1921:2 1931:1 2003:1 2009:1 2017:1 2018:1 2028:1 2054:1 2082:1 2083:1 2097:1 2166:1 2202:1 2238:1 2261:1 2305:1 2317:1 2347:1 2431:1 2484:1 2488:1 2595:1 2637:1 2652:1 2675:1 2719:1 2756:1 2757:1 2811:1 2824:1 2825:1 2834:1 2870:1 2885:1 2908:1 2912:1 3003:1 3034:1 3100:1 3133:1 3138:1 3140:1 3194:1 3308:1 3346:1 3429:1 3498:1 3542:1 3557:1 3558:2 3651:1 3665:1 3695:1 3698:1 3736:1 3812:1 3834:1 3839:1 3840:1 3872:1 3873:1 3925:1 3933:1 4044:1 4142:1 4164:1 4209:1 4220:1 4387:1 4390:1 4406:1 4435:1 4445:1 4553:1 4624:1 4652:1 4763:1 4775:1 4816:1 4831:1 4832:1 4954:1 5004:1 5030:1 5266:1 5316:1 5470:1 5565:1 5597:1 5779:1 6003:1 6119:1 6141:1 6161:1 6315:1 6336:1 6517:1 6683:1 6752:1 6848:1 6875:1 6918:1 6926:1 6927:1 6948:1 7408:1 #
0.0017371254922571976314626951420905 6:1 45:1 87:1 119:2 125:1 137:1 152:1 172:1 200:1 215:1 279:1 290:1 313:1 337:1 354:1 358:1 360:1 375:1 393:1 411:1 413:2 439:1 460:1 471:1 472:1 534:1 556:1 560:1 561:1 573:1 576:1 589:1 617:1 638:1 640:1 643:1 647:1 668:1 721:1 729:1 828:1 876:1 918:1 930:1 932:2 936:1 937:1 999:1 1026:1 1031:1 1032:1 1033:1 1054:1 1058:1 1086:1 1112:1 1116:1 1123:1 1125:1 1168:1 1209:1 1236:1 1319:1 1325:1 1376:1 1396:1 1407:1 1408:2 1427:1 1441:1 1449:1 1522:1 1574:1 1595:1 1597:1 1599:1 1620:1 1645:1 1654:1 1667:1 1671:1 1677:1 1689:1 1690:1 1717:1 1732:1 1739:1 1744:1 1770:1 1795:1 1796:1 1807:1 1809:1 1821:1 1856:1 1884:1 1894:1 1905:1 1928:1 1941:1 1948:1 1958:2 2005:1 2017:1 2018:1 2027:1 2050:1 2104:1 2148:1 2152:1 2201:1 2202:1 2223:1 2275:1 2290:1 2308:1 2312:1 2357:1 2428:1 2431:1 2438:1 2471:1 2500:1 2520:1 2525:1 2539:1 2613:1 2617:1 2636:1 2678:1 2781:1 2811:1 2846:1 2939:1 2940:1 2956:1 3034:1 3107:1 3115:1 3202:1 3274:1 3278:1 3313:1 3397:1 3418:1 3465:1 3485:1 3498:1 3516:1 3588:1 3620:1 3640:1 3650:1 3686:1 3695:1 3735:1 3795:1 3839:1 3840:1 3872:1 3893:2 3914:1 3925:1 4035:1 4063:1 4078:1 4124:1 4180:1 4185:1 4347:1 4385:1 4491:1 4682:1 4788:1 4810:1 4848:1 4911:1 4931:1 4991:1 5039:1 5067:1 5094:1 5192:1 5347:1 5541:1 5565:1 5566:1 5636:1 5664:1 5671:1 5739:1 5755:1 5756:1 5838:1 5868:1 5971:1 5980:1 5993:1 6030:1 6233:1 6356:1 6390:1 6414:1 6425:1 6440:1 6485:1 7394:1 7397:1 7436:1 #
-0.0019557798071932132495664991012063 32:1 33:1 37:1 38:1 39:1 40:2 41:1 65:1 71:1 72:1 82:1 108:1 109:1 119:1 125:1 136:1 137:1 197:1 211:1 249:1 250:1 299:1 340:1 361:1 380:1 396:1 430:1 471:1 491:1 492:1 493:1 494:1 548:1 549:1 551:1 569:2 655:1 659:1 693:1 694:1 702:1 745:1 755:1 756:2 790:1 862:2 884:1 921:1 930:1 931:1 932:1 951:1 985:1 1010:1 1017:1 1079:1 1164:1 1184:1 1216:1 1236:1 1298:1 1299:1 1300:1 1301:1 1302:1 1303:1 1304:2 1305:1 1306:1 1307:1 1308:1 1309:1 1310:1 1311:1 1312:1 1313:1 1314:1 1315:1 1316:1 1317:1 1318:1 1319:1 1320:1 1321:1 1322:1 1323:1 1324:1 1325:1 1326:1 1327:1 1328:1 1329:1 1330:1 1331:1 1332:1 1333:1 1334:1 1335:1 1336:1 1337:1 1338:1 1339:1 1340:1 1341:1 1342:1 1343:1 1344:1 1345:1 1346:1 1347:1 1348:1 1349:1 1350:1 1351:1 1352:1 1353:1 1354:1 1355:1 1356:1 1357:1 1358:1 1359:1 1360:1 1361:1 1362:1 1363:1 1364:1 1365:1 1366:1 1367:1 1368:1 1369:1 1370:1 1371:1 1372:1 1373:1 1374:1 1375:1 1376:1 1377:1 1378:1 1379:1 1380:1 1381:1 1382:1 1383:1 1384:1 1385:1 1386:1 1387:1 1388:1 1389:1 #
-0.00093804672163451407757711608681461 28:1 39:1 40:1 41:1 42:1 52:1 65:1 74:1 103:1 109:2 116:1 143:1 152:1 208:1 273:1 274:1 287:1 289:1 302:1 303:1 310:1 341:1 364:1 383:1 387:1 397:1 447:1 455:1 473:1 500:1 512:1 522:1 555:1 558:1 575:1 619:1 647:1 650:1 666:1 717:1 724:1 765:1 786:1 839:1 850:1 876:1 888:1 889:1 938:1 968:1 983:1 1026:1 1043:1 1088:1 1112:1 1133:1 1154:1 1184:1 1185:1 1201:1 1202:1 1226:1 1282:1 1305:1 1307:1 1309:1 1348:1 1361:1 1391:1 1404:1 1412:1 1436:1 1437:1 1452:1 1459:1 1479:1 1493:1 1531:1 1549:1 1577:1 1579:1 1590:1 1634:1 1652:1 1656:1 1668:1 1692:1 1703:1 1704:1 1720:1 1721:1 1779:1 1786:1 1790:1 1832:1 1834:1 1839:1 1848:1 1853:1 1859:1 1879:1 1882:1 1885:1 1958:1 1961:1 2033:1 2063:1 2095:1 2118:1 2132:1 2178:1 2180:1 2181:1 2216:1 2254:1 2305:1 2330:1 2337:1 2341:1 2354:1 2405:1 2421:1 2423:1 2466:1 2491:1 2559:1 2576:1 2577:1 2601:1 2602:1 2695:1 2708:1 2729:1 2788:1 2812:1 2830:1 2831:1 2853:1 2888:1 2896:1 2951:1 2973:1 3010:1 3061:1 3099:1 3136:1 3169:1 3353:1 3365:1 3417:1 3457:1 3459:1 3491:1 3516:1 3619:1 3754:1 3784:1 3825:1 3853:1 3864:1 3885:1 3925:1 4017:1 4034:1 4035:1 4063:1 4071:1 4207:1 4208:1 4210:1 4213:1 4257:1 4263:1 4373:1 4382:1 4385:1 4386:1 4434:1 4451:1 4471:1 4601:1 4617:1 4650:1 4669:1 4723:1 4880:1 4958:1 5003:1 5044:1 5046:1 5102:1 5129:1 5232:1 5299:2 5320:1 5356:1 5392:1 5654:1 5683:1 5764:1 5767:1 5779:1 5781:1 5837:1 5854:1 5855:1 5970:1 5984:1 6126:2 6194:1 6401:1 6403:1 6502:1 6519:1 6675:1 6934:1 7031:1 7140:1 7142:1 7208:1 7270:1 7271:1 7272:1 7273:1 #
-0.0014736850173877069115901949913905 3:1 9:1 10:1 33:1 37:1 41:1 53:1 77:1 97:1 108:1 109:2 122:1 123:1 124:1 155:1 250:2 257:1 270:1 273:1 332:1 338:1 352:1 369:1 396:1 468:1 503:1 518:1 667:1 675:1 714:1 715:1 734:1 742:1 746:1 755:1 756:1 757:1 790:1 847:1 919:1 949:1 1000:2 1085:1 1171:1 1190:1 1211:1 1228:1 1254:1 1257:1 1259:1 1325:1 1329:1 1330:1 1344:1 1408:1 1435:1 1452:1 1484:1 1486:1 1549:1 1553:1 1596:1 1597:1 1609:1 1646:1 1712:1 1718:1 1719:1 1821:1 1830:1 1850:1 1888:1 1900:1 1902:1 1908:1 1950:1 1983:1 2025:1 2039:1 2043:1 2060:1 2082:1 2087:1 2126:1 2132:1 2133:1 2183:1 2268:1 2274:1 2352:1 2354:1 2388:1 2474:1 2491:1 2534:1 2549:1 2570:1 2659:1 2662:1 2691:1 2692:1 2758:1 2976:1 2996:1 3046:1 3096:1 3098:1 3108:1 3112:1 3146:1 3259:1 3260:1 3261:1 3368:1 3396:1 3415:1 3478:1 3487:1 3489:1 3509:1 3532:1 3556:1 3701:1 3806:1 3909:1 3911:1 3929:1 3979:1 3995:1 4158:1 4207:1 4219:1 4267:1 4401:1 4583:1 4697:1 4751:1 4800:1 4832:1 4862:1 5026:1 5037:1 5090:1 5154:1 5747:1 5763:1 5785:1 5789:1 5888:1 6018:1 6178:1 6517:1 6671:1 6840:1 7545:1 #
0.0017330620799145804358104561160303 16:1 26:1 32:1 39:1 45:1 48:1 80:1 81:1 108:1 109:1 146:1 196:1 201:1 207:1 210:1 211:1 212:1 221:1 227:1 260:1 263:1 279:1 280:1 283:1 317:1 375:1 376:1 413:1 414:1 422:1 439:1 452:1 480:1 502:2 505:1 531:1 534:1 572:1 602:1 608:1 628:1 638:1 666:1 669:1 670:1 675:1 768:1 795:1 801:1 823:1 824:1 833:1 881:1 882:1 901:1 927:1 946:1 993:1 998:1 1009:1 1054:1 1055:1 1091:1 1092:2 1113:1 1139:1 1140:1 1141:1 1170:1 1184:1 1191:1 1209:1 1255:1 1311:1 1387:1 1402:1 1436:1 1452:1 1487:1 1491:1 1502:1 1503:1 1522:1 1568:1 1579:1 1617:1 1618:1 1631:1 1651:2 1652:1 1658:1 1690:1 1701:1 1845:1 1853:1 1859:1 1870:1 1872:1 1873:1 1884:1 1934:1 1946:1 1948:1 2002:1 2009:1 2017:1 2018:1 2047:1 2063:1 2064:1 2105:1 2126:1 2127:1 2139:1 2157:1 2171:1 2182:1 2254:1 2306:1 2358:1 2367:1 2379:1 2413:1 2422:1 2460:1 2478:1 2487:1 2535:1 2545:1 2553:1 2673:1 2692:1 2769:1 2772:1 2796:1 2875:1 2931:1 3019:1 3030:1 3034:1 3050:1 3106:1 3109:1 3115:1 3149:1 3152:1 3272:1 3279:1 3309:1 3323:2 3397:1 3510:1 3516:1 3639:1 3695:1 3774:1 3838:1 3839:1 3840:1 3853:1 3856:1 3859:1 3872:1 3873:1 3931:1 4101:1 4130:1 4160:1 4161:1 4190:1 4318:1 4330:1 4336:1 4408:1 4720:1 4723:1 4775:1 4803:1 4820:1 4874:1 4931:1 4946:1 4975:1 5055:1 5087:1 5254:1 5311:1 5363:1 5547:1 5576:1 5608:1 5633:1 5654:1 5696:1 5814:1 6002:2 6074:1 6115:1 6215:1 6267:1 6310:1 6375:1 6430:1 6528:1 6592:1 6626:1 6743:1 6818:1 7016:1 7105:1 7227:1 7300:1 7301:1 7405:1 #
0.00093525359872276411440927823548463 28:1 69:1 70:2 85:1 87:1 89:1 90:2 97:1 110:1 111:1 146:1 196:1 218:1 293:2 300:1 340:1 349:1 413:1 415:1 430:1 439:1 523:1 534:1 638:1 640:1 647:1 662:1 670:1 685:1 693:1 694:1 715:1 863:1 897:1 915:1 1021:1 1032:1 1054:1 1055:1 1058:1 1079:1 1085:1 1090:1 1092:1 1097:1 1110:1 1133:1 1205:1 1207:1 1255:1 1266:1 1302:1 1388:1 1391:1 1396:1 1421:1 1422:1 1434:1 1453:1 1470:1 1476:1 1491:1 1516:1 1522:1 1528:1 1560:1 1589:1 1617:1 1618:1 1631:1 1633:1 1651:1 1652:1 1656:1 1658:1 1675:1 1701:1 1704:1 1717:1 1719:1 1754:1 1759:1 1809:1 1846:1 1872:1 1884:1 1952:1 1959:1 1991:1 1998:1 2018:1 2042:1 2064:1 2065:1 2103:1 2155:1 2167:1 2171:1 2186:1 2227:1 2275:1 2306:1 2331:1 2358:1 2378:1 2389:1 2420:1 2421:1 2427:1 2447:1 2470:1 2488:1 2551:1 2597:1 2601:1 2647:1 2665:1 2692:1 2741:1 2747:1 2748:1 2811:1 2856:1 2864:1 2878:1 2888:1 2913:1 3003:1 3034:1 3125:1 3149:1 3152:1 3161:1 3215:1 3278:1 3296:1 3323:1 3397:1 3411:1 3457:1 3498:1 3504:1 3505:1 3516:1 3588:1 3595:1 3600:1 3605:1 3735:1 3774:1 3818:1 3839:1 3840:1 3852:1 3873:1 3896:1 3906:1 3925:1 3946:1 3964:1 4026:1 4105:1 4167:1 4170:1 4171:1 4264:1 4280:1 4293:1 4324:1 4332:1 4404:1 4434:1 4572:1 4577:1 4583:1 4662:2 4678:2 4699:1 4719:1 4788:1 4793:1 4832:1 4870:1 4875:1 4913:1 4931:1 4941:1 4980:1 5056:1 5135:1 5181:1 5205:1 5254:1 5267:1 5476:1 5566:1 5659:1 5725:1 5806:2 6002:1 6082:1 6098:1 6120:1 6305:1 6523:1 6566:1 6611:1 6678:1 6697:1 6803:1 7033:1 7200:1 7235:1 7528:1 #
0.001288893607897898191741448137293 10:1 22:1 23:1 45:1 80:1 89:1 97:1 128:1 158:1 172:1 238:1 315:1 352:1 376:1 377:1 382:1 398:1 411:1 413:1 439:1 505:1 524:1 532:2 534:1 554:1 568:1 601:1 662:1 668:2 694:1 715:1 729:1 743:1 762:1 775:1 825:1 828:1 834:1 865:1 905:1 932:1 949:1 958:1 976:1 986:1 1034:1 1058:1 1079:1 1091:1 1100:1 1121:1 1140:1 1165:1 1209:1 1249:1 1253:1 1255:1 1302:1 1325:1 1329:1 1330:1 1359:1 1396:1 1399:1 1421:1 1432:1 1486:1 1502:1 1534:1 1617:1 1618:1 1651:1 1652:1 1657:1 1716:1 1717:1 1719:1 1739:1 1744:1 1884:1 1908:1 1914:1 1953:1 1984:1 2008:2 2009:1 2010:1 2015:1 2029:1 2149:1 2155:1 2186:1 2216:1 2227:1 2259:1 2301:1 2306:1 2347:1 2363:1 2364:1 2389:1 2405:1 2420:1 2423:1 2658:1 2659:1 2725:1 2758:1 2811:1 2847:1 2864:1 2869:1 2910:1 2917:1 2969:1 3002:1 3034:1 3070:1 3095:1 3103:1 3108:1 3125:1 3150:1 3152:1 3240:1 3242:1 3278:1 3279:1 3304:1 3323:1 3325:1 3333:1 3375:1 3411:1 3419:1 3430:1 3492:1 3516:1 3565:1 3588:1 3658:1 3763:1 3785:1 3839:1 3840:1 3873:1 3892:1 3946:1 3978:1 4141:1 4167:1 4182:1 4209:2 4434:1 4487:1 4508:1 4531:1 4553:1 4582:1 4583:1 4662:1 4678:1 4682:1 4765:1 4832:1 4844:1 4860:1 4874:1 4902:1 4913:1 4919:1 4925:1 4931:1 4932:1 4942:1 4957:1 5104:1 5112:1 5125:1 5254:1 5265:1 5309:1 5363:1 5370:1 5381:1 5396:1 5468:1 5516:1 5731:1 5732:1 5733:1 5743:1 5868:1 5889:1 5915:1 6029:1 6080:1 6089:1 6109:1 6136:1 6156:1 6216:1 6399:1 6420:1 6458:1 6499:1 6530:1 6555:1 6653:1 6674:1 6697:1 6772:1 6781:1 7106:1 7421:1 #
-0.00094638952232110851951057961528591 8:1 9:1 10:1 24:1 63:1 90:1 91:1 98:1 123:1 152:1 157:1 172:2 184:1 189:1 196:1 236:1 261:1 263:1 279:1 294:1 395:1 411:1 412:1 477:1 505:1 511:1 534:1 567:1 574:1 576:1 589:1 592:1 623:1 638:1 779:1 786:1 787:1 823:1 840:1 858:1 897:1 918:1 932:1 1005:1 1015:1 1016:1 1018:1 1020:1 1037:1 1054:1 1055:2 1064:1 1106:1 1132:1 1148:1 1195:1 1229:1 1242:1 1256:1 1260:1 1262:1 1329:1 1339:1 1367:1 1408:1 1431:1 1455:1 1465:1 1476:1 1500:2 1504:1 1505:1 1528:1 1547:1 1561:1 1579:1 1582:1 1615:1 1617:1 1645:1 1651:1 1673:1 1713:1 1729:1 1780:1 1783:1 1793:1 1882:1 1948:1 2016:1 2025:1 2061:1 2062:1 2065:1 2123:1 2124:1 2151:1 2167:1 2181:1 2189:1 2190:1 2195:1 2205:1 2300:1 2306:1 2316:1 2330:1 2350:1 2358:1 2395:1 2423:1 2447:1 2479:1 2490:1 2553:1 2563:1 2625:1 2667:1 2682:1 2734:1 2736:1 2747:1 2763:1 2858:1 2917:1 2933:1 2991:1 2995:1 3063:1 3064:1 3135:1 3214:1 3352:1 3397:1 3414:1 3452:1 3470:1 3499:1 3500:1 3501:1 3502:1 3588:1 3632:1 3640:1 3665:1 3684:1 3742:1 3762:1 3763:1 3812:1 3819:1 3853:1 3855:1 3856:1 3924:1 3963:1 3991:1 4000:1 4015:1 4112:1 4198:1 4238:1 4240:1 4252:1 4450:1 4563:1 4572:1 4627:1 4703:1 4744:1 4888:1 4920:1 4923:1 4937:1 5021:1 5068:1 5131:1 5135:1 5173:1 5252:1 5289:1 5304:1 5373:1 5436:1 5453:1 5535:1 5588:1 5598:1 5599:1 5600:1 5601:1 5602:1 5603:1 5604:1 5605:1 5606:1 5607:1 5608:1 5609:1 5610:1 5611:1 5612:1 5613:1 5614:1 5615:1 #
-0.00037510449229766163956045765814906 23:1 58:1 65:1 110:1 116:1 125:1 126:1 150:2 152:1 171:1 193:1 217:1 264:1 269:1 272:1 327:1 381:1 411:2 424:1 435:1 436:1 437:1 492:1 519:1 533:1 554:1 623:1 633:1 650:1 651:1 668:1 681:1 693:1 706:1 713:1 714:1 731:1 732:1 767:1 792:1 810:1 825:1 831:1 873:1 881:1 897:1 922:1 930:1 995:1 997:1 1031:1 1042:1 1056:1 1080:1 1082:1 1121:1 1195:1 1207:1 1209:1 1237:1 1254:1 1264:1 1281:1 1294:1 1304:1 1365:1 1425:1 1521:1 1522:1 1549:1 1574:1 1577:2 1600:1 1606:1 1616:1 1621:1 1643:1 1678:1 1691:1 1717:1 1724:1 1735:1 1764:1 1803:1 1856:1 1903:1 1936:1 1946:2 1951:1 1973:1 2039:1 2051:1 2153:1 2188:1 2226:1 2231:1 2271:1 2302:1 2377:1 2415:1 2427:1 2444:1 2466:1 2471:1 2475:1 2518:1 2522:1 2586:1 2589:1 2595:1 2656:1 2671:1 2674:1 2705:1 2725:1 2753:1 2792:2 2801:1 2873:1 2879:1 2907:1 2984:1 2999:1 3001:1 3173:1 3217:1 3240:1 3246:1 3263:1 3275:1 3304:1 3388:1 3479:1 3486:1 3589:1 3684:2 3696:1 3728:1 3821:1 3838:1 3868:1 3874:1 3910:1 4112:1 4142:1 4173:1 4191:1 4283:1 4349:1 4438:1 4495:1 4512:1 4588:1 4622:1 4915:1 4931:1 4967:1 5146:1 5160:1 5205:1 5245:1 5369:1 5380:1 5493:1 5495:1 5500:1 5638:1 5671:1 5725:1 5790:1 5841:1 5935:1 5990:1 6315:1 6513:1 6680:1 6931:1 7062:1 7101:1 #
