SVM-light Version V6.01
0 # kernel type
3 # kernel parameter -d 
1 # kernel parameter -g 
1 # kernel parameter -s 
1 # kernel parameter -r 
empty# kernel parameter -u 
7764 # highest feature index 
4751 # number of training documents 
406 # number of support vectors plus 1 
0.8300434 # threshold b, each following line is a SV (starting with alpha*y)
-0.0010101726744458857949054975122749 5:1 6:1 9:1 10:1 14:1 26:1 29:1 33:1 53:1 65:1 87:1 88:1 97:1 124:1 136:1 166:1 167:1 169:1 184:1 188:1 209:1 210:1 211:1 218:1 244:1 249:1 291:1 312:1 313:1 323:1 360:1 361:1 373:3 382:1 383:1 384:1 385:1 477:1 515:1 523:1 524:1 525:1 551:1 572:1 628:1 633:1 634:1 738:1 743:1 829:1 910:1 930:1 1026:1 1053:1 1078:1 1085:1 1197:1 1227:1 1286:1 1301:1 1338:1 1346:1 1371:1 1377:1 1447:1 1502:1 1534:1 1634:1 1706:1 1780:1 1806:1 1815:1 1835:1 1853:1 1859:1 1866:1 1869:1 1934:1 1991:1 2007:1 2047:1 2057:1 2058:1 2116:1 2117:1 2121:1 2171:1 2212:1 2222:1 2223:1 2257:1 2274:1 2287:1 2385:1 2398:1 2425:1 2527:1 2553:1 2568:1 2570:1 2606:1 2648:1 2652:1 2659:1 2685:1 2692:1 2705:1 2713:2 2716:1 2718:1 2794:1 2801:1 2834:1 2845:1 2852:1 2948:1 2961:1 2984:1 3132:1 3199:1 3212:1 3237:1 3238:2 3301:1 3331:1 3418:1 3431:1 3610:1 3628:1 3784:1 3815:1 3848:1 3876:1 3979:1 4285:1 4444:1 4485:1 4685:1 4751:1 4800:1 4837:1 4839:1 4849:1 4932:1 5090:1 5106:1 5207:1 5330:1 5500:1 5814:1 5888:1 5902:1 5989:1 6321:1 6410:1 6604:1 #
-0.0009347949681417207310613060045057 6:1 7:1 8:1 9:1 10:1 18:1 45:1 48:1 73:1 90:1 91:1 119:1 150:1 154:1 157:1 172:1 173:1 202:1 210:1 250:1 288:1 302:1 346:1 377:1 387:1 388:1 389:1 396:1 413:1 431:1 439:1 471:1 492:1 493:1 532:1 555:1 606:1 607:1 623:1 626:1 678:1 693:1 694:1 707:1 714:1 740:1 801:1 802:1 831:1 857:2 858:2 878:1 887:1 894:1 970:1 996:1 1002:1 1014:1 1020:1 1039:1 1040:1 1079:1 1122:1 1202:1 1209:1 1212:1 1213:1 1219:1 1258:1 1291:1 1421:1 1435:1 1453:1 1501:1 1503:1 1512:1 1535:1 1541:1 1559:1 1561:1 1562:1 1578:1 1579:1 1581:1 1599:1 1698:1 1709:1 1771:1 1785:1 1794:1 1811:1 1824:1 1879:1 1880:1 1883:1 1955:1 1967:1 1971:1 2025:1 2026:1 2027:1 2052:1 2095:1 2125:1 2126:1 2156:1 2166:1 2302:1 2318:1 2347:1 2357:1 2451:1 2479:1 2490:1 2537:1 2604:1 2659:1 2702:1 2704:1 2843:1 2919:1 2934:1 3034:1 3223:1 3270:1 3306:1 3525:1 3589:1 3634:1 3717:1 3829:1 3835:1 3845:1 3853:1 3892:1 3991:1 4017:1 4021:1 4022:1 4024:1 4057:1 4152:1 4160:1 4171:1 4328:1 4480:1 4944:1 5031:1 5258:1 5326:1 5342:1 5345:1 5350:1 5381:1 5626:1 5842:1 5947:1 5986:1 6041:1 6177:1 6406:1 6804:1 7026:1 7057:1 #
-0.00062706029979233649396946903564753 5:1 6:1 12:1 26:1 49:2 50:1 69:1 70:1 90:1 172:1 175:1 210:1 211:1 216:1 220:1 236:1 263:1 274:1 290:1 293:1 310:1 313:1 321:1 333:1 335:1 349:1 364:1 365:1 380:1 387:1 397:1 409:1 413:1 473:1 534:1 579:1 585:1 587:1 590:1 591:1 601:1 620:1 638:1 647:1 648:1 658:1 663:1 667:1 681:1 846:1 848:1 861:1 892:1 914:1 931:2 1021:1 1036:1 1080:1 1097:1 1103:1 1148:1 1166:1 1183:1 1184:1 1214:1 1217:1 1218:1 1229:1 1280:1 1311:1 1319:1 1340:1 1363:1 1387:1 1408:1 1436:1 1491:1 1497:1 1505:1 1520:1 1533:1 1537:1 1551:1 1559:1 1560:1 1569:1 1576:1 1599:1 1728:1 1785:1 1807:1 1809:1 1828:1 1853:1 1856:1 1919:1 1941:1 1945:1 2001:1 2158:1 2166:1 2204:1 2256:1 2338:1 2357:1 2369:1 2396:1 2442:1 2450:1 2471:1 2472:1 2499:1 2514:1 2589:1 2619:1 2620:1 2727:1 2842:1 2905:1 2960:1 3053:1 3110:1 3124:1 3125:1 3183:1 3215:1 3330:1 3401:1 3437:1 3457:1 3483:1 3499:1 3500:1 3501:1 3502:1 3518:1 3566:1 3596:1 3640:1 3652:1 3665:1 3667:1 3685:1 3690:1 3694:1 3867:1 3874:1 3965:1 4028:1 4034:1 4035:1 4036:1 4037:1 4038:1 4041:1 4042:1 4043:1 4046:1 4047:1 4048:1 4049:1 4056:1 4060:1 4197:1 4198:1 4275:1 4387:1 4484:1 4532:1 4765:1 5060:1 5147:1 5221:1 5251:1 5453:1 5781:1 6107:1 6342:1 6835:1 #
-0.0011631969985843710300998932183347 9:1 10:1 11:1 22:1 23:1 26:1 47:2 66:1 67:1 90:1 91:1 123:1 124:1 171:1 172:1 187:1 191:1 236:1 249:1 263:1 280:1 293:1 323:1 345:1 356:1 385:1 410:1 436:1 469:1 484:1 502:1 535:1 567:1 585:1 586:1 594:1 654:1 706:1 707:1 713:1 716:1 717:1 731:1 757:1 794:1 831:1 833:1 895:1 928:1 955:1 964:1 969:1 998:1 1001:1 1031:1 1040:1 1041:1 1046:1 1080:1 1126:1 1283:1 1361:1 1375:1 1387:1 1397:1 1455:1 1459:1 1483:1 1535:1 1547:1 1561:1 1600:2 1642:1 1655:1 1676:1 1705:1 1730:1 1762:1 1770:1 1837:1 1938:1 1953:1 2004:1 2009:1 2136:1 2172:1 2183:1 2303:1 2307:1 2329:1 2337:1 2358:1 2404:1 2414:1 2428:1 2443:1 2491:1 2493:1 2595:1 2604:1 2618:1 2625:1 2633:1 2639:1 2649:1 2702:1 2758:1 2783:1 2790:1 2791:1 2797:1 2843:1 2912:1 2913:1 2914:1 2917:1 2999:1 3086:1 3095:1 3115:1 3158:1 3172:1 3173:1 3206:1 3217:1 3241:1 3256:1 3317:1 3318:1 3436:1 3439:1 3490:1 3491:1 3499:1 3535:1 3569:1 3589:1 3632:1 3635:1 3652:1 3656:1 3665:1 3680:1 3749:1 3839:1 3840:1 3928:1 3948:1 4257:1 4260:1 4286:1 4287:1 4296:1 4307:1 4308:1 4344:1 4412:1 4516:1 4567:1 4637:1 4708:1 4740:1 4849:1 4898:1 5033:1 5174:1 5283:1 5370:1 5392:1 5408:1 5461:1 5678:1 5892:1 5898:1 5915:1 5945:1 5957:1 6092:1 6106:1 6212:1 6350:1 6464:1 6586:1 6724:1 6890:1 6911:1 6912:1 6913:1 6914:1 6915:1 #
-0.0010887814024415987460003840681111 9:1 10:1 11:1 12:1 26:1 31:1 42:1 67:1 75:1 89:1 90:2 103:1 104:1 124:1 139:1 172:1 173:1 174:1 233:1 235:1 298:1 323:1 334:1 340:1 345:1 359:1 380:1 383:1 384:1 385:1 387:1 400:1 409:1 410:1 466:1 468:1 506:1 511:1 541:1 575:1 599:1 606:1 663:1 731:1 750:1 751:1 789:1 819:1 820:1 853:1 888:1 901:1 906:1 917:1 922:1 1002:1 1009:1 1010:1 1018:1 1019:1 1026:2 1087:1 1184:1 1205:1 1226:1 1231:1 1235:1 1271:1 1287:1 1314:1 1315:1 1316:1 1317:1 1348:1 1397:1 1398:1 1401:1 1519:1 1525:1 1625:1 1632:1 1633:1 1687:1 1749:1 1824:2 1831:1 1869:1 1900:1 1938:1 1952:2 1971:1 1981:1 2027:1 2028:1 2114:1 2139:1 2171:1 2254:1 2319:1 2358:1 2406:1 2413:1 2438:1 2464:1 2465:1 2466:1 2484:1 2539:1 2548:1 2549:1 2647:1 2692:1 2711:1 2741:1 2848:1 3008:1 3055:1 3066:1 3160:1 3173:1 3265:1 3278:1 3279:1 3347:1 3358:1 3359:1 3368:1 3426:1 3449:1 3454:1 3690:1 3696:1 3818:1 3819:1 3880:1 3981:1 3984:1 4006:1 4023:1 4050:1 4169:1 4208:1 4233:1 4246:1 4343:1 4345:1 4450:1 4470:1 4485:1 4504:1 4599:1 4693:1 4694:1 4713:1 4800:1 4903:1 4973:1 5006:1 5018:1 5061:1 5090:1 5114:1 5167:1 5330:1 5752:1 5940:1 5983:1 6128:1 6355:1 6404:1 6653:1 6970:1 7014:1 7213:1 7287:1 7565:1 7668:1 #
-0.00059027825599171769403727960678907 14:1 16:1 24:1 25:2 33:1 48:1 64:1 65:1 68:2 69:1 73:1 90:1 108:1 119:1 157:1 183:1 218:1 253:1 271:1 344:1 350:1 351:1 352:1 387:1 427:1 471:1 552:1 559:1 626:1 628:1 689:1 693:1 698:1 733:1 801:1 840:1 854:1 878:1 879:1 885:1 889:1 894:1 912:1 917:1 920:1 922:1 923:1 929:1 932:1 950:1 1021:1 1026:2 1030:1 1031:1 1105:1 1154:1 1158:1 1199:1 1209:1 1216:1 1219:1 1231:1 1232:1 1314:1 1380:1 1387:1 1405:1 1411:1 1421:1 1440:1 1453:1 1460:1 1467:1 1497:1 1512:1 1543:1 1559:1 1564:1 1589:2 1599:1 1667:1 1722:1 1747:1 1775:1 1786:1 1793:1 1800:1 1836:1 1847:1 1879:1 1896:1 1937:1 2012:1 2026:1 2030:1 2032:1 2042:2 2052:1 2064:1 2080:1 2105:1 2160:1 2163:1 2219:1 2228:1 2259:1 2289:1 2318:1 2354:1 2391:1 2431:1 2438:1 2496:1 2503:1 2505:1 2517:1 2526:1 2534:1 2580:1 2621:1 2730:1 2779:1 2787:1 2805:1 2853:1 2867:1 2889:1 2897:1 2929:1 2939:1 3178:1 3209:1 3223:1 3311:1 3316:1 3397:1 3480:1 3536:1 3538:1 3540:1 4063:1 4128:1 4147:1 4159:1 4171:1 4185:1 4193:1 4271:1 4404:1 4436:1 4512:1 4718:1 4887:1 4914:1 5146:1 5176:1 5236:1 5345:1 5426:1 5728:1 5734:1 5986:1 6175:1 6285:1 6576:1 6617:1 6687:1 6782:1 6962:1 6980:1 7009:1 7303:1 7568:1 7747:1 7751:1 #
0.00073487250788507960802542484657351 9:1 10:1 21:1 22:1 23:1 34:1 37:1 41:1 49:1 82:1 87:1 90:2 127:1 139:1 172:1 173:1 176:1 193:1 194:1 195:1 196:1 197:1 201:1 219:1 238:2 239:1 240:1 241:1 242:1 243:1 244:1 245:1 249:1 250:1 251:1 252:1 253:1 254:1 256:1 258:1 259:1 260:1 261:1 262:1 263:1 273:1 274:1 275:1 283:1 284:1 291:1 315:1 319:1 348:1 349:1 350:1 386:1 399:1 416:1 542:1 543:1 576:1 600:1 635:1 694:1 857:1 861:1 910:1 933:1 945:1 946:1 949:1 956:1 957:1 964:1 996:1 1039:1 1076:1 1079:1 1195:1 1301:1 1305:1 1309:1 1337:1 1483:1 1508:1 1515:2 1574:1 1640:1 1658:1 1673:1 1674:1 1735:1 1759:1 1763:1 1771:1 1772:1 1775:1 1777:1 1813:1 1840:1 1885:1 1946:1 1970:1 1971:1 1975:1 1981:1 2059:1 2126:1 2217:1 2244:1 2278:1 2302:1 2308:1 2319:1 2357:1 2364:1 2368:1 2395:1 2493:1 2541:1 2584:1 2596:1 2599:1 2620:1 2621:1 2625:1 2661:1 2730:1 2772:1 2788:1 2815:1 2887:1 2962:1 3000:1 3016:1 3067:1 3100:1 3126:1 3202:1 3205:1 3284:1 3285:1 3286:1 3287:1 3288:1 3289:1 3290:1 3291:1 3292:1 3293:1 3294:1 3295:1 3296:1 3297:1 3298:1 3299:1 3300:1 #
0.001907397498771574734927058969447 34:1 37:1 87:1 88:1 89:1 90:1 118:1 173:1 174:1 175:1 176:1 177:1 182:1 192:1 193:1 194:1 199:1 201:1 207:1 238:1 239:1 240:1 241:1 242:1 249:1 250:1 251:1 261:1 262:1 269:1 281:1 289:1 294:1 295:2 296:2 297:1 298:1 299:1 300:1 301:1 302:1 303:1 304:1 305:1 306:1 307:1 308:1 309:1 310:1 311:1 312:1 313:1 314:1 315:1 316:1 317:1 318:2 319:1 320:1 321:1 322:1 323:1 324:1 325:1 326:1 327:1 328:2 329:1 330:1 331:1 332:1 333:1 334:1 335:1 336:1 337:1 338:1 339:1 340:1 341:1 342:1 343:1 344:1 345:1 346:1 347:1 348:1 349:1 350:1 351:1 352:1 353:1 354:1 355:1 356:1 357:1 358:1 359:1 360:1 361:2 362:1 363:1 364:1 365:2 366:2 367:1 368:1 369:1 370:1 371:1 372:2 373:1 374:1 375:1 376:1 377:1 378:1 379:1 380:1 381:1 382:1 383:1 384:1 385:1 386:1 387:1 388:1 389:1 390:1 391:1 392:1 393:1 394:1 395:1 396:1 397:1 398:1 399:1 400:1 401:1 402:1 403:1 404:1 405:1 406:1 407:1 408:1 #
0.0027615475491600685944981741215543 2:1 8:1 9:1 10:1 11:1 15:1 26:2 27:1 28:1 29:1 30:1 37:1 45:1 46:1 47:1 48:1 49:1 50:1 51:1 52:1 53:1 54:1 61:1 62:1 63:1 64:1 65:1 66:1 67:1 68:1 69:1 70:1 71:1 79:1 83:1 89:1 90:1 91:1 92:1 93:1 107:1 117:1 118:1 119:1 145:1 146:1 147:1 148:1 172:1 173:1 197:1 201:1 327:1 377:2 409:2 410:1 411:1 412:1 413:1 414:1 415:1 416:1 417:1 418:1 419:1 420:1 421:1 422:1 423:1 424:1 425:1 426:1 427:1 428:1 429:1 430:1 431:1 432:1 433:1 434:1 435:1 436:1 437:1 438:1 439:1 440:1 441:1 442:1 443:1 444:1 445:1 446:1 447:1 448:1 449:1 450:1 451:1 452:1 453:1 454:1 455:1 456:1 457:1 458:1 459:1 460:1 461:1 462:1 463:1 464:1 465:1 466:1 467:1 468:1 469:1 470:1 471:1 472:1 473:1 474:1 475:1 476:1 477:1 478:1 479:1 480:1 481:1 482:1 483:1 484:1 485:1 486:1 487:1 488:1 489:1 490:1 491:1 492:1 493:1 494:1 495:1 496:1 497:1 498:1 499:1 500:1 501:1 502:1 503:1 504:1 505:1 506:1 #
0.00071422953405247035976038949556255 5:1 9:1 10:1 11:1 12:1 21:1 22:1 23:1 24:2 29:1 49:1 62:1 65:1 69:1 70:1 73:1 81:1 123:1 130:1 131:1 152:1 160:1 180:1 184:1 201:1 218:1 239:1 240:1 241:1 242:1 243:1 244:1 250:1 251:1 261:1 262:1 269:1 270:1 271:1 291:1 301:1 321:1 322:1 323:1 327:1 328:1 329:1 330:1 331:1 332:1 336:1 337:1 361:1 362:1 374:1 413:1 422:1 429:1 504:1 505:1 507:1 508:1 509:1 510:1 511:1 512:1 513:1 514:1 515:1 516:1 517:1 518:1 519:1 520:1 521:1 522:1 523:1 524:2 525:1 526:1 527:1 528:1 529:2 530:1 531:1 532:2 533:1 534:1 535:1 536:3 537:1 538:1 539:1 540:1 541:1 542:1 543:1 544:1 545:1 546:1 547:1 548:1 549:1 550:1 551:1 552:1 553:1 554:2 555:1 556:1 557:1 558:1 559:1 560:1 561:1 562:1 563:1 564:1 565:1 566:1 567:1 568:1 569:1 570:1 571:1 572:1 573:1 574:1 575:1 576:1 577:1 578:1 579:1 580:1 581:1 582:1 583:1 584:1 585:1 586:1 587:1 588:1 589:1 590:1 591:1 592:1 593:1 594:1 595:1 596:1 597:1 598:1 599:1 600:1 601:1 602:1 603:1 604:1 605:1 606:1 607:1 #
-0.00031428594439739224218957613921077 29:1 30:2 31:1 32:1 46:1 53:1 64:1 94:1 95:1 97:1 119:1 147:1 173:1 174:1 175:1 176:1 180:1 215:1 217:1 218:1 245:2 313:1 323:1 348:1 372:1 373:2 378:1 382:1 428:1 435:1 449:2 509:1 534:1 536:1 542:1 557:1 605:2 622:1 632:1 634:1 639:1 658:1 831:1 847:1 854:1 932:1 1000:1 1005:1 1040:1 1058:1 1078:1 1085:1 1138:1 1190:1 1244:1 1256:1 1281:1 1301:1 1305:1 1338:1 1352:1 1376:1 1395:1 1422:1 1451:1 1452:1 1522:1 1538:1 1589:1 1620:1 1650:1 1652:1 1722:1 1777:1 1880:1 1885:1 1931:1 1940:1 1948:1 1952:2 1954:1 1955:1 2066:1 2176:1 2232:1 2294:1 2302:1 2304:1 2425:1 2439:1 2444:1 2549:1 2579:1 2602:1 2605:1 2614:1 2646:1 2651:1 2715:1 2716:1 2718:1 2737:1 2749:1 2795:1 2805:1 2849:1 2852:2 2853:1 2855:1 2889:1 2913:1 2952:1 2982:1 3048:1 3148:1 3180:1 3187:1 3209:1 3251:1 3290:1 3292:1 3408:1 3410:1 3474:1 3498:1 3558:1 3594:1 3650:1 3949:1 3950:1 3953:1 4034:1 4162:1 4174:1 4186:1 4263:1 4275:1 4299:1 4334:2 4345:1 4382:1 4410:1 4485:1 4536:2 4574:1 4647:1 4682:1 4700:1 4756:1 4769:1 4781:1 4812:1 4867:1 4945:1 4981:1 5086:1 5105:1 5134:2 5471:1 5502:2 5539:1 5542:1 5633:1 5675:1 5697:1 5717:1 5747:1 5754:1 5757:1 5779:1 5798:1 5876:1 5888:1 5928:1 6026:1 6039:1 6378:1 6384:1 6487:1 6530:1 6625:1 6921:1 7493:1 #
-0.00049531013523813254093713931425214 9:1 10:1 22:1 23:1 26:1 29:1 88:1 89:1 90:2 109:1 116:1 141:1 169:1 172:1 173:1 238:1 249:2 263:1 279:1 290:1 292:1 300:1 323:1 340:1 351:1 359:1 361:1 366:1 367:1 387:1 388:2 389:1 399:2 401:1 415:1 416:1 427:1 435:1 450:1 459:1 460:1 461:1 470:1 515:1 530:1 551:1 560:1 589:1 590:1 591:1 601:1 645:1 667:1 694:1 740:1 741:1 763:1 804:1 829:1 830:1 839:1 846:1 847:1 861:1 864:1 884:1 910:1 969:1 1021:1 1037:1 1058:1 1079:1 1157:1 1158:1 1169:1 1245:1 1287:1 1353:1 1373:1 1440:1 1452:1 1461:1 1486:1 1554:1 1584:1 1642:1 1650:1 1662:1 1680:2 1702:1 1703:2 1775:1 1788:3 1830:1 1913:1 1984:1 1990:1 2017:1 2104:1 2116:1 2168:1 2215:1 2219:1 2266:1 2370:1 2386:1 2479:1 2480:1 2528:1 2549:1 2578:1 2712:1 2725:1 3049:1 3064:1 3078:1 3115:1 3125:1 3132:1 3138:1 3147:1 3247:1 3289:1 3330:1 3390:1 3398:1 3594:1 3616:1 3632:1 3803:1 3998:1 4343:1 4485:1 4742:1 4838:1 5128:1 5361:1 5539:1 5664:1 5676:1 5876:1 5888:1 5920:1 5971:1 6481:1 6552:1 6730:1 #
-0.0025116769229651409595094335713839 9:1 10:1 24:1 26:1 32:1 53:1 65:1 78:1 79:1 89:1 90:1 97:1 128:1 136:1 137:1 145:1 146:1 170:1 171:1 174:1 183:1 201:1 281:1 291:2 313:1 323:1 332:1 344:1 358:1 371:1 379:1 401:1 419:1 436:2 477:1 478:1 532:1 536:1 542:1 549:1 569:1 570:1 736:1 804:1 828:1 847:1 848:1 866:1 888:1 889:1 908:1 932:1 957:1 964:1 1023:1 1039:1 1071:1 1085:1 1129:1 1159:1 1226:1 1329:1 1330:1 1341:2 1342:1 1394:1 1423:1 1452:1 1464:1 1479:1 1494:1 1534:1 1559:1 1600:1 1608:1 1609:1 1620:1 1643:1 1686:1 1709:1 1722:1 1785:1 1869:1 1928:1 1933:1 1950:1 1978:1 2051:1 2089:1 2093:1 2117:1 2231:1 2283:1 2287:1 2290:1 2306:1 2376:1 2379:1 2394:1 2484:1 2535:1 2539:1 2549:1 2577:1 2605:1 2847:1 2873:1 2979:1 3024:1 3173:1 3293:1 3402:1 3410:1 3411:1 3419:1 3535:1 3536:1 3664:1 3718:1 3863:1 3902:1 3948:1 4053:1 4167:1 4270:1 4272:1 4375:1 4485:1 4496:1 4562:1 4731:1 5330:1 5476:1 5500:1 5509:1 5622:1 5729:1 5876:1 5888:1 5936:1 5961:1 5977:1 6139:1 6244:1 6622:1 6684:1 6930:1 6948:1 7373:1 #
-0.0020748721844045530000866239817015 3:1 4:1 23:1 34:1 37:2 41:1 49:1 77:1 84:1 85:1 89:1 90:2 149:1 175:1 227:1 302:1 359:1 369:1 370:1 374:1 384:1 400:1 434:1 448:1 469:1 489:1 508:1 509:1 514:1 517:1 545:1 564:1 632:1 645:1 677:1 712:1 768:1 814:1 847:1 927:1 934:1 969:1 997:1 1053:1 1080:1 1200:1 1229:1 1231:1 1249:1 1278:1 1325:1 1349:1 1429:1 1437:1 1452:1 1456:1 1457:1 1496:1 1603:1 1611:1 1643:1 1673:1 1706:1 1744:1 1750:1 1791:1 1865:1 1870:1 1898:1 1899:1 2016:1 2068:1 2116:1 2167:2 2218:1 2221:1 2296:1 2450:1 2479:1 2549:1 2590:1 2597:1 2629:1 2630:1 2721:1 2779:1 2836:1 2894:1 2906:1 2919:1 2939:1 3082:1 3091:1 3128:1 3129:1 3178:1 3183:1 3190:1 3240:1 3248:1 3274:1 3408:1 3540:1 3655:1 3749:1 3779:1 3834:1 3883:1 3972:1 3995:1 4043:1 4161:1 4170:1 4230:1 4265:1 4343:1 4432:1 4577:1 4583:1 4594:1 4595:1 4708:1 4800:1 4955:1 4988:1 4994:1 5025:1 5064:1 5079:1 5262:1 5356:1 5374:1 5419:1 5501:1 5539:1 5566:1 5600:1 5622:1 5842:1 5888:1 5953:1 5977:1 6087:1 6325:1 6357:1 6380:1 6465:1 6475:1 6514:1 6555:1 6678:1 6696:1 6801:1 6870:1 6952:1 6974:1 7255:1 7650:1 7686:1 #
-0.0011699202542549632950069637971069 9:1 10:1 29:1 53:2 87:1 88:1 89:1 90:2 109:1 116:1 128:1 171:1 172:1 173:1 203:1 237:1 238:1 249:1 263:1 291:1 313:1 319:1 323:1 360:1 372:1 394:1 415:1 435:1 461:1 478:1 515:1 516:1 552:1 576:1 577:1 639:2 667:1 694:1 698:1 829:2 830:1 864:1 884:1 911:1 922:1 962:1 987:1 988:1 992:1 1001:1 1010:1 1058:1 1079:1 1085:2 1092:1 1120:1 1123:1 1157:1 1232:1 1255:1 1273:1 1279:1 1345:1 1346:1 1351:1 1352:1 1362:1 1435:1 1436:1 1452:1 1461:1 1549:1 1608:1 1609:1 1617:1 1633:1 1653:1 1662:1 1702:1 1709:1 1779:1 1830:1 1904:1 1908:1 1935:1 1964:1 1980:1 2017:1 2047:1 2104:1 2132:1 2133:1 2154:1 2168:1 2234:1 2254:1 2307:1 2341:1 2370:1 2377:1 2385:1 2463:1 2549:1 2559:1 2589:1 2651:1 2686:1 2711:1 2804:1 2862:1 2961:1 2981:1 2991:1 3130:1 3247:1 3264:1 3267:1 3330:1 3447:1 3594:1 3616:1 3725:1 3726:1 3957:1 3998:1 4106:1 4165:1 4208:1 4227:1 4343:1 4485:1 4494:1 4678:1 4742:1 4838:1 5091:1 5128:1 5539:1 5601:1 5621:1 5664:1 5713:1 5876:1 5888:1 5922:1 6289:1 6314:1 6552:1 6766:1 #
0.0052498537036791423707193793291026 8:1 9:1 10:1 34:1 35:1 36:1 37:1 41:1 45:1 49:1 59:1 69:1 73:1 101:1 116:1 153:1 154:1 157:1 172:1 173:1 198:1 220:1 245:1 298:1 311:1 373:1 388:1 410:1 417:1 434:1 435:1 436:2 516:1 532:1 552:1 555:1 605:1 611:1 612:1 624:1 685:1 694:1 711:1 729:1 740:1 743:1 749:1 783:1 790:1 791:1 792:1 802:1 863:1 897:1 922:1 923:1 935:1 964:1 1054:1 1055:1 1079:1 1106:1 1190:1 1195:1 1226:1 1243:1 1252:1 1271:1 1329:1 1330:1 1362:1 1363:1 1364:1 1476:1 1505:1 1516:1 1519:1 1533:1 1537:1 1550:1 1553:2 1562:1 1577:1 1583:1 1589:1 1590:1 1591:1 1592:1 1597:1 1599:1 1609:1 1610:1 1631:1 1651:1 1678:1 1709:1 1710:1 1735:1 1750:1 1759:1 1831:1 1832:1 1859:1 1954:1 2029:1 2030:1 2042:1 2104:1 2154:1 2167:1 2175:1 2218:1 2303:1 2310:1 2316:1 2317:1 2318:1 2319:1 2320:1 2321:1 2322:1 2330:1 2339:1 2342:1 2343:1 2344:1 2424:1 2425:1 2426:1 2427:1 2428:1 2429:1 2430:1 2431:1 2432:1 2433:1 2434:1 2435:1 2436:1 2437:1 2438:1 2439:1 2440:1 2441:1 2442:1 2443:1 2444:1 2445:1 2446:1 2447:1 2448:1 2449:1 2450:1 2451:1 2452:1 #
0.0052498537036791423707193793291026 32:1 33:1 37:1 38:1 39:1 40:2 41:1 65:1 71:1 72:1 82:1 108:1 109:1 119:1 125:1 136:1 137:1 197:1 211:1 249:1 250:1 299:1 340:1 361:1 380:1 396:1 430:1 471:1 491:1 492:1 493:1 494:1 548:1 549:1 551:1 569:2 655:1 659:1 693:1 694:1 702:1 745:1 755:1 756:2 790:1 862:2 884:1 921:1 930:1 931:1 932:1 951:1 985:1 1010:1 1017:1 1079:1 1164:1 1184:1 1216:1 1236:1 1298:1 1299:1 1300:1 1301:1 1302:1 1303:1 1304:2 1305:1 1306:1 1307:1 1308:1 1309:1 1310:1 1311:1 1312:1 1313:1 1314:1 1315:1 1316:1 1317:1 1318:1 1319:1 1320:1 1321:1 1322:1 1323:1 1324:1 1325:1 1326:1 1327:1 1328:1 1329:1 1330:1 1331:1 1332:1 1333:1 1334:1 1335:1 1336:1 1337:1 1338:1 1339:1 1340:1 1341:1 1342:1 1343:1 1344:1 1345:1 1346:1 1347:1 1348:1 1349:1 1350:1 1351:1 1352:1 1353:1 1354:1 1355:1 1356:1 1357:1 1358:1 1359:1 1360:1 1361:1 1362:1 1363:1 1364:1 1365:1 1366:1 1367:1 1368:1 1369:1 1370:1 1371:1 1372:1 1373:1 1374:1 1375:1 1376:1 1377:1 1378:1 1379:1 1380:1 1381:1 1382:1 1383:1 1384:1 1385:1 1386:1 1387:1 1388:1 1389:1 #
-0.00099434978464398374176091977005854 7:1 9:1 10:1 11:1 12:1 33:1 43:2 44:1 65:1 66:1 67:1 73:1 90:1 119:1 127:1 191:1 238:2 250:1 291:1 358:1 373:1 375:1 449:1 479:1 480:1 492:1 493:1 494:1 505:2 521:1 571:1 591:1 606:1 609:1 614:1 620:1 622:1 623:1 632:1 638:1 645:1 655:1 733:1 734:1 741:1 746:1 786:1 801:1 819:1 826:1 829:1 831:1 840:1 845:1 863:1 896:1 910:1 915:1 920:1 981:1 1033:1 1050:1 1052:1 1069:1 1116:1 1139:1 1245:1 1357:1 1398:1 1409:1 1410:1 1422:1 1460:2 1462:1 1535:1 1559:1 1561:1 1579:1 1599:1 1602:1 1609:1 1708:1 1826:1 1879:1 1900:1 1928:1 1938:1 2017:1 2018:1 2090:1 2095:1 2218:1 2258:1 2261:1 2274:1 2312:1 2376:1 2451:1 2453:1 2471:1 2479:1 2539:1 2555:1 2584:1 2593:1 2597:1 2603:1 2637:1 2639:1 2712:1 2796:1 2892:1 2941:1 2948:1 2972:1 2976:1 2988:1 2994:1 3016:1 3055:1 3099:1 3198:1 3377:1 3400:1 3407:1 3419:1 3439:1 3490:1 3491:1 3589:1 3632:1 3807:1 4026:1 4112:2 4181:1 4185:1 4258:1 4403:1 4487:1 4549:1 4699:1 4751:1 4785:1 4916:1 5012:1 5632:1 5800:1 5898:1 5978:1 5999:1 6085:1 6112:1 6352:1 6397:1 6416:1 6464:1 6725:1 6826:1 6855:1 7120:1 #
0.0025812953818455165212741864166901 9:1 10:1 34:1 35:1 36:1 37:1 38:1 41:1 45:1 48:1 49:1 59:1 69:1 70:1 71:1 72:1 73:1 87:1 101:1 153:1 157:1 172:1 173:1 183:1 196:2 197:1 198:1 218:1 219:1 245:1 257:1 311:1 387:1 388:1 395:1 396:1 417:1 469:1 523:1 525:1 552:1 591:1 694:1 711:1 729:1 730:1 743:1 749:1 754:1 755:1 756:1 783:1 790:1 792:1 802:1 811:1 827:1 863:1 864:1 865:1 915:1 917:1 918:1 922:1 923:1 935:1 950:1 984:1 1051:1 1056:1 1079:1 1085:1 1111:1 1116:1 1146:1 1195:1 1226:1 1243:1 1344:1 1363:1 1476:1 1486:1 1516:2 1550:1 1553:1 1562:1 1575:1 1576:1 1577:1 1578:1 1579:1 1583:1 1589:1 1597:1 1631:1 1651:1 1676:1 1735:1 1759:1 1761:1 1830:1 1831:1 1832:1 1835:1 1889:1 1890:1 1900:1 2023:1 2024:1 2030:1 2154:1 2167:1 2231:1 2259:1 2274:1 2303:1 2307:1 2309:1 2310:1 2311:1 2312:1 2316:1 2317:1 2318:1 2319:1 2320:1 2321:1 2322:1 2326:1 2337:1 2339:1 2340:1 2341:1 2345:1 2398:1 2432:1 2433:1 2434:1 2436:1 2438:1 2446:1 2629:1 2630:1 2631:1 2632:1 2633:1 2634:1 2635:1 2636:1 2637:1 2638:1 2639:1 2640:1 2641:1 2642:1 #
0.004381803932372881245360662916255 8:1 26:1 36:1 37:1 41:1 42:1 43:1 44:1 45:1 49:1 63:1 64:1 68:2 69:1 70:1 71:1 72:1 87:1 88:1 89:1 90:1 116:1 173:2 191:1 210:1 238:1 246:1 247:1 248:1 263:1 264:1 265:1 313:1 468:2 535:1 540:1 542:1 562:1 572:1 573:1 622:1 623:1 690:1 757:1 801:1 839:1 846:1 847:1 892:1 920:1 944:1 950:1 965:1 972:1 1019:1 1032:1 1040:1 1097:1 1153:1 1283:1 1346:1 1353:1 1364:1 1389:1 1405:1 1432:1 1434:2 1479:1 1520:1 1521:1 1522:1 1523:1 1524:1 1525:1 1526:1 1527:1 1528:1 1529:1 1530:1 1531:1 1532:1 1533:2 1534:1 1535:1 1536:1 1537:1 1538:1 1539:1 1540:1 1541:1 1542:1 1543:1 1544:1 1545:1 1546:1 1547:1 1548:1 1549:1 1550:1 1551:1 1552:1 1553:1 1554:1 1555:1 1556:1 1557:1 1558:1 1559:1 1560:1 1561:1 1562:1 1563:1 1564:1 1565:1 1566:1 1567:1 1568:1 1569:1 1570:1 1571:1 1572:1 1573:1 1574:1 1575:1 1576:1 1577:1 1578:1 1579:1 1580:1 1581:1 1582:1 1583:1 1584:1 1585:1 1586:1 1587:1 1588:1 1589:1 1590:1 1591:1 1592:1 1593:1 1594:1 1595:1 1596:1 1597:1 1598:1 #
-0.00043734406365186377424122965429376 12:1 22:1 29:1 33:1 53:1 89:1 90:1 113:1 139:1 160:1 164:1 176:1 251:1 263:1 275:1 291:1 312:1 323:1 327:1 358:1 374:1 379:1 387:1 388:1 389:1 401:1 457:2 496:1 505:1 511:1 519:1 524:1 542:1 555:1 564:1 569:1 573:1 586:1 618:1 694:1 759:1 802:1 803:1 804:1 824:1 896:1 910:1 919:1 940:1 956:1 970:1 1026:1 1050:1 1069:1 1079:1 1143:1 1175:1 1238:1 1293:1 1314:1 1315:1 1340:1 1346:1 1409:1 1423:1 1452:1 1455:1 1514:1 1668:1 1693:1 1721:1 1758:1 1764:1 1776:1 1801:1 1842:1 1850:1 1859:1 1922:1 1924:1 1930:1 1992:1 2041:1 2149:1 2230:1 2258:1 2287:1 2292:1 2485:1 2486:1 2511:1 2549:1 2551:1 2558:1 2579:1 2692:1 2767:1 2773:1 2841:1 2897:1 2993:1 3099:1 3147:1 3164:1 3199:1 3205:2 3206:1 3207:1 3246:1 3262:1 3310:1 3366:1 3369:1 3433:1 3473:1 3612:1 3656:1 3657:1 3754:1 3758:1 3764:1 3835:1 3858:1 3872:1 3873:1 4000:1 4146:1 4157:1 4236:1 4267:1 4475:1 4485:1 4501:1 4694:1 4800:1 4831:1 4838:1 4915:1 5116:1 5123:1 5128:1 5167:1 5235:1 5330:1 5540:1 5588:1 5663:1 5770:1 5805:1 5881:1 5888:1 5936:1 5975:1 6063:1 6070:1 6154:1 6270:1 6466:1 6528:1 6944:1 6960:1 7088:1 7461:1 7521:1 7546:1 7675:1 #
-0.00095554908752568427313806020961806 4:1 5:1 10:1 16:1 20:1 33:1 63:1 69:1 73:1 75:1 109:1 119:1 172:1 173:1 205:1 218:2 219:1 238:2 253:1 290:1 291:1 299:1 303:1 333:1 373:1 409:1 410:1 440:1 468:1 486:1 492:1 493:1 494:1 505:1 521:1 522:1 524:1 535:1 555:1 573:1 576:1 601:1 612:1 614:1 619:1 627:1 638:1 705:1 754:1 766:1 783:1 790:1 798:2 829:1 840:1 901:1 910:1 912:1 922:1 923:1 932:1 956:2 957:1 1018:1 1019:1 1051:1 1078:1 1139:1 1181:1 1182:1 1183:1 1214:1 1265:1 1304:1 1337:1 1347:1 1357:1 1386:1 1424:1 1440:1 1461:1 1504:1 1541:2 1559:1 1590:1 1599:1 1621:1 1622:1 1632:2 1633:1 1658:1 1664:1 1756:1 1764:1 1768:1 1800:1 1806:1 1826:1 1832:1 1836:1 1844:1 1858:1 1881:1 1908:1 1953:1 1980:1 1996:1 2018:1 2042:1 2043:1 2064:1 2090:1 2111:1 2224:1 2232:1 2316:1 2318:1 2319:1 2330:1 2372:1 2380:1 2572:1 2655:1 2703:1 2968:1 2982:1 3016:1 3018:1 3050:1 3070:1 3106:1 3176:1 3198:1 3291:1 3377:1 3439:1 4090:1 4165:1 4185:1 4267:1 4271:2 4403:1 4574:1 4691:1 4699:1 4860:1 5040:1 5093:1 5280:1 5522:1 5784:1 6112:1 6127:1 6352:1 6804:1 7435:1 #
0.0040726500596443733492879601953973 18:1 19:1 20:1 21:1 22:1 23:1 33:1 38:1 41:1 42:1 43:1 44:1 45:1 46:1 47:1 48:1 51:1 52:1 53:1 60:1 65:2 68:1 69:1 77:1 78:1 86:1 90:1 91:1 92:1 93:1 116:1 117:1 123:1 142:1 143:1 149:1 153:1 158:1 197:1 258:1 323:1 385:1 415:1 424:1 435:1 436:1 456:1 468:1 469:1 472:1 482:1 483:1 484:1 488:1 498:1 501:1 502:1 536:1 557:1 588:1 622:1 623:1 626:1 638:1 639:1 667:1 690:1 691:1 692:1 702:1 711:1 712:1 745:1 748:1 756:1 778:1 802:1 820:1 831:1 832:1 834:1 835:1 836:1 840:1 846:1 847:1 848:1 849:1 850:1 851:1 852:1 857:1 874:1 875:1 882:1 893:1 894:1 915:1 945:1 946:1 1050:1 1053:1 1058:1 1074:1 1075:1 1076:1 1082:1 1085:1 1140:1 1188:1 1210:1 1219:1 1255:1 1256:1 1550:1 1578:1 1579:1 1609:1 1654:1 1665:1 1666:1 1671:1 1687:1 1792:1 1793:1 1928:1 1960:1 2009:1 2016:1 2080:1 2081:1 2086:1 2206:1 2213:1 2429:1 2520:1 2593:1 2638:1 2904:1 2919:1 3138:1 3216:1 3299:1 3339:1 3340:1 3341:1 3342:1 3343:1 3344:1 3345:1 3346:1 3347:1 3348:1 #
-0.0014502493490917982461863022791704 9:1 10:1 46:1 48:1 53:1 87:1 88:1 89:1 90:1 109:1 172:1 173:1 237:1 249:2 251:1 263:1 279:1 291:1 303:1 313:1 323:1 366:1 372:1 388:1 389:1 413:1 415:1 416:1 430:1 435:1 436:1 460:1 461:1 515:1 530:1 542:1 543:1 590:1 591:1 645:1 662:1 667:1 681:1 694:1 763:1 794:1 829:1 830:1 846:1 847:1 864:1 865:1 895:1 910:1 1001:1 1025:1 1037:1 1058:1 1079:1 1092:1 1187:1 1249:1 1296:1 1323:1 1345:1 1352:1 1353:1 1360:1 1378:1 1434:1 1452:1 1514:1 1534:1 1535:1 1662:1 1671:1 1700:1 1703:1 1709:1 1787:1 1830:1 1885:1 1943:1 1944:1 1946:1 1961:1 2006:1 2007:1 2058:1 2104:1 2224:1 2241:1 2307:1 2386:1 2414:1 2425:1 2439:1 2452:1 2463:1 2479:1 2518:1 2519:1 2528:1 2549:1 2559:1 2686:1 2855:1 2961:1 2990:1 2991:1 3064:1 3073:1 3114:1 3115:1 3132:1 3174:1 3224:1 3267:1 3330:1 3398:1 3545:1 3594:1 3616:1 3803:1 3957:1 4106:1 4149:1 4227:1 4485:1 4567:1 4650:1 4678:1 4742:1 4800:1 4838:1 4880:1 4913:1 5001:1 5128:1 5211:1 5232:1 5235:1 5258:1 5329:1 5539:1 5664:1 5676:1 5748:1 5763:1 5888:1 5971:1 6552:1 #
-1.3613070579342398933909985547785e-05 8:1 14:1 39:1 40:1 41:1 48:1 75:1 76:2 120:1 143:1 177:1 205:1 220:1 234:1 254:1 292:1 327:1 343:1 436:1 521:1 524:2 536:1 537:1 553:1 568:1 575:1 598:1 624:1 625:1 626:2 627:1 688:1 693:1 740:1 787:1 801:1 803:1 807:1 819:1 831:1 862:1 866:1 887:1 888:1 893:1 897:1 929:1 936:1 965:2 981:1 1034:1 1039:1 1041:1 1056:1 1072:1 1151:1 1154:1 1162:1 1163:1 1174:1 1218:1 1234:1 1261:1 1265:1 1277:1 1280:1 1287:1 1325:1 1377:1 1391:1 1392:1 1411:1 1415:1 1451:1 1472:1 1494:1 1531:1 1533:1 1539:1 1573:1 1580:1 1592:1 1642:1 1651:1 1736:1 1757:1 1759:1 1768:1 1817:1 1831:1 1935:1 1946:1 1998:1 2042:1 2043:1 2052:1 2090:1 2099:1 2133:1 2156:1 2164:1 2245:1 2309:2 2330:1 2342:1 2347:1 2354:1 2391:1 2418:1 2450:1 2467:1 2469:1 2478:1 2522:1 2593:1 2612:1 2648:1 2671:1 2674:1 2715:1 2748:1 2786:1 2982:1 2987:1 2998:1 3020:1 3060:1 3095:1 3159:1 3198:1 3220:1 3223:1 3249:1 3282:1 3347:1 3418:1 3447:1 3612:1 3645:1 3649:1 3696:1 3708:1 3765:1 3783:1 3853:1 3955:1 4077:1 4084:1 4106:1 4207:1 4233:1 4273:1 4289:1 4403:1 4411:1 4612:1 4722:1 4878:1 4976:1 4977:1 4994:1 5020:1 5067:1 5102:1 5108:1 5193:1 5392:1 5419:1 5579:1 5593:1 5653:1 5930:1 5953:1 6048:1 6126:1 6183:1 6244:1 6282:1 6300:1 6304:1 6560:1 6736:1 6922:1 6931:1 6992:1 6996:1 6999:1 7094:1 7095:1 #
0.0013445934025299944095110937780646 9:1 22:1 49:1 73:1 74:1 89:1 90:1 160:1 161:1 175:1 183:1 184:2 193:1 196:1 201:1 218:1 219:1 238:1 239:1 240:1 241:1 242:1 243:1 249:1 250:1 261:1 291:2 292:1 293:1 298:1 327:1 328:1 331:1 332:1 354:1 360:1 361:1 373:1 375:1 379:1 387:1 391:1 416:1 436:1 496:1 533:1 539:1 540:1 542:1 565:1 569:1 570:1 590:1 591:1 594:1 595:1 596:1 597:1 598:1 599:1 602:1 603:1 611:1 651:1 681:1 693:1 780:1 910:1 917:1 927:1 937:1 962:1 1026:1 1052:1 1088:1 1172:1 1173:1 1174:1 1194:1 1195:1 1196:1 1197:1 1224:1 1264:1 1297:1 1326:1 1387:1 1401:1 1435:1 1463:1 1478:1 1494:1 1495:1 1510:1 1511:1 1512:1 1545:1 1632:1 1650:1 1765:1 1815:2 1822:1 1869:1 1870:1 1883:2 1885:2 1902:1 1903:1 1952:1 2161:1 2222:1 2224:1 2243:1 2275:1 2302:1 2372:1 2380:1 2444:1 2585:1 2605:1 2704:1 2753:1 2766:1 2767:1 2846:1 2877:1 2897:1 2937:1 2962:1 3034:2 3051:1 3052:1 3055:1 3056:1 3132:1 3133:1 3134:1 3135:1 3136:1 3137:1 3138:1 3139:1 3140:1 3141:1 3142:1 3143:1 #
0.0038925720531342404562291648062455 32:2 49:1 53:1 73:1 89:1 90:1 160:1 161:1 175:1 184:2 196:1 201:1 218:1 219:1 238:1 239:1 240:1 241:1 242:1 247:1 249:1 250:1 251:1 291:2 311:1 313:1 327:1 331:1 332:1 354:1 357:1 358:2 359:1 360:1 361:1 372:1 373:1 374:1 375:1 384:1 385:1 391:1 498:1 531:1 533:1 536:3 537:1 539:1 540:1 542:1 565:1 569:1 570:1 576:1 590:1 594:1 595:1 596:1 597:1 598:1 599:1 602:1 603:1 693:1 731:1 804:1 861:1 910:1 991:1 1052:1 1088:1 1089:1 1158:1 1174:1 1194:1 1195:1 1224:1 1324:1 1340:1 1359:1 1378:1 1408:1 1423:1 1435:1 1436:1 1463:1 1478:1 1495:1 1501:1 1511:1 1512:1 1545:1 1586:1 1608:1 1632:1 1650:1 1763:1 1815:1 1869:1 1870:1 1883:1 1885:1 1902:1 2006:1 2036:1 2147:1 2224:1 2266:1 2267:1 2287:1 2307:1 2319:1 2380:1 2467:1 2471:1 2772:1 2831:1 2846:1 2870:1 2877:1 2937:1 2962:1 3034:1 3051:1 3052:1 3053:1 3056:1 3065:1 3068:1 3091:1 3099:1 3139:1 3140:1 3141:1 3142:1 3143:1 3364:1 3380:1 3381:1 3382:1 3383:1 3384:1 3385:1 3386:1 3387:1 #
0.0007964308501952325645631414197112 9:1 10:1 11:1 12:1 18:1 29:1 33:1 49:1 69:1 70:1 87:1 88:1 89:1 90:2 91:1 123:1 140:1 170:1 171:1 187:1 196:1 197:1 201:1 219:1 237:1 238:1 239:1 240:1 241:1 242:1 248:1 249:1 250:1 251:1 261:1 262:1 301:1 323:1 327:1 328:1 337:1 346:1 347:1 348:1 364:1 370:1 374:1 375:1 391:1 409:1 431:1 432:1 496:1 565:1 587:1 588:1 594:1 595:1 600:1 626:1 649:1 692:1 804:1 923:1 962:1 985:1 1026:1 1039:1 1054:1 1055:1 1116:1 1167:1 1169:1 1194:1 1195:1 1206:1 1207:1 1208:1 1221:1 1227:1 1236:1 1339:1 1378:1 1417:1 1500:1 1510:1 1511:1 1512:1 1525:1 1541:1 1603:1 1677:1 1746:1 1759:1 1765:1 1779:1 1793:1 1813:1 1830:1 1842:1 1878:1 1883:1 1885:1 1893:1 1919:1 1930:1 1959:1 1960:1 1961:1 1984:1 1996:1 1997:1 2006:1 2036:1 2108:1 2244:1 2264:1 2302:1 2308:1 2358:1 2370:1 2372:1 2395:1 2406:1 2460:1 2555:1 2582:1 2604:1 2609:1 2892:1 2916:1 2937:1 2987:1 3034:1 3045:1 3047:1 3073:1 3083:1 3084:1 3085:1 3086:1 3087:1 3088:1 3089:1 3090:1 3091:1 3092:1 3093:1 3094:1 #
0.0039926418458137756875570012482513 22:1 26:1 33:1 41:1 45:1 64:1 65:1 73:1 74:1 88:1 89:1 90:2 111:1 174:1 175:1 184:1 194:1 198:1 201:1 210:1 238:1 239:1 240:1 241:1 242:1 245:1 249:1 250:1 251:1 261:1 262:1 263:1 281:1 290:1 293:1 304:1 321:1 322:1 323:1 331:1 332:1 360:2 361:1 370:1 374:1 375:1 386:1 453:1 479:1 514:1 530:1 533:1 535:1 538:1 539:1 542:1 554:1 560:2 572:1 594:1 600:1 653:1 694:1 843:1 908:1 922:1 923:1 925:1 941:1 949:1 1078:1 1079:1 1163:1 1193:1 1254:1 1371:1 1397:2 1434:1 1468:1 1473:1 1474:1 1475:1 1486:1 1487:1 1488:1 1489:1 1490:1 1491:1 1494:1 1495:1 1496:1 1497:1 1503:1 1506:1 1507:1 1508:1 1509:1 1510:1 1513:1 1515:1 1525:1 1599:1 1633:1 1780:1 1809:1 1811:1 1815:2 1824:1 1825:1 1826:1 1903:1 1928:1 1938:1 1939:1 1940:1 1941:1 1942:1 1943:1 1944:1 1945:1 1946:2 1947:1 1948:1 1949:1 1950:1 1951:1 1952:1 1953:1 1954:1 1955:1 1956:1 1957:1 1958:1 1959:1 1960:1 1961:1 1962:1 1963:1 1964:1 1965:1 1966:1 1967:1 1968:1 1969:1 #
0.0052498537036791423707193793291026 5:1 9:1 12:1 24:1 49:1 50:1 51:1 52:1 53:1 57:1 60:1 67:1 73:1 77:1 86:1 90:1 91:1 92:2 117:1 123:1 128:1 129:1 152:1 156:1 166:1 167:1 216:1 274:1 337:1 345:1 438:1 439:1 447:1 451:1 467:1 472:1 473:1 483:1 494:1 500:1 525:1 570:1 572:1 575:1 588:1 608:1 615:1 616:1 627:1 628:1 632:1 633:1 634:1 635:1 636:1 637:1 638:1 639:1 640:1 644:1 647:1 648:1 652:2 653:1 654:1 655:1 656:1 657:1 658:1 662:1 675:1 676:1 677:1 681:2 682:1 686:1 690:1 691:1 692:1 703:1 704:1 705:1 706:1 707:1 708:1 709:1 717:1 718:1 743:1 744:1 750:1 761:1 857:1 870:1 878:1 884:1 885:1 888:1 917:1 945:1 946:1 996:1 1018:1 1021:1 1086:1 1087:1 1088:1 1089:1 1090:1 1091:1 1092:1 1093:1 1094:1 1095:1 1096:1 1097:1 1098:1 1099:1 1100:1 1101:1 1102:1 1103:1 1104:1 1105:1 1106:1 1107:1 1108:1 1109:1 1110:1 1111:1 1112:1 1113:1 1114:1 1115:1 1116:1 1117:1 1118:1 1119:1 1120:1 1121:1 1122:1 1123:1 1124:1 1125:1 1126:1 1127:1 1128:1 1129:1 1130:1 1131:1 1132:1 1133:1 #
-0.00082165423757201490762708262494129 5:2 18:1 20:1 26:1 33:1 34:1 39:1 40:2 41:2 58:2 71:1 76:1 89:2 90:2 119:1 146:1 170:3 201:3 202:1 208:1 219:1 223:1 245:1 283:1 293:1 333:1 360:2 372:1 373:1 381:2 387:1 397:1 412:1 435:1 453:1 477:1 480:1 504:1 520:1 525:1 533:1 560:1 571:1 572:1 601:1 605:1 612:1 624:1 625:1 626:1 628:1 631:1 787:1 789:1 811:1 838:1 866:1 872:1 899:1 900:1 910:1 917:2 935:1 964:1 995:1 1026:1 1034:1 1056:1 1057:1 1068:1 1085:1 1089:1 1146:1 1174:1 1178:1 1182:1 1194:1 1235:1 1242:1 1265:1 1325:1 1345:2 1347:1 1363:1 1377:1 1378:1 1395:1 1412:1 1476:1 1483:1 1514:1 1531:1 1549:1 1569:1 1573:1 1577:1 1580:1 1602:1 1634:1 1723:1 1759:1 1760:1 1779:1 1788:1 1794:1 1833:1 1835:1 1843:1 1865:1 1879:1 1916:1 1935:1 1940:2 1946:1 1952:3 1953:1 1954:1 1958:1 1963:2 1973:1 2094:1 2116:1 2118:1 2133:1 2151:1 2168:1 2188:1 2189:1 2199:1 2201:2 2234:1 2294:1 2302:1 2311:1 2325:2 2337:1 2342:1 2466:1 2467:2 2531:2 2547:1 2590:1 2603:1 2609:1 2640:1 2671:1 2672:1 2674:1 2737:1 2780:1 2788:1 2852:1 2887:1 2907:1 2987:1 2988:1 3017:1 3055:1 3090:1 3096:1 3135:1 3218:1 3283:1 3337:1 3348:1 3377:1 3383:1 3408:1 3409:1 3583:1 3631:1 3680:1 3706:1 3707:1 3730:1 3810:1 3843:1 4035:1 4036:1 4079:1 4080:1 4145:1 4146:1 4171:1 4209:1 4263:1 4276:1 4319:1 4386:1 4487:1 4503:1 4536:1 4714:1 4770:1 4831:1 4890:1 5050:1 5160:1 5178:1 5223:1 5388:1 5406:1 5447:1 5484:1 5500:1 5741:1 5850:1 5942:1 6017:1 6038:1 6992:1 #
-0.00087309294484504943074931748725476 22:1 39:1 40:1 41:1 48:2 52:1 63:1 68:1 74:1 119:1 197:1 208:1 210:1 245:1 270:1 283:1 310:1 319:1 328:1 336:1 339:1 340:1 366:1 373:1 413:1 472:1 477:1 492:1 520:1 524:1 536:1 537:2 564:1 590:1 592:1 598:1 611:1 643:1 649:1 663:1 734:1 756:1 762:1 866:1 872:1 888:1 908:1 922:1 958:1 965:1 985:1 1013:1 1014:1 1032:1 1056:1 1078:1 1116:1 1121:1 1142:1 1195:1 1209:1 1227:1 1228:1 1242:1 1291:1 1307:1 1309:1 1322:1 1325:1 1340:1 1346:1 1353:1 1363:1 1366:1 1412:1 1434:1 1454:2 1483:1 1486:1 1493:1 1526:1 1528:1 1562:1 1569:1 1577:1 1580:1 1592:1 1693:1 1727:1 1742:1 1743:1 1747:1 1784:1 1792:1 1805:1 1826:1 1830:1 1873:1 1943:1 1944:1 1973:1 2057:1 2099:1 2117:1 2125:1 2136:1 2149:1 2167:1 2244:1 2249:1 2271:1 2282:1 2321:1 2342:1 2348:1 2375:1 2515:1 2518:1 2533:1 2542:1 2550:1 2555:1 2590:1 2685:1 2690:2 2700:1 2705:1 2723:1 2731:1 2780:1 2788:1 2812:1 2851:1 2853:1 2871:2 2915:2 2930:1 2996:1 3027:1 3045:1 3046:1 3060:1 3087:1 3115:1 3159:1 3160:2 3192:1 3198:1 3218:1 3243:1 3245:1 3266:1 3348:1 3395:1 3408:1 3414:1 3454:1 3586:1 3588:1 3594:1 3602:1 3612:1 3635:1 3646:1 3684:1 3743:1 3755:1 3766:1 3837:1 3863:1 3869:1 3900:1 3956:1 3988:1 4024:1 4105:1 4123:1 4138:1 4160:1 4176:1 4190:1 4195:1 4256:1 4324:1 4347:1 4348:1 4364:1 4387:1 4425:1 4632:1 4666:2 4691:1 4698:1 4832:1 4876:1 4898:1 4929:1 4970:1 5042:1 5071:1 5082:1 5205:1 5212:1 5260:1 5469:2 5478:1 5495:1 5527:1 5554:1 5612:1 5650:2 5775:1 5788:1 5792:1 5850:1 5865:2 5930:1 5988:1 6124:1 6221:1 6223:1 6230:1 6458:1 6472:1 6615:1 6619:1 6721:1 6870:1 6931:1 6981:1 6992:1 7071:1 7083:1 7097:1 #
-0.0001289943793898401329899028322501 35:1 39:1 40:2 41:1 43:1 58:1 68:1 108:1 156:1 168:1 184:1 189:1 192:1 216:1 220:1 253:1 263:1 264:1 290:1 327:1 371:1 424:1 437:1 478:1 479:1 480:1 492:1 536:1 570:1 572:1 630:1 650:1 698:1 715:1 756:1 792:1 884:1 895:1 930:1 1019:1 1063:1 1064:1 1080:1 1089:1 1091:1 1123:1 1178:1 1289:1 1304:1 1339:1 1411:1 1412:1 1483:1 1512:1 1577:1 1632:1 1635:1 1643:1 1655:1 1656:1 1668:1 1678:2 1724:1 1790:1 1803:1 1858:1 1873:1 1876:1 1882:1 1954:1 1958:1 1961:1 1996:1 2064:1 2118:1 2139:1 2234:1 2259:1 2293:1 2302:1 2309:1 2325:1 2377:1 2403:1 2451:1 2514:1 2515:1 2530:1 2567:1 2574:1 2595:1 2662:1 2671:2 2674:1 2732:1 2737:1 2788:1 2801:1 2852:1 2936:1 2957:1 2961:1 2981:1 2984:1 2996:1 3128:1 3278:1 3279:1 3299:1 3318:1 3329:1 3348:1 3447:1 3449:1 3469:1 3482:1 3486:1 3765:1 3770:1 3803:1 3818:1 3821:1 3838:1 3878:1 3887:1 3944:1 3976:1 4098:1 4112:1 4113:1 4181:1 4182:1 4346:1 4481:1 4495:1 4915:1 4916:1 4967:1 4970:1 5021:1 5040:1 5160:1 5177:1 5229:1 5261:1 5312:1 5319:1 5435:1 5471:1 5495:1 5618:1 5638:1 5671:1 5741:1 5841:1 5935:1 6106:1 6164:2 6610:1 7062:1 #
-0.0016219962778116991074239816583713 5:1 22:1 41:1 65:1 67:1 69:1 71:1 73:1 74:1 90:1 118:1 119:1 168:1 196:1 218:2 219:1 238:1 250:1 291:1 303:1 312:1 313:1 318:1 341:1 345:1 373:1 379:1 429:1 478:1 479:1 492:1 493:1 494:1 505:1 519:1 521:1 523:1 536:2 552:1 612:1 613:1 638:1 734:1 783:1 784:1 801:1 812:1 819:1 843:1 845:1 857:1 922:1 923:1 932:1 956:1 957:1 992:1 1036:1 1040:1 1079:1 1085:1 1139:1 1172:1 1217:1 1219:1 1235:1 1249:1 1265:1 1305:1 1310:1 1311:1 1357:1 1362:1 1371:1 1386:1 1424:1 1435:1 1440:1 1497:1 1535:1 1559:1 1561:1 1599:2 1632:1 1658:1 1759:1 1764:1 1811:1 1826:1 1831:1 1835:1 1858:1 1881:1 1883:1 1884:1 1952:1 2018:1 2076:1 2090:1 2104:1 2192:1 2203:1 2233:1 2254:1 2275:1 2316:1 2376:2 2422:1 2427:1 2451:1 2479:1 2536:1 2537:1 2539:1 2603:1 2652:1 2667:1 2719:1 2720:1 2725:1 2805:1 2897:1 2986:1 2988:1 3016:1 3050:1 3055:1 3082:1 3198:1 3246:1 3260:1 3366:1 3407:1 3439:1 3474:1 3618:1 3653:1 3805:1 3863:1 4271:1 4403:1 4434:1 4678:1 4870:1 4915:1 4949:1 5018:1 5279:1 5426:1 5522:1 5543:1 5601:1 5784:1 5826:1 6110:1 6112:1 6460:1 7120:1 #
-0.0012607791747273884401525645415632 40:1 46:1 47:1 53:1 85:1 86:1 87:1 88:1 89:1 90:3 103:1 116:1 117:1 128:1 136:1 150:1 173:1 219:1 238:1 249:1 291:1 303:1 313:1 323:1 372:1 383:1 388:1 389:1 396:1 409:1 411:1 415:1 461:1 477:1 478:1 492:1 515:1 563:1 598:1 602:1 626:1 639:1 699:1 731:1 807:1 820:1 829:1 831:1 839:1 845:1 847:1 864:1 917:1 935:1 951:1 956:1 957:1 959:1 1025:1 1085:1 1162:1 1249:1 1254:1 1255:1 1265:1 1315:1 1367:1 1392:1 1398:1 1414:1 1452:1 1462:1 1497:1 1553:1 1554:1 1586:1 1596:1 1598:1 1658:1 1662:1 1680:1 1724:1 1729:1 1750:1 1801:1 1853:1 1859:1 1934:1 1937:1 1949:1 2011:1 2036:1 2049:1 2054:1 2089:1 2104:1 2121:1 2144:1 2204:1 2243:1 2287:1 2333:1 2463:1 2549:1 2581:1 2590:1 2622:1 2635:1 2711:1 2794:1 2866:1 2891:1 2935:1 2938:1 2953:1 3024:1 3045:1 3148:1 3173:1 3330:1 3390:1 3544:1 3594:1 3616:1 3803:1 3918:1 3998:1 4139:1 4144:1 4227:1 4326:1 4330:1 4437:1 4485:1 4637:1 4650:1 4742:1 4831:1 4832:1 4838:1 5040:1 5128:1 5215:1 5226:1 5330:1 5385:1 5500:1 5622:1 5640:1 5664:1 5876:1 5888:1 6023:1 6088:1 6552:1 6773:1 #
0.0025123232234899465012412100861638 8:1 33:1 41:1 42:1 43:1 47:2 52:1 53:1 60:1 65:2 68:1 69:1 77:1 78:1 97:1 102:1 116:1 117:1 125:1 145:1 197:1 201:1 238:2 249:1 250:1 253:1 323:1 344:1 345:1 377:1 380:1 415:1 435:1 436:1 447:1 456:1 467:1 468:1 483:1 484:1 498:1 501:1 504:1 505:1 536:1 545:1 611:1 612:1 613:1 614:1 622:1 623:1 625:1 626:1 639:1 643:1 690:1 691:1 692:1 693:1 694:1 702:1 703:1 707:1 708:1 709:1 713:1 739:1 745:1 748:1 756:1 757:1 758:1 801:1 802:1 819:1 820:1 825:1 826:1 831:1 832:1 834:1 837:1 838:1 839:1 840:1 841:1 842:1 843:1 844:1 845:1 847:1 848:1 849:1 850:1 851:1 852:1 854:1 855:1 863:1 864:1 865:1 874:1 875:1 879:1 880:1 893:1 915:1 946:1 982:1 1027:1 1028:1 1048:1 1049:1 1050:1 1051:1 1055:1 1058:1 1079:1 1081:1 1123:1 1190:1 1301:1 1432:1 1525:1 1557:1 1654:1 1655:1 1656:1 1657:1 1658:1 1659:1 1660:1 1661:1 1662:1 1663:1 1664:1 1665:1 1666:1 1667:1 1668:1 1669:1 1670:1 1671:1 1672:1 1673:1 1674:1 1675:1 1676:1 1677:1 1678:1 1679:1 1680:1 1681:1 1682:1 1683:4 #
0.0037799685275853949460722613906682 9:1 10:1 11:1 12:1 22:1 23:1 27:1 33:1 39:1 40:1 41:1 45:1 46:1 47:1 51:1 52:1 53:1 60:1 65:1 68:1 69:1 73:1 77:1 89:1 90:1 117:1 118:1 119:1 142:1 143:1 197:1 198:1 238:1 253:1 274:1 281:1 315:1 316:1 323:1 333:1 344:1 345:1 358:1 371:1 379:1 468:1 470:1 471:1 472:1 473:1 474:1 500:1 529:1 551:1 552:1 612:1 623:1 626:1 657:1 658:1 661:1 667:1 689:1 698:1 702:1 703:1 707:1 709:1 746:1 831:2 832:1 833:1 834:1 835:1 836:1 846:1 847:1 864:1 887:1 922:1 923:1 956:1 957:1 963:1 964:1 973:1 974:1 1005:1 1066:1 1087:1 1165:1 1230:1 1231:1 1249:1 1258:1 1270:1 1271:1 1272:1 1286:1 1287:1 1290:1 1291:1 1311:1 1357:1 1358:1 1380:1 1520:1 1549:1 1572:1 1588:1 1603:1 1609:1 1643:1 1672:1 1709:1 1710:1 1725:1 1779:1 1896:1 2043:1 2044:1 2055:1 2056:1 2077:1 2078:1 2079:1 2092:1 2109:1 2139:1 2357:1 2440:1 2455:1 2465:1 2466:1 2593:1 2685:1 2730:1 2731:1 2881:1 2974:1 2975:1 2976:1 2977:1 2978:1 2979:1 2980:1 2981:1 2982:1 #
0.0033023994773122102887319417874323 9:1 33:2 39:1 40:1 41:1 42:1 43:1 44:1 45:1 46:1 47:1 48:1 51:1 52:1 53:1 60:1 65:2 68:1 69:1 77:1 78:1 85:1 90:1 91:1 111:1 116:1 117:1 118:1 119:1 121:1 150:1 197:1 238:1 249:1 250:1 253:1 302:1 323:1 384:1 412:1 447:1 467:1 471:1 472:1 483:1 484:1 491:1 495:1 496:1 499:1 500:1 505:1 536:1 562:1 611:1 612:1 613:1 614:1 618:1 625:1 626:1 639:1 667:1 708:1 709:1 739:1 745:1 748:1 774:1 786:1 787:1 794:1 807:1 809:1 810:1 811:1 812:1 813:1 814:1 815:1 816:1 817:1 818:1 819:1 820:1 821:1 822:1 823:1 824:1 825:1 826:1 827:1 828:1 829:1 830:1 831:1 832:1 833:1 834:1 835:1 836:1 837:1 838:1 839:1 840:1 841:1 842:1 843:1 844:1 845:1 846:1 847:1 848:1 849:1 850:1 851:1 852:1 853:1 854:1 855:1 856:1 857:1 858:1 859:1 860:1 861:1 862:1 863:1 864:1 865:1 866:1 867:1 868:1 869:1 870:1 871:1 872:1 873:1 874:1 875:1 876:1 877:1 878:1 879:1 880:1 881:1 882:1 883:1 884:1 885:1 886:1 887:1 888:1 889:1 890:1 891:1 892:1 893:1 894:1 895:1 896:1 897:1 #
0.00050949168917464350558876873265035 8:1 9:1 33:2 39:1 40:1 41:1 42:1 43:1 44:1 45:1 46:1 47:1 48:1 51:1 52:1 53:1 60:1 65:1 68:1 69:1 77:2 78:1 85:1 87:1 88:1 90:1 91:1 116:1 117:1 118:1 119:1 150:1 197:1 238:1 253:1 302:1 323:1 377:1 412:1 413:1 415:1 447:1 467:1 471:1 483:1 484:1 491:1 495:1 496:1 498:1 499:1 500:1 505:1 564:1 611:1 612:1 613:1 614:1 622:1 623:1 625:1 639:1 667:1 693:1 708:1 709:1 739:1 745:1 748:1 786:1 803:1 818:1 819:1 820:1 823:1 824:1 825:1 826:1 827:1 828:1 832:1 833:1 834:1 835:1 836:1 837:1 838:1 839:1 840:1 841:1 845:2 846:1 847:1 848:1 849:1 850:1 851:1 852:1 853:1 854:1 855:1 856:1 857:1 858:1 859:1 862:1 863:1 864:1 868:1 869:1 872:1 873:1 878:1 882:1 883:1 884:1 885:1 886:1 887:1 893:1 894:1 895:1 896:1 914:1 915:1 937:1 1030:1 1031:1 1050:1 1076:1 1080:1 1113:1 1201:1 1387:1 1432:1 2086:1 2226:1 2354:1 2415:1 2551:1 2574:1 2718:1 2938:1 3233:1 3304:1 3305:1 3306:1 3307:1 3308:1 3309:1 #
0.0052498537036791423707193793291026 24:1 37:1 49:1 50:1 51:1 52:2 53:1 87:1 119:1 137:1 168:1 196:1 199:1 207:1 219:1 250:1 264:1 265:1 289:1 291:1 317:1 325:1 327:1 328:1 372:1 381:1 387:1 395:1 430:1 434:1 435:1 436:1 471:1 488:1 489:1 492:1 493:1 517:1 548:1 574:1 589:1 590:1 591:1 614:1 628:1 635:1 638:1 650:1 667:1 668:1 693:1 715:1 846:1 847:1 862:1 901:1 915:1 921:1 932:3 933:3 934:1 936:1 937:2 977:1 978:1 979:1 980:1 981:1 991:1 1009:1 1026:1 1090:1 1153:1 1172:1 1173:1 1174:1 1201:1 1305:1 1306:1 1307:1 1334:1 1340:1 1353:1 1423:1 1494:1 1495:1 1496:1 1599:1 1602:1 1613:1 1677:1 1692:1 1706:1 1719:1 1835:2 1836:1 1849:1 1859:1 1867:1 1900:1 1996:2 2017:1 2018:1 2043:1 2045:1 2046:1 2116:1 2216:1 2217:1 2218:1 2224:1 2275:1 2541:1 2552:1 2553:1 2569:1 2579:1 2582:1 2605:1 2630:1 2717:1 2773:1 2788:1 2814:1 2887:1 2896:1 3026:1 3055:1 3056:1 3225:1 3286:1 3407:1 3408:1 3409:1 3410:1 3411:1 3412:1 3413:1 3414:1 3415:1 3416:1 3417:1 3418:1 3419:1 3420:1 3421:1 3422:1 3423:1 3424:1 3425:1 3426:1 3427:1 #
-0.0022009812983685302610614709095671 9:1 10:1 11:1 12:1 29:1 33:2 37:1 41:1 42:1 77:1 89:1 90:1 126:1 127:1 152:1 187:1 211:1 247:1 248:1 249:1 250:2 273:1 274:1 286:1 369:1 389:1 449:1 470:1 473:1 475:1 518:1 536:1 587:1 595:1 619:1 642:1 667:1 768:1 831:1 846:1 847:1 864:1 870:1 940:1 987:1 989:1 1015:1 1016:1 1026:1 1054:1 1055:1 1080:1 1164:1 1250:1 1266:1 1301:1 1345:1 1378:1 1401:1 1435:1 1436:1 1540:1 1600:1 1609:1 1610:1 1611:1 1653:1 1658:1 1779:1 1816:1 1821:1 1855:1 1888:1 1896:1 1941:1 1977:1 2003:1 2064:1 2083:1 2108:1 2152:1 2165:1 2278:1 2312:1 2355:1 2358:1 2423:1 2447:1 2487:1 2548:1 2549:1 2552:1 2553:1 2570:1 2576:1 2577:1 2620:1 2625:1 2659:1 2662:1 2677:1 2690:1 2692:1 2708:1 2740:1 2774:1 2892:1 3032:1 3062:1 3358:1 3401:1 3446:1 3561:1 3690:1 3725:1 3726:1 3853:1 3873:1 3918:1 3957:1 3979:1 3995:1 4160:1 4169:1 4266:1 4267:1 4555:1 4567:1 4583:1 4629:1 4793:1 4800:1 4930:1 4969:1 5090:1 5146:1 5203:1 5258:1 5281:1 5533:1 5540:1 6008:1 6782:1 #
-0.0023077367661653324683312948906178 3:1 9:1 10:1 13:1 35:1 36:2 37:1 38:1 48:1 53:1 54:1 59:1 76:1 97:1 137:1 177:1 207:1 214:1 215:1 227:1 250:1 269:1 308:1 310:1 311:1 323:1 328:1 401:1 408:1 468:1 556:1 587:1 633:1 645:1 652:1 653:1 746:1 795:1 828:1 843:1 847:1 876:1 881:2 897:1 912:1 920:1 943:1 1016:1 1018:1 1033:1 1070:1 1085:1 1111:1 1115:1 1158:1 1174:1 1190:1 1201:1 1245:1 1246:1 1272:1 1343:1 1378:1 1379:1 1385:1 1423:1 1476:1 1482:1 1531:1 1546:1 1548:1 1549:1 1578:1 1579:1 1679:1 1731:1 1736:1 1775:1 1788:1 1883:1 1890:1 1943:1 1954:1 1994:1 2023:1 2032:1 2072:1 2095:1 2101:1 2268:1 2300:1 2317:1 2323:1 2376:1 2445:1 2450:1 2476:1 2529:1 2586:1 2587:1 2619:1 2650:1 2660:1 2676:1 2698:1 2837:1 2898:1 2924:1 2997:1 3034:1 3067:1 3099:1 3173:1 3194:1 3225:1 3320:1 3328:1 3645:1 3659:1 3664:1 3666:1 3697:1 3721:1 3747:1 3845:1 4049:1 4112:1 4149:1 4175:1 4259:1 4408:1 4848:1 4970:1 5204:1 5222:1 5299:1 5476:1 5530:1 5597:1 5622:1 5663:1 5869:1 5881:1 6088:1 6116:1 6213:1 6523:1 6649:1 6684:1 6687:1 6712:1 7056:1 7160:1 #
-0.00020354772538307337216567649562649 6:1 9:1 10:1 11:2 23:1 33:1 39:1 45:1 62:1 67:1 69:1 70:1 81:1 90:1 91:1 119:1 123:1 147:1 157:1 172:1 223:1 233:1 237:1 274:1 283:1 318:1 360:1 388:1 389:1 427:1 439:1 440:1 471:1 472:1 480:1 484:1 511:1 512:1 534:1 536:1 551:1 555:1 560:1 561:2 573:2 588:1 605:1 623:1 626:1 631:1 643:1 658:1 662:1 665:1 730:1 731:1 743:1 858:1 919:1 930:1 932:1 940:1 974:1 976:1 1016:1 1017:1 1032:1 1079:1 1120:1 1189:1 1231:1 1235:1 1237:1 1256:1 1263:1 1266:1 1310:1 1325:1 1334:1 1370:1 1371:1 1375:1 1430:1 1465:1 1476:1 1505:1 1528:1 1571:1 1673:1 1674:1 1700:1 1720:1 1789:1 1809:1 1857:2 1859:1 1885:1 1896:1 1915:1 1919:1 1920:1 1934:1 1946:1 1952:1 1973:1 2001:1 2009:1 2017:1 2018:1 2028:1 2096:1 2102:1 2150:1 2185:1 2211:1 2268:1 2336:1 2358:1 2415:1 2418:1 2444:1 2459:1 2490:1 2519:1 2579:1 2602:1 2606:2 2630:1 2648:1 2665:1 2720:1 2767:1 2939:1 2955:1 3034:1 3046:1 3052:1 3055:1 3099:1 3115:1 3148:1 3149:1 3163:1 3214:1 3345:1 3359:1 3400:1 3415:1 3429:1 3498:1 3556:1 3665:1 3676:1 3696:1 3698:1 3735:1 3743:1 3821:1 3839:1 3840:1 3868:1 3925:1 3933:1 3946:1 3966:1 3979:1 4029:1 4044:1 4086:1 4152:1 4226:1 4274:1 4318:1 4426:1 4439:1 4477:1 4520:1 4521:1 4931:1 5131:1 5202:1 5224:1 5253:1 5316:1 5403:1 5439:1 5493:1 5507:1 5593:1 5776:1 5783:1 5794:1 5885:1 5937:1 5986:1 6011:1 6144:1 6568:1 6733:1 6926:1 6938:1 6953:1 7043:1 7399:1 7408:1 7502:1 #
-0.0012558116333602001302160999784974 2:1 9:1 10:1 11:1 12:1 23:1 25:1 33:1 43:1 53:1 87:1 88:1 89:1 90:2 97:1 184:1 218:1 250:1 263:1 293:1 323:1 340:1 345:1 377:2 378:1 422:1 442:1 451:1 459:1 469:1 531:1 590:1 593:1 606:1 624:1 625:1 626:1 639:1 646:1 694:1 732:1 794:1 801:1 845:1 846:2 847:1 864:1 874:1 878:1 897:1 908:1 925:1 967:1 976:1 991:1 1040:1 1079:1 1120:1 1121:1 1184:1 1230:1 1243:1 1340:1 1346:1 1371:1 1373:1 1398:1 1401:1 1423:1 1434:1 1435:1 1472:1 1540:1 1584:1 1590:1 1591:1 1592:1 1633:1 1662:1 1672:1 1673:1 1674:1 1701:1 1705:1 1776:1 1779:1 1796:1 1885:1 1904:1 1908:1 1912:1 1945:1 1984:1 2049:1 2050:1 2068:1 2143:1 2167:2 2205:1 2254:1 2287:1 2308:1 2347:1 2405:1 2408:1 2415:1 2428:1 2450:1 2495:1 2548:1 2549:1 2583:1 2687:1 2692:1 2865:1 2895:1 2917:1 2926:1 2984:1 3065:1 3127:1 3137:1 3177:1 3201:1 3224:1 3299:1 3304:1 3401:1 3479:1 3485:1 3486:1 3541:1 3561:1 3568:1 3594:1 3608:1 3651:1 3666:1 3730:1 3776:1 3867:1 3883:1 3887:1 3957:1 4019:1 4395:1 4485:1 4524:1 4630:1 4645:1 4782:1 4800:1 4915:1 5073:1 5080:1 5154:1 5280:1 5397:1 5436:1 5485:1 5598:1 5780:1 5825:1 7491:1 7538:1 #
-0.00057910408030856545206349617060937 9:1 10:1 11:1 12:1 23:1 29:1 33:1 37:1 41:1 42:1 77:1 89:1 90:1 126:1 127:1 147:1 152:1 187:1 246:1 247:1 248:1 249:1 250:2 274:1 281:1 286:1 369:1 389:2 442:1 449:1 470:1 475:1 518:1 536:1 537:1 587:1 588:1 619:1 642:1 732:1 742:1 768:1 831:1 847:1 940:1 987:1 989:1 996:1 1015:1 1016:1 1026:1 1080:1 1164:1 1230:1 1249:1 1250:1 1266:1 1301:1 1345:1 1378:1 1401:1 1435:1 1436:1 1540:1 1600:1 1653:1 1658:1 1728:1 1779:1 1816:1 1855:1 1888:1 1941:1 1977:1 2064:1 2083:1 2085:1 2086:1 2123:1 2152:1 2278:1 2312:1 2358:1 2429:1 2447:1 2487:1 2548:1 2549:1 2552:1 2553:1 2570:1 2576:1 2620:1 2625:1 2659:1 2662:1 2677:1 2690:1 2692:1 2708:1 2740:1 3032:1 3039:1 3358:1 3371:1 3401:1 3484:1 3525:1 3690:1 3725:1 3853:1 3873:1 3918:1 3925:1 3946:1 3957:1 3979:1 3995:1 4160:1 4169:1 4185:1 4266:1 4267:1 4555:1 4563:1 4567:1 4583:1 4629:1 4708:1 4793:1 4800:1 4930:1 4969:1 5005:1 5090:1 5146:1 5203:1 5281:1 5533:1 5540:1 6008:1 6613:1 6782:1 #
0.0052498537036791423707193793291026 9:1 10:1 13:1 26:1 33:1 34:1 37:1 41:2 42:1 43:1 44:1 45:1 49:1 63:1 69:1 87:1 89:1 90:1 136:1 171:1 172:1 186:1 187:1 191:2 192:1 196:1 197:2 217:1 238:1 249:1 250:1 293:1 361:1 384:1 385:1 388:1 389:1 390:1 402:1 412:1 457:1 479:1 480:2 520:1 532:1 535:1 559:1 564:1 571:1 597:1 602:1 627:1 706:1 721:1 746:1 747:1 765:1 802:1 803:1 804:1 851:1 862:1 892:1 914:2 921:1 937:1 955:1 979:1 1032:1 1059:1 1216:1 1231:1 1267:1 1297:1 1329:1 1330:1 1347:1 1363:1 1390:1 1391:1 1392:1 1393:1 1394:1 1395:1 1396:1 1397:1 1398:1 1399:1 1400:1 1401:1 1402:1 1403:1 1404:1 1405:2 1406:1 1407:1 1408:2 1409:1 1410:1 1411:1 1412:1 1413:1 1414:1 1415:1 1416:1 1417:1 1418:1 1419:1 1420:1 1421:1 1422:1 1423:1 1424:1 1425:1 1426:1 1427:1 1428:1 1429:1 1430:1 1431:1 1432:1 1433:1 1434:1 1435:1 1436:1 1437:1 1438:1 1439:1 1440:1 1441:1 1442:1 1443:1 1444:1 1445:1 1446:1 1447:1 1448:1 1449:1 1450:1 1451:1 1452:1 1453:1 1454:1 1455:1 1456:1 1457:1 1458:1 1459:1 1460:1 1461:1 #
0.0052498537036791423707193793291026 6:1 7:1 8:1 10:1 26:1 37:1 41:1 45:1 50:1 64:2 68:1 69:1 70:2 89:1 90:1 150:1 173:2 198:1 238:1 248:1 249:1 264:1 265:1 270:1 313:1 338:1 339:1 340:1 372:1 374:1 380:1 381:1 434:1 435:1 436:2 449:1 460:1 495:1 515:1 546:1 562:1 569:1 570:1 576:1 605:1 619:1 622:1 623:1 647:1 748:1 757:1 847:1 910:1 920:1 922:1 923:1 972:1 998:1 1004:1 1019:1 1020:1 1071:1 1117:1 1248:1 1255:1 1275:1 1389:1 1432:1 1458:1 1462:1 1479:1 1544:1 1556:1 1561:1 1562:1 1566:1 1573:1 1577:1 1583:1 1584:1 1585:1 1617:1 1679:1 1680:2 1697:1 1740:1 1817:1 1836:1 1864:1 1878:1 1920:1 1949:1 1955:1 2011:1 2017:1 2049:1 2055:1 2087:1 2089:1 2198:1 2225:1 2274:1 2287:1 2346:1 2383:1 2403:1 2492:1 2494:1 2495:1 2498:1 2508:1 2509:1 2512:1 2532:1 2581:1 2589:1 2614:1 2695:1 2734:1 2887:1 2935:1 2970:1 2990:1 2993:1 3001:1 3016:1 3247:1 3250:1 3257:1 3314:1 3388:1 3389:1 3390:1 3391:1 3392:1 3393:1 3394:1 3395:1 3396:1 3397:1 3398:1 3399:1 3400:1 3401:1 3402:1 3403:1 3404:1 3405:1 #
0.0052498537036791423707193793291026 8:1 9:1 10:1 36:1 37:1 41:1 45:1 59:1 61:1 67:1 68:1 69:1 70:1 71:1 72:1 73:1 82:1 87:1 94:1 97:1 127:1 189:1 196:1 197:1 198:1 218:1 219:1 249:1 291:1 293:1 312:1 315:1 340:1 358:1 373:1 401:1 417:1 436:1 458:1 466:1 474:1 562:1 571:1 572:1 591:1 592:1 602:1 605:1 647:1 649:1 694:1 742:1 743:1 744:1 746:1 791:1 792:1 796:1 801:1 835:1 922:1 923:1 964:1 984:1 998:1 1010:1 1043:1 1055:1 1111:1 1118:1 1146:1 1195:1 1197:1 1243:1 1344:1 1347:1 1371:1 1394:1 1427:1 1458:1 1468:1 1516:2 1535:1 1536:1 1553:1 1577:1 1579:1 1589:1 1599:1 1651:1 1658:1 1673:1 1689:1 1865:1 1933:1 1937:1 1951:1 1952:2 2004:1 2017:1 2018:1 2019:1 2083:1 2104:1 2144:1 2167:1 2259:1 2303:1 2307:1 2314:1 2315:1 2318:1 2319:1 2320:1 2321:1 2330:1 2331:1 2336:1 2337:1 2338:1 2340:1 2341:1 2342:1 2343:1 2344:1 2346:1 2390:1 2429:1 2450:1 2451:1 2460:1 2484:1 2559:3 2629:1 2630:1 2659:1 2948:1 3136:1 3159:1 3253:1 3266:1 3293:1 3483:1 3484:1 3485:1 3486:1 3487:1 3488:1 3489:1 3490:1 3491:1 3492:1 #
0.0052498537036791423707193793291026 9:1 10:1 26:1 29:1 45:1 65:1 66:1 67:1 85:1 86:1 87:1 88:1 89:1 90:1 101:1 172:1 173:1 174:1 175:1 176:1 183:1 238:1 239:1 240:1 241:1 242:1 252:1 253:1 257:1 265:1 281:1 299:1 323:1 327:1 328:1 331:1 332:1 337:1 353:1 354:1 359:1 360:1 361:1 370:1 413:1 453:1 593:1 601:1 606:1 637:1 658:1 780:1 818:1 830:1 845:1 870:1 917:1 922:1 923:1 930:1 950:1 960:1 965:1 1001:1 1115:1 1161:1 1165:1 1175:1 1183:1 1283:1 1288:1 1340:1 1434:1 1435:1 1445:1 1503:1 1510:1 1578:1 1579:1 1600:1 1609:1 1610:1 1616:1 1633:1 1706:1 1834:1 1885:1 1934:1 1935:1 1984:1 1991:1 1996:1 2029:1 2058:1 2066:1 2076:1 2116:1 2178:1 2190:1 2231:1 2265:1 2307:1 2370:1 2376:1 2385:1 2406:1 2415:1 2427:1 2465:1 2483:1 2650:1 2651:1 2652:1 2762:1 2784:1 2805:1 2830:1 2831:1 2832:1 2833:1 2834:1 2835:1 2836:1 2837:1 2838:1 2839:1 2840:1 2841:1 2842:1 2843:1 2844:1 2845:1 2846:1 2847:1 2848:1 2849:1 2850:1 2851:1 2852:1 2853:1 2854:1 2855:1 2856:1 2857:1 2858:1 2859:1 2860:1 2861:1 2862:1 2863:1 2864:1 2865:1 #
0.0030345158167287777060960873853901 6:1 7:1 8:1 9:1 10:3 18:1 26:1 37:1 40:1 41:1 45:1 50:1 64:1 68:1 69:1 70:1 71:1 72:1 87:1 88:1 89:1 90:2 91:1 102:1 116:1 118:1 173:1 198:1 238:1 247:1 248:2 249:1 252:1 264:1 265:1 311:1 313:1 323:1 396:1 436:1 440:1 449:1 455:1 459:1 468:1 515:1 532:1 549:1 605:1 618:1 639:1 644:1 680:1 690:1 706:1 748:1 757:1 832:1 839:1 847:1 858:1 882:1 922:1 923:1 1000:1 1004:1 1019:1 1020:1 1031:1 1040:1 1080:1 1085:1 1098:1 1153:1 1341:1 1346:1 1365:1 1410:1 1411:1 1432:1 1434:1 1458:1 1533:1 1537:1 1538:1 1539:1 1544:1 1548:1 1552:1 1553:1 1561:1 1562:1 1566:1 1572:1 1573:1 1574:1 1577:1 1617:1 1715:1 1727:1 1775:1 1938:1 1959:1 1984:1 2089:1 2094:1 2095:1 2156:1 2198:1 2287:1 2316:1 2353:1 2361:1 2362:1 2366:1 2383:1 2485:1 2486:1 2487:1 2488:1 2489:1 2490:1 2491:1 2492:1 2493:1 2494:1 2495:1 2496:1 2497:1 2498:1 2499:1 2500:1 2501:1 2502:1 2503:1 2504:1 2505:1 2506:1 2507:1 2508:1 2509:1 2510:1 2511:1 2512:1 2513:1 2514:1 2515:1 2516:1 #
-0.0038501286739223488861383337678035 33:1 41:1 65:1 85:1 89:1 90:2 104:1 173:3 174:1 175:1 191:1 202:1 238:1 293:1 313:1 323:1 376:1 422:1 447:1 448:1 469:1 491:1 519:1 535:1 536:1 542:1 543:1 556:1 558:1 574:1 589:1 622:1 623:1 624:1 625:1 638:1 639:1 667:1 750:1 766:1 780:1 811:1 846:1 847:1 854:1 862:1 863:1 901:1 976:1 1010:1 1013:1 1037:1 1085:1 1111:1 1161:1 1363:1 1397:1 1432:1 1443:1 1452:1 1463:1 1464:1 1480:1 1605:1 1608:1 1687:1 1883:1 1884:1 1885:1 1980:1 2026:1 2027:1 2256:1 2265:1 2386:1 2549:1 2623:1 2832:1 2907:1 2939:1 3007:1 3125:1 3132:1 3246:1 3376:1 3409:1 3516:1 3559:1 3619:1 3666:1 3995:1 4031:1 4456:1 4485:1 4636:1 4830:1 4880:1 4977:1 5007:1 5040:1 5106:1 5289:1 5326:1 5539:1 5690:1 5806:1 5888:1 6011:1 6067:1 6165:1 6297:1 6453:1 #
-4.4233307150442126179454987999762e-05 13:1 22:1 45:1 79:1 123:1 124:1 145:1 172:1 174:1 211:1 256:1 261:2 262:1 266:1 291:1 318:1 354:1 376:1 383:1 384:1 385:1 396:1 413:1 439:1 479:1 513:1 529:1 532:1 555:1 584:1 662:1 668:1 735:1 773:1 823:1 833:1 846:1 877:1 887:1 914:1 945:1 955:1 980:1 1009:1 1051:1 1056:1 1092:1 1141:1 1146:1 1167:1 1210:1 1221:1 1229:1 1253:1 1277:1 1319:1 1323:1 1325:2 1329:2 1330:1 1344:2 1346:1 1370:1 1376:1 1432:1 1497:1 1553:1 1559:1 1560:1 1573:1 1579:1 1589:1 1594:1 1602:1 1618:1 1653:1 1676:1 1692:1 1719:1 1728:2 1741:1 1749:1 1759:1 1778:1 1793:1 1832:1 1878:1 1943:1 2006:1 2007:1 2008:1 2024:1 2086:1 2095:1 2108:1 2166:1 2180:1 2202:1 2218:1 2231:1 2258:1 2283:1 2307:1 2313:1 2444:1 2460:1 2565:1 2618:1 2678:1 2689:1 2705:1 2749:1 2789:1 2846:1 2847:1 2886:1 2983:1 3008:1 3034:1 3060:1 3087:1 3096:1 3105:1 3115:1 3157:1 3167:1 3168:1 3193:1 3222:1 3272:1 3279:1 3381:1 3410:1 3438:1 3559:1 3561:1 3632:1 3661:1 3666:1 3686:1 3736:1 3737:1 3750:1 3752:2 3785:1 3807:1 3834:1 3867:1 3929:1 3934:1 3941:1 3955:1 4022:1 4024:1 4055:1 4086:1 4087:1 4088:1 4106:1 4133:1 4164:1 4182:1 4234:1 4309:1 4318:1 4362:1 4367:1 4369:1 4404:1 4543:1 4555:1 4620:1 4758:1 4793:2 4797:1 4874:1 4931:1 4946:1 4963:1 5039:1 5065:1 5108:1 5137:1 5172:1 5317:1 5347:1 5350:1 5560:1 5705:1 5715:1 5785:1 5868:1 5908:1 5930:1 5973:1 6215:1 6249:1 6275:1 6293:1 6323:1 6415:1 6469:1 6492:1 6494:1 6875:1 6997:1 7008:1 7049:1 7120:1 7132:1 7265:1 7492:1 7509:1 #
-0.0037149912342554929946258912565327 8:1 9:1 10:1 13:1 22:1 23:1 34:1 41:1 45:1 85:1 89:1 90:2 91:1 111:1 121:1 172:1 173:2 193:1 194:1 313:1 322:1 323:1 344:1 345:1 361:1 416:1 439:1 479:1 515:1 532:1 542:1 552:1 556:1 560:1 570:1 571:1 608:1 624:2 625:2 628:1 667:1 806:1 833:1 846:1 847:1 851:1 887:1 910:1 947:1 997:1 1010:1 1051:1 1080:1 1085:1 1120:1 1222:1 1265:1 1276:1 1302:1 1316:1 1317:1 1397:1 1434:1 1477:1 1502:1 1533:1 1552:1 1559:1 1576:1 1611:1 1700:1 1709:1 1817:1 1839:1 1858:1 1872:1 1902:1 1903:1 1913:1 1950:1 1971:1 2010:1 2017:1 2070:1 2074:1 2155:1 2156:1 2176:1 2203:1 2292:1 2430:1 2437:1 2494:1 2536:1 2537:1 2552:1 2602:1 2643:1 2662:1 2665:1 2718:1 2725:1 2731:1 2747:1 2907:1 2922:1 2988:2 3034:1 3053:1 3114:1 3115:1 3146:1 3231:1 3247:1 3249:1 3274:1 3318:1 3356:1 3383:1 3443:1 3463:1 3479:1 3594:1 3639:1 3759:1 3798:1 3886:1 3947:1 4207:1 4773:1 4925:1 4986:1 5156:1 5389:1 5553:1 5566:1 5985:1 6008:1 6036:1 6248:1 6296:1 6509:1 6523:1 6661:1 7589:1 #
-0.0038764630662238381761386385448986 8:1 33:2 34:1 41:1 45:1 89:1 90:2 116:1 135:1 173:1 192:1 216:1 238:2 247:1 274:1 290:1 323:1 358:1 361:1 416:1 431:1 439:1 440:1 451:1 470:1 519:1 570:1 571:2 589:1 611:1 624:1 625:1 663:1 667:1 716:1 742:1 745:1 786:1 792:1 833:1 846:1 847:1 860:1 865:1 871:1 875:1 910:1 932:1 940:1 941:1 950:1 956:1 957:1 996:1 997:1 1005:1 1019:1 1026:1 1053:1 1085:1 1121:1 1197:1 1254:1 1265:2 1361:1 1386:1 1526:1 1530:1 1539:1 1559:1 1585:1 1669:1 1697:1 1709:1 1721:1 1727:1 1856:1 1913:1 1950:1 2096:1 2165:1 2176:1 2214:1 2250:1 2254:1 2268:1 2340:1 2405:1 2432:1 2451:1 2493:1 2494:1 2604:1 2662:1 2697:1 2907:1 2913:1 2922:1 2990:1 3034:1 3046:1 3053:1 3083:1 3115:1 3246:1 3380:1 3443:1 3455:1 3478:1 3522:1 3623:1 3717:1 3775:1 3811:1 3888:1 3976:1 4019:1 4085:1 4133:1 4176:1 4254:1 4255:1 4256:1 4461:1 4480:1 4775:1 4945:1 4986:1 5007:1 5049:1 5060:1 5156:1 5261:1 5566:1 5627:1 5654:1 5790:1 6073:1 6781:1 7224:1 7709:1 #
-4.2743143258899433728145722533043e-05 5:1 25:1 33:1 60:1 63:1 64:1 65:1 73:1 77:1 90:1 119:1 166:1 167:1 191:1 216:1 218:1 219:1 220:1 231:1 238:1 249:1 250:1 264:2 291:1 313:2 341:1 344:1 412:1 471:1 492:1 493:1 505:1 506:1 517:1 523:1 535:2 554:1 555:1 594:1 595:1 622:1 632:1 650:1 693:2 718:1 733:1 829:1 840:1 863:1 882:1 883:1 884:1 885:1 922:1 923:1 933:1 939:1 984:1 1026:1 1030:1 1031:1 1080:1 1083:1 1085:2 1086:1 1087:1 1162:1 1170:1 1214:1 1232:1 1253:2 1297:1 1330:1 1364:1 1380:1 1421:1 1422:1 1431:1 1440:1 1459:1 1496:1 1559:1 1561:1 1599:1 1600:1 1632:1 1658:1 1667:1 1668:1 1730:1 1745:1 1755:1 1831:1 1836:1 1861:1 1879:1 1881:1 1915:1 1922:1 1940:1 1958:1 1999:1 2042:1 2045:1 2046:1 2119:1 2236:1 2274:1 2318:1 2372:1 2429:1 2471:2 2597:1 2602:1 2655:1 2761:1 2780:1 2870:1 2938:1 3001:1 3016:1 3177:1 3209:1 3238:1 3371:1 3437:1 3439:1 3455:1 3595:1 3606:1 3749:1 3852:1 3931:1 3943:1 4004:1 4019:1 4056:1 4084:1 4160:1 4185:1 4343:1 4344:1 4437:1 4630:1 4718:1 4751:1 4890:1 5146:1 5215:1 5846:1 5986:1 5991:1 6112:1 6464:1 6934:1 #
0.002295164107333406196959080247666 11:1 12:2 13:1 39:1 40:1 41:1 42:1 43:1 44:1 48:1 49:1 53:1 60:1 68:1 69:1 70:1 71:1 72:1 73:1 77:1 83:1 84:1 85:1 89:1 90:1 118:1 119:1 120:1 136:1 137:1 142:1 143:1 147:1 152:1 194:1 238:1 274:1 322:1 323:1 442:2 500:1 505:1 526:1 563:1 635:1 657:1 658:1 702:1 707:1 739:1 743:1 750:1 751:1 756:1 807:1 825:1 833:1 839:1 840:1 841:1 847:1 882:1 883:1 887:1 895:1 924:1 1016:1 1039:1 1040:1 1054:1 1055:1 1079:1 1080:1 1082:1 1120:1 1189:1 1202:1 1247:1 1254:1 1270:1 1271:1 1272:1 1273:1 1274:1 1275:1 1279:1 1284:1 1285:1 1286:1 1287:1 1357:1 1405:1 1449:1 1549:1 1550:1 1574:1 1609:1 1615:1 1633:1 1667:1 1673:1 1679:1 1687:1 1795:1 1796:1 1959:1 1961:1 2016:1 2024:1 2048:1 2055:1 2056:1 2061:1 2065:1 2066:1 2067:1 2068:1 2069:1 2070:1 2071:1 2072:1 2073:1 2074:1 2075:1 2076:1 2077:1 2078:1 2079:1 2080:1 2081:1 2082:1 2083:1 2084:1 2085:1 2086:1 2087:1 2088:1 2089:1 2090:1 2091:1 2092:1 2093:1 2094:1 2095:1 2096:1 2097:1 2098:1 2099:1 2100:1 2101:1 #
0.0052498537036791423707193793291026 12:1 13:1 37:1 58:1 73:1 88:1 161:1 168:1 184:1 193:1 194:1 195:1 241:1 242:1 243:1 249:1 250:1 251:1 273:1 295:1 297:1 298:1 315:1 316:1 327:1 330:1 331:1 332:1 339:1 340:1 353:1 354:1 355:1 356:1 361:2 362:1 363:1 373:1 374:1 385:1 429:1 517:1 519:1 533:1 539:1 553:1 560:1 571:1 589:1 590:1 594:1 598:1 599:1 600:1 601:1 620:1 626:1 628:1 667:1 846:2 847:1 919:1 931:1 991:1 992:1 1059:1 1077:1 1088:1 1089:1 1090:1 1121:1 1183:1 1184:1 1206:1 1224:1 1229:1 1305:1 1319:1 1353:1 1360:1 1371:1 1411:1 1423:1 1437:1 1494:1 1496:1 1497:1 1510:1 1529:1 1592:1 1616:1 1650:1 1700:1 1758:2 1815:1 1816:1 1830:2 1831:2 1832:1 1833:1 1834:1 1835:2 1836:1 1837:1 1838:1 1839:1 1840:1 1841:1 1842:1 1843:1 1844:1 1845:1 1846:1 1847:1 1848:1 1849:1 1850:1 1851:1 1852:1 1853:1 1854:1 1855:1 1856:1 1857:1 1858:1 1859:1 1860:1 1861:1 1862:1 1863:1 1864:1 1865:1 1866:1 1867:1 1868:1 1869:1 1870:1 1871:1 1872:1 1873:1 1874:1 1875:1 1876:1 1877:1 1878:1 1879:1 1880:1 1881:1 1882:1 #
0.0052498537036791423707193793291026 6:1 11:1 12:1 24:1 39:1 40:1 41:1 42:1 43:1 44:1 48:1 49:1 53:1 60:1 68:1 69:1 70:1 71:1 72:1 77:1 89:1 90:1 112:1 118:1 119:1 120:1 121:1 122:1 123:1 128:1 136:1 137:1 145:1 152:1 153:1 194:1 238:1 274:1 322:1 323:1 344:1 447:2 451:1 458:1 467:1 505:1 526:1 563:1 569:1 570:1 614:1 628:1 635:1 643:1 658:1 702:1 707:1 745:1 750:1 756:1 764:1 831:2 833:1 839:1 840:1 847:1 851:1 852:1 881:1 887:1 893:1 924:1 1014:1 1015:1 1016:1 1039:1 1040:1 1055:1 1120:1 1121:1 1122:1 1133:1 1145:1 1170:1 1171:1 1190:1 1242:1 1247:1 1260:1 1266:1 1270:1 1279:1 1286:1 1287:1 1318:1 1357:1 1382:1 1383:1 1456:1 1481:1 1574:1 1615:1 2052:1 2055:1 2056:1 2074:1 2075:1 2076:1 2077:1 2080:1 2082:1 2083:1 2084:1 2085:1 2086:1 2090:1 2091:1 2092:1 2096:1 2101:1 2144:1 2146:1 2177:1 2178:1 2270:1 2447:1 2589:1 2643:1 2702:1 2755:1 2898:1 2917:1 2918:1 2919:1 2920:1 2921:1 2922:1 2923:1 2924:1 2925:1 2926:1 2927:1 2928:1 2929:1 2930:1 2931:1 2932:1 2933:1 2934:1 2935:1 #
0.0052498537036791423707193793291026 6:1 7:1 8:1 9:1 10:1 11:1 12:1 33:1 49:1 50:1 51:1 52:1 53:1 57:1 60:1 67:1 73:1 77:1 92:1 117:1 128:1 129:1 152:1 156:1 274:1 337:1 344:1 345:1 396:1 414:1 438:1 439:1 467:1 468:1 478:1 483:1 484:1 494:1 500:1 505:1 570:1 575:1 608:1 609:1 610:1 611:1 612:1 613:1 614:1 615:1 616:1 617:1 618:1 619:2 620:1 621:1 622:1 623:1 624:1 625:1 626:1 627:1 628:1 629:1 630:1 631:1 632:1 633:1 634:1 635:1 636:1 637:1 638:1 639:1 640:1 641:1 642:1 643:1 644:1 645:1 646:1 647:1 648:1 649:1 650:1 651:1 652:1 653:1 654:1 655:1 656:1 657:1 658:1 659:1 660:1 661:1 662:1 663:1 664:1 665:1 666:1 667:1 668:1 669:1 670:1 671:1 672:1 673:1 674:1 675:1 676:1 677:1 678:1 679:1 680:1 681:1 682:1 683:1 684:1 685:1 686:1 687:1 688:1 689:1 690:1 691:1 692:1 693:1 694:1 695:1 696:1 697:1 698:1 699:1 700:1 701:1 702:1 703:1 704:1 705:1 706:1 707:1 708:1 709:1 710:1 711:1 712:1 713:1 714:1 715:1 716:1 717:1 718:1 #
0.002802540321815031720137367798884 9:1 10:1 11:1 12:1 22:1 23:1 24:1 37:1 57:1 68:1 69:1 70:1 82:1 87:1 109:1 119:1 161:1 171:1 174:1 187:1 193:1 194:1 195:1 196:1 197:1 219:1 239:1 240:1 241:1 242:1 250:1 251:1 270:1 271:1 280:1 327:1 328:1 331:1 332:1 337:1 360:1 383:1 384:1 385:1 412:1 441:1 470:1 517:1 524:1 553:1 556:1 571:1 572:1 573:1 574:1 601:1 603:1 657:1 662:1 715:1 835:1 847:1 888:1 889:2 999:1 1026:1 1056:1 1080:1 1088:1 1099:1 1134:1 1135:1 1136:1 1137:1 1138:1 1139:2 1140:1 1141:1 1142:1 1143:2 1144:1 1145:1 1146:1 1147:1 1148:1 1149:1 1150:1 1151:1 1152:1 1153:1 1154:1 1155:1 1156:1 1157:1 1158:1 1159:1 1160:1 1161:1 1162:1 1163:1 1164:1 1165:1 1166:1 1167:1 1168:1 1169:1 1170:1 1171:2 1172:1 1173:1 1174:1 1175:1 1176:1 1177:1 1178:1 1179:1 1180:1 1181:1 1182:1 1183:1 1184:1 1185:1 1186:1 1187:1 1188:1 1189:1 1190:1 1191:1 1192:1 1193:1 1194:1 1195:1 1196:1 1197:1 1198:1 1199:1 1200:1 1201:1 1202:1 1203:1 1204:1 1205:1 1206:1 1207:1 1208:1 1209:1 1210:1 1211:1 1212:1 1213:1 1214:1 1215:1 1216:1 1217:1 1218:1 1219:1 1220:1 1221:1 1222:1 1223:1 1224:1 1225:1 1226:1 1227:1 1228:1 1229:1 1230:1 1231:1 1232:1 1233:1 1234:1 1235:1 1236:1 1237:1 #
-0.0021200433812199092134531674957998 4:1 9:1 10:1 11:1 12:1 23:1 25:1 36:1 41:1 46:1 47:1 53:1 65:1 75:1 88:1 90:1 150:1 154:1 161:1 171:1 193:1 218:1 244:1 249:1 250:1 288:1 291:2 311:1 315:2 323:1 333:1 338:1 364:1 379:1 382:1 387:1 388:1 396:1 435:1 436:1 447:1 470:1 524:1 570:1 571:1 572:1 574:1 601:1 613:1 655:1 743:2 842:1 847:1 904:1 932:1 994:1 995:1 1005:1 1058:1 1081:1 1170:1 1190:1 1193:1 1249:1 1267:1 1324:1 1325:1 1340:1 1359:1 1362:1 1370:1 1411:1 1452:1 1453:1 1484:1 1498:1 1499:1 1500:1 1744:1 1764:1 1769:1 1770:1 1824:1 1853:1 1861:1 1888:1 1908:1 1931:1 1953:1 2036:1 2111:1 2154:1 2167:1 2192:3 2212:1 2317:1 2329:1 2549:1 2594:1 2651:1 2685:1 2691:1 2705:1 2790:1 2791:1 2837:1 2849:1 2862:1 2880:1 2969:1 2985:1 2992:1 2997:1 3033:1 3055:1 3137:1 3209:1 3289:1 3489:1 3617:1 3634:1 3829:1 3863:1 3888:1 4063:1 4152:1 4209:1 4258:1 4286:1 4451:1 4704:1 4731:1 4746:1 4791:1 5099:1 5146:1 5250:1 5345:1 5622:1 5888:1 6166:1 6203:1 6325:1 6804:1 6852:1 #
-0.0025686311364483127572810872152331 6:1 7:1 24:1 39:1 40:1 41:2 67:1 74:1 80:1 116:1 127:1 152:1 155:1 171:1 198:1 209:1 257:1 267:1 274:1 310:1 378:1 383:1 409:1 416:1 432:1 436:1 478:1 479:1 488:1 517:1 532:1 572:1 591:1 618:1 635:1 640:1 643:1 655:1 658:1 698:1 768:1 789:1 792:1 798:1 854:1 866:1 872:1 888:2 923:1 924:1 932:1 935:1 978:1 1000:1 1010:1 1034:1 1078:1 1091:1 1092:1 1099:1 1135:1 1173:1 1174:1 1263:1 1309:1 1319:1 1380:1 1412:1 1421:1 1425:1 1428:1 1447:1 1468:1 1483:1 1514:1 1519:1 1569:1 1573:1 1574:1 1727:1 1733:1 1879:1 1935:1 1949:1 1961:1 1984:1 2013:1 2029:1 2065:1 2139:1 2154:1 2255:1 2423:1 2437:1 2501:1 2522:1 2531:1 2563:1 2564:1 2577:1 2674:1 2785:1 2801:1 2830:1 2977:1 3045:1 3095:1 3115:1 3223:1 3261:1 3299:1 3482:1 3489:1 3654:1 3696:1 3736:1 3775:1 3786:1 3904:1 3942:1 4127:1 4139:1 4145:1 4164:1 4181:1 4201:1 4283:1 4299:1 4330:1 4427:1 4456:1 4504:1 4549:1 4587:1 4672:1 4726:1 5110:1 5129:1 5233:1 5261:1 5392:1 5618:1 5770:1 5788:1 5817:1 6046:1 6060:1 6249:1 6478:1 6484:1 6640:1 6688:1 6713:1 6736:1 6836:1 6931:1 7062:1 7160:1 #
-0.00088767226715040785552102153843634 4:1 9:1 10:1 11:1 12:1 53:1 58:1 68:1 69:1 74:1 87:1 88:1 114:1 117:1 124:1 156:1 177:1 193:1 201:1 208:1 215:1 246:1 291:1 293:1 308:1 323:1 328:1 335:1 338:1 339:1 371:1 373:1 383:1 384:1 385:1 406:1 408:1 436:1 466:1 467:1 504:1 515:1 517:1 571:2 572:1 575:1 591:1 612:1 623:1 648:1 649:1 658:1 672:1 746:1 755:1 766:1 847:1 910:1 991:1 1018:1 1051:2 1082:1 1119:1 1147:1 1289:1 1305:1 1340:1 1352:1 1400:1 1452:1 1462:1 1536:1 1559:1 1560:1 1626:1 1709:1 1765:1 1796:1 1836:1 1872:1 1913:1 1941:1 1963:1 1989:1 1991:1 2021:1 2031:1 2083:1 2089:1 2101:1 2124:1 2125:1 2287:1 2311:1 2312:1 2320:1 2348:1 2444:1 2450:1 2458:1 2483:1 2511:1 2535:1 2549:1 2639:1 2655:1 2692:1 2757:1 2761:1 2863:2 2864:1 2975:1 3031:1 3039:1 3098:1 3100:1 3112:1 3146:1 3344:1 3465:1 3595:2 3645:1 3655:1 3666:1 3769:1 3812:1 3813:1 3814:1 3836:1 3845:1 3873:1 3928:1 3949:1 3950:1 3993:1 4033:1 4113:1 4135:1 4145:1 4256:1 4257:1 4267:1 4279:1 4283:1 4335:1 4336:1 4406:1 4450:1 4485:1 4717:1 4751:1 4800:1 4810:1 4848:1 4851:1 5418:1 5622:1 5798:1 5829:1 5837:1 5838:1 5888:1 5930:1 5974:1 6336:1 6380:1 6478:1 6602:1 6653:1 6693:1 6948:1 7384:1 7481:1 #
-0.00059960382655139773163538441380638 3:1 4:2 43:1 44:1 56:1 73:1 75:1 96:1 119:1 141:1 148:1 150:1 182:1 196:1 238:1 243:1 250:1 253:1 310:1 311:1 340:1 341:1 371:1 373:1 374:1 388:1 414:1 415:1 458:1 468:1 471:2 522:1 555:1 571:1 592:1 607:1 620:1 621:1 689:1 693:2 694:1 708:1 709:1 733:1 734:1 739:1 747:1 825:1 829:1 840:1 862:1 895:1 907:1 951:1 982:1 1015:1 1016:1 1032:1 1043:1 1044:1 1050:1 1055:1 1162:1 1170:2 1171:1 1209:2 1282:1 1357:1 1365:1 1370:1 1386:1 1411:1 1421:1 1422:1 1457:1 1458:2 1459:1 1525:1 1559:1 1572:1 1579:1 1599:1 1601:1 1602:1 1603:2 1635:1 1672:1 1673:1 1675:1 1715:1 1831:1 1832:1 1844:1 1922:1 2036:1 2083:1 2088:1 2121:1 2166:1 2194:1 2200:1 2209:1 2371:1 2471:1 2478:1 2542:1 2597:1 2633:1 2639:1 2695:1 2735:1 2834:1 2928:1 2987:1 3016:1 3091:1 3212:1 3238:1 3356:1 3410:1 3439:1 3589:1 3595:1 3606:1 3733:1 3786:1 3810:1 3822:1 3852:1 4016:1 4108:1 4112:1 4137:1 4145:1 4170:1 4185:1 4254:1 4395:1 4444:1 4457:1 4567:1 4668:1 4718:1 4751:1 4809:1 4827:1 5000:1 5046:1 5203:1 5245:1 5626:1 5697:1 5829:1 5846:1 5850:1 6080:1 6112:1 6163:1 6230:1 6246:1 6294:1 6329:1 6464:1 6624:1 6824:1 #
-0.0019482145591589454698688843592436 5:1 71:1 119:1 125:1 127:1 150:1 166:1 192:1 199:1 245:1 264:1 272:1 327:1 328:1 340:1 373:1 411:1 424:1 428:1 429:1 435:1 436:2 479:1 492:1 500:1 572:1 574:1 575:1 605:1 621:1 643:1 658:1 667:1 668:1 681:1 692:1 693:1 706:1 732:1 767:1 792:1 838:1 897:1 916:1 997:1 1083:1 1121:1 1122:1 1171:1 1172:1 1173:1 1195:1 1237:1 1254:1 1340:1 1352:1 1421:1 1425:1 1447:1 1448:1 1483:1 1504:1 1516:1 1526:1 1538:1 1540:1 1569:1 1574:1 1577:1 1615:1 1616:2 1632:1 1643:1 1697:1 1724:1 1759:1 1779:1 1789:1 1903:1 1937:1 1958:1 2020:1 2056:1 2105:1 2108:1 2121:1 2139:1 2153:1 2217:1 2224:1 2264:1 2265:1 2271:1 2302:1 2309:1 2338:1 2377:1 2385:2 2404:1 2423:1 2444:1 2518:1 2519:1 2522:1 2595:1 2607:1 2625:1 2648:1 2656:1 2674:1 2769:1 2887:1 2907:1 2962:1 2984:1 3000:1 3018:1 3096:1 3108:1 3187:1 3218:1 3237:1 3352:1 3407:1 3410:1 3437:1 3534:1 3544:1 3628:1 3633:1 3634:1 3684:1 3696:1 3699:2 3769:1 3803:1 3839:1 3924:1 4037:1 4112:1 4142:1 4191:1 4267:1 4283:1 4431:1 4495:1 4512:1 4551:1 4622:1 4680:1 4806:1 4851:1 4859:1 4887:1 4915:1 4945:1 4955:1 5160:1 5177:1 5181:1 5216:1 5261:1 5446:1 5457:1 5500:1 5508:1 5554:1 5817:1 5828:1 6300:1 6315:1 6607:1 6772:1 6925:1 6931:1 7016:1 7062:1 7101:1 #
0.004398223708043443903881186685112 9:1 10:1 24:1 31:1 34:1 64:1 69:1 73:1 76:1 82:1 87:1 88:1 89:1 90:1 127:1 140:1 172:1 173:2 176:1 183:1 193:1 194:1 217:1 218:1 219:1 237:1 238:1 239:1 240:1 241:1 242:1 243:1 244:1 250:1 251:1 252:1 260:1 261:1 262:1 273:1 274:1 283:1 322:1 323:1 327:1 348:1 364:1 383:1 384:1 385:1 416:1 451:1 478:1 479:1 495:1 498:1 532:1 538:1 539:1 560:1 574:2 575:1 583:1 600:1 612:1 649:1 666:1 888:1 910:1 917:1 928:1 962:1 1001:1 1052:1 1195:1 1227:1 1305:1 1346:1 1379:1 1440:1 1468:1 1552:1 1597:1 1632:1 1652:1 1709:1 1710:1 1728:1 1742:1 1759:1 1831:2 1874:1 1891:1 1899:1 1900:1 1904:1 1919:1 1928:1 1943:1 2006:1 2022:1 2111:1 2126:1 2264:1 2287:1 2364:1 2415:1 2541:1 2559:1 2585:1 2595:1 2596:1 2601:1 2602:1 2616:1 2617:1 2620:1 2622:1 2807:1 2815:1 3034:1 3101:1 3107:1 3149:1 3186:1 3187:1 3188:1 3189:1 3190:1 3191:1 3192:1 3193:1 3194:1 3195:1 3196:1 3197:1 3198:1 3199:1 3200:1 3201:1 3202:1 3203:1 3204:1 3205:1 3206:1 3207:1 3208:1 3209:1 3210:1 #
0.0052498537036791423707193793291026 9:1 10:1 32:1 33:1 37:1 41:1 42:1 51:1 52:1 53:1 65:1 73:1 87:1 88:1 89:1 90:1 91:1 101:2 102:1 147:1 172:1 173:1 197:1 237:1 317:1 332:1 336:1 361:1 389:1 400:1 411:1 434:2 435:1 436:1 496:1 497:1 514:1 517:1 559:1 574:1 575:1 614:1 620:1 639:1 655:1 668:1 691:1 692:1 693:1 694:1 735:1 835:1 836:1 847:1 884:1 895:1 915:1 917:1 921:1 934:1 937:1 940:1 950:1 991:1 1001:1 1056:1 1077:1 1079:1 1085:1 1087:1 1171:1 1191:1 1232:1 1255:1 1256:1 1291:1 1323:2 1324:1 1339:1 1366:1 1378:1 1379:1 1380:1 1389:1 1401:1 1420:1 1449:1 1475:1 1495:1 1496:1 1526:1 1547:1 1559:1 1576:1 1599:1 1818:1 1866:1 1876:1 1907:1 1998:1 2006:1 2007:1 2025:1 2045:1 2047:1 2117:1 2120:1 2122:1 2126:1 2158:1 2159:1 2160:1 2244:1 2289:1 2295:1 2318:1 2363:1 2386:1 2405:1 2540:1 2541:2 2542:1 2543:1 2544:1 2545:1 2546:1 2547:1 2548:1 2549:1 2550:1 2551:1 2552:1 2553:1 2554:1 2555:1 2556:1 2557:1 2558:1 2559:1 2560:1 2561:1 2562:1 2563:1 2564:1 2565:1 2566:1 2567:1 2568:1 2569:1 2570:1 2571:1 2572:1 2573:1 2574:1 2575:1 2576:1 2577:1 2578:1 2579:1 #
0.0044688935816282852886427434668803 9:1 10:1 16:1 24:1 29:1 33:1 34:1 35:1 49:1 65:1 69:1 70:1 71:1 74:1 76:1 87:1 88:1 140:1 172:1 173:1 174:1 175:1 176:1 177:1 183:1 198:1 199:1 200:1 201:1 206:1 218:1 219:1 239:1 240:1 241:1 242:1 245:1 250:1 251:1 280:1 281:1 283:1 291:1 319:1 320:1 321:1 323:1 329:1 348:1 349:1 360:1 370:1 371:1 372:1 517:1 535:1 564:1 565:1 571:1 572:1 573:1 587:1 588:1 600:1 715:1 774:1 804:1 830:1 883:1 895:1 917:1 926:1 936:1 940:1 949:1 1001:1 1026:1 1095:1 1196:1 1215:1 1217:1 1218:1 1227:1 1308:1 1396:1 1423:1 1477:1 1486:1 1500:1 1508:1 1518:1 1562:1 1603:1 1604:1 1605:1 1609:1 1622:1 1623:1 1728:1 1752:1 1756:1 1757:1 1759:1 1779:1 1787:1 1793:1 1803:1 1813:1 1815:1 1891:1 1900:1 1997:1 2003:1 2025:1 2042:1 2163:1 2175:1 2244:1 2256:1 2260:1 2262:1 2263:1 2273:1 2289:1 2304:1 2359:1 2376:1 2396:1 2398:1 2511:1 2550:1 2582:1 2801:1 2806:1 2807:1 2839:1 3268:1 3361:1 3365:1 3366:1 3367:1 3368:1 3369:1 3370:1 3371:1 3372:1 3373:1 3374:1 3375:1 3376:1 #
0.0038534285907164352903697679408879 9:1 10:1 33:1 49:1 65:1 69:1 70:1 76:1 87:1 88:1 168:1 176:1 177:1 183:1 198:1 200:1 201:1 214:1 216:1 218:1 219:1 230:1 239:1 240:1 241:1 242:1 245:1 258:1 261:1 262:1 263:1 281:1 283:1 291:1 301:1 303:1 321:1 323:1 338:1 339:1 340:1 347:1 348:1 349:1 358:1 370:1 371:1 375:1 401:1 431:1 432:1 470:1 495:1 496:1 535:1 564:1 571:1 572:1 573:1 594:1 600:1 622:1 623:1 626:1 658:1 694:1 746:1 802:1 803:1 804:1 841:1 843:1 917:1 922:1 923:1 934:1 935:1 949:1 1001:1 1024:1 1026:1 1038:1 1076:1 1079:1 1116:1 1224:1 1305:1 1308:1 1396:1 1417:1 1484:1 1486:1 1500:1 1509:1 1510:1 1514:1 1515:1 1518:1 1576:1 1605:1 1622:1 1623:1 1628:1 1677:1 1720:1 1746:1 1751:1 1752:1 1756:1 1757:1 1759:1 1775:1 1779:1 1874:1 1875:1 1900:1 1902:1 1934:1 1935:1 1952:1 1997:1 2074:1 2256:1 2257:1 2258:1 2259:1 2260:1 2261:1 2262:1 2263:1 2266:1 2267:1 2271:1 2272:1 2273:1 2275:1 2578:1 2586:1 2587:1 2588:1 2789:1 2808:1 2885:1 3083:1 3212:1 3213:1 3214:1 3215:1 3216:1 3217:1 #
0.0036453391574079990061774125820193 7:1 9:1 10:1 11:1 12:1 18:1 22:1 23:1 33:1 34:1 35:1 41:1 73:1 87:1 88:1 89:1 90:2 123:1 174:1 175:1 191:1 198:1 201:2 214:1 238:2 239:1 245:1 249:1 250:1 251:1 261:1 262:1 274:1 290:1 301:1 323:1 340:1 361:1 370:1 374:1 375:1 378:1 379:1 413:1 414:1 415:1 496:1 504:1 517:1 518:1 533:1 535:1 538:1 539:1 542:1 543:1 560:1 571:1 587:1 588:1 594:1 600:1 601:1 647:1 653:1 693:1 732:1 750:1 788:1 790:1 802:1 829:1 830:1 843:1 864:1 910:1 922:1 923:1 925:1 931:1 949:1 1026:1 1076:1 1078:1 1116:1 1156:1 1193:1 1197:1 1205:1 1355:1 1468:1 1472:1 1473:1 1474:1 1475:1 1477:1 1479:1 1482:1 1483:1 1486:1 1487:1 1488:1 1489:1 1490:1 1491:1 1492:1 1493:1 1494:1 1501:1 1502:1 1503:1 1506:1 1507:1 1508:1 1509:1 1510:1 1513:1 1514:1 1515:1 1680:1 1779:1 1788:1 1817:1 1824:1 1825:1 1826:1 1829:1 1913:1 1928:1 1929:1 1942:1 1943:1 1944:1 1959:1 1960:1 1961:1 2165:1 2529:1 2793:1 2794:1 3072:1 3398:1 3439:1 3440:1 3441:1 3442:1 3443:1 #
-0.0012733195245447173106490001970315 9:1 10:1 13:1 17:1 23:1 29:1 31:1 35:1 36:1 45:1 57:1 58:1 69:1 70:1 87:1 90:1 102:1 108:1 109:1 115:1 116:1 124:1 133:1 172:2 203:1 219:2 220:1 238:1 242:1 245:1 249:1 336:1 361:1 364:1 388:1 389:1 396:1 411:2 439:1 496:1 551:1 555:1 560:1 561:1 573:1 613:1 680:1 691:1 703:1 731:1 742:1 783:1 829:1 830:1 838:1 933:1 984:1 987:1 1040:1 1052:1 1057:1 1079:1 1095:1 1138:1 1150:1 1157:1 1171:1 1217:1 1221:1 1248:1 1255:1 1302:1 1309:1 1322:1 1325:1 1329:1 1330:1 1337:1 1366:1 1379:1 1419:1 1420:1 1449:1 1452:1 1475:1 1560:1 1563:1 1580:1 1600:1 1604:1 1652:1 1691:1 1703:1 1776:1 1805:1 1806:1 1814:1 1815:1 1859:1 1946:1 1975:1 2047:1 2093:1 2104:1 2122:1 2133:1 2139:1 2171:1 2211:1 2315:1 2325:1 2359:1 2384:1 2394:1 2419:1 2467:1 2493:1 2552:1 2564:1 2579:1 2582:1 2594:1 2597:1 2676:1 2748:1 2781:1 2811:1 2853:1 2939:1 2968:1 3034:1 3040:1 3054:1 3070:1 3105:1 3132:1 3143:1 3149:1 3184:1 3187:1 3192:1 3208:1 3225:1 3247:1 3252:1 3278:1 3286:1 3291:1 3313:1 3426:1 3498:1 3509:1 3561:1 3587:1 3588:1 3616:1 3626:1 3640:1 3668:1 3670:1 3828:1 3855:1 3900:1 3904:1 3905:1 3925:1 3927:1 3933:1 3946:1 3983:1 4078:1 4100:1 4106:1 4130:1 4131:1 4164:1 4382:1 4391:1 4412:1 4447:1 4464:1 4470:1 4475:1 4520:1 4636:1 4733:1 4896:1 4931:1 4937:1 4953:1 4957:1 5090:1 5122:1 5167:1 5247:1 5346:1 5359:1 5396:1 5487:1 5608:1 5663:1 5781:1 5855:1 5888:1 6024:1 6055:1 6157:1 6211:1 6293:1 6324:1 6378:1 6436:1 6531:1 6565:1 6573:1 7588:1 7627:1 7644:1 #
-0.00012361191507837665905580881720027 8:1 9:1 10:1 36:1 48:1 69:1 70:1 101:1 111:1 115:1 116:1 155:1 161:1 172:1 184:1 197:1 236:1 244:1 263:1 281:1 290:1 318:1 323:1 370:1 380:1 384:1 385:1 386:1 395:1 429:1 430:2 431:1 453:1 494:1 519:1 534:1 536:1 594:1 600:1 621:1 623:1 631:1 633:1 649:1 675:1 712:1 728:1 755:1 779:1 783:1 795:1 804:1 870:1 926:1 929:1 937:1 976:1 985:1 1032:1 1076:1 1103:1 1113:1 1120:1 1170:1 1200:1 1209:1 1224:1 1254:1 1269:1 1333:1 1339:1 1340:2 1342:1 1349:1 1371:1 1389:1 1398:1 1427:1 1465:1 1476:1 1483:1 1488:1 1500:1 1537:1 1585:1 1599:1 1615:1 1632:1 1633:1 1673:1 1674:1 1711:1 1735:1 1778:1 1795:1 1809:1 1815:1 1826:1 1850:1 1866:1 1870:1 1961:1 1996:1 2050:1 2112:1 2123:1 2174:1 2199:1 2256:1 2257:1 2300:1 2353:1 2358:1 2370:1 2380:1 2405:1 2449:1 2489:1 2550:1 2582:1 2601:1 2676:1 2708:1 2713:1 2789:1 2837:1 2883:1 2905:1 3017:1 3023:1 3101:1 3135:1 3200:1 3402:1 3433:1 3471:1 3499:1 3500:2 3524:1 3558:1 3597:1 3602:1 3625:1 3626:1 3664:1 3698:1 3701:1 3703:1 3710:1 3714:1 3718:1 3739:1 3740:1 3765:1 3797:1 3802:1 3807:1 3823:1 3868:1 3903:1 3929:1 4021:1 4099:1 4106:1 4114:1 4124:1 4187:1 4189:1 4203:1 4259:1 4305:1 4306:1 4591:1 4643:1 4661:1 4676:1 4680:1 4681:1 4748:1 4821:1 4822:1 4861:1 4948:1 5147:1 5216:1 5243:1 5252:1 5329:1 5518:1 5573:1 5618:1 6312:1 6313:1 6764:1 6765:1 #
-0.00099585958102646780429334505413408 9:1 10:1 34:1 35:1 36:1 63:1 69:1 76:1 88:1 89:1 90:2 91:1 115:1 124:1 138:1 160:1 172:2 173:1 174:1 238:1 245:1 258:2 265:1 304:1 323:1 332:1 360:1 384:1 385:1 411:1 420:1 424:1 425:1 438:1 478:1 505:1 532:1 573:1 605:1 606:1 618:1 619:1 645:1 659:1 686:1 691:1 698:1 711:1 728:1 762:1 827:1 829:2 830:1 831:1 845:1 892:1 933:1 935:1 971:1 990:1 998:1 1014:1 1100:1 1173:1 1178:1 1222:1 1301:1 1355:1 1380:1 1421:1 1424:1 1477:1 1534:1 1548:1 1549:1 1553:1 1596:1 1615:1 1691:1 1700:1 1727:1 1732:1 1742:1 1761:1 1779:1 1801:1 1809:1 1815:1 1870:1 1871:1 1899:1 1985:1 2050:1 2075:1 2094:1 2169:1 2194:1 2203:1 2276:1 2337:1 2363:1 2435:1 2479:1 2508:1 2515:1 2538:1 2553:1 2557:1 2575:1 2579:1 2605:1 2609:1 2656:1 2664:1 2702:1 2713:1 2714:1 2732:1 2820:1 2828:1 2837:1 2894:1 2897:1 2905:1 2924:1 2937:1 2948:1 2951:1 2959:1 3001:1 3090:1 3180:1 3211:1 3288:1 3454:1 3625:1 3626:1 3628:1 3629:1 3631:1 3658:1 3677:1 3702:1 3703:1 3710:1 3770:1 3771:1 3802:1 3842:1 3853:1 3868:1 3871:1 3884:1 3885:1 3886:1 3971:1 3972:1 3982:1 3990:1 4090:1 4100:1 4177:1 4189:1 4239:1 4284:1 4417:1 4439:1 4530:1 4536:1 4682:1 4718:1 4812:1 4904:1 4909:1 4979:1 5093:1 5172:1 5261:1 5299:1 5493:1 5533:1 5554:1 5579:1 5625:1 5686:1 5711:1 5764:1 5789:1 5834:1 5865:1 5975:1 5992:1 6033:1 6055:1 6106:1 6136:1 6296:1 6300:1 6329:1 6330:1 6331:2 6332:1 6333:1 6334:1 6335:1 6336:1 6337:1 #
-0.0025050199611557594052413389107414 9:2 10:1 23:1 29:1 84:1 85:1 86:1 87:1 88:1 90:1 91:1 139:1 177:1 187:1 193:1 203:1 206:1 218:1 219:1 249:1 258:1 280:1 283:1 290:1 308:1 318:1 323:1 338:1 347:1 361:1 387:1 430:1 431:1 477:1 478:1 498:1 504:1 515:1 517:1 552:1 553:1 554:1 575:1 589:1 598:1 603:1 611:1 647:1 658:1 667:1 668:1 689:1 691:1 731:2 732:1 763:1 823:1 872:1 909:1 935:1 937:1 964:1 1032:1 1078:1 1079:1 1169:1 1305:1 1323:1 1341:1 1345:1 1346:1 1347:1 1356:1 1379:1 1390:1 1410:1 1411:1 1609:1 1616:1 1672:1 1692:1 1709:1 1740:1 1776:1 1913:1 1931:1 1951:1 1952:1 1953:1 1996:1 2032:1 2083:1 2101:1 2254:1 2257:1 2258:1 2311:1 2385:1 2405:1 2604:1 2625:1 2659:1 2706:1 2715:1 2737:1 2754:1 2804:2 2849:1 2855:1 2868:1 2873:2 2881:1 2886:1 3027:1 3098:1 3112:1 3146:1 3238:1 3269:1 3376:1 3398:1 3426:1 3427:1 3515:1 3583:1 3597:1 3609:1 3639:1 3735:1 3821:1 3835:1 4301:1 4330:1 4485:1 4789:1 4800:1 4827:1 4831:1 4889:1 4948:2 5084:1 5085:1 5090:1 5316:1 5330:1 5382:1 5539:1 5573:1 5576:1 5577:1 5748:1 6399:1 6519:1 6619:1 6620:1 7446:1 #
-0.00089954907217892118159729974991023 6:1 8:1 9:1 10:1 26:1 33:1 34:1 36:1 53:1 59:1 69:1 70:2 89:1 90:2 91:1 101:1 103:1 111:1 146:1 172:1 184:1 236:1 257:1 258:1 263:1 281:1 290:1 318:1 321:2 323:1 384:1 385:1 412:1 469:1 476:1 494:1 516:1 534:1 556:1 557:1 564:1 575:1 593:1 594:2 611:1 623:1 638:1 649:1 706:1 747:1 748:1 762:1 777:1 779:1 796:1 802:1 803:1 804:2 845:1 858:1 933:1 937:1 970:1 973:1 987:1 1010:1 1026:1 1039:1 1055:1 1162:1 1181:1 1188:1 1189:1 1214:1 1254:1 1335:1 1336:1 1347:1 1348:1 1350:1 1357:1 1410:1 1416:1 1420:1 1423:1 1436:1 1476:1 1479:1 1496:1 1500:1 1516:1 1615:1 1627:1 1691:1 1706:1 1727:1 1735:1 1809:1 1815:1 1844:1 1936:1 1959:1 1984:1 2036:1 2043:1 2081:1 2094:1 2123:1 2159:1 2164:1 2166:1 2167:1 2168:1 2202:1 2257:1 2269:1 2370:1 2392:1 2400:1 2470:1 2490:1 2587:1 2589:1 2635:1 2677:1 2723:1 2786:1 2837:1 2918:1 3023:1 3070:1 3106:1 3114:1 3149:1 3183:1 3188:1 3203:1 3235:1 3240:1 3244:1 3320:1 3433:1 3471:1 3475:1 3499:1 3500:2 3501:1 3502:1 3517:1 3524:1 3549:1 3624:1 3628:1 3635:1 3640:1 3685:1 3731:1 3774:1 3776:1 3777:1 3778:1 3807:1 3826:1 3834:1 3839:1 3840:1 3897:1 3978:1 3990:1 4072:1 4114:1 4115:1 4444:1 4532:1 4725:1 4756:1 4790:1 4792:1 4794:1 4863:1 4864:1 4929:1 5081:1 5251:1 5413:1 5884:1 6544:1 6808:1 #
0.0045720882500576301779582344408936 5:1 9:1 15:1 32:1 33:1 37:1 38:1 39:2 40:1 41:1 42:1 43:1 44:1 45:1 60:1 64:1 65:1 69:1 73:1 74:1 90:1 117:1 118:1 119:1 136:1 137:1 145:1 169:1 171:1 196:1 197:1 204:1 250:2 301:1 340:1 380:1 403:1 411:1 466:1 470:1 471:1 492:1 493:1 494:1 505:1 508:1 523:1 608:1 612:1 627:1 632:1 655:1 668:1 693:1 698:1 702:1 756:1 780:1 824:1 828:1 889:1 908:1 921:1 930:1 932:1 956:1 973:1 974:1 988:1 1132:1 1183:1 1226:1 1286:1 1323:1 1324:1 1346:1 1353:1 1361:1 1371:1 1373:1 1378:1 1379:1 1387:1 1395:1 1423:1 1494:1 1586:1 1621:1 1660:1 1661:1 1709:1 1710:1 1723:1 1724:1 1728:1 1759:1 1789:1 1836:1 1849:1 1885:1 1897:1 1955:1 1980:1 2017:1 2018:1 2019:1 2031:1 2032:1 2033:1 2044:1 2047:1 2105:1 2106:1 2116:1 2120:1 2129:1 2130:1 2134:1 2142:1 2143:1 2165:1 2166:1 2195:1 2211:1 2225:1 2330:1 2354:2 2400:1 2415:1 2434:1 2517:1 2518:1 2519:1 2520:1 2521:1 2522:1 2523:1 2524:1 2525:1 2526:1 2527:1 2528:1 2529:1 2530:1 2531:1 2532:1 2533:1 2534:1 2535:1 2536:1 2537:1 2538:1 2539:1 #
0.0047585009536975451244211754442404 5:1 18:1 29:1 30:1 33:1 36:1 37:1 38:1 42:1 43:1 44:1 48:2 49:1 50:1 51:1 52:1 53:1 68:1 69:1 88:1 89:1 90:1 94:1 142:1 143:1 144:1 145:1 146:1 150:1 152:1 156:1 167:1 168:1 209:1 238:1 249:1 252:1 274:1 291:1 301:1 371:1 390:1 409:1 422:1 436:2 468:1 469:1 488:1 524:1 551:1 561:1 563:1 575:1 585:1 602:2 605:1 612:1 623:1 631:1 635:1 639:1 648:1 649:1 658:1 706:1 750:1 751:1 757:1 765:1 837:1 838:1 841:1 847:1 882:1 888:1 924:1 933:1 949:1 976:1 977:1 978:1 979:1 980:1 981:1 990:1 1026:1 1224:1 1236:1 1366:1 1370:1 1420:1 1445:1 1457:1 1499:1 1500:1 1535:1 1536:1 1561:2 1562:1 1577:1 1709:1 1710:1 1776:1 1856:1 1857:1 1935:1 1946:1 1952:1 2011:1 2089:1 2099:1 2143:1 2200:1 2287:1 2385:1 2426:1 2451:1 2476:1 2491:1 2518:1 2545:1 2872:1 2893:1 2938:1 2939:1 2983:1 3093:1 3134:1 3143:1 3151:1 3218:1 3219:1 3220:1 3221:1 3222:1 3223:1 3224:1 3225:1 3226:1 3227:1 3228:1 3229:1 3230:1 3231:1 3232:1 3233:1 3234:1 3235:1 3236:1 #
0.0025986293242706748514436743136002 5:1 9:1 10:1 15:1 24:1 37:1 39:1 41:1 42:1 51:1 52:1 53:1 65:1 74:1 85:1 101:1 117:1 118:1 119:1 136:1 137:1 145:1 146:1 155:1 169:1 171:1 172:1 173:2 196:1 197:1 264:1 265:1 371:1 434:1 435:1 436:1 456:1 470:1 471:1 478:1 479:1 492:1 493:1 494:1 513:1 514:1 515:1 518:1 548:1 551:1 572:1 575:1 591:1 612:1 613:1 693:1 702:1 756:1 780:1 824:1 828:1 835:1 836:1 909:1 917:1 921:1 929:1 973:1 974:1 1039:1 1072:1 1118:1 1132:1 1174:1 1188:1 1219:1 1229:1 1255:1 1272:1 1286:1 1309:1 1317:1 1345:1 1353:1 1361:1 1388:1 1395:1 1410:1 1423:1 1516:1 1552:1 1557:1 1586:1 1620:1 1706:1 1707:1 1708:1 1709:1 1710:1 1716:1 1757:1 1764:1 1849:1 1882:1 1902:1 1915:1 1952:2 1955:1 2007:1 2011:1 2014:1 2015:1 2016:1 2017:1 2018:1 2019:1 2022:1 2023:1 2024:1 2025:1 2026:1 2032:1 2033:1 2034:1 2036:1 2037:1 2038:1 2119:1 2120:1 2174:1 2175:1 2176:1 2177:1 2178:1 2179:1 2180:1 2181:1 2182:1 2183:1 2184:1 2185:1 2186:1 2187:1 2188:1 2189:1 2190:1 2191:1 2192:1 2193:1 2194:1 2195:1 2196:1 2197:1 2198:1 2199:1 #
-0.0028975190203572405087117935806873 2:1 5:1 7:1 18:1 27:3 37:1 41:1 64:1 69:2 70:1 77:1 87:1 90:1 97:2 118:1 147:1 152:1 189:1 196:1 238:1 263:1 273:1 274:1 348:1 364:1 369:1 387:1 477:1 496:1 515:1 612:1 624:1 638:1 647:1 652:1 681:1 694:1 760:1 761:1 764:1 794:1 825:1 829:1 830:1 831:1 839:1 863:1 915:1 1015:1 1016:1 1018:1 1021:1 1026:1 1040:1 1054:1 1055:1 1083:1 1098:1 1104:1 1111:1 1140:1 1186:1 1209:1 1229:1 1230:1 1231:1 1265:1 1346:1 1363:1 1390:1 1394:1 1434:1 1435:1 1471:1 1502:1 1519:1 1531:1 1533:1 1572:1 1597:1 1649:1 1651:1 1701:1 1704:2 1759:1 1779:1 1783:1 1888:1 1896:1 1946:1 1955:1 1962:1 2143:1 2219:1 2223:1 2254:1 2306:1 2330:1 2347:1 2358:1 2478:1 2549:1 2588:1 2636:1 2658:1 2672:1 2690:1 2692:1 2708:1 2830:1 2832:1 2939:1 2984:1 3054:1 3114:1 3128:1 3129:1 3287:1 3411:1 3651:1 3765:1 3878:1 3995:1 4380:1 4429:1 4583:1 4731:1 4800:1 5002:1 5146:1 5221:1 5265:1 5415:1 5434:1 5540:1 5662:1 5682:1 6012:1 6381:1 6754:1 6756:1 #
-0.0031213355386657021424412494781109 3:1 4:1 5:1 6:1 7:1 8:1 9:1 10:1 14:1 15:1 18:1 43:1 44:1 66:1 68:1 69:2 73:1 90:1 91:1 146:1 312:1 313:1 343:1 352:1 357:1 362:1 377:1 401:1 415:1 458:1 493:1 495:1 501:1 502:1 541:1 562:1 563:1 564:1 599:1 614:1 635:1 652:1 653:1 691:1 692:1 693:1 694:1 756:1 768:1 802:2 834:1 882:1 897:1 910:1 929:1 987:1 996:1 1068:1 1070:1 1079:1 1083:1 1084:1 1178:1 1209:1 1213:1 1219:1 1245:1 1246:1 1377:1 1378:1 1434:1 1472:1 1481:1 1496:1 1516:1 1517:1 1518:1 1548:1 1557:1 1559:1 1578:2 1599:2 1656:1 1680:1 1701:1 1731:1 1732:1 1759:1 1795:1 1859:1 1878:1 1928:1 1929:1 1960:1 1997:1 2026:1 2032:1 2041:1 2045:1 2052:1 2072:1 2169:1 2175:1 2213:1 2300:1 2318:1 2327:1 2338:1 2347:1 2451:1 2503:1 2525:1 2593:1 2631:1 2639:1 2657:1 2665:1 2703:1 2731:1 2775:1 2905:1 2919:2 2935:1 2976:1 3063:1 3125:1 3182:1 3252:1 3309:1 3378:1 3438:1 3570:1 3646:1 3649:2 3825:1 3893:1 4026:1 4171:1 4175:1 4182:1 4349:1 4436:1 4457:1 4622:1 4769:1 4876:1 4892:1 5179:1 5213:1 5232:1 5585:1 5618:1 5728:1 5798:1 5854:1 6239:1 6450:1 6603:1 6617:1 6765:1 6766:1 #
-0.0018359898523411832035184820810514 5:1 9:1 10:1 16:1 24:1 33:1 34:1 58:1 59:1 68:2 69:1 73:1 78:1 89:1 90:1 107:1 121:1 149:1 221:1 238:1 249:1 250:1 253:1 255:1 266:1 300:1 313:1 351:1 352:1 355:1 379:1 380:1 414:1 436:1 458:1 495:1 517:1 535:1 575:1 599:1 612:1 622:1 633:1 653:1 686:1 709:1 718:1 746:1 747:1 754:1 800:1 801:1 812:1 863:1 864:1 866:1 882:1 922:1 923:1 927:1 933:1 941:1 947:1 1077:1 1116:1 1158:1 1162:1 1203:1 1204:1 1219:1 1232:1 1258:1 1265:1 1331:1 1337:1 1387:1 1421:1 1432:1 1440:1 1471:1 1497:1 1501:1 1512:1 1518:1 1535:1 1549:1 1632:1 1705:1 1709:1 1710:1 1767:1 1775:1 1779:1 1809:1 1810:1 1834:1 1844:1 1865:1 1878:1 1953:1 2026:1 2031:1 2032:1 2064:1 2131:1 2150:1 2166:1 2189:1 2219:1 2275:1 2312:1 2318:1 2334:1 2354:1 2421:1 2422:1 2438:1 2472:1 2496:1 2515:1 2648:1 2649:1 2658:1 2663:1 2695:1 2775:1 2813:1 2866:1 2911:1 2919:1 3092:1 3198:1 3209:1 3258:1 3259:1 3461:1 3463:1 3634:1 3725:1 3743:1 3901:1 3922:1 3990:1 4143:1 4171:1 4256:1 4287:1 4451:1 4467:1 4985:1 5027:1 5107:1 5114:1 5180:1 5258:1 5440:1 5640:1 5711:1 5713:1 5728:1 5734:1 5874:1 5986:1 6069:1 6180:1 6357:1 6388:1 7747:1 7748:1 #
-0.0012710539177985700695638904278439 8:1 9:1 10:1 48:1 65:1 73:1 90:2 91:1 119:1 149:1 169:1 172:1 249:1 258:1 264:1 265:1 351:1 352:1 353:1 354:1 373:1 377:1 383:1 414:1 415:2 471:1 489:1 520:1 521:1 533:1 552:1 559:1 571:1 599:1 612:1 619:1 628:1 689:1 693:1 708:1 709:1 730:1 733:1 734:1 740:1 744:1 857:1 889:1 915:1 917:2 922:2 923:1 929:1 934:1 947:1 963:1 985:1 993:1 997:1 1050:1 1056:1 1082:1 1094:1 1128:1 1129:1 1148:1 1154:1 1229:1 1235:1 1247:1 1258:1 1263:1 1314:1 1346:1 1347:1 1380:1 1396:1 1421:1 1422:1 1440:1 1458:1 1559:1 1596:1 1599:1 1608:1 1691:1 1705:1 1712:1 1793:1 1836:1 1851:1 1855:1 1878:1 1879:1 1880:1 1892:2 2009:1 2033:1 2051:1 2054:1 2092:1 2104:1 2126:1 2134:1 2152:1 2239:1 2241:1 2242:1 2270:1 2318:1 2433:1 2471:1 2496:1 2497:1 2572:1 2672:1 2706:1 2775:1 2782:1 2897:1 2999:1 3003:1 3136:1 3206:1 3299:1 3307:1 3705:1 3720:1 3727:1 3728:1 3760:1 3814:1 3874:1 3922:1 4120:1 4142:1 4204:1 4216:1 4331:1 4402:1 4498:1 4516:1 4553:1 4618:1 4619:1 4701:1 4882:1 5018:1 5043:1 5114:1 5193:1 5734:1 5789:1 5877:1 5885:1 6165:1 6357:2 6399:1 6559:1 6599:1 6755:1 6980:1 7747:1 7748:1 #
-0.00038554211103524035821749071928366 24:1 33:1 48:1 64:1 69:1 73:1 74:1 119:1 173:1 182:1 184:1 217:1 219:1 250:1 299:1 303:1 342:1 380:1 383:1 454:1 480:1 492:1 493:1 495:1 504:1 505:1 535:1 536:1 554:1 561:2 609:1 612:1 620:1 622:1 623:1 644:1 672:1 734:1 743:1 780:1 783:1 801:1 803:1 845:1 854:1 933:1 949:1 976:1 987:1 988:1 997:1 1031:1 1033:1 1036:1 1055:1 1126:1 1170:1 1184:1 1251:1 1255:1 1295:1 1307:1 1347:1 1348:1 1351:1 1363:1 1371:1 1387:1 1424:1 1469:1 1485:1 1503:1 1541:1 1559:1 1589:1 1599:1 1617:1 1709:1 1727:1 1729:1 1762:1 1769:1 1815:1 1831:1 1951:1 1955:1 1959:2 1960:1 1981:1 2021:1 2031:1 2055:1 2094:1 2258:1 2329:1 2342:1 2349:1 2385:1 2392:1 2429:1 2432:1 2470:1 2511:1 2537:1 2559:1 2579:1 2739:1 2873:1 2875:1 2889:1 2918:1 2976:1 3050:1 3146:1 3179:1 3273:1 3291:1 3307:1 3402:1 3428:1 3635:1 3737:1 3860:1 3874:1 3948:1 4036:1 4044:1 4258:1 4321:1 4403:1 4420:1 4666:1 4736:1 4756:1 4870:1 4933:1 5012:1 5043:1 5093:1 5146:1 5167:1 5215:1 5274:1 5393:1 5409:1 5480:1 5486:1 5507:1 5547:1 5764:1 5774:1 5935:1 6009:1 6030:1 6041:1 6110:1 6282:1 6357:1 6445:1 6992:1 7025:1 7120:1 #
0.0043576855715634467761110393269064 10:1 11:1 12:1 15:1 34:2 44:1 45:1 66:1 69:1 70:1 73:1 89:1 90:1 157:2 191:1 192:1 193:1 194:1 201:1 238:1 239:1 240:1 241:1 242:1 243:1 244:1 245:1 247:1 261:1 262:1 290:1 291:1 299:1 300:1 301:1 318:1 322:1 323:1 327:1 359:1 360:1 361:1 374:1 417:1 418:1 473:1 487:1 505:1 531:1 538:1 539:1 552:1 556:1 569:1 570:2 571:2 574:1 576:1 583:1 584:1 585:2 586:2 589:1 598:1 599:1 629:1 638:1 732:1 783:1 794:1 827:1 888:1 899:1 920:1 940:1 991:1 1051:1 1139:1 1140:1 1160:1 1161:1 1162:1 1188:1 1246:1 1318:1 1366:1 1392:1 1402:1 1426:1 1442:1 1486:1 1492:1 1509:1 1524:1 1529:1 1541:1 1554:1 1575:1 1617:1 1667:1 1729:1 1731:1 1759:1 1769:1 1770:1 1779:1 1897:1 1919:1 1928:1 1958:1 1996:1 2017:1 2018:1 2073:1 2188:1 2214:1 2254:1 2258:1 2259:1 2358:1 2376:1 2384:1 2401:1 2480:1 2567:1 2724:1 2725:1 2730:1 2731:1 2786:1 2804:1 2805:1 2848:1 2875:1 2942:1 2943:1 2944:1 2945:1 2946:1 2947:1 2948:1 2949:1 2950:1 2951:1 2952:1 2953:1 2954:1 2955:1 2956:1 2957:1 2958:1 2959:1 2960:1 2961:1 2962:1 2963:1 2964:1 2965:1 2966:1 2967:1 2968:1 2969:1 2970:1 2971:1 2972:1 2973:1 #
0.0022926475792562233703419938279922 7:1 9:1 12:1 37:1 41:1 82:1 87:1 90:1 119:1 127:1 175:1 176:1 177:1 195:1 196:1 197:1 198:1 200:1 201:1 206:1 207:1 208:1 216:1 218:1 219:1 220:1 221:2 225:1 226:1 238:1 239:1 240:1 241:1 242:1 245:1 249:1 250:1 251:1 252:1 253:1 254:1 258:1 259:1 260:1 261:1 262:1 263:1 264:1 265:1 266:1 280:1 281:2 282:1 291:1 313:1 337:1 360:1 361:1 364:1 365:1 366:1 370:1 371:1 372:1 373:1 413:1 430:1 431:1 478:1 479:1 480:1 497:1 498:1 533:1 537:1 605:1 649:1 716:1 732:1 857:1 862:1 878:1 916:1 933:1 945:1 946:1 1087:2 1088:1 1089:1 1090:1 1141:1 1173:1 1198:1 1199:1 1200:1 1371:1 1409:1 1603:1 1622:1 1623:1 1624:1 1631:1 1632:1 1702:1 1752:1 1759:1 1760:1 1761:1 1762:1 1768:1 1773:1 1779:1 1790:1 1826:1 1835:1 1909:1 1916:1 1962:2 1973:1 1974:1 2162:1 2173:1 2215:1 2225:1 2226:1 2227:1 2232:1 2233:1 2236:1 2237:1 2238:1 2247:1 2248:1 2253:1 2465:1 2466:2 2471:1 2662:1 2704:1 2732:1 2788:1 3018:1 3019:1 3020:1 3021:1 3022:1 3023:1 3024:1 3025:1 3026:1 3027:1 3028:1 3029:1 3030:1 3031:1 3032:1 #
0.0031924292488690660801742282615123 9:1 10:1 11:1 37:1 38:1 39:1 40:1 41:1 42:1 43:1 44:1 45:1 46:1 47:1 51:1 52:1 53:1 65:1 68:1 69:1 70:1 71:1 72:1 89:1 90:2 91:1 147:1 197:1 201:1 293:1 344:1 345:1 358:1 456:1 469:1 483:1 484:1 492:1 493:1 515:1 525:1 549:1 552:1 569:1 570:1 609:1 626:1 639:1 644:1 645:1 690:1 691:1 692:1 693:1 702:1 706:1 707:1 718:1 730:1 731:1 732:1 733:1 745:1 746:1 747:1 763:1 786:1 834:1 835:1 836:1 837:1 838:1 840:1 847:1 858:2 878:1 882:1 883:1 884:1 885:1 887:1 888:1 894:1 895:1 921:1 970:1 1016:1 1021:1 1048:1 1055:1 1071:1 1107:1 1243:1 1253:1 1259:1 1265:1 1341:1 1387:1 1415:1 1426:1 1440:1 1449:1 1561:1 1574:1 1580:1 1870:1 1937:1 1941:1 2022:1 2023:1 2059:1 2082:1 2083:1 2089:1 2094:1 2133:1 2247:1 2287:1 2301:1 2303:1 2354:1 2397:1 2427:1 2478:1 2490:1 2559:1 2620:1 2657:1 2664:1 2665:1 2672:1 2673:1 2701:1 2702:1 2894:1 2923:1 2940:1 2941:1 2986:1 2987:1 3146:1 3466:1 3467:1 3468:1 3469:1 3470:1 3471:1 3472:1 3473:1 3474:1 3475:1 3476:1 3477:1 3478:1 3479:1 #
-0.0023926569940584691692508911842197 33:1 36:1 43:1 49:1 69:1 70:1 97:1 123:1 124:1 169:1 172:1 175:1 201:1 220:1 236:1 250:1 256:1 258:1 261:1 262:1 263:1 281:1 305:1 306:1 323:1 332:1 333:1 338:1 339:1 340:1 374:1 378:1 471:1 484:1 547:1 548:1 551:1 576:1 587:1 588:1 600:1 622:1 623:1 638:1 662:1 675:1 685:1 706:1 747:1 779:1 861:1 913:1 944:1 983:1 988:1 1031:1 1032:1 1092:1 1115:1 1142:1 1209:1 1221:1 1222:1 1262:1 1353:1 1364:1 1371:1 1432:1 1435:1 1476:2 1491:1 1500:2 1583:1 1592:1 1637:1 1756:1 1853:1 1866:1 1878:1 1885:1 1951:1 1954:1 1981:1 2062:1 2073:1 2123:1 2178:1 2225:1 2257:1 2268:1 2358:1 2375:1 2454:1 2457:1 2460:1 2537:1 2591:1 2599:1 2600:1 2621:1 2647:1 2736:1 2762:1 2824:1 2837:1 2862:1 2913:1 2927:1 2979:1 3003:1 3090:1 3096:1 3098:1 3100:1 3135:1 3144:1 3145:1 3228:1 3232:1 3296:1 3307:1 3328:1 3404:1 3407:1 3426:1 3431:1 3499:1 3500:1 3501:1 3502:1 3640:1 3665:1 3735:1 3848:1 3887:1 3888:1 3897:1 3979:1 4014:1 4021:1 4070:1 4388:1 4444:1 4486:1 4489:1 4515:1 4551:1 4625:1 4735:1 4736:1 4760:1 4776:1 4825:1 4878:1 5028:1 5066:1 5332:1 5345:1 5444:1 5486:1 5624:1 5836:1 5945:1 5990:1 6342:1 6519:1 6524:1 6850:1 6908:1 6909:1 6910:1 #
-0.0012231724053269404321048208217348 8:1 22:1 45:1 69:1 70:1 76:1 120:1 123:1 124:1 145:1 149:1 172:1 251:1 279:1 291:1 372:1 376:1 381:1 423:1 439:1 456:1 472:1 526:1 534:1 545:1 555:1 560:1 573:1 579:1 588:1 592:1 618:1 621:1 638:1 643:1 654:1 658:1 665:1 716:1 718:1 741:1 743:1 749:1 750:1 780:1 782:1 858:1 880:1 915:1 925:1 949:1 1020:1 1058:1 1087:1 1088:2 1089:1 1093:1 1094:1 1111:1 1120:1 1130:1 1188:1 1189:1 1228:1 1247:1 1248:1 1305:1 1325:1 1344:1 1347:1 1354:1 1357:1 1370:1 1393:1 1405:1 1457:1 1465:1 1509:1 1524:1 1528:1 1535:1 1536:1 1538:1 1560:1 1597:1 1602:1 1652:1 1665:1 1667:1 1673:1 1674:1 1676:1 1680:1 1779:1 1804:1 1809:1 1859:1 1873:1 1889:1 1902:1 1969:1 2017:1 2018:1 2028:1 2036:1 2046:1 2086:1 2097:1 2108:1 2196:1 2218:1 2243:1 2283:1 2305:1 2336:1 2371:1 2448:1 2476:1 2490:1 2536:1 2541:1 2582:1 2637:1 2694:1 2702:1 2722:1 2772:1 2798:1 2888:1 2912:1 2941:1 3034:1 3149:1 3152:1 3186:1 3194:1 3342:1 3372:1 3429:1 3485:1 3498:1 3558:1 3569:1 3593:1 3650:1 3695:1 3697:1 3698:1 3856:1 3872:1 3893:1 3925:1 3978:1 4063:1 4101:1 4113:1 4267:1 4374:1 4438:1 4447:1 4550:1 4585:1 4697:1 4759:1 4926:1 4931:1 4951:1 4955:1 4967:1 4968:1 5001:1 5030:1 5077:1 5482:1 5548:1 5712:1 5741:1 5794:1 5861:1 5918:1 5956:1 5957:1 6022:1 6211:1 6286:1 6429:1 6435:1 6531:1 6720:1 6760:1 6817:1 7250:1 7287:1 7300:1 7348:1 7399:1 7405:1 7406:1 7408:1 7460:1 7531:1 #
-0.0011894939125889339090469398740879 5:1 10:1 11:1 12:1 89:1 90:1 120:1 136:1 137:1 197:1 210:1 211:1 221:1 238:1 251:1 281:1 323:1 346:1 370:1 371:1 387:1 413:1 414:1 415:1 417:1 418:1 476:1 477:1 518:1 524:1 525:1 530:1 560:1 569:1 570:1 572:1 593:1 638:1 764:1 828:1 847:1 888:1 915:1 976:1 994:1 1032:1 1051:1 1113:1 1142:1 1163:1 1178:1 1183:1 1187:1 1264:1 1289:1 1291:1 1296:1 1317:1 1371:2 1392:1 1410:1 1525:1 1584:1 1600:1 1620:1 1728:1 1806:1 1821:1 1827:1 1841:1 1842:1 1869:1 1900:1 1902:1 1950:1 2000:2 2017:1 2018:1 2025:1 2039:1 2047:1 2052:1 2058:1 2089:1 2143:2 2161:2 2187:1 2192:1 2207:1 2231:1 2287:1 2306:1 2394:1 2481:1 2491:1 2511:1 2531:1 2532:1 2549:1 2577:1 2620:1 2792:1 2794:1 2811:1 2847:1 2853:1 2855:1 2902:1 2953:1 2991:1 3070:1 3096:1 3125:1 3137:1 3152:1 3232:1 3253:1 3361:1 3410:1 3533:1 3560:1 3595:1 3686:1 3718:1 3878:1 3902:1 3948:1 3949:1 3950:1 4106:1 4167:1 4173:1 4412:1 4484:1 4485:1 4537:1 4630:1 4723:1 4783:1 4812:1 5330:1 5500:1 5527:1 5537:1 5622:1 5638:1 5947:1 5961:1 6124:1 6500:1 6850:1 7029:1 7124:1 #
-0.0016690815402910295743577062665963 9:1 10:1 26:1 33:1 41:1 61:1 64:1 65:1 88:1 123:1 124:1 135:1 174:1 184:1 188:1 196:1 197:2 203:1 236:1 245:2 246:1 250:1 251:1 263:1 281:1 313:1 335:1 370:1 372:1 377:1 379:1 380:1 385:1 423:2 431:1 484:1 496:1 500:1 551:1 571:2 572:1 588:1 589:1 622:1 623:1 659:1 686:1 691:1 748:1 773:1 775:1 788:1 789:1 843:1 862:1 895:1 907:1 908:1 917:1 929:1 1005:1 1022:1 1026:1 1043:1 1072:1 1091:1 1147:1 1148:1 1166:1 1170:1 1182:1 1193:1 1209:1 1210:1 1222:1 1256:1 1271:1 1324:1 1333:1 1335:1 1355:1 1361:1 1399:1 1412:1 1432:1 1434:1 1435:1 1449:1 1450:1 1476:1 1573:1 1579:1 1596:1 1599:1 1691:1 1718:1 1719:1 1805:1 1815:1 1885:1 1903:1 1955:1 2033:1 2060:1 2062:1 2066:1 2082:1 2124:1 2169:1 2171:1 2213:1 2214:1 2292:1 2327:1 2337:1 2346:1 2471:1 2479:1 2537:1 2550:1 2553:1 2587:1 2588:2 2629:1 2808:1 2832:1 2847:1 2848:1 2948:1 2990:1 3000:1 3015:1 3045:1 3094:1 3114:1 3131:1 3159:1 3369:1 3388:1 3401:1 3414:1 3433:1 3450:1 3499:1 3500:2 3501:1 3502:1 3524:1 3558:1 3561:1 3603:1 3624:1 3626:1 3632:2 3637:1 3638:1 3640:1 3647:1 3663:1 3665:1 3695:1 3766:1 3771:1 3839:1 3840:1 3853:1 3863:1 3864:1 3865:1 3868:1 3869:1 3884:1 3885:1 3925:1 3979:1 4167:1 4203:1 4207:1 4217:1 4228:1 4429:1 4783:1 4863:1 4880:1 4881:1 4882:1 4883:1 #
-0.00086846951905920444052255913192084 9:1 10:1 11:1 13:1 17:1 52:1 53:1 89:2 90:3 136:1 137:1 172:1 173:1 183:1 262:1 281:1 289:1 323:1 370:1 371:1 380:1 415:1 422:1 477:1 478:1 524:1 530:1 531:1 569:1 570:1 572:1 573:1 575:2 593:1 602:2 639:1 640:1 641:1 655:1 698:1 750:1 756:1 804:1 828:1 845:1 847:1 909:1 917:1 950:1 955:1 956:1 1092:1 1100:1 1264:1 1320:1 1346:1 1378:2 1379:1 1380:1 1407:1 1452:1 1559:1 1599:1 1608:1 1642:1 1709:1 1722:1 1764:1 1807:1 1826:1 1841:1 1842:1 1900:1 1933:1 1951:1 1952:1 1997:1 2005:1 2006:1 2017:1 2018:1 2065:1 2089:1 2139:1 2143:1 2167:2 2187:1 2207:1 2287:1 2292:1 2394:1 2431:1 2499:1 2511:1 2549:1 2550:1 2585:1 2615:1 2732:1 2794:1 2810:1 2847:1 3024:1 3128:1 3147:1 3152:1 3205:1 3221:1 3376:1 3533:1 3718:1 3863:1 3878:1 4063:1 4101:1 4223:1 4227:1 4343:1 4364:1 4485:1 4630:1 4638:1 4812:1 4831:1 4977:1 5330:1 5426:1 5500:1 5509:1 5622:1 5817:1 5876:1 5888:1 5961:1 6330:1 6500:1 6522:1 6804:1 6850:1 7318:1 #
