SVM-light Version V6.01
0 # kernel type
3 # kernel parameter -d 
1 # kernel parameter -g 
1 # kernel parameter -s 
1 # kernel parameter -r 
empty# kernel parameter -u 
7764 # highest feature index 
4751 # number of training documents 
427 # number of support vectors plus 1 
0.74247241 # threshold b, each following line is a SV (starting with alpha*y)
-0.00031708937832188944030975541465978 8:1 34:1 35:1 39:1 63:1 69:2 70:1 90:1 103:1 115:1 123:1 172:1 174:2 184:1 197:1 236:1 250:1 253:1 263:1 281:1 307:1 310:1 315:1 323:1 335:1 369:1 370:1 380:1 413:1 454:1 504:1 521:1 559:1 588:1 620:1 621:1 672:1 682:1 691:1 779:1 788:1 789:1 792:1 793:1 804:1 827:1 845:1 880:1 892:1 917:1 928:1 929:1 985:1 998:1 1018:1 1032:1 1069:1 1070:1 1082:1 1113:1 1151:1 1181:1 1193:1 1200:1 1335:1 1380:1 1477:1 1500:1 1516:1 1548:1 1549:1 1550:1 1572:1 1584:1 1594:1 1596:1 1599:1 1604:1 1655:1 1680:1 1691:1 1701:1 1721:1 1727:1 1729:1 1785:1 1786:1 1794:1 1795:1 1805:1 1816:1 1903:1 1967:1 1968:1 1985:1 2006:1 2028:1 2047:1 2061:1 2123:1 2131:1 2134:1 2135:1 2167:1 2212:1 2257:1 2259:1 2327:1 2337:1 2348:1 2415:1 2438:1 2442:1 2506:1 2537:1 2602:1 2605:1 2611:1 2656:1 2695:1 2731:1 2732:1 2740:1 2749:1 2892:1 2897:1 2931:1 2947:1 2948:1 2983:1 2991:1 3013:1 3089:1 3097:1 3107:1 3142:1 3161:1 3162:1 3270:1 3309:1 3348:1 3431:1 3433:1 3471:1 3475:1 3485:1 3499:1 3500:2 3501:1 3502:1 3524:1 3540:1 3549:1 3561:1 3568:1 3600:1 3601:1 3602:1 3603:1 3608:1 3625:1 3626:1 3635:1 3636:1 3637:1 3638:1 3640:1 3642:1 3653:1 3663:1 3673:1 3714:2 3726:1 3735:1 3739:1 3771:1 3839:1 3840:1 3847:1 3853:1 3863:1 3867:1 3868:1 3877:1 3884:1 3885:1 3886:1 3887:1 3889:1 3910:1 3937:1 3941:1 3947:1 3969:1 4062:1 4072:1 4075:1 4132:1 4183:1 4214:1 4246:1 4249:1 4323:1 4436:1 4483:1 4492:1 4655:1 4710:1 4711:1 4712:1 4743:1 4756:1 4771:1 4798:1 5213:1 5271:1 5274:1 5316:1 5379:1 5653:1 5870:1 6083:1 6202:1 6344:1 6345:1 6346:1 6347:1 6348:1 #
-0.00066645862333205088678944605362631 9:2 10:1 33:1 45:1 98:1 106:1 115:1 124:1 126:1 171:1 172:2 181:1 195:1 197:1 210:1 238:1 267:1 268:1 271:1 279:1 280:1 299:1 312:1 321:1 332:1 348:1 364:1 411:1 439:1 511:1 512:1 519:1 525:1 531:1 535:1 560:1 615:1 622:1 658:1 665:1 705:1 712:1 743:1 823:1 853:1 870:1 916:1 922:1 951:1 959:1 974:1 1000:1 1032:1 1035:1 1095:1 1126:1 1145:1 1237:1 1244:1 1301:1 1309:1 1325:1 1329:1 1330:1 1359:1 1366:1 1370:1 1373:1 1390:1 1396:1 1432:1 1476:1 1496:1 1500:1 1525:1 1528:1 1550:1 1560:1 1602:1 1677:1 1691:1 1718:1 1768:1 1809:1 1843:1 1844:1 1859:1 1866:1 1884:1 1885:1 1914:1 1966:1 2008:1 2026:1 2103:1 2108:1 2111:1 2122:1 2153:1 2155:1 2215:1 2221:1 2222:1 2232:1 2318:1 2324:1 2408:1 2443:1 2482:1 2516:1 2570:1 2581:1 2594:1 2598:1 2618:1 2663:1 2736:1 2759:1 2798:1 2897:1 2925:1 2989:1 3000:1 3034:1 3065:1 3091:1 3105:1 3115:1 3129:1 3140:1 3149:1 3247:1 3339:1 3366:1 3375:1 3429:1 3452:1 3477:1 3518:1 3521:1 3585:1 3586:1 3587:1 3588:1 3626:1 3653:1 3686:1 3727:1 3735:1 3755:1 3765:1 3854:1 3872:1 3905:1 3943:1 3957:1 3979:1 4037:1 4143:1 4174:1 4215:1 4254:1 4311:1 4318:1 4333:1 4345:1 4384:1 4399:2 4409:1 4434:2 4568:1 4618:1 4691:1 4892:1 4931:1 5020:1 5030:1 5079:1 5082:1 5090:1 5193:1 5209:1 5235:1 5292:1 5356:1 5405:1 5468:1 5507:1 5618:1 5671:1 5772:1 5881:1 5991:1 6012:1 6070:1 6382:1 6526:1 6551:1 6640:1 6810:1 6818:1 6880:1 7263:1 7394:1 7502:1 7504:1 7505:1 7506:1 7507:1 #
-0.0011861618631636560317749173876223 8:1 14:1 39:1 40:1 41:1 48:1 75:1 76:2 120:1 143:1 177:1 205:1 220:1 234:1 254:1 292:1 327:1 343:1 436:1 521:1 524:2 536:1 537:1 553:1 568:1 575:1 598:1 624:1 625:1 626:2 627:1 688:1 693:1 740:1 787:1 801:1 803:1 807:1 819:1 831:1 862:1 866:1 887:1 888:1 893:1 897:1 929:1 936:1 965:2 981:1 1034:1 1039:1 1041:1 1056:1 1072:1 1151:1 1154:1 1162:1 1163:1 1174:1 1218:1 1234:1 1261:1 1265:1 1277:1 1280:1 1287:1 1325:1 1377:1 1391:1 1392:1 1411:1 1415:1 1451:1 1472:1 1494:1 1531:1 1533:1 1539:1 1573:1 1580:1 1592:1 1642:1 1651:1 1736:1 1757:1 1759:1 1768:1 1817:1 1831:1 1935:1 1946:1 1998:1 2042:1 2043:1 2052:1 2090:1 2099:1 2133:1 2156:1 2164:1 2245:1 2309:2 2330:1 2342:1 2347:1 2354:1 2391:1 2418:1 2450:1 2467:1 2469:1 2478:1 2522:1 2593:1 2612:1 2648:1 2671:1 2674:1 2715:1 2748:1 2786:1 2982:1 2987:1 2998:1 3020:1 3060:1 3095:1 3159:1 3198:1 3220:1 3223:1 3249:1 3282:1 3347:1 3418:1 3447:1 3612:1 3645:1 3649:1 3696:1 3708:1 3765:1 3783:1 3853:1 3955:1 4077:1 4084:1 4106:1 4207:1 4233:1 4273:1 4289:1 4403:1 4411:1 4612:1 4722:1 4878:1 4976:1 4977:1 4994:1 5020:1 5067:1 5102:1 5108:1 5193:1 5392:1 5419:1 5579:1 5593:1 5653:1 5930:1 5953:1 6048:1 6126:1 6183:1 6244:1 6282:1 6300:1 6304:1 6560:1 6736:1 6922:1 6931:1 6992:1 6996:1 6999:1 7094:1 7095:1 #
-0.0013063472518649208668067851490946 2:1 8:1 9:1 10:1 11:1 15:1 26:2 27:1 28:1 29:1 30:1 37:1 45:1 46:1 47:1 48:1 49:1 50:1 51:1 52:1 53:1 54:1 61:1 62:1 63:1 64:1 65:1 66:1 67:1 68:1 69:1 70:1 71:1 79:1 83:1 89:1 90:1 91:1 92:1 93:1 107:1 117:1 118:1 119:1 145:1 146:1 147:1 148:1 172:1 173:1 197:1 201:1 327:1 377:2 409:2 410:1 411:1 412:1 413:1 414:1 415:1 416:1 417:1 418:1 419:1 420:1 421:1 422:1 423:1 424:1 425:1 426:1 427:1 428:1 429:1 430:1 431:1 432:1 433:1 434:1 435:1 436:1 437:1 438:1 439:1 440:1 441:1 442:1 443:1 444:1 445:1 446:1 447:1 448:1 449:1 450:1 451:1 452:1 453:1 454:1 455:1 456:1 457:1 458:1 459:1 460:1 461:1 462:1 463:1 464:1 465:1 466:1 467:1 468:1 469:1 470:1 471:1 472:1 473:1 474:1 475:1 476:1 477:1 478:1 479:1 480:1 481:1 482:1 483:1 484:1 485:1 486:1 487:1 488:1 489:1 490:1 491:1 492:1 493:1 494:1 495:1 496:1 497:1 498:1 499:1 500:1 501:1 502:1 503:1 504:1 505:1 506:1 #
-0.00060388386078866630301414941683902 5:1 9:1 10:1 11:1 12:1 21:1 22:1 23:1 24:2 29:1 49:1 62:1 65:1 69:1 70:1 73:1 81:1 123:1 130:1 131:1 152:1 160:1 180:1 184:1 201:1 218:1 239:1 240:1 241:1 242:1 243:1 244:1 250:1 251:1 261:1 262:1 269:1 270:1 271:1 291:1 301:1 321:1 322:1 323:1 327:1 328:1 329:1 330:1 331:1 332:1 336:1 337:1 361:1 362:1 374:1 413:1 422:1 429:1 504:1 505:1 507:1 508:1 509:1 510:1 511:1 512:1 513:1 514:1 515:1 516:1 517:1 518:1 519:1 520:1 521:1 522:1 523:1 524:2 525:1 526:1 527:1 528:1 529:2 530:1 531:1 532:2 533:1 534:1 535:1 536:3 537:1 538:1 539:1 540:1 541:1 542:1 543:1 544:1 545:1 546:1 547:1 548:1 549:1 550:1 551:1 552:1 553:1 554:2 555:1 556:1 557:1 558:1 559:1 560:1 561:1 562:1 563:1 564:1 565:1 566:1 567:1 568:1 569:1 570:1 571:1 572:1 573:1 574:1 575:1 576:1 577:1 578:1 579:1 580:1 581:1 582:1 583:1 584:1 585:1 586:1 587:1 588:1 589:1 590:1 591:1 592:1 593:1 594:1 595:1 596:1 597:1 598:1 599:1 600:1 601:1 602:1 603:1 604:1 605:1 606:1 607:1 #
-0.0017716358621653431615339258087261 5:1 9:1 18:1 21:1 22:2 23:1 29:1 49:1 73:1 76:1 89:1 90:1 119:1 161:1 171:1 175:1 184:1 201:1 217:1 218:1 220:1 238:1 239:1 240:1 241:1 242:1 244:1 245:2 249:1 250:1 251:1 261:1 269:1 322:1 323:1 327:1 328:1 329:1 330:1 331:1 332:1 354:1 359:1 361:1 370:1 373:1 374:1 375:1 379:1 399:1 402:1 517:1 533:1 537:1 538:1 539:1 540:1 542:1 568:1 569:1 570:1 571:1 574:1 575:1 594:1 601:1 611:1 666:1 681:1 746:1 845:1 915:1 918:1 932:1 937:1 949:1 1116:1 1224:1 1230:1 1231:1 1254:1 1297:1 1304:1 1305:1 1347:1 1363:1 1445:1 1478:1 1486:1 1494:1 1495:1 1509:1 1510:1 1522:1 1541:1 1545:1 1549:1 1609:1 1629:1 1673:1 1674:1 1758:1 1816:1 1818:1 1836:1 1858:1 1870:1 1879:1 1883:2 1903:1 1959:1 2049:1 2143:1 2172:1 2217:1 2224:1 2243:1 2278:1 2292:1 2380:1 2444:2 2452:1 2595:1 2606:1 2650:1 2715:1 2776:1 2810:1 2830:1 2846:1 2848:1 2856:1 2873:1 2877:1 2884:1 2897:1 2937:1 2962:1 3016:1 3034:2 3048:1 3049:1 3050:1 3051:1 3052:1 3053:1 3054:1 3055:1 3056:1 3057:1 3058:1 3059:1 3060:1 3061:1 3062:1 3063:1 #
0.0012548241240572456829671654787717 2:1 4:1 5:1 6:1 7:1 8:1 33:1 73:1 76:1 92:1 128:1 154:1 181:1 189:1 238:1 249:1 253:1 302:1 312:1 313:1 315:1 350:1 373:1 439:1 468:1 473:1 478:1 492:1 493:1 495:1 520:1 521:1 522:1 571:1 574:1 612:1 614:1 718:1 733:1 734:1 746:1 773:1 775:1 776:1 804:1 819:1 829:1 840:1 865:1 897:1 915:1 934:1 935:2 988:1 1085:1 1126:1 1139:1 1204:1 1242:1 1244:1 1267:1 1297:1 1330:1 1417:1 1421:1 1422:1 1485:1 1525:1 1559:1 1574:1 1579:1 1584:1 1599:1 1601:1 1602:1 1603:1 1632:1 1659:1 1679:1 1697:1 1709:1 1723:1 1735:1 1779:1 1788:1 1826:1 1835:1 1879:1 1896:1 1965:1 2008:1 2032:1 2055:1 2067:1 2100:1 2107:1 2209:1 2233:1 2330:1 2363:2 2431:1 2471:1 2476:1 2539:1 2546:1 2597:1 2648:1 2649:1 2650:1 2652:1 2673:1 2702:1 2780:1 2877:1 2915:1 3034:1 3109:1 3177:1 3201:1 3212:1 3304:1 3402:1 3439:1 3483:1 3491:1 3595:1 3667:1 3680:1 3684:1 3852:1 3867:1 3942:1 4019:1 4086:1 4142:1 4161:1 4185:1 4207:1 4283:1 4284:1 4534:1 4570:1 4610:1 4618:1 4630:1 4718:1 4723:1 4751:1 4809:1 4813:1 4883:1 4968:1 5138:1 5173:1 5446:1 5507:1 5626:1 5829:1 5977:1 6051:1 6199:1 6464:1 7655:1 7758:1 #
0.00073957271883642026512328815357478 2:1 9:1 10:1 24:1 43:1 44:1 73:1 76:1 161:1 171:1 172:1 183:1 236:1 238:1 258:1 259:1 263:1 265:1 291:1 335:1 373:1 409:2 410:1 468:2 492:1 493:1 496:1 505:1 520:1 521:1 523:1 530:1 535:1 550:1 614:1 626:1 632:1 636:1 637:1 638:1 645:1 705:1 714:1 718:1 733:1 741:1 746:1 773:1 775:1 819:1 829:1 830:1 831:1 907:1 922:1 935:1 1006:1 1011:1 1027:1 1032:1 1056:1 1062:1 1068:1 1071:1 1080:1 1095:1 1139:1 1146:1 1214:1 1245:1 1248:1 1302:1 1344:1 1373:1 1399:1 1401:1 1421:1 1422:1 1429:1 1456:1 1559:1 1597:1 1599:2 1601:1 1602:1 1626:1 1704:1 1721:1 1788:1 1812:1 1814:1 1859:1 1879:1 1896:1 1920:1 1928:1 1948:1 1978:1 2010:1 2045:1 2163:1 2329:1 2451:1 2471:1 2478:1 2479:1 2491:1 2532:1 2560:1 2589:1 2597:1 2619:1 2639:1 2651:1 2659:1 2879:1 2972:1 2982:1 2986:1 2999:1 3016:1 3054:1 3091:1 3177:1 3178:1 3255:1 3329:1 3389:1 3402:1 3439:1 3465:1 3529:1 3589:1 3612:1 3819:1 3873:1 3910:1 4004:1 4044:1 4139:1 4152:1 4171:1 4209:1 4282:1 4412:1 4501:1 4699:1 4722:1 4761:1 4785:1 4807:1 5174:1 5193:1 5204:1 5222:1 5381:1 5507:1 5593:1 5626:1 6112:1 6332:1 6352:1 6824:1 7005:1 #
-0.0018043802671970574080795302052138 29:1 33:1 34:1 88:1 131:1 165:1 210:1 250:1 321:1 327:1 333:1 334:1 394:1 401:1 410:1 525:1 535:1 571:1 572:1 573:1 593:1 611:1 638:1 645:1 686:1 736:1 768:1 773:1 780:1 827:1 830:1 876:1 877:1 916:1 923:1 926:1 927:1 933:1 967:1 1001:1 1034:1 1058:1 1181:1 1387:1 1409:1 1423:2 1435:1 1504:1 1525:1 1697:1 1728:1 1768:1 1795:1 1830:1 1877:1 1962:1 1969:1 1990:1 2025:1 2027:1 2028:1 2239:1 2244:1 2319:1 2324:1 2327:1 2363:1 2395:1 2427:1 2433:1 2438:1 2479:1 2500:1 2527:1 2537:1 2553:1 2557:1 2615:1 2677:1 2723:1 2740:1 2741:1 2865:1 2875:1 2948:1 2972:1 3199:1 3203:1 3313:1 3323:1 3498:1 3499:1 3500:1 3501:1 3502:1 3632:1 3635:1 3636:1 3637:1 3638:1 3653:1 3714:1 3747:1 3771:1 3776:1 3777:1 3802:1 3809:1 3820:1 3821:1 3829:1 3852:1 3853:1 3868:1 3892:1 3904:1 3931:1 3968:1 3973:1 4065:1 4068:1 4071:1 4072:1 4114:1 4206:1 4360:1 4432:1 4446:1 4536:1 4587:1 4619:1 4630:1 4631:1 4632:1 4633:1 4634:1 4756:1 4764:1 4792:1 5027:1 5274:1 5453:1 5498:1 5652:1 5734:1 5789:1 5809:1 5832:1 5883:1 6024:1 6097:1 6098:1 6099:1 6100:1 6101:1 6102:1 #
0.0012473305964873743038878739497477 14:1 34:1 41:1 43:1 53:1 69:1 73:1 97:1 155:1 157:1 162:1 169:2 173:1 174:1 184:1 201:1 218:2 219:1 250:1 291:1 310:1 340:1 373:1 375:1 388:1 429:1 439:1 481:1 505:1 519:1 521:1 523:1 551:1 552:1 571:1 584:1 591:2 605:1 609:1 612:1 632:1 638:1 639:1 647:1 655:1 708:1 709:1 728:1 734:1 782:1 783:1 794:1 801:1 819:1 830:1 981:1 991:1 1040:1 1051:1 1072:1 1139:1 1153:1 1162:1 1264:1 1311:1 1345:1 1352:1 1370:1 1401:1 1415:1 1453:1 1530:1 1559:1 1576:1 1580:1 1599:1 1603:1 1626:1 1683:4 1700:1 1704:1 1709:1 1721:1 1832:1 1835:1 1836:1 1858:1 1885:1 1952:1 1955:1 1978:1 2027:1 2046:1 2102:1 2156:1 2235:1 2254:1 2258:1 2276:1 2291:1 2302:1 2318:1 2319:1 2328:1 2334:1 2372:1 2438:1 2451:1 2478:1 2479:1 2496:1 2523:1 2530:1 2536:1 2537:1 2603:2 2619:1 2645:1 2719:1 2773:1 2790:1 2793:1 2832:1 2842:1 2865:1 2869:1 2870:1 3034:1 3050:1 3138:1 3198:1 3216:1 3244:1 3246:1 3262:1 3318:1 3432:1 3439:1 3455:1 3486:1 3612:1 3638:1 3654:1 3784:1 3904:1 3922:1 3940:1 4176:1 4403:1 4438:1 4751:1 5012:1 5028:1 5081:1 5123:1 5162:1 5298:1 5507:1 5835:1 6112:1 6352:1 6464:1 7120:1 #
-0.00026560856537882141913814448841435 2:1 8:1 36:1 69:1 77:2 91:1 115:1 123:1 146:1 172:1 187:1 236:1 263:1 265:1 281:2 323:1 327:1 335:1 354:1 363:1 377:1 389:1 414:1 415:1 447:1 450:1 495:1 527:1 530:1 554:1 564:1 575:1 588:1 632:1 650:1 689:1 691:1 773:2 779:1 788:1 789:1 820:1 842:1 864:1 892:1 895:1 929:1 947:1 965:1 983:1 1016:1 1050:1 1070:1 1080:1 1112:1 1123:1 1181:1 1256:1 1277:1 1335:1 1353:1 1370:1 1420:1 1435:1 1500:1 1504:1 1512:1 1530:1 1532:1 1536:1 1599:1 1650:1 1727:2 1805:1 1836:1 1889:1 1934:1 1959:1 1986:1 2033:1 2041:1 2051:1 2076:1 2123:1 2124:1 2148:1 2171:1 2202:1 2255:1 2317:1 2327:1 2337:1 2363:1 2419:1 2550:1 2551:1 2557:1 2587:1 2621:1 2664:1 2665:1 2725:1 2837:1 2918:2 2938:1 2939:1 2948:1 3002:1 3016:1 3045:1 3070:1 3078:1 3089:1 3113:1 3127:1 3214:1 3252:1 3304:1 3335:1 3433:1 3450:1 3455:1 3478:1 3499:1 3500:2 3501:1 3502:1 3518:1 3569:1 3619:1 3623:1 3624:1 3625:1 3626:1 3631:1 3635:1 3636:1 3637:1 3638:1 3640:1 3661:1 3663:1 3664:1 3671:1 3685:1 3695:1 3771:1 3812:1 3813:1 3814:1 3862:1 3863:1 3864:1 3868:1 3872:1 3879:1 3880:1 3916:1 3977:1 4044:1 4084:1 4117:1 4133:1 4162:1 4223:1 4225:1 4258:1 4363:1 4446:1 4534:1 4553:1 4634:1 4635:1 4658:1 4734:1 4764:2 4851:1 4933:1 4939:1 4940:1 5040:1 5045:1 5223:1 5820:1 6105:1 6156:1 6288:1 6453:1 6488:1 6578:1 6579:1 #
-0.00046423418630768499212879696358414 8:1 9:1 10:1 11:1 12:1 15:1 17:1 18:1 22:1 23:1 24:1 33:1 34:1 35:1 41:1 45:1 49:1 71:1 72:1 73:2 74:1 88:1 89:1 90:1 110:1 123:1 191:1 198:1 201:1 214:1 238:1 239:1 240:1 241:1 242:1 245:1 261:1 262:1 274:1 299:1 301:1 323:1 331:1 332:1 361:1 370:1 374:1 375:1 415:1 427:1 496:1 512:1 517:1 535:1 538:1 539:1 560:1 564:1 571:1 587:1 588:1 594:1 600:1 601:1 653:1 732:1 733:1 750:1 766:1 790:1 791:1 792:1 802:1 803:1 804:1 830:1 864:1 910:1 922:1 923:1 949:1 1026:1 1051:1 1095:1 1116:1 1156:1 1197:1 1205:1 1206:1 1423:1 1437:1 1468:1 1475:1 1477:1 1480:1 1481:1 1482:1 1483:1 1486:1 1487:1 1488:1 1491:1 1492:1 1493:1 1494:1 1495:1 1496:1 1500:1 1501:1 1502:1 1503:1 1506:1 1507:1 1508:1 1509:1 1510:1 1514:1 1515:1 1516:1 1517:1 1519:1 1555:1 1746:1 1779:1 1813:1 1814:1 1815:2 1817:1 1820:1 1824:1 1825:1 1826:1 1828:1 1829:1 1842:1 1902:1 1913:1 1922:1 1928:1 1929:1 1930:1 1931:1 1932:1 1933:1 1934:1 1935:1 1936:1 1937:1 #
-0.00030755216871250793883585394894453 26:1 49:1 59:1 69:1 70:1 84:1 172:1 175:1 195:1 220:1 236:1 240:1 290:1 293:1 313:1 321:1 333:2 335:1 349:1 351:1 364:1 365:1 379:1 380:1 396:1 397:1 456:1 473:1 534:1 537:1 564:1 571:1 572:1 579:1 587:2 601:1 667:1 681:1 699:1 768:1 800:1 804:1 846:1 848:1 931:2 940:1 973:1 1021:1 1033:1 1036:1 1080:1 1092:1 1103:1 1166:1 1183:1 1217:1 1218:1 1229:1 1280:1 1335:1 1339:1 1340:1 1363:1 1387:1 1436:1 1450:1 1491:1 1520:1 1533:1 1537:1 1559:1 1560:1 1562:1 1569:1 1596:1 1599:1 1700:1 1717:1 1728:1 1748:1 1809:1 1828:1 1831:1 1853:1 1941:1 1945:1 2033:1 2034:1 2137:1 2166:1 2254:1 2256:1 2257:1 2338:1 2369:1 2442:1 2443:1 2450:1 2471:1 2499:1 2616:1 2619:1 2660:1 2677:1 2798:1 2865:1 2876:1 2905:1 2960:1 3049:1 3053:1 3110:1 3124:1 3125:1 3146:1 3183:1 3232:1 3330:1 3401:1 3437:1 3457:1 3501:1 3502:1 3566:1 3596:1 3621:1 3640:1 3652:1 3665:1 3667:1 3685:1 3690:1 3694:1 3771:1 3831:1 3863:1 3867:1 3874:1 3898:1 4028:1 4034:1 4035:1 4036:1 4037:1 4038:1 4039:1 4040:1 4043:1 4056:1 4060:1 4063:1 4115:1 4170:1 4198:1 4387:1 4444:1 4495:1 4532:1 4567:1 4601:1 4671:1 5003:1 5004:1 5120:1 5139:1 5140:1 5147:1 5228:1 5251:1 5427:1 5453:1 5488:1 5631:1 5781:1 6107:1 6255:1 6733:1 6823:1 6929:1 #
0.0002899942480563698940336514464633 5:1 9:1 10:1 18:1 20:1 33:1 48:1 73:1 90:1 91:1 97:1 108:1 123:1 130:1 155:1 157:1 172:1 183:1 191:1 205:1 219:1 244:1 248:1 249:1 250:1 265:1 269:1 313:1 350:1 386:1 416:1 439:1 492:1 493:1 520:1 521:1 525:1 535:2 536:1 559:1 588:1 598:1 635:1 674:1 733:1 748:1 749:1 768:1 819:1 825:1 831:1 863:1 879:1 910:1 917:1 933:1 947:1 968:1 1010:1 1035:1 1039:1 1062:1 1128:1 1201:1 1254:1 1258:1 1293:1 1295:1 1337:1 1375:1 1421:1 1422:1 1435:1 1453:1 1491:1 1513:1 1542:1 1553:1 1559:1 1599:1 1621:1 1651:1 1677:1 1701:1 1709:1 1748:1 1753:1 1786:1 1826:1 1836:1 1885:1 1892:1 1915:1 1958:1 1985:1 2001:1 2014:1 2163:1 2201:1 2318:1 2320:1 2357:1 2438:2 2471:2 2478:1 2496:1 2518:1 2519:1 2531:1 2539:1 2567:1 2585:1 2659:1 2695:2 2724:1 2833:1 2870:1 3006:1 3034:1 3122:1 3139:1 3237:1 3241:1 3316:1 3392:1 3414:1 3590:1 3591:1 3596:1 3634:1 3685:1 3746:1 3760:1 3871:1 3874:1 3922:1 3931:1 3990:1 4008:1 4064:1 4209:1 4233:1 4258:1 4331:1 4413:1 4441:1 4451:1 4476:1 4479:1 4495:1 4678:1 4752:1 4865:1 4883:1 5027:1 5146:1 5258:1 5345:1 5407:1 5626:1 5628:1 5631:1 5776:1 6559:1 7747:1 7748:1 #
-0.00099364152294128963230357420854943 5:1 6:1 33:1 38:1 39:1 40:1 41:1 68:1 189:1 198:1 208:1 209:1 220:1 352:1 572:1 573:1 591:2 608:1 609:1 612:1 624:1 625:1 626:1 734:1 735:1 742:2 831:1 845:1 866:2 872:1 873:1 892:1 899:1 929:1 935:1 956:1 1036:1 1056:1 1113:1 1119:1 1135:1 1195:1 1218:1 1245:1 1280:1 1287:1 1325:1 1342:1 1348:1 1365:1 1377:1 1390:1 1425:1 1463:1 1476:1 1483:1 1497:1 1536:1 1551:1 1574:1 1585:1 1629:1 1632:1 1643:1 1704:1 1727:1 1759:1 1768:1 1780:1 1823:1 1835:1 1843:1 1879:1 1897:1 1914:1 1970:1 2126:1 2275:1 2276:1 2328:1 2342:1 2363:1 2415:1 2430:1 2453:1 2530:1 2593:1 2630:1 2640:1 2671:1 2703:1 2712:1 2758:1 2804:1 2874:1 2888:1 2925:1 2934:1 2939:1 2976:1 2977:1 2979:1 2982:1 3026:1 3045:1 3063:1 3069:1 3130:1 3152:1 3187:1 3204:1 3218:1 3344:1 3385:1 3602:1 3603:1 3617:1 3645:1 3704:1 3809:1 3834:1 3904:1 3931:1 3966:1 4017:1 4033:1 4151:1 4288:1 4353:1 4599:1 4775:1 4808:1 4851:1 4974:1 5138:1 5259:1 5290:1 5327:1 5426:1 5554:1 5557:1 5618:1 5650:1 5915:1 5980:1 6429:1 6445:1 6467:1 6756:1 6932:1 6965:1 6992:1 7120:1 7148:1 7254:1 #
0.0052498537036791076762498597929607 5:1 48:1 65:1 89:1 108:1 141:1 181:2 183:1 292:1 301:1 306:1 315:1 333:1 334:1 351:1 352:1 374:1 439:1 448:1 474:1 481:1 492:1 493:1 494:1 522:1 533:1 555:1 603:1 618:1 638:1 646:1 691:1 734:1 755:1 756:1 768:2 795:1 804:2 823:1 831:2 840:1 877:1 878:1 879:1 881:1 894:1 998:1 1010:1 1076:1 1198:1 1205:1 1219:1 1260:1 1266:1 1276:1 1317:1 1435:1 1512:1 1555:1 1556:1 1578:1 1579:1 1588:1 1709:1 1764:1 1775:1 1781:1 1844:1 1858:1 1971:1 1990:1 2084:1 2108:1 2111:1 2148:1 2222:1 2239:1 2266:1 2271:1 2301:1 2327:1 2362:1 2395:1 2398:1 2496:1 2497:1 2539:1 2552:1 2593:1 2594:1 2741:2 2766:1 2832:1 2843:1 2919:1 2982:1 2995:1 3034:1 3096:1 3153:1 3161:1 3339:1 3361:1 3370:1 3452:1 3637:1 3658:1 3698:1 3733:1 3748:1 3766:1 3771:1 3774:1 3825:1 3874:1 3886:1 4017:1 4137:1 4165:1 4271:1 4284:1 4380:1 4401:1 4419:1 4501:1 4518:1 4549:1 4562:1 4587:1 4669:1 4867:1 5049:1 5154:1 5243:1 5294:1 5456:1 5513:1 5531:1 5557:1 5565:1 5912:1 5985:1 5986:1 6036:1 6121:1 6357:1 6400:1 6449:1 6497:1 6530:1 6868:1 6982:1 6996:1 7347:1 7444:1 7751:1 7757:1 #
0.0031120217114375581420049332592725 6:1 7:1 8:1 9:1 10:1 14:1 17:1 18:1 55:1 61:1 73:1 91:1 92:1 145:1 205:1 209:1 264:1 265:1 343:1 363:1 396:1 400:1 401:1 440:1 479:1 500:1 501:1 502:1 511:1 533:1 536:1 552:1 555:1 600:1 601:1 613:1 614:1 623:1 635:1 653:1 667:1 691:1 692:1 693:1 733:1 756:1 768:1 775:1 776:1 777:1 778:1 857:1 894:1 929:1 930:1 965:1 1016:1 1039:1 1117:1 1147:1 1179:1 1290:1 1344:1 1409:1 1421:1 1422:1 1426:1 1457:1 1458:1 1472:1 1478:1 1481:1 1487:1 1504:1 1512:1 1524:1 1529:1 1545:1 1557:1 1559:1 1578:1 1599:2 1677:1 1701:1 1721:1 1730:1 1734:1 1866:1 1959:1 2052:1 2064:1 2098:1 2137:1 2156:1 2255:1 2318:1 2390:1 2410:1 2434:1 2471:1 2527:1 2564:1 2574:1 2658:1 2731:1 2919:2 2934:1 2935:1 2972:1 2975:1 2987:1 2988:1 3001:1 3063:1 3135:1 3307:1 3489:1 3616:1 3639:1 3736:1 3818:1 3853:1 3892:1 3893:1 3961:1 4017:1 4022:1 4074:1 4175:1 4182:1 4203:1 4222:1 4287:1 4349:1 4436:1 4548:1 4605:1 4629:1 4655:2 4663:1 4706:1 4719:1 4764:1 4876:1 4915:1 5010:1 5049:1 5208:1 5350:1 5585:1 5747:1 5823:1 5829:1 5947:1 5959:1 5986:1 6009:1 6036:1 6161:1 6212:1 6422:1 6615:1 6733:1 6793:1 7136:1 #
0.0020604805344085577213653071027011 3:1 4:1 5:1 6:1 7:1 8:1 9:1 10:1 14:1 15:1 18:1 43:1 44:1 66:1 68:1 69:2 73:1 90:1 91:1 146:1 312:1 313:1 343:1 352:1 357:1 362:1 377:1 401:1 415:1 458:1 493:1 495:1 501:1 502:1 541:1 562:1 563:1 564:1 599:1 614:1 635:1 652:1 653:1 691:1 692:1 693:1 694:1 756:1 768:1 802:2 834:1 882:1 897:1 910:1 929:1 987:1 996:1 1068:1 1070:1 1079:1 1083:1 1084:1 1178:1 1209:1 1213:1 1219:1 1245:1 1246:1 1377:1 1378:1 1434:1 1472:1 1481:1 1496:1 1516:1 1517:1 1518:1 1548:1 1557:1 1559:1 1578:2 1599:2 1656:1 1680:1 1701:1 1731:1 1732:1 1759:1 1795:1 1859:1 1878:1 1928:1 1929:1 1960:1 1997:1 2026:1 2032:1 2041:1 2045:1 2052:1 2072:1 2169:1 2175:1 2213:1 2300:1 2318:1 2327:1 2338:1 2347:1 2451:1 2503:1 2525:1 2593:1 2631:1 2639:1 2657:1 2665:1 2703:1 2731:1 2775:1 2905:1 2919:2 2935:1 2976:1 3063:1 3125:1 3182:1 3252:1 3309:1 3378:1 3438:1 3570:1 3646:1 3649:2 3825:1 3893:1 4026:1 4171:1 4175:1 4182:1 4349:1 4436:1 4457:1 4622:1 4769:1 4876:1 4892:1 5179:1 5213:1 5232:1 5585:1 5618:1 5728:1 5798:1 5854:1 6239:1 6450:1 6603:1 6617:1 6765:1 6766:1 #
0.0051310359694712722941623006533973 11:1 12:1 27:1 43:1 44:1 47:1 73:1 74:1 75:1 89:1 90:1 107:2 116:1 118:1 203:1 207:1 253:1 297:1 352:1 420:1 459:1 501:1 520:1 571:2 601:1 645:1 691:1 708:1 709:1 733:1 734:1 790:1 843:1 877:1 1096:1 1210:1 1219:1 1230:1 1244:1 1261:1 1290:1 1361:1 1421:1 1426:1 1471:1 1482:1 1485:1 1559:1 1586:1 1599:1 1622:1 1638:1 1667:1 1679:1 1713:1 1810:1 1812:1 1818:1 1835:1 1846:1 1892:1 1908:1 1979:1 2026:1 2033:1 2080:1 2081:1 2095:1 2096:1 2113:1 2145:1 2166:1 2174:1 2202:1 2246:1 2247:1 2327:1 2334:1 2361:1 2398:1 2413:1 2428:1 2439:1 2478:1 2485:1 2489:1 2582:1 2639:1 2643:1 2651:1 2658:1 2659:1 2691:1 2695:1 2807:1 2815:1 2931:1 3006:1 3054:1 3119:1 3177:1 3182:1 3205:1 3364:1 3430:1 3481:1 3509:2 3644:1 3733:1 3763:1 3818:1 3935:1 3967:1 3985:1 4049:1 4086:1 4156:1 4171:1 4176:1 4215:1 4228:1 4233:1 4236:1 4265:1 4270:1 4273:1 4279:1 4360:1 4362:1 4449:1 4469:1 4570:1 4800:1 4811:1 4878:1 5005:1 5049:2 5125:1 5213:1 5222:1 5320:1 5341:1 5350:1 5355:1 5484:1 5772:1 5826:1 5832:1 5991:2 6089:1 6177:1 6350:1 6431:1 6445:1 6575:1 6665:1 6684:1 6685:1 6726:1 6988:1 7369:1 #
0.00031182329599993899565263388851122 4:1 5:2 9:1 10:1 22:1 23:1 48:1 69:1 73:1 74:1 90:2 91:1 109:1 146:1 150:1 155:1 170:1 172:1 183:2 205:1 218:1 250:1 263:1 264:1 265:1 266:1 318:1 341:1 360:1 409:1 413:1 415:1 440:1 454:1 492:1 493:1 494:1 521:1 536:2 537:1 559:1 561:1 571:1 576:1 605:1 612:1 622:2 626:1 734:1 754:1 823:1 831:1 858:1 862:1 917:1 932:1 949:2 983:1 1015:1 1016:1 1080:1 1162:1 1220:1 1304:1 1305:1 1353:1 1380:1 1398:1 1404:1 1429:1 1512:1 1559:1 1561:1 1562:1 1599:1 1623:1 1632:1 1662:1 1673:1 1720:1 1759:1 1780:1 1844:1 1858:1 1955:1 1958:1 1981:1 2029:1 2049:1 2066:1 2131:1 2166:1 2232:1 2244:1 2254:2 2284:1 2306:1 2338:1 2385:1 2395:2 2398:1 2405:1 2415:1 2428:2 2517:1 2584:1 2585:1 2664:1 2775:1 2777:1 2788:1 2796:1 2881:1 2893:1 2930:1 2977:1 2986:1 2994:1 3016:1 3038:1 3050:1 3096:1 3176:1 3352:1 3414:1 3439:1 3504:1 3545:1 3594:1 3617:1 3720:1 3764:1 3899:1 3931:1 4063:1 4139:1 4209:2 4271:1 4331:1 4443:1 4490:1 4553:1 4738:1 4751:1 4763:1 5146:1 5421:1 5589:1 5612:1 5826:1 5935:1 6124:1 6194:1 6275:1 6559:1 6755:1 6863:1 7276:1 7366:1 #
-0.00020526795579512327580458397324747 11:1 15:1 17:1 39:1 40:1 41:1 48:1 70:1 78:1 80:1 119:1 150:1 159:1 181:1 245:1 263:1 283:1 303:1 358:1 360:1 366:2 382:1 387:1 413:1 427:1 432:1 471:1 477:1 505:1 522:1 525:1 536:1 537:1 543:1 551:1 611:1 620:1 670:1 688:1 690:1 693:1 723:1 731:1 743:1 748:1 772:1 779:1 793:1 862:1 864:1 866:1 872:1 881:1 907:1 908:1 935:1 939:2 951:1 957:1 965:1 969:1 977:1 986:1 1013:1 1018:1 1024:1 1026:1 1139:1 1140:1 1143:1 1155:1 1182:1 1189:1 1209:1 1237:1 1265:1 1325:1 1345:1 1365:1 1434:1 1463:1 1464:1 1482:1 1483:1 1487:2 1497:1 1512:1 1518:1 1524:1 1526:1 1569:1 1570:1 1578:1 1580:1 1584:1 1621:1 1634:1 1641:1 1656:1 1725:1 1728:1 1759:1 1784:1 1792:1 1815:1 1826:1 1832:1 1838:1 1908:1 1932:1 1936:1 1966:1 2065:1 2100:1 2111:1 2114:1 2115:1 2122:1 2123:1 2136:1 2149:1 2168:1 2175:1 2201:1 2220:1 2231:1 2232:1 2282:1 2316:2 2342:1 2347:1 2358:1 2378:1 2412:1 2431:1 2500:1 2518:1 2536:1 2542:1 2550:1 2597:1 2736:1 2812:1 2871:1 2889:1 2915:1 3028:2 3050:1 3060:1 3078:1 3079:1 3099:1 3102:1 3103:1 3114:1 3131:1 3139:1 3186:1 3201:1 3213:1 3218:1 3226:1 3243:1 3246:1 3328:1 3345:1 3348:1 3392:1 3562:1 3588:1 3634:1 3670:1 3706:1 3707:1 3863:1 3900:1 3951:1 4036:1 4090:1 4123:1 4163:1 4190:1 4240:1 4286:1 4324:1 4343:1 4348:1 4382:1 4391:1 4408:1 4458:1 4637:1 4666:2 4970:1 5032:1 5042:1 5146:1 5177:1 5205:1 5260:1 5274:1 5346:1 5355:1 5393:1 5495:1 5525:1 5554:1 5603:1 5650:1 5728:1 5730:1 5788:1 5792:1 5817:1 5823:1 5865:1 6123:1 6180:1 6220:1 6230:1 6284:1 6352:1 6365:1 6550:1 6615:1 6992:1 7003:1 7018:1 7062:1 7065:1 7071:1 7083:1 7115:1 7124:1 7136:1 7299:1 #
-0.00056854627794280458274317480160676 33:1 36:1 48:1 69:1 77:1 90:1 91:1 115:1 124:1 129:1 162:1 170:1 172:1 174:1 184:1 197:1 230:1 231:1 236:1 250:1 263:1 265:1 290:1 323:1 335:1 380:1 384:1 385:1 431:1 454:1 468:1 552:1 555:1 559:1 627:1 651:1 675:1 691:1 748:1 779:1 782:1 788:1 789:1 804:1 811:1 814:1 845:1 879:1 894:1 928:1 929:1 967:1 1000:1 1032:1 1078:1 1085:1 1088:1 1089:1 1113:1 1170:1 1181:1 1195:1 1301:1 1333:1 1335:1 1344:1 1369:1 1370:1 1393:1 1418:1 1435:1 1476:1 1500:1 1504:1 1572:1 1599:1 1658:1 1701:1 1718:1 1719:1 1727:1 1729:1 1805:1 1815:1 1873:1 1885:1 1908:1 1943:1 1987:1 1988:1 2026:1 2041:1 2094:1 2114:1 2115:1 2116:1 2123:1 2153:1 2157:1 2212:1 2233:1 2268:1 2310:1 2327:1 2337:1 2346:1 2359:1 2375:1 2477:1 2478:1 2537:1 2553:1 2588:1 2605:1 2658:1 2691:1 2740:1 2788:1 2833:1 2837:1 2922:1 2948:1 2980:1 2989:1 3000:1 3138:1 3170:1 3186:1 3203:1 3414:1 3431:1 3450:1 3493:1 3499:1 3500:1 3501:1 3502:1 3509:1 3569:1 3594:1 3615:1 3616:1 3624:1 3626:1 3635:1 3637:1 3638:1 3640:1 3662:1 3669:1 3714:1 3771:1 3834:1 3853:1 3855:1 3856:1 3868:1 3869:1 3895:1 3910:1 3919:1 3946:1 3968:1 3979:1 3983:1 4016:1 4018:1 4022:1 4066:1 4114:1 4115:1 4222:1 4248:1 4255:1 4442:1 4475:1 4668:1 4758:1 4772:1 4773:1 4774:1 4775:1 4776:1 4780:1 4781:1 4782:1 #
-0.00082411290641513565684989073290012 4:1 5:1 6:1 7:1 8:1 53:1 75:2 76:1 90:1 91:1 97:1 101:1 102:1 136:1 149:1 153:1 189:1 258:1 263:1 270:1 271:1 323:1 415:1 494:1 498:1 515:1 536:1 542:1 547:1 570:1 644:1 660:1 686:1 694:1 715:1 731:1 748:1 749:1 755:1 756:1 801:1 802:1 827:1 876:2 913:1 977:1 1015:1 1079:1 1085:1 1092:1 1097:2 1109:1 1116:1 1133:1 1229:1 1263:1 1291:1 1346:1 1352:1 1370:1 1373:1 1395:1 1452:1 1501:1 1530:1 1559:1 1576:1 1680:1 1681:1 1682:1 1683:4 1704:1 1709:1 1720:1 1779:1 1816:1 1913:1 1935:1 2016:1 2054:1 2268:2 2450:1 2575:1 2650:1 2689:1 2690:1 2692:1 2702:1 2719:1 2779:1 2790:1 2863:1 2904:1 2913:1 2946:1 2984:1 3016:1 3134:1 3211:1 3233:1 3250:1 3274:1 3438:1 3490:1 3569:1 3593:1 3614:1 3666:1 3707:1 3750:1 3835:1 3839:1 3902:1 3920:1 3977:1 4024:1 4113:1 4134:1 4135:1 4138:1 4205:1 4209:1 4222:1 4227:1 4254:1 4273:1 4346:1 4394:1 4485:1 4775:1 4800:1 4832:1 4848:1 5046:1 5316:1 5319:1 5583:1 5682:1 5861:1 5902:1 5939:1 5947:1 6009:1 6010:1 6109:1 6216:1 6326:1 6408:1 6914:1 7180:1 7186:1 7373:1 #
-0.00047056766005278919534626780318831 2:1 3:1 70:1 76:1 216:1 217:1 327:1 348:1 383:1 435:1 436:1 437:1 467:1 469:1 470:1 471:1 492:1 572:1 580:1 593:1 685:1 690:1 708:1 766:1 798:1 802:1 808:1 831:1 873:1 906:1 907:1 930:1 933:1 936:1 1010:1 1057:1 1091:1 1116:1 1146:1 1149:1 1237:1 1243:2 1266:1 1347:1 1361:1 1410:1 1425:1 1461:1 1471:1 1483:1 1497:1 1527:1 1529:1 1574:1 1575:1 1604:1 1606:1 1626:1 1629:1 1632:1 1645:1 1657:1 1697:1 1703:1 1718:1 1719:1 1724:1 1759:1 1762:1 1779:1 1792:1 1837:1 1882:1 1890:1 1892:1 1897:1 1924:1 1958:1 1969:1 1991:1 2026:1 2085:1 2123:1 2133:1 2153:1 2157:1 2188:1 2303:1 2331:1 2353:1 2358:1 2388:1 2427:1 2451:1 2516:1 2522:1 2523:1 2542:1 2585:1 2589:1 2593:1 2601:1 2618:1 2643:1 2671:1 2735:1 2777:1 2829:1 2832:1 2923:1 2925:1 2940:1 2973:1 2987:1 2988:1 3017:1 3051:1 3080:1 3099:1 3176:1 3211:1 3218:1 3244:1 3278:1 3478:1 3542:1 3648:1 3667:1 3696:1 3697:1 3838:1 3988:1 4031:1 4037:1 4078:1 4082:1 4083:1 4112:1 4203:1 4272:1 4282:1 4344:1 4349:1 4457:1 4460:1 4495:1 4570:1 4584:1 4743:1 4744:1 4821:1 4890:1 4891:1 4915:1 5146:1 5215:1 5245:1 5369:1 5554:1 5618:1 5638:1 5741:1 5857:1 5935:1 6368:1 6501:1 6566:1 6676:1 6754:1 6780:1 6931:1 6992:1 7062:1 #
-0.00048456225054719932049396291517951 5:1 9:1 10:1 15:1 24:1 37:1 39:1 41:1 42:1 51:1 52:1 53:1 65:1 74:1 85:1 101:1 117:1 118:1 119:1 136:1 137:1 145:1 146:1 155:1 169:1 171:1 172:1 173:2 196:1 197:1 264:1 265:1 371:1 434:1 435:1 436:1 456:1 470:1 471:1 478:1 479:1 492:1 493:1 494:1 513:1 514:1 515:1 518:1 548:1 551:1 572:1 575:1 591:1 612:1 613:1 693:1 702:1 756:1 780:1 824:1 828:1 835:1 836:1 909:1 917:1 921:1 929:1 973:1 974:1 1039:1 1072:1 1118:1 1132:1 1174:1 1188:1 1219:1 1229:1 1255:1 1272:1 1286:1 1309:1 1317:1 1345:1 1353:1 1361:1 1388:1 1395:1 1410:1 1423:1 1516:1 1552:1 1557:1 1586:1 1620:1 1706:1 1707:1 1708:1 1709:1 1710:1 1716:1 1757:1 1764:1 1849:1 1882:1 1902:1 1915:1 1952:2 1955:1 2007:1 2011:1 2014:1 2015:1 2016:1 2017:1 2018:1 2019:1 2022:1 2023:1 2024:1 2025:1 2026:1 2032:1 2033:1 2034:1 2036:1 2037:1 2038:1 2119:1 2120:1 2174:1 2175:1 2176:1 2177:1 2178:1 2179:1 2180:1 2181:1 2182:1 2183:1 2184:1 2185:1 2186:1 2187:1 2188:1 2189:1 2190:1 2191:1 2192:1 2193:1 2194:1 2195:1 2196:1 2197:1 2198:1 2199:1 #
0.004512652412274054981866644453703 5:1 17:1 33:1 73:1 78:1 79:1 147:1 177:1 181:1 238:1 250:1 264:1 299:1 300:1 301:1 373:1 379:1 411:1 412:1 431:1 436:1 439:1 453:1 490:1 525:1 539:1 571:1 605:1 685:1 733:1 734:1 774:1 800:1 804:1 812:1 829:1 830:1 866:1 882:2 883:1 884:1 885:1 888:1 956:1 957:1 1049:1 1068:1 1202:1 1209:1 1226:1 1230:1 1287:1 1422:1 1435:1 1436:1 1449:1 1500:1 1545:1 1559:1 1577:1 1579:1 1599:1 1637:1 1651:1 1654:1 1709:1 1723:1 1746:1 1831:1 1832:1 1847:1 1861:1 1929:1 2038:1 2055:1 2086:1 2134:1 2209:1 2296:1 2300:1 2324:1 2326:1 2330:1 2377:1 2424:1 2425:1 2463:2 2471:1 2483:1 2533:1 2593:1 2597:1 2598:1 2619:1 2635:1 2672:1 2695:1 2772:1 2830:1 3034:1 3069:2 3154:1 3161:1 3169:1 3185:1 3212:1 3413:1 3430:1 3470:1 3589:1 3635:1 3667:1 3669:1 3697:1 3772:1 3777:1 3810:1 3871:1 3875:1 3944:1 3958:1 4053:1 4081:1 4085:1 4190:1 4201:1 4277:1 4297:1 4343:1 4360:1 4516:1 4577:1 4611:1 4660:1 4751:1 4763:1 4810:1 4849:1 4860:1 4949:1 5040:1 5172:1 5191:1 5219:1 5306:1 5392:1 5522:1 5631:1 5677:1 5700:1 5712:1 5781:1 5829:1 5877:1 5879:1 5960:1 6054:1 6056:1 6112:1 6127:1 6175:1 6464:1 6565:1 6824:1 7292:1 7351:1 7761:1 #
0.0052498537036791076762498597929607 2:1 13:1 14:1 17:1 21:1 22:1 73:1 76:1 171:1 264:1 265:1 313:1 328:1 337:1 353:1 354:1 373:1 395:1 409:1 424:1 426:1 468:1 521:1 571:1 624:1 682:1 708:1 709:1 734:1 804:1 819:1 839:1 847:1 848:1 857:1 870:1 897:1 929:1 981:1 987:1 1056:1 1095:1 1114:1 1126:1 1190:1 1200:1 1214:1 1226:1 1243:1 1253:1 1290:1 1318:1 1330:1 1352:1 1424:1 1434:1 1435:1 1559:1 1572:1 1576:1 1599:1 1655:1 1656:1 1680:1 1705:1 1709:1 1851:1 1886:1 1902:1 1914:1 1934:1 1946:1 1949:1 1987:1 1989:1 2049:1 2204:1 2308:1 2312:1 2318:1 2332:1 2334:1 2342:1 2376:1 2402:1 2431:1 2451:1 2461:1 2483:1 2486:1 2496:1 2500:1 2539:1 2562:1 2607:1 2678:1 2685:1 2702:1 2705:1 2743:1 2805:1 2883:1 2935:1 2989:1 3007:1 3020:1 3086:1 3109:1 3259:1 3292:1 3385:1 3402:1 3465:1 3470:1 3487:1 3490:1 3491:1 3588:1 3655:2 3669:1 3726:1 3733:1 3735:1 3795:1 3802:1 3814:1 3867:1 4021:1 4046:1 4120:1 4175:1 4191:1 4240:1 4335:1 4336:1 4343:1 4344:1 4347:1 4390:1 4460:1 4553:1 4597:1 4599:1 4688:1 4751:1 4885:1 5153:1 5176:1 5266:1 5608:1 5798:1 5939:1 6080:1 6085:1 6112:1 6148:1 6555:1 6960:1 6992:1 7025:1 7034:1 7204:1 7265:1 7394:1 7664:1 #
0.0052498537036791076762498597929607 4:1 5:1 11:1 32:1 70:1 73:1 75:1 79:1 101:1 102:1 107:1 108:1 119:1 127:1 141:1 264:1 265:1 313:1 344:1 395:1 413:1 424:1 451:1 470:1 471:1 532:1 536:2 555:1 562:1 623:1 624:1 625:1 627:1 668:1 693:1 731:1 755:1 756:1 766:1 803:1 825:1 889:1 936:1 983:1 1010:1 1018:1 1021:1 1054:1 1095:1 1098:2 1173:1 1210:1 1214:1 1219:1 1290:1 1421:1 1423:1 1430:1 1431:1 1440:1 1472:1 1534:1 1563:1 1586:1 1589:1 1622:1 1632:2 1709:1 1710:1 1719:1 1727:1 1730:1 1741:1 1828:1 1861:1 1921:1 1940:1 1984:1 1991:1 1997:1 2009:1 2026:1 2055:1 2064:1 2122:1 2126:1 2138:1 2187:1 2193:1 2318:1 2336:1 2415:1 2418:1 2433:1 2618:1 2636:1 2637:1 2643:1 2658:1 2687:1 2793:1 2848:1 2850:1 3016:1 3037:1 3099:1 3125:1 3126:1 3182:1 3341:1 3401:1 3515:1 3535:1 3658:1 3990:1 3994:1 4038:1 4171:1 4209:1 4264:1 4272:1 4387:1 4404:1 4419:1 4570:1 4736:1 4751:1 4890:1 4916:1 5072:1 5076:1 5145:1 5290:1 5364:1 5413:1 5481:1 5572:1 5653:1 5700:1 5711:1 5729:1 5859:1 5966:1 5977:1 5991:1 6164:1 6337:1 6431:1 6588:1 6869:1 6961:1 7035:1 7132:1 7210:1 7565:1 7747:1 #
0.00225836975950534368795530326679 8:1 11:1 12:1 13:1 26:1 27:1 43:1 73:1 74:1 75:1 89:1 90:1 119:1 201:1 209:1 218:1 219:1 220:1 238:1 253:1 299:1 303:1 305:1 306:1 376:1 377:1 388:1 415:1 491:1 492:1 493:1 494:1 530:1 544:1 555:1 584:1 601:1 606:1 607:1 608:1 609:1 648:1 652:1 655:1 656:1 686:1 761:1 780:1 783:1 784:1 819:1 820:1 829:1 897:1 932:1 1017:1 1021:1 1033:1 1050:1 1051:1 1080:1 1116:1 1164:1 1219:1 1243:1 1247:1 1248:1 1353:1 1375:1 1386:1 1387:1 1461:1 1496:1 1503:1 1513:1 1535:2 1550:1 1551:1 1559:1 1573:1 1599:1 1621:1 1700:1 1704:1 1794:1 1876:1 1879:1 1908:1 1961:1 1991:1 2016:1 2026:1 2033:1 2148:1 2157:1 2167:1 2203:1 2258:1 2290:1 2310:1 2373:1 2375:1 2391:1 2437:1 2537:1 2603:1 2660:1 2691:1 2773:1 2821:1 2960:1 2986:1 3015:1 3016:1 3042:1 3080:1 3211:1 3379:1 3491:1 3495:1 3586:1 3640:1 3667:1 3745:1 3783:1 3784:1 3814:1 3869:1 3886:1 3902:2 4016:1 4171:1 4208:1 4297:1 4392:1 4403:1 4412:1 4425:1 4521:1 4568:1 4751:1 4768:1 4803:1 4827:1 5012:1 5040:1 5265:1 5331:1 5480:1 5676:1 5850:1 5867:1 5906:1 5961:1 6194:1 6221:1 6464:1 6945:1 7025:1 7097:1 7120:1 7405:1 #
0.0014178404188161827619019117463495 2:1 4:1 13:1 26:1 69:1 73:1 89:1 90:2 91:1 95:1 96:1 166:1 191:1 192:1 201:1 238:1 245:1 401:1 409:1 412:1 430:1 451:1 467:1 468:1 469:1 491:2 492:1 493:1 499:1 504:1 612:1 627:2 632:1 643:1 645:1 705:1 706:1 733:1 739:1 749:1 766:1 812:1 829:1 830:1 858:1 915:1 922:1 923:1 926:1 927:1 992:1 994:1 1051:1 1062:1 1079:1 1084:1 1085:1 1120:1 1168:1 1258:1 1263:1 1363:1 1385:1 1394:1 1416:1 1417:1 1426:1 1440:1 1448:1 1496:1 1503:1 1529:1 1530:1 1559:1 1572:1 1599:1 1603:1 1604:1 1634:1 1709:1 1727:1 1748:1 1794:1 1858:1 1894:1 1955:1 1976:1 1998:1 2016:1 2023:1 2045:1 2046:1 2071:1 2081:1 2103:1 2167:1 2258:1 2310:1 2320:1 2373:2 2451:1 2479:1 2490:1 2539:1 2577:1 2582:1 2613:1 2618:1 2645:1 2655:1 2787:1 2902:1 2934:1 2975:1 2976:1 3010:1 3050:1 3065:1 3120:1 3213:1 3431:1 3439:1 3510:1 3586:1 3775:1 3922:1 3976:1 4138:1 4216:1 4271:1 4403:1 4428:1 4434:1 4449:1 4699:1 4722:1 4751:1 4768:1 4876:1 4894:1 4950:1 5078:1 5258:1 5380:1 5478:1 5507:1 5593:1 5887:1 5974:1 5975:1 6112:1 6211:1 6339:1 6352:1 6824:1 6924:1 7065:1 7097:1 7120:1 #
-0.00030887446152327098676526606624293 9:1 39:1 58:1 75:1 105:1 108:1 110:1 147:1 152:1 166:1 191:1 202:1 217:1 238:1 281:1 312:1 313:1 391:1 449:1 518:1 543:1 555:1 557:1 622:1 623:1 624:1 625:1 626:1 641:1 642:1 663:1 705:1 740:1 741:1 790:1 801:1 804:1 821:1 823:1 825:1 831:1 872:1 875:1 878:1 881:1 922:1 923:1 965:1 970:1 987:1 1043:1 1057:1 1084:1 1116:1 1121:1 1154:1 1170:1 1196:1 1201:1 1224:1 1239:1 1243:1 1305:1 1346:1 1347:1 1358:1 1365:1 1410:1 1416:1 1421:1 1424:1 1432:1 1449:1 1483:1 1486:1 1524:1 1535:1 1551:1 1578:1 1617:1 1634:2 1657:1 1667:1 1680:1 1720:1 1750:1 1835:1 1879:1 1914:1 1918:1 1928:1 1935:1 2004:1 2031:1 2049:1 2064:1 2144:1 2148:1 2155:1 2162:1 2164:1 2194:1 2221:1 2347:1 2358:1 2398:1 2405:1 2451:1 2465:1 2466:1 2612:1 2615:1 2618:1 2634:1 2643:1 2658:1 2701:1 2732:1 2740:1 2752:1 2788:1 2790:1 2791:1 2805:1 2830:1 2888:1 2907:1 2917:1 2970:1 2979:1 3003:1 3150:1 3159:1 3161:1 3209:1 3240:1 3299:1 3398:1 3443:1 3534:1 3541:1 3610:1 3670:1 3684:1 3696:1 3735:1 3776:1 3859:1 3896:1 3932:1 4071:1 4137:1 4138:1 4174:1 4191:1 4209:1 4238:1 4239:1 4316:1 4366:1 4457:1 4496:1 4517:1 4616:1 4820:1 4851:1 4876:1 4893:1 4894:1 4985:1 5047:1 5060:1 5162:1 5239:1 5520:1 5662:1 5859:1 6018:1 6215:1 6232:1 6256:1 6315:1 6423:1 6431:1 6452:1 6596:1 6696:1 6717:1 6781:1 6804:1 6850:1 6875:1 7018:1 7062:1 7070:1 7071:1 7076:1 7077:1 #
-0.0030182417744063871727078218754059 8:1 9:1 10:1 34:1 35:1 36:1 37:1 41:1 45:1 49:1 59:1 69:1 73:1 101:1 116:1 153:1 154:1 157:1 172:1 173:1 198:1 220:1 245:1 298:1 311:1 373:1 388:1 410:1 417:1 434:1 435:1 436:2 516:1 532:1 552:1 555:1 605:1 611:1 612:1 624:1 685:1 694:1 711:1 729:1 740:1 743:1 749:1 783:1 790:1 791:1 792:1 802:1 863:1 897:1 922:1 923:1 935:1 964:1 1054:1 1055:1 1079:1 1106:1 1190:1 1195:1 1226:1 1243:1 1252:1 1271:1 1329:1 1330:1 1362:1 1363:1 1364:1 1476:1 1505:1 1516:1 1519:1 1533:1 1537:1 1550:1 1553:2 1562:1 1577:1 1583:1 1589:1 1590:1 1591:1 1592:1 1597:1 1599:1 1609:1 1610:1 1631:1 1651:1 1678:1 1709:1 1710:1 1735:1 1750:1 1759:1 1831:1 1832:1 1859:1 1954:1 2029:1 2030:1 2042:1 2104:1 2154:1 2167:1 2175:1 2218:1 2303:1 2310:1 2316:1 2317:1 2318:1 2319:1 2320:1 2321:1 2322:1 2330:1 2339:1 2342:1 2343:1 2344:1 2424:1 2425:1 2426:1 2427:1 2428:1 2429:1 2430:1 2431:1 2432:1 2433:1 2434:1 2435:1 2436:1 2437:1 2438:1 2439:1 2440:1 2441:1 2442:1 2443:1 2444:1 2445:1 2446:1 2447:1 2448:1 2449:1 2450:1 2451:1 2452:1 #
-0.00097685426280965672284073431086426 18:1 33:1 39:1 40:1 41:1 47:1 48:1 111:1 143:1 192:1 219:1 264:1 290:1 334:1 343:1 352:1 402:1 409:1 523:1 536:1 537:1 545:1 547:1 549:1 579:1 594:1 607:1 626:1 627:1 645:1 706:1 740:1 750:1 766:1 768:1 778:1 787:1 839:1 843:1 847:1 877:1 878:1 907:1 930:1 931:1 969:1 1039:1 1040:1 1056:1 1115:1 1154:1 1174:1 1234:1 1243:1 1244:1 1261:1 1297:1 1325:1 1345:1 1371:1 1391:1 1405:1 1415:1 1434:1 1457:1 1476:1 1482:1 1493:1 1524:1 1529:1 1530:1 1533:1 1539:1 1577:1 1599:1 1642:1 1658:1 1672:1 1723:1 1756:1 1759:1 1768:1 1826:1 1879:1 1914:1 1941:1 1958:1 1961:1 1970:1 2046:1 2082:1 2193:1 2218:1 2231:1 2233:1 2266:1 2268:1 2269:1 2304:1 2309:1 2316:1 2330:1 2337:1 2342:1 2358:1 2406:1 2418:1 2422:1 2445:1 2471:2 2503:1 2522:1 2543:1 2631:1 2655:1 2665:1 2671:1 2674:1 2702:1 2748:1 2773:1 2840:1 2894:1 2908:1 2946:1 2957:1 2962:1 2970:1 2975:1 2987:1 2990:1 2994:1 3055:1 3134:1 3135:1 3159:1 3177:1 3178:1 3183:1 3232:1 3240:1 3279:1 3436:1 3443:1 3447:1 3459:1 3510:1 3532:1 3561:1 3646:1 3651:1 3696:1 3743:1 3755:1 3764:1 3821:1 3852:1 3863:1 3919:1 3982:1 4080:1 4108:1 4172:1 4207:1 4227:1 4228:1 4263:1 4273:1 4334:1 4345:1 4403:1 4435:1 4460:1 4536:1 4611:1 4744:1 4859:1 4861:1 4876:1 4894:1 4921:1 4980:2 5102:1 5206:1 5279:1 5464:1 5553:1 5648:1 5653:1 5681:1 5868:1 5930:1 6175:1 6183:1 6371:1 6651:1 6931:1 6992:1 7105:1 #
-0.00043987809151830675963648631388025 2:1 14:1 39:1 40:1 41:1 50:1 69:1 72:1 85:1 131:1 144:1 149:1 166:1 213:1 343:1 384:1 414:1 432:1 462:1 490:1 501:1 524:1 563:1 610:1 611:1 619:1 651:1 660:1 676:1 684:1 717:1 747:1 776:1 810:1 813:1 814:1 828:1 870:1 872:1 875:1 889:1 929:1 945:1 946:1 965:1 1040:1 1067:2 1106:1 1107:1 1154:1 1162:1 1190:1 1210:1 1219:1 1243:1 1257:1 1282:1 1325:1 1329:1 1336:1 1424:1 1454:1 1574:2 1580:1 1581:1 1582:1 1606:1 1635:1 1673:1 1890:1 1907:1 1960:1 1976:1 2000:1 2003:1 2011:1 2025:1 2026:1 2030:1 2032:1 2080:1 2087:1 2133:1 2137:1 2174:1 2175:1 2187:1 2209:1 2249:1 2268:1 2269:1 2270:1 2303:1 2335:1 2365:1 2375:1 2376:1 2377:1 2453:1 2515:1 2556:1 2575:1 2657:1 2679:1 2688:1 2695:1 2702:1 2723:1 2779:1 2890:1 2891:1 2898:1 2901:1 2913:1 2914:2 2919:1 2952:1 2963:1 2981:1 2991:1 3051:1 3071:1 3094:1 3099:1 3114:1 3138:1 3149:1 3163:1 3181:1 3249:1 3330:1 3361:1 3370:1 3390:1 3430:2 3483:2 3484:1 3496:1 3529:1 3607:1 3644:1 3684:1 3697:1 3698:1 3737:1 3748:1 3766:1 3776:1 3825:1 3874:1 3903:1 3962:1 3974:1 4059:1 4090:1 4108:1 4172:1 4176:1 4190:1 4209:1 4214:1 4222:1 4260:1 4290:1 4296:1 4331:1 4340:1 4341:1 4396:1 4402:1 4406:1 4408:1 4437:1 4445:1 4464:1 4498:1 4511:1 4550:1 4567:2 4587:1 4605:1 4618:1 4655:1 4666:1 4717:1 4737:1 4766:1 4768:1 4769:1 4806:2 4853:1 4877:1 4894:1 4922:1 4965:1 5024:1 5056:1 5144:1 5223:1 5315:1 5345:1 5386:1 5486:2 5550:1 5639:1 5654:1 5788:1 5792:1 5798:1 5820:1 6031:1 6059:1 6095:1 6107:1 6285:2 6326:1 6362:1 6389:1 6417:1 6586:1 6733:1 6832:1 6855:1 7018:1 7068:1 7108:1 7109:1 7110:1 7111:1 7112:1 7120:1 7121:1 7122:1 7123:1 #
-0.0012871959465053785069688085940243 39:1 58:1 64:1 73:1 80:1 90:1 108:1 109:1 110:1 147:1 152:1 189:1 217:3 218:1 238:1 296:1 313:1 391:1 394:1 449:1 518:1 544:1 557:1 619:1 622:1 623:1 624:1 625:1 626:1 641:1 642:1 646:1 647:1 698:1 741:1 801:1 802:1 804:1 821:1 825:1 831:1 864:1 872:1 878:1 922:1 923:1 987:1 990:1 1056:2 1057:1 1084:1 1088:1 1135:1 1146:1 1196:1 1201:1 1239:1 1305:1 1346:3 1358:1 1365:1 1408:1 1410:1 1416:1 1421:1 1432:1 1449:1 1464:1 1483:1 1497:1 1524:1 1535:1 1551:1 1575:1 1578:1 1617:1 1657:1 1670:1 1701:1 1702:1 1720:1 1759:1 1770:1 1807:1 1815:1 1858:1 1879:1 1918:1 1928:1 1935:1 1955:1 1978:1 1996:1 2004:1 2031:1 2049:1 2064:1 2139:1 2148:1 2155:1 2189:1 2203:1 2218:1 2293:1 2301:1 2347:1 2358:1 2389:1 2398:1 2415:1 2434:1 2451:1 2593:2 2618:1 2634:1 2640:1 2658:1 2787:1 2791:1 2804:1 2851:1 2888:1 2917:1 2936:1 2970:1 2982:1 2984:1 3001:1 3049:1 3161:1 3194:1 3218:1 3240:1 3283:1 3297:1 3299:1 3398:1 3414:1 3443:1 3477:1 3489:1 3534:1 3541:1 3614:1 3649:1 3696:1 3826:1 3827:1 3932:1 4036:1 4078:1 4137:1 4138:2 4174:1 4238:1 4366:1 4438:1 4457:1 4496:1 4517:1 4570:1 4616:1 4740:1 4870:1 4876:1 4884:1 4893:1 4894:1 4985:1 5047:1 5060:1 5138:1 5162:1 5342:1 5485:1 6080:1 6215:1 6232:1 6315:1 6431:1 6596:1 6696:1 6717:1 6804:1 6850:1 6875:1 6931:1 7062:1 7071:1 7076:1 7077:1 7078:1 #
-9.3612801860038720078681373504281e-05 6:1 7:1 8:1 23:1 52:1 69:1 97:1 147:1 173:1 175:1 262:1 323:1 336:1 363:1 378:1 388:1 396:1 411:1 415:1 427:1 542:1 576:1 587:1 588:1 610:1 613:1 623:1 624:1 750:1 804:1 819:1 846:1 883:1 891:1 929:1 983:1 1013:1 1014:1 1021:1 1032:1 1097:1 1098:1 1126:1 1291:1 1346:1 1370:1 1371:1 1400:1 1401:1 1525:1 1533:1 1539:1 1551:1 1552:1 1559:1 1599:1 1635:2 1759:1 1796:1 1872:1 1878:1 1904:1 1945:1 1961:1 1984:1 2016:1 2068:1 2094:1 2266:1 2344:1 2345:1 2370:1 2429:1 2450:1 2461:1 2490:1 2493:1 2534:1 2548:1 2549:1 2623:1 2692:1 2702:1 2878:1 2939:1 2957:1 2984:1 3224:1 3273:1 3290:1 3308:1 3318:1 3376:1 3482:1 3484:1 3559:1 3570:1 3666:1 3672:1 3693:1 3711:1 3724:1 3737:1 3775:2 3776:1 3837:1 3861:1 3863:1 3871:1 3892:1 3942:1 3943:1 3946:1 4049:1 4071:1 4165:1 4170:1 4175:1 4312:1 4321:1 4360:1 4485:1 4523:1 4561:1 4567:1 4577:1 4735:1 4785:1 4800:1 5485:1 5539:1 5621:1 5663:1 5807:1 5877:1 5881:1 5937:1 6011:1 6297:1 6409:1 6458:1 6548:1 6909:1 7538:1 7656:1 #
0.0050611351642637350187192701866934 24:1 33:1 48:1 64:1 69:1 73:1 74:1 119:1 173:1 182:1 184:1 217:1 219:1 250:1 299:1 303:1 342:1 380:1 383:1 454:1 480:1 492:1 493:1 495:1 504:1 505:1 535:1 536:1 554:1 561:2 609:1 612:1 620:1 622:1 623:1 644:1 672:1 734:1 743:1 780:1 783:1 801:1 803:1 845:1 854:1 933:1 949:1 976:1 987:1 988:1 997:1 1031:1 1033:1 1036:1 1055:1 1126:1 1170:1 1184:1 1251:1 1255:1 1295:1 1307:1 1347:1 1348:1 1351:1 1363:1 1371:1 1387:1 1424:1 1469:1 1485:1 1503:1 1541:1 1559:1 1589:1 1599:1 1617:1 1709:1 1727:1 1729:1 1762:1 1769:1 1815:1 1831:1 1951:1 1955:1 1959:2 1960:1 1981:1 2021:1 2031:1 2055:1 2094:1 2258:1 2329:1 2342:1 2349:1 2385:1 2392:1 2429:1 2432:1 2470:1 2511:1 2537:1 2559:1 2579:1 2739:1 2873:1 2875:1 2889:1 2918:1 2976:1 3050:1 3146:1 3179:1 3273:1 3291:1 3307:1 3402:1 3428:1 3635:1 3737:1 3860:1 3874:1 3948:1 4036:1 4044:1 4258:1 4321:1 4403:1 4420:1 4666:1 4736:1 4756:1 4870:1 4933:1 5012:1 5043:1 5093:1 5146:1 5167:1 5215:1 5274:1 5393:1 5409:1 5480:1 5486:1 5507:1 5547:1 5764:1 5774:1 5935:1 6009:1 6030:1 6041:1 6110:1 6282:1 6357:1 6445:1 6992:1 7025:1 7120:1 #
0.0011032725716535027229298071560493 6:1 7:2 8:1 9:1 10:1 25:1 48:1 68:2 69:2 72:1 73:1 74:1 75:1 90:2 108:1 128:1 149:1 172:1 183:1 199:1 270:1 300:2 344:1 352:1 358:1 371:1 378:2 439:1 467:1 468:1 486:1 489:1 493:1 494:1 495:1 504:1 511:1 533:1 536:1 564:1 567:1 571:1 601:1 608:1 612:1 623:1 626:1 635:1 644:1 713:1 718:1 734:1 735:1 745:1 775:1 801:2 802:1 803:1 819:1 831:1 890:1 916:1 917:1 930:1 1007:1 1010:1 1016:1 1026:1 1062:1 1079:1 1085:1 1103:1 1257:1 1309:1 1314:1 1357:1 1364:1 1389:1 1396:1 1426:1 1462:1 1478:1 1512:1 1524:1 1559:1 1599:1 1632:1 1645:1 1677:1 1691:1 1709:1 1779:1 1780:1 1889:1 1892:1 1896:1 1919:1 1977:1 1978:1 2010:1 2042:1 2055:1 2072:1 2123:1 2167:1 2235:1 2346:1 2373:1 2461:1 2547:1 2574:1 2631:1 2654:1 2694:1 2706:1 2809:1 2812:1 2813:1 2814:1 2860:1 2897:1 3016:1 3033:1 3034:1 3050:1 3136:1 3152:1 3202:1 3223:1 3255:1 3307:1 3467:1 3589:1 3681:1 3783:1 3993:1 4087:1 4160:1 4233:1 4360:1 4413:1 4436:1 4481:1 4552:1 4614:1 4629:1 4761:1 4892:1 4928:1 5130:1 5172:1 5491:1 5522:1 5877:1 5898:1 6110:1 6112:1 6357:1 6574:1 6859:1 #
0.0036691392331152220852852341437256 16:1 17:1 26:1 59:1 69:1 73:1 86:1 90:1 184:1 250:1 270:1 291:1 333:1 393:1 424:1 439:1 491:1 492:1 493:1 494:1 505:1 532:1 552:1 611:1 612:1 629:1 643:1 742:1 775:1 841:1 854:1 941:1 1019:1 1041:1 1084:1 1257:1 1275:1 1276:1 1348:1 1371:1 1385:1 1393:1 1414:1 1424:1 1435:1 1436:1 1459:1 1550:1 1559:1 1563:1 1573:1 1596:1 1599:1 1687:1 1709:1 1727:1 1807:1 1830:1 1871:1 1879:1 1931:1 2003:1 2012:1 2024:1 2027:1 2034:1 2039:1 2082:1 2113:1 2167:1 2233:1 2240:1 2304:1 2347:1 2349:1 2375:1 2398:1 2434:1 2438:1 2444:1 2457:1 2515:1 2536:1 2537:1 2539:1 2550:1 2672:1 2714:1 2760:1 2799:1 2810:1 2929:1 2994:1 3034:1 3050:1 3054:1 3079:1 3114:1 3127:1 3161:1 3183:1 3222:1 3249:1 3296:1 3375:1 3392:1 3455:1 3468:1 3474:1 3495:1 3570:1 3586:1 3603:1 3611:1 3635:1 3745:1 3771:1 3825:1 3827:1 3886:1 3944:1 4063:1 4233:1 4322:1 4344:1 4357:1 4403:1 4520:1 4550:1 4572:1 4594:1 4660:1 4691:1 4722:2 4728:1 4752:1 4764:1 4768:1 4884:1 4903:1 5004:1 5013:1 5021:1 5043:1 5062:1 5082:1 5146:1 5269:1 5347:1 5426:1 5433:1 5531:1 5839:1 5996:1 6023:1 6026:1 6112:1 6118:1 6276:1 6357:1 6416:1 6481:1 7097:1 7183:1 7415:1 #
0.0010624936632196099479258366571344 3:1 24:1 25:1 53:1 69:1 73:1 119:1 154:1 156:1 183:1 190:1 196:1 206:1 238:1 242:1 264:1 265:1 302:1 341:1 449:1 480:1 504:1 522:1 531:1 532:1 535:1 625:1 644:2 692:1 693:1 705:1 708:1 709:1 733:1 754:1 825:1 826:1 829:1 848:1 882:1 887:1 909:1 968:1 982:1 983:1 1017:1 1050:1 1053:1 1107:1 1126:1 1128:1 1129:2 1150:1 1180:1 1210:1 1211:1 1230:1 1267:1 1291:1 1357:1 1386:1 1395:1 1421:1 1422:1 1430:1 1455:2 1461:1 1463:1 1469:1 1525:1 1534:1 1559:1 1561:1 1599:1 1601:1 1602:1 1621:1 1632:1 1715:1 1721:1 1730:1 1759:1 1816:1 1831:2 1832:1 1844:1 1861:1 1879:1 1940:1 1991:1 1998:1 2042:1 2090:1 2095:1 2096:1 2140:1 2236:2 2268:1 2318:1 2330:1 2357:1 2431:1 2451:1 2471:1 2474:1 2539:1 2597:1 2598:1 2602:1 2656:1 2659:1 2661:1 2681:1 2703:1 2761:1 2780:1 2820:1 2915:1 2929:1 2938:1 3016:1 3086:1 3091:1 3223:1 3257:1 3273:1 3371:1 3376:1 3433:1 3439:1 3475:1 3487:1 3489:1 3491:1 3595:1 3659:1 3736:1 3749:1 3852:1 3875:1 3943:1 3994:1 4072:1 4152:1 4225:1 4331:1 4751:1 4806:1 4890:1 5203:1 5429:1 5628:1 5846:1 5986:1 6112:1 6508:1 6559:1 7709:1 #
-0.0039724722754450473086174078218846 5:1 9:1 15:1 32:1 33:1 37:1 38:1 39:2 40:1 41:1 42:1 43:1 44:1 45:1 60:1 64:1 65:1 69:1 73:1 74:1 90:1 117:1 118:1 119:1 136:1 137:1 145:1 169:1 171:1 196:1 197:1 204:1 250:2 301:1 340:1 380:1 403:1 411:1 466:1 470:1 471:1 492:1 493:1 494:1 505:1 508:1 523:1 608:1 612:1 627:1 632:1 655:1 668:1 693:1 698:1 702:1 756:1 780:1 824:1 828:1 889:1 908:1 921:1 930:1 932:1 956:1 973:1 974:1 988:1 1132:1 1183:1 1226:1 1286:1 1323:1 1324:1 1346:1 1353:1 1361:1 1371:1 1373:1 1378:1 1379:1 1387:1 1395:1 1423:1 1494:1 1586:1 1621:1 1660:1 1661:1 1709:1 1710:1 1723:1 1724:1 1728:1 1759:1 1789:1 1836:1 1849:1 1885:1 1897:1 1955:1 1980:1 2017:1 2018:1 2019:1 2031:1 2032:1 2033:1 2044:1 2047:1 2105:1 2106:1 2116:1 2120:1 2129:1 2130:1 2134:1 2142:1 2143:1 2165:1 2166:1 2195:1 2211:1 2225:1 2330:1 2354:2 2400:1 2415:1 2434:1 2517:1 2518:1 2519:1 2520:1 2521:1 2522:1 2523:1 2524:1 2525:1 2526:1 2527:1 2528:1 2529:1 2530:1 2531:1 2532:1 2533:1 2534:1 2535:1 2536:1 2537:1 2538:1 2539:1 #
-0.00086849269642296574207851467264163 10:1 59:1 61:1 87:1 90:1 91:1 130:1 172:1 203:1 210:1 323:1 335:1 383:1 384:1 385:1 386:1 448:1 475:1 551:1 569:1 623:1 639:1 795:1 828:1 829:1 837:1 858:1 881:1 894:1 920:1 969:1 1032:1 1055:1 1098:1 1118:1 1119:1 1202:1 1222:1 1231:1 1248:1 1257:1 1258:1 1266:1 1274:1 1275:1 1291:1 1309:1 1353:1 1357:1 1380:1 1392:1 1450:2 1452:1 1456:1 1472:1 1485:1 1524:1 1539:1 1540:2 1559:1 1560:1 1599:1 1662:1 1668:1 1697:1 1766:1 1794:1 1801:1 1836:1 1843:1 1859:1 1908:1 2026:1 2032:1 2096:1 2271:1 2423:1 2444:1 2450:1 2487:1 2490:1 2549:1 2567:1 2577:2 2647:1 2660:1 2688:1 2695:1 2698:1 2741:1 2747:1 2757:1 2783:1 2827:1 2977:1 3151:1 3152:1 3173:1 3233:1 3242:1 3273:1 3392:1 3544:1 3594:1 3602:1 3666:1 3818:1 3873:1 3874:1 3901:1 3942:1 3943:1 3998:1 4030:1 4132:1 4153:1 4202:1 4209:1 4227:1 4258:1 4333:1 4484:1 4485:1 4499:1 4555:1 4603:1 4607:1 4697:1 4723:1 4725:1 4762:1 4780:1 4880:1 4915:1 4950:1 5107:1 5389:1 5547:1 5548:1 5569:1 5640:1 5794:1 5835:1 5848:1 5864:1 5888:1 6011:1 6104:1 6256:1 6372:1 6711:1 6762:1 7663:1 #
-0.002822378210280518644886837975605 6:1 7:1 8:1 9:1 10:1 11:1 12:1 33:1 49:1 50:1 51:1 52:1 53:1 57:1 60:1 67:1 73:1 77:1 92:1 117:1 128:1 129:1 152:1 156:1 274:1 337:1 344:1 345:1 396:1 414:1 438:1 439:1 467:1 468:1 478:1 483:1 484:1 494:1 500:1 505:1 570:1 575:1 608:1 609:1 610:1 611:1 612:1 613:1 614:1 615:1 616:1 617:1 618:1 619:2 620:1 621:1 622:1 623:1 624:1 625:1 626:1 627:1 628:1 629:1 630:1 631:1 632:1 633:1 634:1 635:1 636:1 637:1 638:1 639:1 640:1 641:1 642:1 643:1 644:1 645:1 646:1 647:1 648:1 649:1 650:1 651:1 652:1 653:1 654:1 655:1 656:1 657:1 658:1 659:1 660:1 661:1 662:1 663:1 664:1 665:1 666:1 667:1 668:1 669:1 670:1 671:1 672:1 673:1 674:1 675:1 676:1 677:1 678:1 679:1 680:1 681:1 682:1 683:1 684:1 685:1 686:1 687:1 688:1 689:1 690:1 691:1 692:1 693:1 694:1 695:1 696:1 697:1 698:1 699:1 700:1 701:1 702:1 703:1 704:1 705:1 706:1 707:1 708:1 709:1 710:1 711:1 712:1 713:1 714:1 715:1 716:1 717:1 718:1 #
-0.0014124839195637508507813473457304 26:1 42:1 65:1 73:1 74:1 87:1 88:1 127:1 172:1 183:1 187:1 219:1 246:1 247:1 248:1 249:1 323:1 342:1 408:1 469:1 473:1 479:1 490:1 509:1 523:1 524:1 536:1 545:2 553:1 571:2 572:1 577:1 581:1 585:1 595:1 597:1 601:1 606:1 663:1 734:1 780:1 847:1 848:1 850:1 1005:1 1077:2 1078:2 1085:1 1099:1 1172:1 1184:1 1190:1 1200:1 1231:1 1280:1 1319:1 1340:1 1348:1 1384:1 1401:1 1437:1 1496:1 1522:1 1599:1 1652:1 1722:1 1728:1 1742:1 1851:1 1871:1 1885:1 1965:1 1991:1 2058:1 2076:1 2216:1 2234:1 2254:1 2358:1 2417:1 2450:1 2464:1 2511:1 2548:1 2549:1 2604:1 2610:1 2621:1 2656:1 2678:1 2687:1 2718:1 2719:2 2749:1 2765:1 2778:1 2876:1 2904:1 2988:1 3209:1 3231:1 3248:1 3291:1 3335:1 3346:1 3363:1 3401:1 3402:1 3406:1 3493:1 3595:1 3651:1 3654:1 3666:1 3667:1 3669:1 3718:1 3735:1 3769:1 3795:1 3836:1 3848:1 3863:1 3867:1 3943:1 3957:1 3979:1 3982:1 4002:1 4018:1 4063:1 4112:1 4201:1 4206:1 4209:1 4233:1 4282:1 4335:1 4336:1 4411:1 4439:1 4485:1 4513:1 4536:2 4571:1 4622:1 4629:1 4654:1 4708:1 4772:1 4930:1 5091:1 5094:1 5112:1 5218:1 5256:1 5258:1 5536:1 5676:1 5724:1 5733:1 5747:1 5779:1 5812:1 5864:1 5874:1 5876:1 6017:1 6515:1 6653:1 6693:1 6719:1 6779:1 6988:1 7665:1 #
0.00027155929756388942891004445456815 4:1 5:1 6:1 7:2 48:2 65:1 68:1 69:1 73:1 74:1 90:1 91:1 108:1 148:1 149:1 172:1 191:1 202:1 261:1 292:1 300:1 318:1 341:1 344:1 371:1 393:1 414:1 467:1 469:1 470:1 479:1 493:1 494:1 511:1 533:1 535:1 552:1 559:1 564:1 567:1 571:1 612:1 622:1 623:1 626:1 689:1 692:1 694:1 706:1 712:1 734:1 735:1 777:1 801:1 803:1 820:1 831:1 839:1 858:1 889:1 895:1 912:1 922:1 923:1 929:1 965:1 983:2 1010:1 1016:1 1039:1 1050:1 1054:1 1055:1 1062:1 1084:1 1154:1 1205:1 1258:1 1280:1 1313:1 1314:1 1347:1 1348:1 1357:1 1371:1 1415:1 1440:1 1455:1 1461:1 1504:1 1505:1 1513:1 1521:1 1533:1 1559:1 1599:1 1677:1 1691:1 1720:1 1748:1 1779:1 1809:1 1814:1 1828:1 1836:1 1861:1 1883:1 1896:1 1985:1 2031:1 2055:1 2090:1 2123:1 2182:1 2254:1 2320:1 2347:1 2357:1 2438:1 2456:1 2490:1 2866:1 2897:1 2951:1 3050:1 3088:1 3144:1 3214:1 3330:1 3431:1 3439:1 3492:1 3589:1 3651:1 3652:1 3667:1 3725:1 3759:1 3760:1 3762:1 3931:1 4198:1 4209:1 4248:1 4264:1 4360:1 4403:1 4448:1 4567:1 4570:1 4788:1 4892:1 4985:1 5027:1 5146:1 5419:1 5484:1 5487:1 5522:1 5711:1 5898:1 6112:1 6510:1 6687:1 6901:1 7451:1 #
0.0030135194878472284195358721348157 7:1 8:1 9:1 10:1 16:1 58:1 73:1 89:1 91:1 96:1 151:1 152:1 157:2 218:1 253:1 281:1 354:1 384:1 425:1 466:1 495:1 502:1 524:1 530:1 536:1 553:1 556:1 567:1 599:1 619:1 624:2 626:1 668:1 716:1 730:1 732:1 756:1 801:1 811:1 828:1 831:1 841:1 842:1 853:1 858:1 862:1 863:1 864:1 879:1 880:1 881:1 882:1 922:1 923:1 929:1 931:1 965:1 968:1 987:1 1016:1 1021:1 1026:1 1034:1 1039:1 1068:1 1070:1 1219:1 1280:1 1283:1 1318:1 1373:1 1385:1 1421:1 1432:1 1440:1 1453:1 1459:1 1461:2 1484:1 1512:1 1531:1 1533:1 1559:1 1599:1 1609:1 1617:1 1704:1 1720:1 1722:1 1779:1 1786:1 1794:1 1828:1 1829:1 1836:1 1879:1 1882:1 2024:1 2026:1 2042:1 2055:1 2056:1 2064:1 2170:1 2176:1 2188:1 2213:1 2221:1 2269:1 2286:1 2317:1 2318:1 2323:1 2324:1 2325:2 2376:1 2380:1 2391:1 2415:1 2431:1 2535:1 2643:1 2658:1 2926:1 3040:1 3080:1 3129:1 3152:1 3161:1 3254:1 3283:1 3299:1 3350:1 3388:1 3606:1 3639:1 3646:1 3784:1 3874:1 4022:1 4049:1 4050:1 4120:1 4171:1 4209:1 4763:1 4988:1 5132:1 5146:1 5154:1 5162:1 5179:1 5199:1 5522:1 5615:1 5820:1 5986:1 6112:1 6352:1 6586:1 #
0.0028545634594721986353194065344496 9:1 10:1 34:1 70:1 73:1 141:1 182:1 193:1 194:1 218:1 250:1 252:1 253:1 269:1 335:1 352:1 424:1 439:1 468:1 501:1 505:1 532:1 544:1 611:2 645:1 655:1 686:1 708:1 709:1 711:1 718:1 732:1 733:1 739:1 754:1 774:1 841:1 842:1 857:1 876:1 889:1 920:1 925:1 926:1 1082:1 1118:1 1119:1 1127:1 1247:1 1266:1 1297:1 1318:1 1319:1 1370:1 1421:1 1422:1 1429:1 1435:1 1472:1 1497:1 1530:1 1534:1 1559:1 1597:1 1599:1 1602:1 1604:1 1608:1 1609:1 1635:1 1667:1 1668:1 1678:1 1704:1 1709:1 1751:1 1776:1 1788:1 1790:1 1804:1 1807:1 1811:1 1832:1 1839:1 1913:1 1940:1 2041:1 2066:1 2132:1 2167:2 2218:1 2235:1 2240:1 2376:1 2422:1 2437:1 2438:1 2471:1 2479:1 2480:1 2488:1 2489:1 2525:1 2537:1 2574:1 2593:1 2619:1 2652:1 2692:1 2737:1 2894:1 2907:1 2934:1 2973:1 2986:1 3034:2 3082:1 3138:1 3175:1 3176:2 3182:1 3329:1 3410:1 3510:1 3516:1 3529:1 3568:1 3658:1 3686:1 3901:1 3911:1 3976:1 4009:1 4138:1 4293:1 4434:1 4487:1 4512:1 4553:1 4570:1 4990:1 5046:1 5131:1 5247:1 5279:1 5446:1 5487:1 5495:1 5507:1 5846:1 5944:1 6017:1 6112:1 6160:1 6344:1 6781:1 6824:1 6850:1 7221:1 7752:1 #
0.0015729689335716517343405351780916 3:1 4:1 20:1 38:1 68:1 73:1 74:1 90:1 108:1 119:1 157:1 168:1 181:1 183:1 197:1 199:1 209:1 215:1 253:1 265:1 310:1 329:1 351:1 352:1 380:1 400:1 430:1 431:1 469:1 471:1 472:1 511:1 532:1 545:1 546:1 554:1 598:1 626:1 658:1 733:1 755:1 795:1 802:1 831:1 876:1 877:1 878:1 897:1 909:1 917:1 931:1 968:1 987:1 1010:1 1014:1 1016:1 1017:1 1036:1 1051:1 1082:1 1085:1 1127:1 1135:1 1235:1 1265:1 1266:1 1309:1 1329:1 1341:1 1348:1 1371:1 1405:1 1421:1 1422:1 1440:1 1453:1 1512:1 1520:1 1534:1 1549:1 1559:1 1589:1 1592:1 1599:1 1617:1 1622:1 1635:1 1675:1 1697:1 1704:1 1789:1 1800:1 1857:1 1861:1 1867:1 1919:1 1920:1 1940:1 1950:1 2011:1 2032:1 2037:1 2055:1 2091:1 2136:1 2137:1 2156:1 2187:1 2232:1 2236:1 2318:1 2358:2 2362:1 2399:1 2438:1 2471:1 2483:1 2493:1 2534:1 2585:1 2607:1 2610:1 2648:1 2659:1 2662:1 2703:1 2723:1 2777:1 2833:1 2853:1 2888:1 2889:1 2902:1 2903:1 2913:1 2982:2 3002:1 3007:1 3109:1 3201:1 3311:1 3316:1 3341:1 3532:1 3533:1 3595:1 3645:1 3674:1 3680:1 3698:1 4063:1 4137:1 4138:1 4152:1 4207:1 4233:1 4344:1 4457:1 4599:1 4641:1 4645:1 4734:1 4751:1 4771:1 4813:1 4817:1 4890:1 5049:1 5214:1 5325:1 5485:1 5536:1 5615:1 5784:1 5915:1 5943:1 5986:1 5996:1 6054:1 6112:1 6151:1 6397:1 6485:1 6713:1 6870:1 6976:1 7177:1 7757:1 7762:1 #
0.0017344555808245989015486943074507 6:1 13:1 67:1 69:1 73:1 90:3 91:1 119:1 120:1 127:1 172:2 173:1 174:1 238:2 245:1 267:1 396:1 439:1 468:1 472:1 481:1 493:1 517:1 521:1 522:1 592:1 619:1 623:1 646:1 691:1 713:1 733:1 795:1 825:1 831:1 866:1 907:1 915:1 917:1 929:2 947:1 998:1 1055:1 1154:1 1162:1 1225:1 1256:1 1263:1 1297:1 1309:1 1344:1 1357:1 1367:1 1391:1 1421:1 1422:1 1551:1 1559:1 1596:1 1599:1 1621:1 1704:1 1709:1 1745:1 1759:1 1768:1 1847:1 1861:1 1879:3 1886:1 1940:1 1972:1 1985:1 1990:1 1992:1 2030:1 2041:1 2042:1 2045:1 2046:1 2104:1 2105:1 2126:1 2143:1 2245:1 2259:1 2318:1 2405:1 2406:1 2451:1 2461:1 2471:1 2485:1 2486:1 2514:1 2542:1 2607:1 2751:1 2830:1 2893:1 2911:1 2951:1 2977:1 2987:1 3034:1 3080:1 3223:1 3258:1 3392:1 3404:1 3443:1 3589:1 3639:1 3861:1 3864:1 3870:2 3922:1 3924:1 3961:1 4009:1 4120:1 4165:1 4175:1 4176:1 4198:1 4209:1 4253:1 4256:1 4287:1 4291:1 4292:1 4321:1 4366:1 4408:1 4491:1 4778:1 4890:1 5081:1 5173:1 5329:1 5462:1 5531:1 5653:1 5734:1 6246:1 6311:1 6380:1 6599:1 6703:1 6795:1 6806:1 7065:1 7747:1 7748:1 #
7.3324892739421495407858841986126e-05 18:1 43:1 44:1 48:1 73:1 75:1 77:1 78:1 90:2 91:1 102:1 106:1 108:1 136:1 157:1 184:1 218:1 238:1 259:1 265:1 290:1 301:1 345:1 384:1 385:1 388:1 415:1 442:1 448:1 466:2 507:1 521:1 522:1 536:3 564:1 567:1 571:1 626:1 716:1 733:1 734:1 735:1 742:1 756:1 757:1 768:1 793:1 794:1 801:1 803:1 804:1 825:1 831:1 840:1 841:1 842:1 858:1 890:1 929:1 932:1 951:1 957:1 965:1 1010:1 1015:1 1016:1 1026:1 1030:1 1055:1 1082:1 1120:1 1162:1 1188:1 1263:1 1283:1 1300:1 1332:1 1385:1 1398:1 1405:1 1411:1 1417:1 1422:1 1453:1 1461:1 1469:1 1484:1 1524:1 1559:1 1583:1 1599:1 1627:1 1701:2 1704:1 1722:1 1728:1 1769:1 1828:1 1879:1 1896:1 1945:1 2042:1 2049:1 2140:1 2166:1 2170:1 2182:1 2235:1 2239:1 2259:1 2318:1 2339:1 2347:1 2405:1 2461:1 2471:1 2512:1 2639:1 2658:1 2660:1 2735:1 2911:1 3077:1 3080:1 3086:1 3152:1 3176:1 3263:1 3366:1 3379:1 3397:1 3439:1 3469:1 3470:1 3488:1 3616:1 3861:1 3874:1 3875:1 4151:1 4253:1 4270:1 4386:1 4483:1 4739:1 4882:1 4985:1 5018:1 5154:1 5269:1 5522:1 5557:1 5648:1 5653:1 5711:1 5826:1 6110:1 6112:1 6714:1 #
-0.00069889513560531858239743829841473 4:2 7:1 39:1 40:1 41:1 52:1 68:1 116:1 119:1 151:1 169:1 208:1 218:1 219:1 303:1 313:1 339:1 340:1 357:1 358:1 359:1 360:1 373:1 387:2 388:1 394:1 431:1 456:1 471:1 472:1 477:1 480:1 492:1 546:1 611:1 620:1 643:1 663:1 685:1 689:1 690:1 731:1 742:1 748:1 755:1 756:1 767:1 823:1 851:1 866:1 872:2 873:1 888:1 908:1 916:1 957:1 965:1 984:1 990:1 998:1 999:1 1013:1 1014:1 1056:1 1082:1 1098:1 1121:2 1182:1 1189:1 1242:1 1265:1 1290:1 1291:1 1325:1 1357:1 1371:1 1380:1 1412:1 1434:1 1435:1 1442:1 1458:1 1483:1 1518:1 1526:1 1569:1 1570:1 1577:1 1579:1 1580:1 1587:1 1605:1 1641:1 1672:1 1720:1 1727:1 1740:1 1776:1 1784:1 1792:1 1809:1 1867:1 1887:1 1966:1 1996:1 1997:1 2006:1 2051:1 2083:1 2084:1 2099:1 2168:1 2232:1 2233:1 2244:1 2256:1 2271:1 2312:1 2320:1 2342:1 2399:1 2400:1 2431:1 2437:1 2438:2 2472:1 2500:1 2518:1 2534:1 2539:1 2542:1 2597:1 2671:1 2731:1 2732:1 2733:1 2788:1 2871:2 2872:1 2915:1 2986:1 3009:1 3028:1 3049:1 3060:1 3061:1 3099:1 3114:1 3115:1 3127:1 3178:1 3192:1 3199:1 3218:1 3226:1 3243:1 3266:1 3350:1 3395:1 3549:1 3586:1 3588:1 3625:1 3670:1 3687:1 3706:1 3707:1 3743:1 3762:1 3766:1 3837:1 3854:1 3956:1 3962:1 4012:1 4105:1 4121:1 4123:1 4173:1 4175:1 4180:1 4191:1 4195:1 4228:1 4253:1 4256:1 4258:1 4299:1 4309:1 4324:1 4343:1 4425:1 4443:1 4501:1 4537:1 4563:1 4568:1 4666:2 4699:1 4737:1 4813:1 4840:1 5032:1 5042:1 5146:1 5205:1 5260:1 5261:1 5279:1 5293:1 5381:1 5487:1 5493:1 5495:1 5522:1 5525:1 5554:1 5650:1 5700:1 5713:1 5788:1 5792:1 5808:1 5850:1 5865:2 5901:1 6018:1 6230:1 6249:1 6550:1 6586:1 6615:1 6718:1 6733:1 6772:1 6931:1 6992:1 7071:1 7083:1 7115:2 #
-0.0014284819200322523141677422131579 8:1 9:1 10:1 13:1 22:1 23:1 34:1 41:1 45:1 85:1 89:1 90:2 91:1 111:1 121:1 172:1 173:2 193:1 194:1 313:1 322:1 323:1 344:1 345:1 361:1 416:1 439:1 479:1 515:1 532:1 542:1 552:1 556:1 560:1 570:1 571:1 608:1 624:2 625:2 628:1 667:1 806:1 833:1 846:1 847:1 851:1 887:1 910:1 947:1 997:1 1010:1 1051:1 1080:1 1085:1 1120:1 1222:1 1265:1 1276:1 1302:1 1316:1 1317:1 1397:1 1434:1 1477:1 1502:1 1533:1 1552:1 1559:1 1576:1 1611:1 1700:1 1709:1 1817:1 1839:1 1858:1 1872:1 1902:1 1903:1 1913:1 1950:1 1971:1 2010:1 2017:1 2070:1 2074:1 2155:1 2156:1 2176:1 2203:1 2292:1 2430:1 2437:1 2494:1 2536:1 2537:1 2552:1 2602:1 2643:1 2662:1 2665:1 2718:1 2725:1 2731:1 2747:1 2907:1 2922:1 2988:2 3034:1 3053:1 3114:1 3115:1 3146:1 3231:1 3247:1 3249:1 3274:1 3318:1 3356:1 3383:1 3443:1 3463:1 3479:1 3594:1 3639:1 3759:1 3798:1 3886:1 3947:1 4207:1 4773:1 4925:1 4986:1 5156:1 5389:1 5553:1 5566:1 5985:1 6008:1 6036:1 6248:1 6296:1 6509:1 6523:1 6661:1 7589:1 #
-0.00093608031474786800984339008024904 8:1 33:2 34:1 41:1 45:1 89:1 90:2 116:1 135:1 173:1 192:1 216:1 238:2 247:1 274:1 290:1 323:1 358:1 361:1 416:1 431:1 439:1 440:1 451:1 470:1 519:1 570:1 571:2 589:1 611:1 624:1 625:1 663:1 667:1 716:1 742:1 745:1 786:1 792:1 833:1 846:1 847:1 860:1 865:1 871:1 875:1 910:1 932:1 940:1 941:1 950:1 956:1 957:1 996:1 997:1 1005:1 1019:1 1026:1 1053:1 1085:1 1121:1 1197:1 1254:1 1265:2 1361:1 1386:1 1526:1 1530:1 1539:1 1559:1 1585:1 1669:1 1697:1 1709:1 1721:1 1727:1 1856:1 1913:1 1950:1 2096:1 2165:1 2176:1 2214:1 2250:1 2254:1 2268:1 2340:1 2405:1 2432:1 2451:1 2493:1 2494:1 2604:1 2662:1 2697:1 2907:1 2913:1 2922:1 2990:1 3034:1 3046:1 3053:1 3083:1 3115:1 3246:1 3380:1 3443:1 3455:1 3478:1 3522:1 3623:1 3717:1 3775:1 3811:1 3888:1 3976:1 4019:1 4085:1 4133:1 4176:1 4254:1 4255:1 4256:1 4461:1 4480:1 4775:1 4945:1 4986:1 5007:1 5049:1 5060:1 5156:1 5261:1 5566:1 5627:1 5654:1 5790:1 6073:1 6781:1 7224:1 7709:1 #
-0.00020346725583521676258141885895725 52:1 53:1 87:1 90:1 91:1 109:1 139:1 182:1 203:1 209:1 262:1 279:1 311:1 387:1 388:1 413:1 415:1 448:1 458:1 514:1 530:1 542:1 587:1 623:1 624:1 638:1 668:1 698:1 713:1 807:1 819:1 820:1 821:1 825:1 845:1 858:1 887:1 899:1 965:1 979:1 1018:1 1021:2 1031:1 1032:1 1055:1 1065:1 1097:1 1098:2 1225:1 1345:1 1346:1 1370:1 1385:1 1405:1 1413:1 1452:1 1497:1 1551:2 1559:1 1560:1 1628:1 1731:1 1786:1 1943:1 1980:1 2004:1 2077:1 2101:1 2107:1 2111:1 2131:1 2241:1 2287:1 2334:1 2490:1 2549:1 2593:1 2650:1 2651:1 2692:1 2782:1 2783:1 2843:1 2848:1 2849:1 2895:1 2913:1 3087:1 3099:1 3132:1 3185:1 3199:1 3224:1 3242:1 3291:1 3339:1 3390:1 3559:1 3693:1 3711:1 3719:1 3744:1 3819:1 3837:1 3874:1 4161:1 4179:1 4193:1 4293:1 4320:1 4337:1 4517:1 4561:1 4622:1 4775:1 4878:1 4908:1 5265:1 5319:1 5329:1 5330:1 5337:1 5531:1 5622:1 5663:2 5805:1 5840:1 5881:1 5888:1 5984:2 6193:1 6239:1 6281:1 6458:1 6523:1 6636:1 6657:1 6875:1 6880:1 7112:1 7160:1 7209:1 7538:1 #
-0.0008630061519621979627958641145824 6:2 45:1 48:1 69:1 88:1 108:1 119:1 157:1 172:1 201:2 209:1 253:1 264:1 265:1 343:1 347:1 439:1 449:1 471:1 484:1 504:1 511:1 522:1 534:1 555:1 560:1 561:1 623:1 638:1 665:1 668:2 693:1 729:1 743:1 748:1 750:1 783:1 820:1 824:1 858:1 894:1 1006:1 1032:1 1049:1 1063:1 1078:1 1129:1 1170:1 1188:1 1189:1 1208:1 1209:1 1230:1 1248:1 1256:1 1275:1 1291:1 1325:1 1344:1 1370:1 1399:1 1435:1 1436:1 1465:1 1476:1 1494:1 1504:1 1505:1 1524:1 1528:1 1560:1 1573:1 1596:1 1597:1 1691:1 1701:1 1729:1 1740:1 1766:1 1779:1 1793:1 1809:1 1859:1 1903:1 1932:1 1934:1 1950:1 1987:1 2001:1 2017:1 2018:1 2028:1 2112:1 2175:1 2256:1 2272:1 2318:1 2320:1 2336:1 2346:1 2354:1 2374:1 2391:1 2425:1 2490:1 2515:1 2551:1 2571:1 2618:1 2648:1 2659:1 2679:1 2681:2 2695:1 2804:1 2869:1 2917:2 2937:1 2942:1 2989:1 3028:1 3034:1 3052:1 3069:1 3115:1 3133:1 3149:2 3183:1 3194:1 3213:1 3254:1 3270:1 3287:1 3391:1 3397:1 3410:1 3429:1 3517:1 3519:1 3568:1 3570:1 3588:1 3589:1 3595:1 3627:1 3645:1 3651:1 3652:1 3665:1 3735:1 3757:1 3760:1 3886:1 3939:1 3967:1 4044:1 4089:1 4132:1 4228:1 4248:1 4265:1 4318:1 4325:1 4331:1 4447:1 4449:1 4478:1 4679:1 4720:1 4734:1 4763:1 4775:1 4882:1 4892:1 4931:1 4946:1 4955:1 5001:1 5147:1 5205:1 5211:1 5353:1 5431:1 5440:1 5566:1 5585:1 5625:1 5684:1 5686:1 5690:1 5794:1 5940:1 5968:1 6040:1 6098:1 6123:1 6183:1 6304:1 6346:1 6526:1 6565:1 6579:1 6655:1 6679:1 7011:1 7054:1 7088:1 7331:1 7366:1 7394:1 7402:1 7403:1 7404:1 7422:1 7424:1 #
0.003390439010773980965662843800601 9:1 10:1 15:1 24:1 33:1 43:1 69:1 73:1 75:1 90:1 118:1 119:1 141:1 157:1 196:1 202:1 209:1 218:1 247:1 254:1 262:1 273:1 291:1 299:1 301:1 303:1 416:1 424:1 430:1 447:1 478:1 521:1 522:1 535:1 536:1 544:1 594:1 607:1 609:1 612:1 613:1 623:1 638:1 644:1 686:1 698:1 699:1 708:1 709:1 772:1 793:1 819:1 831:1 845:1 858:1 897:1 1010:1 1017:1 1033:1 1079:1 1103:1 1107:1 1158:1 1172:1 1217:1 1249:1 1344:1 1370:1 1371:1 1400:1 1401:2 1432:1 1453:1 1496:1 1503:1 1535:1 1561:1 1602:1 1603:1 1627:1 1634:1 1689:1 1704:1 1709:1 1710:1 1734:1 1831:1 1879:1 1908:1 1964:1 1981:1 1982:1 1999:1 2006:1 2051:1 2099:1 2119:1 2148:1 2317:1 2318:1 2327:1 2330:1 2431:1 2487:1 2490:1 2531:1 2537:1 2552:1 2559:1 2574:1 2593:1 2602:1 2603:1 2613:1 2619:1 2659:1 2691:1 2703:1 2902:1 2915:1 2929:1 2977:1 2999:1 3000:1 3006:1 3050:1 3125:1 3129:1 3198:1 3212:1 3239:1 3271:1 3377:1 3410:1 3439:1 3491:1 3495:1 3586:1 3680:1 3764:1 4207:1 4228:1 4270:1 4344:1 4403:1 4663:1 4678:1 4810:1 4915:1 4949:1 5012:1 5285:1 5371:1 5426:1 5980:1 6012:1 6037:1 6300:1 6408:1 6459:1 6464:1 7097:1 7120:1 #
0.0022264846233413936212042205653461 5:1 25:1 73:1 77:1 91:1 119:1 127:1 149:1 150:1 166:1 167:1 189:1 218:1 267:1 268:1 269:1 270:1 312:1 344:1 364:1 373:1 386:1 409:1 424:1 468:1 471:1 480:1 490:1 613:1 614:1 636:1 693:1 694:1 708:1 709:1 733:1 743:1 784:1 786:1 820:1 824:1 897:1 932:1 1030:1 1031:1 1036:1 1040:1 1049:1 1056:1 1079:1 1122:1 1146:1 1180:1 1227:1 1231:1 1258:1 1267:1 1304:1 1305:1 1357:1 1380:1 1397:1 1421:1 1422:1 1435:1 1457:1 1458:1 1516:1 1540:1 1559:1 1599:1 1667:1 1676:1 1697:1 1764:1 1831:1 1836:1 1859:1 1883:1 1896:1 1951:1 1981:1 2013:1 2017:1 2018:1 2042:1 2046:1 2049:1 2081:1 2090:1 2104:1 2134:1 2164:1 2175:1 2195:1 2196:1 2209:1 2233:2 2269:1 2330:1 2334:1 2357:1 2363:1 2377:1 2379:1 2391:1 2460:1 2471:1 2476:1 2478:1 2542:1 2579:1 2597:1 2636:1 2661:1 2764:1 2780:1 2915:1 2938:1 2939:1 2951:1 3016:1 3048:1 3050:1 3097:1 3182:1 3196:1 3252:1 3331:1 3372:1 3431:1 3438:1 3634:1 3639:1 3658:1 3810:1 4086:1 4091:1 4271:1 4333:1 4457:1 4570:1 4600:1 4637:1 4892:1 4894:1 5258:1 5401:1 5612:1 5626:1 5781:1 5829:1 5877:2 5879:1 5881:1 6046:1 6112:1 6695:1 6712:1 6772:1 6804:1 6826:1 6860:1 6948:1 7025:1 #
0.0017715998457338462401811085555892 8:1 9:1 10:1 23:1 29:1 33:1 54:1 65:2 73:1 119:1 141:1 157:1 181:1 184:1 196:1 201:1 218:1 245:1 250:1 291:1 293:2 334:1 335:1 373:1 429:1 430:2 431:1 492:1 493:1 521:1 523:1 536:1 572:2 600:1 609:1 622:1 632:1 633:1 644:1 652:1 655:1 675:1 698:1 718:1 733:1 829:1 845:1 847:1 888:1 915:1 931:1 966:1 1011:1 1033:1 1051:1 1052:1 1062:1 1139:1 1297:1 1347:1 1348:1 1362:1 1363:1 1364:1 1371:2 1387:1 1399:1 1421:1 1422:1 1435:1 1453:1 1486:1 1534:1 1544:1 1559:1 1599:1 1602:1 1603:1 1610:1 1704:1 1709:1 1758:1 1817:1 1831:1 1832:1 1835:1 1856:1 1858:1 1889:1 1945:1 1984:1 1986:1 2045:1 2046:1 2100:1 2141:1 2208:1 2218:1 2233:1 2234:1 2254:1 2268:1 2318:1 2338:1 2342:1 2410:1 2471:1 2507:1 2535:1 2537:1 2559:1 2689:1 2692:1 2713:1 2719:1 2748:1 2776:1 2896:1 2968:1 2983:1 3000:1 3016:1 3078:1 3092:1 3135:1 3143:1 3163:1 3185:1 3244:1 3252:1 3410:1 3428:1 3931:1 3946:1 3968:1 4022:1 4254:1 4267:1 4271:1 4279:1 4470:1 4501:1 4553:1 4898:1 5088:1 5146:1 5222:1 5373:1 5725:1 5947:1 6112:1 6159:1 6160:1 6357:1 6992:1 7005:1 7025:1 7204:1 7221:1 #
0.0037562264756841011459354007229194 5:1 14:1 43:1 44:1 47:1 68:1 69:1 73:1 91:1 171:1 177:1 203:1 210:1 312:1 313:1 343:1 377:1 401:1 479:1 493:1 501:1 505:1 541:1 562:1 563:1 614:1 621:1 623:1 635:1 648:1 653:1 691:1 692:1 693:1 694:1 749:1 756:1 778:1 786:1 792:1 802:1 825:1 882:1 883:1 884:1 900:1 910:1 929:1 956:1 984:1 1031:1 1039:1 1070:1 1079:1 1083:1 1084:1 1119:1 1205:1 1219:1 1245:2 1246:1 1281:1 1362:1 1409:1 1410:1 1472:1 1481:1 1487:1 1491:1 1518:1 1525:1 1559:1 1578:1 1580:1 1599:2 1618:1 1654:1 1656:1 1702:1 1729:1 1731:1 1732:1 1759:1 1764:1 1795:1 1847:1 1854:1 1928:1 1981:1 1993:1 1997:1 2026:1 2032:1 2041:1 2045:1 2052:1 2072:1 2154:1 2163:1 2175:1 2188:1 2245:1 2255:1 2300:1 2318:1 2364:1 2471:1 2490:1 2525:1 2617:1 2639:1 2657:1 2658:1 2660:1 2731:2 2894:1 2903:1 2905:1 2916:1 2993:1 3182:1 3233:1 3237:1 3263:1 3372:1 3438:1 3518:1 3570:1 3639:1 3671:1 3672:1 3825:1 3869:1 3893:1 3946:1 4026:1 4171:1 4175:1 4258:1 4349:1 4436:1 4457:1 4629:1 4736:1 4892:1 4907:1 5030:1 5179:1 5180:1 5203:1 5213:1 5232:1 5261:2 5350:1 5426:1 5585:1 5798:1 5854:1 6185:1 6239:1 6471:1 6657:1 6756:1 #
-3.309771475632409902783298560891e-05 7:1 22:1 45:1 53:1 64:1 74:1 77:1 97:1 139:1 147:1 152:1 155:1 174:1 176:1 204:1 215:1 219:1 263:1 274:1 304:1 323:1 366:1 397:1 407:1 413:1 439:1 441:1 454:1 478:2 592:1 632:1 658:1 667:1 694:1 755:1 756:1 799:1 847:1 905:1 917:1 930:1 931:1 943:1 953:1 956:1 965:2 1015:1 1079:1 1169:1 1171:1 1190:1 1219:1 1220:1 1229:1 1231:1 1256:1 1306:1 1314:1 1344:1 1345:1 1348:1 1368:1 1376:2 1435:1 1437:1 1502:1 1505:1 1622:1 1673:1 1674:1 1758:1 1779:1 1883:1 1888:1 1940:1 1946:1 1962:1 1971:1 2021:1 2075:1 2076:1 2123:1 2200:1 2207:1 2239:1 2254:1 2370:1 2385:1 2471:1 2475:1 2491:1 2531:1 2589:1 2609:1 2664:1 2666:1 2699:1 2715:1 2716:1 2767:1 2855:1 2902:1 2913:1 2938:1 2939:1 2955:1 2961:1 2962:1 3034:1 3143:1 3150:1 3225:1 3252:1 3259:1 3307:1 3408:1 3473:1 3489:1 3574:1 3583:1 3614:1 3640:1 3714:1 3760:1 3821:1 3845:1 4009:1 4050:1 4125:1 4169:2 4233:1 4276:1 4347:1 4484:1 4485:1 4501:1 5146:1 5195:1 5330:1 5539:1 5540:1 5735:1 6011:1 6241:1 6478:1 6628:1 6802:1 #
-0.0033129310148607917126117872186342 5:1 9:1 10:1 24:1 30:1 32:1 49:1 73:1 89:1 90:1 161:1 172:1 173:2 174:1 183:1 184:2 201:1 220:1 238:1 239:1 240:1 241:1 242:1 249:1 250:1 251:1 261:1 291:1 293:1 297:1 315:1 327:1 328:1 336:1 337:1 354:1 360:1 361:1 372:1 373:1 374:1 375:1 379:1 391:1 436:1 438:1 496:1 524:1 532:1 533:1 536:2 537:1 539:1 540:1 541:1 542:1 565:1 566:1 567:1 568:1 569:1 570:1 594:1 595:1 598:1 599:1 600:1 601:1 602:1 603:1 604:1 605:1 692:1 693:1 804:1 917:1 927:1 931:1 992:1 1026:1 1172:1 1173:1 1194:1 1224:1 1254:1 1341:1 1370:1 1371:1 1398:1 1421:1 1475:1 1494:1 1495:1 1510:1 1511:1 1512:1 1545:1 1586:2 1620:1 1632:1 1643:1 1758:1 1849:1 1853:1 1858:1 1865:1 1870:1 1871:1 1883:1 1942:1 2000:1 2027:1 2036:2 2147:1 2161:1 2224:1 2358:1 2372:1 2380:1 2406:1 2484:1 2585:1 2605:1 2873:1 2877:1 2904:1 3034:1 3050:1 3051:1 3052:2 3055:1 3073:1 3108:1 3110:1 3111:1 3135:1 3139:1 3140:1 3143:1 3331:1 3332:1 3333:1 3334:1 3335:1 3336:1 3337:1 3338:1 #
-0.0011873813518631973727701645060506 9:1 10:1 33:2 53:1 74:2 89:1 90:3 105:1 117:1 123:1 124:1 157:2 183:1 238:1 263:1 290:1 292:1 313:1 323:1 358:1 460:1 473:1 477:1 484:1 489:1 509:1 542:1 554:1 588:1 658:1 745:1 763:1 785:1 786:1 831:1 832:1 848:1 917:1 929:1 956:1 968:1 986:1 1001:1 1005:1 1026:1 1056:1 1092:1 1094:1 1099:1 1119:1 1155:1 1182:1 1187:1 1199:2 1219:1 1245:1 1255:1 1266:1 1345:1 1346:1 1386:1 1452:1 1527:1 1538:1 1551:1 1559:1 1634:1 1709:1 1784:2 1841:1 1878:1 1883:1 1884:1 1885:1 1919:1 1920:2 1981:1 2005:1 2017:1 2018:1 2027:1 2075:1 2076:1 2101:1 2107:1 2163:1 2218:1 2228:1 2230:1 2308:1 2318:1 2416:1 2422:2 2461:1 2471:2 2523:1 2549:1 2593:1 2602:1 2666:1 2692:1 2704:1 2721:1 2768:1 2794:1 2906:1 2951:1 2973:1 2997:1 3003:1 3027:1 3039:1 3135:1 3136:1 3142:1 3169:1 3180:1 3199:1 3278:1 3279:1 3310:1 3540:1 3579:1 3665:1 3666:1 3714:1 3722:1 3808:1 3821:1 3836:1 3870:1 3900:1 3976:1 3979:1 3988:1 4211:1 4227:1 4274:1 4312:1 4321:1 4335:1 4377:1 4434:1 4443:1 4462:1 4484:1 4485:1 4523:1 4610:1 4664:1 4800:1 4810:1 4847:1 4849:1 4874:1 5030:1 5136:1 5186:1 5193:1 5313:1 5314:1 5388:1 5401:1 5418:1 5429:1 5445:1 5547:1 5593:1 5622:1 5728:1 5823:1 5874:1 5888:1 5935:1 5993:1 6193:1 6366:1 6661:1 6670:1 6835:1 7526:1 #
-3.7586794508175696487121963951239e-05 19:1 26:1 123:1 124:1 151:1 172:1 178:1 226:1 236:1 261:1 262:1 263:1 280:1 281:1 302:1 307:1 323:1 364:1 387:1 388:1 395:1 396:1 431:1 466:1 477:1 501:1 528:1 572:1 573:1 576:1 577:1 587:1 588:1 622:1 623:1 627:1 638:1 765:1 831:1 861:1 881:1 882:1 892:1 984:1 1004:1 1013:1 1020:1 1057:1 1058:1 1092:1 1142:1 1179:1 1189:1 1230:1 1235:1 1275:1 1283:1 1301:1 1309:1 1316:1 1317:1 1342:1 1345:1 1360:1 1417:1 1422:1 1495:1 1496:1 1511:1 1512:1 1559:1 1567:1 1576:1 1596:1 1597:2 1615:1 1658:1 1723:1 1735:1 1764:1 1776:1 1794:1 1830:1 1839:1 1844:1 1858:1 1882:1 1929:1 1938:1 1958:1 1978:1 1979:1 1991:1 2011:1 2042:1 2043:1 2072:1 2140:1 2159:1 2170:1 2190:1 2295:1 2300:1 2339:1 2346:1 2414:1 2471:1 2483:1 2518:1 2524:1 2553:1 2595:1 2658:1 2762:1 2790:2 2793:1 2863:1 2911:1 2919:1 2924:1 2965:1 2978:1 2982:1 2997:1 3001:1 3051:1 3082:1 3089:1 3257:1 3278:1 3328:1 3331:1 3341:1 3372:1 3397:1 3422:1 3433:1 3435:1 3490:1 3497:1 3498:1 3499:1 3500:2 3501:1 3502:1 3503:1 3512:1 3515:1 3516:1 3517:1 3518:1 3519:1 3524:1 3525:1 3526:1 3527:1 3528:1 3559:1 3665:1 3924:1 4022:1 4147:1 4150:1 4202:1 4286:1 4293:1 4298:1 4300:1 4311:1 4318:1 4510:1 5037:1 5177:1 5216:1 5274:1 5275:1 5276:1 5344:1 5380:1 5453:1 5991:1 6332:1 #
-0.000141898673628626514897632659995 3:1 4:1 5:1 6:1 10:1 48:1 108:1 114:1 158:1 172:1 175:1 183:1 195:1 323:1 403:1 440:1 447:1 448:1 469:1 542:1 571:1 572:1 576:1 592:1 622:1 623:1 624:1 756:1 781:1 804:1 825:1 841:1 887:1 931:1 992:1 1021:1 1026:1 1030:1 1076:1 1118:1 1140:1 1184:1 1204:1 1205:2 1210:1 1345:1 1346:1 1347:1 1348:1 1399:1 1406:1 1452:1 1453:1 1539:1 1540:1 1553:1 1580:1 1597:1 1628:1 1632:1 1651:1 1714:1 1727:1 1766:1 1790:1 1823:1 1846:1 1921:1 1959:1 1966:1 1980:1 2042:1 2094:1 2168:1 2187:1 2221:1 2236:1 2267:1 2284:1 2317:1 2339:1 2549:1 2574:1 2623:1 2648:1 2651:1 2704:1 2714:1 2825:1 2837:1 2849:1 2906:1 2924:1 2927:1 2929:1 2938:1 2939:1 2940:1 2955:1 3007:1 3033:1 3048:1 3119:1 3257:1 3290:1 3308:1 3376:1 3410:1 3431:1 3468:1 3469:1 3482:1 3618:1 3623:1 3666:1 3693:1 3764:1 3831:1 3845:1 3931:1 3942:1 3995:1 4049:1 4071:1 4137:1 4296:1 4297:1 4561:1 4629:1 4636:1 4720:1 4785:1 4859:1 5176:1 5266:1 5555:1 5622:1 5710:1 5728:1 5888:1 5966:1 6067:1 6297:1 6310:1 6451:1 6502:1 6529:1 7656:1 #
-0.0020977757975139559899757646377338 2:1 5:1 48:2 56:1 75:1 76:1 89:1 90:1 114:1 126:1 189:1 199:1 202:1 299:1 309:1 387:1 397:1 411:1 412:1 473:1 474:1 500:1 533:1 548:1 579:1 593:1 625:1 647:1 667:1 681:1 690:1 698:1 707:1 723:1 733:1 760:1 766:1 777:1 780:1 801:1 892:1 967:1 992:1 1010:1 1020:1 1035:1 1048:1 1056:1 1061:1 1103:1 1120:1 1188:2 1189:1 1239:1 1260:1 1348:1 1371:1 1399:1 1406:2 1407:1 1435:1 1452:1 1470:1 1471:1 1501:1 1532:1 1562:1 1599:1 1602:1 1654:1 1678:2 1703:1 1714:1 1795:1 1859:1 1896:1 1932:1 1965:1 1980:1 2026:1 2031:1 2047:1 2085:1 2126:1 2140:1 2156:1 2182:1 2222:1 2233:1 2259:1 2271:1 2303:2 2323:1 2324:1 2397:1 2404:1 2479:1 2514:1 2517:1 2549:1 2648:1 2660:2 2665:1 2673:1 2679:1 2689:1 2702:1 2712:1 2758:1 2853:1 2893:1 2898:1 2905:1 2907:1 2919:1 2929:1 2982:2 3088:1 3097:1 3135:1 3136:1 3146:1 3201:1 3220:1 3257:1 3370:1 3378:1 3411:1 3449:1 3487:1 3518:1 3525:1 3594:1 3604:1 3606:1 3607:1 3615:1 3666:1 3672:1 3701:1 3761:1 3807:1 3818:1 3942:1 3995:1 4014:1 4020:1 4022:1 4038:1 4163:1 4178:1 4203:1 4204:1 4215:1 4227:1 4255:1 4330:1 4458:1 4501:1 4788:1 4796:1 4859:1 4875:1 4879:1 4944:1 4950:1 4966:1 5008:1 5031:1 5105:1 5135:1 5171:1 5176:1 5180:1 5218:1 5231:1 5266:1 5327:1 5333:1 5391:1 5392:1 5540:1 5681:1 5888:1 5977:1 6046:1 6123:1 6235:1 6256:1 6687:1 6712:1 7353:1 #
0.0021137950362528075236301372541448 5:1 6:1 10:1 48:1 70:2 73:1 90:1 91:1 109:1 127:1 173:1 220:1 263:1 264:1 265:1 267:1 277:1 340:1 387:1 401:1 413:1 414:1 439:1 555:1 599:1 620:1 643:1 689:1 722:1 742:1 780:1 804:1 825:1 858:1 868:1 910:1 917:2 929:1 983:1 986:1 1019:1 1026:1 1039:1 1082:1 1116:1 1119:1 1209:1 1212:1 1214:1 1219:1 1231:1 1238:1 1255:1 1258:1 1279:1 1330:1 1421:1 1492:1 1518:1 1526:1 1533:1 1559:1 1561:1 1562:1 1597:1 1599:1 1677:1 1704:1 1709:1 1723:1 1755:1 1768:1 1836:1 1861:1 1878:1 1940:1 1950:1 2026:1 2033:1 2044:1 2104:1 2209:1 2232:1 2318:1 2357:1 2372:1 2393:1 2438:1 2452:1 2471:1 2539:1 2542:1 2551:1 2610:1 2612:1 2648:1 2663:1 2713:1 2714:1 2734:1 2760:1 2843:1 2907:1 3007:1 3034:1 3055:1 3079:1 3108:1 3177:1 3178:1 3214:1 3381:1 3402:1 3534:1 3535:1 3616:1 3619:1 3620:1 3699:1 3727:1 3746:1 3747:1 3838:1 4171:1 4256:2 4344:1 4412:1 4469:1 4574:1 4665:1 4667:1 4751:1 4763:1 4765:1 4775:1 4785:1 4890:1 4907:1 4995:1 5027:1 5081:1 5114:1 5124:1 5138:1 5146:1 5159:1 5203:1 5419:1 5446:1 5612:1 5711:1 5734:1 5829:1 5898:1 5941:1 6117:1 7133:1 7522:1 7747:1 7748:1 #
0.0031961227700679877006262330496611 4:1 5:1 15:1 34:1 41:1 73:1 119:1 173:1 184:1 291:1 296:1 310:1 373:1 388:1 397:1 424:1 439:1 491:1 492:1 493:1 494:1 505:1 526:1 532:1 552:1 574:1 622:1 623:1 624:1 629:1 678:1 721:1 793:1 798:1 812:1 883:1 929:1 976:1 1004:1 1038:1 1041:1 1100:1 1103:1 1219:1 1224:1 1347:1 1348:1 1353:1 1361:1 1371:2 1374:1 1385:1 1432:1 1461:1 1513:1 1516:2 1559:1 1599:1 1605:1 1608:1 1621:1 1626:1 1649:1 1687:1 1709:1 1756:1 1786:1 1806:1 1815:1 1816:1 1830:1 1948:1 1949:1 1977:1 1981:1 1999:1 2011:1 2026:1 2039:1 2108:1 2113:1 2116:1 2158:1 2166:1 2234:1 2256:1 2325:1 2392:1 2444:1 2539:1 2566:1 2655:1 2700:1 2702:1 2714:1 2736:1 2782:1 2907:1 2936:1 2939:2 2986:1 2993:1 3034:1 3065:1 3080:1 3097:1 3114:1 3146:1 3161:1 3246:1 3291:1 3329:1 3409:1 3410:1 3418:1 3435:1 3455:1 3474:1 3523:1 3635:1 3659:1 3721:1 3745:1 3759:1 3922:1 3928:1 3980:1 4036:1 4171:1 4209:1 4388:1 4403:1 4487:1 4498:1 4583:1 4660:1 4752:1 4768:1 5002:1 5013:1 5043:1 5068:1 5146:1 5232:1 5289:1 5317:1 5396:1 5409:1 5483:1 5628:1 5858:1 6018:1 6112:1 6388:1 6562:1 6688:1 6824:1 6826:1 7120:1 #
0.0019569613390266029154251903321438 4:1 5:1 10:1 26:1 48:1 69:1 70:1 73:1 90:1 91:1 109:1 119:1 127:1 145:1 146:1 149:1 183:1 191:1 237:1 264:1 265:1 300:1 335:1 352:1 373:2 387:1 402:1 413:1 422:1 439:1 449:1 471:1 520:1 571:1 576:1 612:1 622:1 623:1 631:1 689:1 693:1 709:1 712:1 713:1 734:1 799:1 825:1 852:1 887:1 895:1 917:1 920:1 982:1 983:1 1165:1 1178:1 1212:1 1214:1 1242:1 1259:1 1281:1 1346:1 1368:1 1421:1 1430:1 1434:1 1459:1 1486:1 1492:1 1533:1 1549:1 1559:1 1599:1 1637:1 1638:1 1680:1 1689:1 1706:1 1709:1 1776:2 1798:1 1858:1 1878:1 1955:1 1962:1 1978:1 2006:1 2034:1 2042:1 2043:1 2044:1 2143:1 2153:1 2154:1 2209:1 2221:1 2232:1 2242:1 2310:2 2318:1 2353:1 2373:1 2385:1 2391:1 2393:1 2421:1 2431:1 2462:1 2604:1 2610:1 2713:1 2732:1 2777:1 2782:1 2793:1 2938:1 2982:1 2986:1 3016:1 3034:1 3050:1 3063:1 3108:1 3128:1 3159:1 3202:1 3221:1 3299:1 3375:1 3606:1 3613:1 3810:1 3922:1 4068:1 4082:1 4120:1 4152:1 4161:1 4388:1 4512:1 4751:1 4785:1 4990:1 5030:1 5037:1 5203:1 5223:1 5286:1 5355:1 5565:1 5618:1 5734:1 5829:1 5887:1 5944:1 6273:1 6661:1 7747:1 7748:1 #
-0.00097603849540527185413979482930813 7:1 24:1 35:1 36:1 58:1 171:1 172:1 236:1 240:1 257:1 263:1 281:2 282:1 290:1 313:1 321:1 360:1 370:1 378:1 380:1 384:1 385:1 395:1 455:1 456:1 461:1 500:1 506:1 513:1 519:1 532:1 544:1 589:1 606:1 619:1 621:1 659:1 733:1 751:2 756:1 802:1 819:1 820:1 847:1 854:1 857:1 929:2 1027:1 1050:1 1054:1 1079:1 1098:1 1107:1 1170:1 1180:1 1188:1 1202:1 1269:1 1283:1 1300:1 1309:1 1346:1 1355:1 1374:1 1379:1 1380:1 1400:1 1416:1 1421:1 1459:1 1465:1 1466:1 1476:1 1599:1 1615:1 1659:1 1669:1 1673:2 1674:1 1679:1 1687:1 1704:1 1711:1 1750:1 1759:1 1807:1 1815:1 1844:1 1852:1 1870:1 1914:1 1981:1 2012:1 2050:1 2161:1 2180:1 2244:2 2421:1 2429:2 2471:1 2506:1 2514:1 2601:1 2643:1 2657:1 2670:1 2713:1 2714:1 2762:1 2789:1 2799:1 2894:1 2910:1 2912:1 2984:1 3016:2 3046:1 3110:1 3113:1 3126:1 3166:1 3199:1 3215:1 3244:1 3275:1 3330:1 3346:1 3371:1 3433:1 3452:1 3483:1 3484:1 3499:1 3500:2 3519:1 3524:1 3559:1 3569:1 3570:1 3579:1 3580:1 3594:1 3707:1 3710:1 3711:1 3724:1 3725:1 3734:1 3740:1 3743:1 3802:1 3868:1 3933:1 3943:1 4124:1 4196:1 4214:1 4226:1 4312:1 4358:1 4455:1 4487:1 4512:1 4548:1 4553:1 4568:1 4569:1 4590:1 4591:1 4604:1 4662:1 4666:1 4667:1 4668:1 4669:1 4670:1 4671:1 4672:1 4673:1 4674:1 4675:1 4676:1 4677:1 4678:1 4679:1 4680:1 4681:1 4682:1 4683:1 #
-4.5455903178505520183510374421232e-05 5:1 6:1 12:1 26:1 49:1 58:1 119:1 172:1 200:1 210:1 211:2 220:1 236:1 263:1 264:1 265:1 290:1 293:1 313:1 315:1 328:1 333:1 335:1 350:1 364:1 365:1 436:1 442:1 471:1 504:1 511:1 534:1 537:1 556:1 571:1 579:1 585:1 614:1 623:1 663:1 681:1 693:1 698:1 747:1 846:1 848:1 853:1 861:1 887:1 927:1 931:1 969:1 1036:1 1080:1 1086:1 1095:1 1148:1 1163:1 1164:1 1170:1 1183:1 1184:1 1191:1 1215:1 1244:1 1299:1 1311:1 1357:1 1363:1 1387:1 1408:1 1436:1 1491:1 1493:1 1533:1 1537:1 1551:1 1559:1 1560:1 1596:1 1599:1 1680:1 1717:1 1728:1 1783:1 1809:1 1831:1 1853:2 1856:1 1901:1 1941:1 1946:1 1961:1 1981:1 2079:1 2108:1 2111:1 2199:1 2224:1 2254:1 2276:1 2304:1 2318:1 2338:1 2345:1 2357:1 2369:1 2431:1 2450:1 2472:1 2499:1 2589:1 2605:1 2619:1 2620:1 2786:1 2847:1 2891:1 2905:1 2917:1 2938:1 3096:1 3110:1 3135:1 3137:1 3185:1 3215:1 3318:1 3327:1 3401:1 3407:1 3437:1 3499:1 3500:1 3501:1 3502:1 3566:1 3596:1 3624:1 3640:1 3651:1 3652:1 3665:1 3667:1 3694:1 3812:1 3841:1 4028:1 4034:1 4035:1 4036:1 4041:1 4042:1 4043:1 4044:1 4045:1 4046:1 4047:1 4048:1 4049:1 4051:1 4052:1 4053:1 4054:1 4055:1 4056:1 4057:1 4058:1 4059:1 4060:1 4063:1 4197:1 4198:1 4199:1 4275:1 4332:1 4450:1 4608:1 5060:1 5202:1 5336:1 5438:1 5528:1 5535:1 6450:1 #
-0.0017885360767778439236574961057613 14:1 27:1 79:1 104:1 107:1 116:1 265:1 312:1 367:1 378:1 413:1 414:1 417:1 477:1 524:1 588:1 621:1 634:1 701:1 747:1 748:1 749:1 772:1 776:1 779:1 827:1 854:1 875:1 882:1 918:1 958:1 1036:1 1092:1 1149:1 1180:1 1209:1 1224:1 1235:1 1256:1 1275:1 1278:1 1295:1 1315:1 1384:1 1385:1 1387:1 1461:1 1463:1 1483:1 1493:1 1494:1 1495:1 1573:1 1578:1 1635:1 1651:1 1659:1 1691:1 1718:1 1721:1 1734:1 1779:1 1872:1 1873:1 1879:1 1958:2 1961:1 1983:1 2011:1 2041:1 2106:1 2144:1 2204:1 2225:1 2226:1 2254:1 2276:1 2294:1 2344:1 2421:1 2431:1 2474:1 2484:1 2496:1 2506:1 2518:1 2522:1 2536:1 2588:1 2593:1 2632:1 2674:1 2697:1 2704:1 2709:1 2714:1 2733:1 2878:1 2879:1 2898:1 2986:1 3006:1 3015:1 3016:1 3071:1 3134:1 3138:1 3161:1 3173:1 3176:1 3211:1 3217:1 3241:1 3252:1 3299:1 3304:1 3409:1 3430:1 3431:1 3452:1 3468:1 3563:1 3608:1 3644:1 3650:1 3651:1 3686:1 3696:1 3697:1 3852:1 3867:1 3873:1 3908:1 3951:1 4049:1 4081:1 4138:1 4152:1 4173:1 4279:1 4408:1 4447:1 4722:1 4728:1 4734:2 4737:1 4745:1 4763:1 4817:1 4946:1 5033:1 5040:1 5066:1 5102:1 5171:1 5261:1 5309:1 5381:1 5392:1 5408:1 5411:1 5419:1 5458:1 5509:1 5579:1 5650:1 5654:1 5915:1 5985:1 6175:1 6212:1 6401:1 6931:1 7035:1 7060:1 #
-0.0016693421617279737695360708471526 5:1 6:1 26:1 49:1 58:1 119:1 172:1 175:1 177:1 195:1 220:1 236:1 240:1 263:1 290:1 293:1 313:1 335:1 364:1 365:1 436:1 471:1 472:1 473:1 504:1 511:1 534:1 537:1 556:1 571:1 572:1 585:1 601:1 698:1 800:1 853:1 861:1 912:1 927:1 931:2 969:1 1006:1 1036:1 1080:1 1086:1 1095:2 1103:1 1148:1 1183:1 1184:1 1191:1 1215:1 1231:1 1244:1 1280:1 1299:1 1311:1 1341:1 1344:1 1345:1 1346:1 1363:1 1371:1 1387:1 1436:1 1491:1 1520:1 1533:1 1537:1 1551:1 1559:1 1560:1 1599:1 1605:1 1680:1 1723:1 1728:1 1783:1 1809:1 1831:1 1853:1 1856:1 1901:1 1903:1 1941:2 1945:1 1954:1 1978:1 1981:1 2108:1 2111:1 2199:1 2207:1 2256:1 2276:1 2318:2 2338:1 2345:1 2357:1 2369:1 2431:1 2442:1 2443:1 2450:1 2472:1 2499:1 2619:1 2620:1 2798:1 2891:1 2905:1 2917:1 2938:1 3078:1 3091:1 3110:1 3121:1 3135:1 3146:1 3159:1 3178:1 3183:1 3185:1 3318:2 3376:1 3401:1 3437:2 3499:1 3500:1 3501:1 3502:1 3534:1 3535:1 3566:1 3596:1 3624:1 3640:1 3651:1 3665:1 3667:1 3694:1 4028:1 4034:1 4035:1 4036:1 4039:1 4040:1 4043:1 4044:1 4045:1 4046:1 4047:1 4048:1 4049:1 4052:1 4053:1 4054:1 4055:1 4056:1 4057:1 4058:1 4059:1 4060:1 4063:1 4170:1 4403:1 4532:1 4671:1 4731:1 4977:1 5125:1 5139:1 5140:1 5251:1 5869:1 6509:1 #
0.00087331650715975750725456050460593 4:1 33:1 64:1 69:1 73:1 74:1 75:1 89:1 90:1 128:1 141:1 183:1 201:1 238:1 292:1 409:1 468:1 524:1 543:1 609:1 612:1 624:1 625:1 626:2 632:1 646:1 651:1 705:1 708:1 709:1 731:1 766:1 774:1 780:1 790:1 829:1 830:1 831:1 864:1 896:1 922:1 923:1 929:1 949:1 956:1 968:2 991:1 1023:1 1024:1 1040:1 1051:1 1055:1 1072:1 1116:1 1119:1 1201:1 1203:1 1208:1 1231:1 1263:1 1311:1 1339:1 1387:1 1440:1 1448:1 1461:1 1501:1 1559:1 1589:1 1597:1 1599:1 1634:1 1709:1 1722:1 1764:1 1779:1 1784:1 1785:1 1794:1 1829:1 1858:1 1892:1 1896:1 1914:1 1966:1 1996:1 1998:1 2015:1 2016:1 2022:1 2042:1 2047:1 2111:1 2196:1 2258:1 2328:1 2429:1 2451:1 2479:1 2613:1 2618:1 2636:1 2655:1 2661:1 2673:1 2704:1 2720:1 2760:1 2882:1 2889:1 3010:1 3016:1 3050:1 3073:1 3213:1 3260:1 3319:1 3331:1 3383:1 3428:1 3439:1 3521:1 3667:1 3671:1 3848:1 3906:1 3908:1 4036:1 4185:1 4253:1 4271:2 4403:1 4662:1 4751:1 4810:1 4890:1 4894:1 4925:1 4932:1 5012:1 5127:1 5255:1 5363:1 5478:1 5522:1 5573:1 5587:1 5601:1 5679:1 5858:1 5896:1 6080:1 6112:1 6307:1 6352:1 6390:1 6901:1 6922:1 7065:1 7120:1 #
0.0018561324654241982343161332380532 4:1 33:1 64:1 69:1 71:1 73:1 74:1 89:1 90:2 201:1 210:1 238:2 292:1 380:1 405:1 409:1 468:1 491:1 504:1 521:1 524:1 543:1 575:1 609:1 612:1 624:1 625:1 626:1 632:1 645:1 646:1 651:1 705:1 708:1 709:1 742:1 766:1 780:1 794:1 829:2 830:2 831:1 853:1 863:1 891:1 896:1 922:1 923:1 929:1 956:1 968:1 983:1 1023:1 1024:1 1033:1 1051:1 1054:1 1055:1 1072:1 1201:1 1231:1 1263:1 1305:1 1363:1 1385:1 1387:1 1440:1 1448:1 1457:1 1501:1 1525:1 1535:1 1559:1 1599:1 1721:1 1722:1 1764:1 1779:1 1784:1 1785:1 1794:1 1858:1 1881:1 1892:1 1896:1 1914:1 1951:1 1996:1 1998:1 2015:1 2022:1 2047:1 2109:1 2250:1 2258:1 2451:1 2461:1 2479:1 2612:1 2613:1 2618:1 2636:1 2655:1 2659:1 2661:1 2673:1 2704:1 2720:1 2882:1 3006:1 3010:1 3016:1 3050:1 3073:1 3095:1 3199:1 3213:1 3260:1 3319:1 3383:1 3439:1 3585:1 3586:1 3671:1 3772:1 3848:1 3853:1 3908:1 4185:1 4253:1 4271:2 4353:1 4403:1 4438:1 4574:1 4662:1 4751:1 4810:1 4890:1 4932:1 5012:1 5068:1 5127:1 5255:1 5363:1 5390:1 5478:1 5522:1 5587:1 5896:1 6012:1 6080:1 6112:1 6352:1 6466:1 6901:1 7065:1 7097:1 7120:1 #
-0.0012083498836816910278896264330228 9:1 10:1 16:1 24:1 33:1 34:1 35:1 49:1 65:1 68:1 69:1 70:1 71:1 72:1 73:1 76:1 87:1 88:1 147:1 176:1 177:1 198:1 200:1 201:1 218:1 219:1 239:1 240:1 241:1 242:1 245:1 249:1 253:1 261:1 262:1 263:1 281:1 283:1 291:1 301:1 303:1 321:1 323:1 338:1 339:1 340:1 348:1 349:1 358:1 370:1 371:1 401:1 470:1 496:1 535:1 564:1 571:1 572:1 573:1 594:1 600:1 626:1 694:1 742:1 746:1 794:1 802:1 803:1 804:1 830:1 841:1 847:1 865:1 917:1 922:1 923:1 934:1 1001:1 1026:1 1038:1 1076:1 1079:1 1095:1 1116:1 1196:1 1197:1 1198:1 1199:1 1222:1 1224:1 1308:1 1396:1 1398:1 1417:1 1423:1 1477:1 1486:1 1500:1 1509:1 1510:1 1514:1 1515:1 1518:1 1603:1 1605:1 1622:1 1623:1 1628:1 1746:1 1751:1 1752:1 1756:1 1757:1 1759:1 1775:1 1779:1 1786:1 1874:1 1875:1 1997:1 2060:1 2074:1 2163:1 2256:1 2257:1 2258:2 2259:1 2260:1 2261:1 2262:1 2263:1 2266:1 2267:1 2269:1 2270:1 2271:1 2272:1 2273:1 2292:1 2338:1 2405:1 2438:1 2578:1 2789:1 2806:1 2807:1 2808:1 2809:1 2810:1 #
-0.0028264209630588415025909121425229 6:1 9:1 10:1 20:1 34:1 49:1 64:1 69:1 73:2 74:1 75:1 76:1 87:1 88:1 89:1 90:1 92:1 140:1 172:1 173:1 175:1 183:1 184:1 193:1 194:1 200:1 201:1 205:1 238:1 239:1 240:1 241:1 242:1 250:1 251:1 252:1 253:1 254:1 255:1 256:1 261:1 262:1 269:1 273:1 274:1 279:1 280:1 281:1 301:1 322:1 323:1 327:1 328:1 329:1 348:1 349:1 370:1 371:1 383:1 384:1 385:1 470:1 527:1 531:1 538:1 539:1 553:1 574:1 612:1 666:1 667:1 790:1 805:1 830:1 842:1 917:1 976:1 985:1 1016:1 1053:1 1070:1 1157:1 1158:1 1177:1 1195:1 1196:1 1197:1 1198:1 1199:1 1219:1 1345:1 1346:1 1359:1 1360:1 1371:1 1417:1 1609:1 1628:1 1673:1 1674:1 1709:1 1710:1 1748:1 1749:1 1752:1 1759:1 1774:1 1815:1 1830:1 1832:1 1840:1 1891:1 1979:1 1981:1 1982:1 2042:1 2076:1 2108:1 2119:1 2206:1 2320:1 2321:1 2360:1 2361:1 2362:1 2364:1 2376:1 2415:1 2582:1 2583:1 2590:1 2591:1 2595:1 2597:1 2601:1 2602:1 2621:1 2660:1 2807:1 3009:1 3010:1 3011:1 3012:1 3013:1 3014:1 3015:1 3016:1 3017:1 #
-0.0023576413400737050371502867562867 8:1 9:1 10:1 36:1 37:1 41:1 45:1 59:1 61:1 67:1 68:1 69:1 70:1 71:1 72:1 73:1 82:1 87:1 94:1 97:1 127:1 189:1 196:1 197:1 198:1 218:1 219:1 249:1 291:1 293:1 312:1 315:1 340:1 358:1 373:1 401:1 417:1 436:1 458:1 466:1 474:1 562:1 571:1 572:1 591:1 592:1 602:1 605:1 647:1 649:1 694:1 742:1 743:1 744:1 746:1 791:1 792:1 796:1 801:1 835:1 922:1 923:1 964:1 984:1 998:1 1010:1 1043:1 1055:1 1111:1 1118:1 1146:1 1195:1 1197:1 1243:1 1344:1 1347:1 1371:1 1394:1 1427:1 1458:1 1468:1 1516:2 1535:1 1536:1 1553:1 1577:1 1579:1 1589:1 1599:1 1651:1 1658:1 1673:1 1689:1 1865:1 1933:1 1937:1 1951:1 1952:2 2004:1 2017:1 2018:1 2019:1 2083:1 2104:1 2144:1 2167:1 2259:1 2303:1 2307:1 2314:1 2315:1 2318:1 2319:1 2320:1 2321:1 2330:1 2331:1 2336:1 2337:1 2338:1 2340:1 2341:1 2342:1 2343:1 2344:1 2346:1 2390:1 2429:1 2450:1 2451:1 2460:1 2484:1 2559:3 2629:1 2630:1 2659:1 2948:1 3136:1 3159:1 3253:1 3266:1 3293:1 3483:1 3484:1 3485:1 3486:1 3487:1 3488:1 3489:1 3490:1 3491:1 3492:1 #
-0.0011063695740548473364639470162274 53:1 64:1 77:1 78:1 85:1 89:1 90:1 136:1 173:1 219:1 323:1 378:1 421:1 424:1 449:1 450:1 468:1 469:1 495:1 526:1 639:1 645:1 659:1 717:1 786:1 789:1 794:1 795:1 802:1 830:1 831:1 878:1 969:1 1010:1 1012:1 1018:1 1058:1 1079:1 1080:1 1098:1 1116:1 1148:1 1160:1 1244:1 1276:1 1346:1 1377:1 1421:1 1552:1 1554:1 1559:1 1578:1 1579:1 1580:1 1596:1 1643:1 1657:1 1702:1 1709:1 1747:1 1831:1 1843:1 1954:1 1955:1 1959:1 2008:1 2013:1 2075:1 2076:1 2080:1 2093:1 2094:1 2119:1 2136:1 2154:1 2167:1 2196:1 2287:1 2302:1 2304:1 2347:1 2394:1 2414:1 2589:1 2593:1 2602:1 2649:1 2658:1 2692:1 2711:1 2712:1 2767:1 2809:1 2829:1 2913:1 2917:1 3053:1 3146:1 3159:1 3199:1 3225:1 3263:1 3285:1 3344:1 3405:1 3409:1 3410:1 3444:1 3498:1 3558:1 3650:1 3738:1 3821:1 4077:1 4106:1 4121:1 4165:1 4255:1 4259:1 4260:1 4274:1 4275:1 4408:1 4485:1 4501:1 4553:1 4800:1 4812:1 4829:1 4908:1 4936:1 5033:1 5268:1 5520:1 5539:1 5540:1 5671:1 5798:1 5863:1 6298:1 6523:1 6781:1 6836:1 6926:1 6952:1 7394:1 7664:1 #
0.0023385925285931913678028060132874 3:1 4:1 5:1 6:1 7:1 8:1 9:1 10:1 18:1 19:1 20:1 48:1 68:1 73:1 80:1 90:2 91:1 149:1 172:1 205:1 219:1 244:1 249:1 250:1 264:1 265:2 311:1 373:1 431:1 439:1 448:1 469:1 487:1 488:1 489:1 493:1 495:1 517:1 521:1 532:1 533:1 553:1 554:1 559:1 564:1 571:1 574:1 583:1 670:1 718:1 734:1 754:1 801:1 814:1 827:1 882:1 887:1 892:1 893:1 912:1 916:1 937:1 947:1 997:1 1006:1 1054:1 1055:1 1162:1 1203:1 1204:1 1219:1 1232:1 1265:2 1314:1 1339:1 1341:1 1342:1 1396:1 1417:1 1435:1 1455:1 1458:1 1462:1 1508:1 1513:1 1546:1 1559:1 1570:1 1599:1 1603:1 1668:1 1679:1 1691:1 1709:1 1770:1 1826:2 1844:1 1870:1 2026:1 2036:1 2090:1 2168:1 2209:1 2295:1 2316:1 2478:1 2496:1 2500:1 2502:1 2582:1 2622:1 2641:1 2680:1 2714:1 2854:1 2892:1 2897:1 2926:1 2977:1 3034:1 3045:1 3079:1 3136:1 3178:1 3201:1 3394:1 3463:1 3607:1 3686:1 3703:1 3760:1 3810:1 3833:1 3857:1 3861:1 3963:1 3991:1 3993:1 4074:1 4142:1 4165:1 4171:1 4343:1 4491:1 4513:1 4928:1 4985:1 5221:1 5483:1 5507:1 5522:1 5734:1 5829:1 5986:1 6108:1 6180:1 6212:1 6357:1 6552:1 7047:1 #
0.0016991497280001552263456465752256 6:1 7:1 8:1 9:1 10:1 16:1 18:1 19:1 58:1 68:1 73:1 75:1 76:1 88:1 90:1 105:1 119:1 130:1 183:1 195:1 218:1 221:1 249:1 253:1 264:1 265:1 270:1 271:1 453:1 471:1 506:1 512:1 526:1 572:1 573:1 583:1 592:1 598:1 599:1 603:1 693:1 708:1 709:1 711:1 733:1 795:1 917:1 919:1 922:1 923:1 932:1 956:1 957:1 980:1 981:1 982:1 1039:1 1098:1 1166:1 1170:1 1171:1 1225:1 1237:1 1258:1 1265:1 1314:1 1323:1 1347:1 1348:1 1365:1 1371:1 1386:1 1421:1 1422:1 1432:1 1440:1 1469:1 1512:1 1553:1 1559:1 1577:1 1599:1 1668:1 1749:1 1779:1 1826:1 1828:1 1831:1 1836:1 1856:1 1857:1 1878:1 1970:1 1971:1 2007:1 2023:1 2030:1 2032:1 2041:1 2042:1 2064:1 2077:1 2269:1 2277:1 2287:1 2318:1 2390:1 2393:1 2394:1 2424:1 2444:1 2471:1 2475:1 2487:1 2508:1 2683:1 2706:1 2873:2 2898:1 2983:1 3045:1 3115:1 3137:1 3161:1 3243:1 3325:1 3515:1 3563:1 3602:1 3639:1 3713:1 3825:1 3957:1 4047:1 4098:1 4159:1 4272:1 4408:1 4430:1 4544:1 4587:1 4660:1 4672:1 4731:1 4739:1 4892:1 4935:1 5114:1 5129:1 5151:1 5407:1 5487:1 5653:2 5986:1 6011:1 6473:1 6517:1 6551:1 6589:1 6617:1 6771:1 6859:1 6901:1 7043:1 7358:1 7747:1 7748:1 #
0.0017375964541679095494430828949817 4:1 9:1 10:1 17:1 18:1 25:1 73:1 91:1 172:1 249:1 261:1 344:1 352:1 428:1 435:1 448:1 467:1 468:1 469:1 475:1 479:1 504:1 507:1 517:1 571:1 572:1 589:1 590:1 591:1 598:1 622:1 623:1 708:1 709:1 724:1 733:1 734:1 735:1 746:1 768:1 795:1 801:1 840:1 844:1 855:1 863:1 882:1 883:1 888:1 894:1 907:1 915:1 916:2 922:1 923:1 928:1 932:1 933:1 979:1 982:1 1005:1 1037:1 1039:1 1079:1 1084:1 1112:1 1116:1 1235:1 1257:1 1305:1 1330:1 1371:1 1386:1 1390:1 1421:1 1422:1 1430:1 1440:1 1458:1 1553:2 1559:1 1599:1 1603:1 1651:1 1665:1 1701:1 1728:1 1776:1 1826:1 1831:1 1858:1 1870:1 1883:1 1901:1 1949:1 1955:1 1958:1 2042:1 2196:1 2235:1 2268:1 2274:1 2383:1 2437:1 2438:1 2471:2 2492:1 2496:1 2511:1 2577:1 2593:1 2645:1 2678:1 2924:1 2948:1 3016:1 3175:1 3177:1 3289:1 3528:1 3587:1 3588:1 3602:1 3612:1 3631:1 3680:1 3716:1 3740:1 3746:1 3825:1 3902:1 3922:1 3931:1 4004:1 4008:1 4014:1 4017:1 4022:1 4248:1 4270:1 4284:1 4349:1 4395:1 4434:1 4553:1 4558:1 4639:1 4716:1 4768:1 5023:1 5049:1 5061:1 5146:1 5232:1 5352:1 5638:1 5971:1 5977:1 6091:1 6112:1 6323:1 6344:1 6457:1 6481:1 6588:1 6824:1 7026:1 #
0.0028259418592913396889310106985249 6:1 7:1 8:1 9:1 10:1 18:1 45:1 48:1 73:1 90:1 91:1 119:1 150:1 154:1 157:1 172:1 173:1 202:1 210:1 250:1 288:1 302:1 346:1 377:1 387:1 388:1 389:1 396:1 413:1 431:1 439:1 471:1 492:1 493:1 532:1 555:1 606:1 607:1 623:1 626:1 678:1 693:1 694:1 707:1 714:1 740:1 801:1 802:1 831:1 857:2 858:2 878:1 887:1 894:1 970:1 996:1 1002:1 1014:1 1020:1 1039:1 1040:1 1079:1 1122:1 1202:1 1209:1 1212:1 1213:1 1219:1 1258:1 1291:1 1421:1 1435:1 1453:1 1501:1 1503:1 1512:1 1535:1 1541:1 1559:1 1561:1 1562:1 1578:1 1579:1 1581:1 1599:1 1698:1 1709:1 1771:1 1785:1 1794:1 1811:1 1824:1 1879:1 1880:1 1883:1 1955:1 1967:1 1971:1 2025:1 2026:1 2027:1 2052:1 2095:1 2125:1 2126:1 2156:1 2166:1 2302:1 2318:1 2347:1 2357:1 2451:1 2479:1 2490:1 2537:1 2604:1 2659:1 2702:1 2704:1 2843:1 2919:1 2934:1 3034:1 3223:1 3270:1 3306:1 3525:1 3589:1 3634:1 3717:1 3829:1 3835:1 3845:1 3853:1 3892:1 3991:1 4017:1 4021:1 4022:1 4024:1 4057:1 4152:1 4160:1 4171:1 4328:1 4480:1 4944:1 5031:1 5258:1 5326:1 5342:1 5345:1 5350:1 5381:1 5626:1 5842:1 5947:1 5986:1 6041:1 6177:1 6406:1 6804:1 7026:1 7057:1 #
-0.0021092521703142633887617662935554 45:1 80:1 102:1 103:1 118:1 119:2 152:1 181:1 210:1 219:1 233:1 274:1 292:1 293:1 318:1 354:1 362:1 413:1 424:1 439:1 471:1 472:1 521:1 534:1 545:1 549:1 553:1 554:1 588:1 606:1 619:1 625:2 638:1 662:1 668:1 670:1 699:1 762:1 793:1 795:1 800:1 828:1 848:1 863:2 887:1 892:1 897:1 906:1 932:1 989:1 1005:1 1021:2 1032:1 1054:1 1055:1 1058:1 1079:1 1085:1 1097:1 1118:1 1139:1 1202:1 1210:1 1244:1 1253:2 1255:1 1266:1 1421:1 1422:1 1484:1 1485:1 1486:1 1491:1 1522:1 1528:1 1531:1 1536:1 1574:1 1578:1 1589:2 1599:1 1604:1 1617:1 1618:1 1631:1 1632:1 1652:1 1676:1 1701:1 1733:1 1737:1 1828:1 1830:1 1832:1 1897:1 1914:1 1946:1 1948:1 1953:1 1962:1 2008:1 2017:1 2018:2 2026:1 2058:1 2103:1 2109:1 2155:1 2174:1 2196:1 2289:1 2306:1 2429:1 2470:1 2479:1 2519:1 2565:1 2612:1 2618:1 2636:1 2658:1 2660:1 2665:1 2672:1 2673:1 2685:1 2722:1 2776:1 2864:1 2913:1 2922:1 3002:1 3034:2 3149:1 3168:1 3222:1 3223:1 3232:1 3279:1 3323:1 3333:1 3341:2 3411:1 3498:1 3504:1 3505:1 3516:1 3520:1 3558:1 3649:1 3670:1 3729:1 3735:1 3785:1 3845:1 3925:1 4112:1 4133:1 4141:1 4159:1 4167:1 4199:1 4360:1 4404:2 4432:1 4662:1 4678:1 4699:1 4761:1 4803:1 4832:1 4874:1 4922:1 4931:1 4957:1 4980:1 5199:1 5254:1 5338:1 5363:1 5400:1 5566:1 5600:1 5612:1 5632:1 5645:1 5732:1 5733:1 5743:1 5986:1 6002:1 6303:1 6310:1 6356:1 6405:1 6534:1 6653:1 6665:1 6697:1 6875:1 6974:1 7120:1 7235:1 7299:1 7420:1 7429:1 #
-0.0011693341849212826686482680216272 18:1 22:1 26:1 45:1 69:1 70:1 86:1 102:1 123:1 124:1 151:1 171:1 174:1 200:1 211:1 253:1 315:1 344:1 346:1 393:1 413:1 439:1 450:2 487:1 507:1 532:1 534:1 554:1 555:1 560:1 567:1 572:1 579:1 625:1 638:1 640:1 668:2 670:1 684:1 701:1 706:1 740:1 760:1 762:1 784:1 801:1 841:1 864:1 897:1 916:1 945:1 946:1 962:1 963:1 993:1 996:1 997:1 1058:1 1079:1 1086:1 1107:1 1113:1 1116:1 1199:1 1245:1 1255:1 1266:1 1281:1 1302:1 1362:1 1373:1 1399:1 1421:1 1436:1 1461:1 1484:1 1491:1 1496:1 1504:1 1528:1 1536:1 1541:1 1578:1 1589:1 1617:1 1618:1 1652:1 1666:1 1671:1 1675:2 1690:1 1691:2 1692:1 1697:1 1719:1 1730:1 1789:1 1865:1 1884:1 1902:1 2017:1 2018:1 2024:1 2107:1 2108:1 2134:1 2152:1 2154:1 2155:1 2225:1 2233:2 2276:1 2300:1 2332:1 2367:1 2399:1 2415:1 2470:1 2489:1 2491:1 2495:1 2564:1 2614:1 2636:1 2675:1 2824:1 2864:1 2869:1 2889:1 3003:1 3034:1 3048:1 3075:1 3100:1 3101:1 3149:1 3268:1 3291:1 3308:1 3402:1 3415:1 3457:1 3498:1 3516:1 3561:1 3568:1 3569:1 3570:1 3589:1 3645:1 3659:1 3686:1 3695:1 3714:1 3730:1 3839:1 3840:1 3867:1 3869:1 3925:1 4125:1 4152:1 4167:1 4171:1 4294:1 4312:1 4346:1 4435:1 4449:1 4553:1 4561:1 4583:1 4678:1 4688:1 4719:1 4757:1 4793:1 4882:1 4887:1 4889:1 4892:1 4931:1 4963:1 5108:1 5130:1 5154:1 5202:1 5254:1 5347:1 5439:1 5440:1 5612:1 5635:1 5682:1 5723:1 5725:1 5857:1 5877:1 5980:1 5993:1 6002:1 6112:1 6123:1 6177:1 6226:1 6243:1 6422:1 6626:1 6793:1 6826:1 7105:1 #
-0.00020259003967306642374560099462144 6:1 8:1 16:1 45:1 64:1 70:1 97:1 110:1 117:1 124:1 129:1 151:1 166:1 172:1 210:1 265:1 321:1 359:1 371:1 372:1 375:1 389:1 396:1 409:1 423:1 435:1 439:1 484:1 490:1 522:1 534:1 591:1 625:1 638:1 640:1 643:1 668:1 693:1 694:1 730:1 764:1 773:1 774:1 780:1 791:1 800:1 827:1 847:1 855:1 861:1 888:1 917:1 926:1 929:1 945:1 1023:1 1032:1 1058:1 1079:1 1084:1 1086:1 1119:1 1147:1 1154:1 1190:1 1211:1 1255:1 1315:1 1325:1 1370:1 1384:1 1413:1 1422:1 1461:1 1484:1 1487:1 1491:1 1516:1 1517:1 1525:1 1527:1 1528:1 1536:1 1552:1 1559:1 1580:1 1589:1 1604:1 1617:1 1618:1 1631:1 1652:1 1658:1 1691:1 1692:1 1718:1 1888:1 1899:1 1914:1 1934:1 1935:1 1941:1 1944:1 1947:1 1981:1 1996:1 2017:1 2018:1 2024:1 2034:1 2042:1 2064:1 2104:1 2118:1 2151:1 2176:1 2189:1 2196:1 2201:1 2227:1 2232:1 2259:1 2309:1 2317:1 2362:1 2370:1 2390:1 2524:1 2525:1 2532:1 2552:1 2589:1 2618:1 2636:1 2659:2 2789:1 2807:1 2811:1 2816:1 2889:1 2893:1 3015:1 3034:2 3043:1 3050:1 3115:1 3127:1 3131:1 3136:1 3149:1 3232:1 3247:1 3309:1 3330:1 3388:1 3397:1 3414:1 3473:1 3516:1 3569:1 3570:1 3652:1 3664:1 3695:1 3701:1 3735:1 3738:1 3756:1 3915:1 3946:1 4016:1 4079:1 4133:1 4141:1 4182:1 4209:1 4225:1 4233:1 4251:1 4294:1 4318:1 4322:1 4323:1 4344:1 4364:1 4366:1 4374:1 4679:1 4803:1 4827:1 4847:1 4893:2 4894:1 4929:2 4931:1 4946:1 5000:1 5146:1 5172:1 5181:1 5268:1 5373:1 5547:1 5645:1 5663:1 5725:1 6052:1 6080:1 6188:1 6410:1 6425:1 6481:1 6674:1 6697:1 7065:1 7333:1 7410:1 #
