SVM-light Version V6.01
0 # kernel type
3 # kernel parameter -d 
1 # kernel parameter -g 
1 # kernel parameter -s 
1 # kernel parameter -r 
empty# kernel parameter -u 
7764 # highest feature index 
4751 # number of training documents 
447 # number of support vectors plus 1 
0.50406728 # threshold b, each following line is a SV (starting with alpha*y)
-0.00059041531184619963808224429868687 3:1 4:1 5:1 6:1 7:1 8:1 14:1 33:1 42:1 44:1 45:1 46:1 53:1 54:1 97:1 116:1 122:1 123:1 173:1 210:1 215:1 246:1 250:1 269:1 312:1 313:1 315:1 323:1 328:1 633:1 746:1 802:1 871:1 872:1 879:1 894:1 897:2 952:1 986:1 987:1 1005:1 1010:1 1013:1 1014:1 1085:1 1209:1 1210:1 1211:1 1260:1 1281:2 1346:1 1423:1 1426:1 1460:1 1525:1 1526:1 1549:1 1550:1 1552:1 1559:1 1578:2 1579:2 1673:1 1676:1 1679:1 1721:1 1723:1 1731:1 1780:1 1788:1 1861:1 1903:1 1938:1 1943:1 1954:1 1989:1 2095:1 2125:1 2212:1 2373:1 2374:1 2425:1 2439:1 2448:1 2450:1 2466:1 2586:1 2587:2 2593:1 2629:1 2692:1 2698:1 2705:1 2848:1 2874:1 2875:1 2877:1 2952:1 2957:1 2967:1 2984:1 3018:1 3099:1 3194:1 3329:1 3361:1 3406:1 3491:1 3559:1 3624:1 3659:1 3664:1 3666:1 3834:1 3889:1 3892:1 3966:1 4117:1 4485:1 4511:1 4644:1 4757:1 4778:1 4800:1 4848:1 4945:1 4970:1 5031:1 5037:1 5155:1 5204:1 5299:1 5429:1 5467:1 5476:1 5539:1 5548:1 5663:1 5977:1 6013:1 6224:1 6326:1 6636:1 6684:1 6818:1 #
0.0006482284795194207405871766880523 1:1 39:1 40:1 41:1 68:1 69:1 71:1 116:1 153:1 208:1 270:1 289:1 290:1 303:1 328:1 368:1 393:1 411:1 415:1 424:1 433:1 435:1 467:1 489:1 492:1 547:1 548:1 555:1 572:1 576:1 606:1 609:1 624:1 638:1 652:1 666:1 667:1 674:1 690:1 712:1 788:1 827:1 831:1 847:1 872:1 873:1 881:1 905:1 991:1 993:1 1011:1 1080:1 1091:1 1111:1 1126:1 1243:1 1311:1 1325:1 1351:1 1384:1 1387:1 1425:1 1452:1 1483:1 1524:1 1569:1 1574:1 1599:1 1643:1 1655:1 1672:1 1693:1 1720:1 1729:1 1762:1 1777:1 1792:1 1793:1 1858:1 1859:1 1896:1 1955:1 2085:1 2095:1 2153:1 2167:1 2200:1 2226:1 2236:1 2300:1 2303:1 2304:1 2330:1 2377:1 2384:1 2404:1 2427:1 2443:1 2496:1 2497:1 2519:1 2522:1 2533:1 2556:1 2557:1 2656:1 2671:1 2694:1 2702:1 2704:1 2728:1 2783:1 2830:1 2906:1 2926:1 2939:1 2944:1 2946:1 2987:1 3069:1 3160:1 3168:1 3218:1 3223:1 3243:1 3257:1 3304:1 3447:1 3562:1 3586:1 3591:1 3624:1 3625:1 3684:1 3696:1 3702:1 3785:1 3797:1 3836:1 3908:1 3914:1 3976:1 4056:1 4121:1 4161:1 4166:1 4172:1 4176:1 4283:1 4324:1 4394:1 4413:1 4444:1 4483:1 4495:1 4512:1 4580:1 4585:1 4624:1 4660:1 4667:1 4722:1 4786:1 4813:1 4915:1 4974:1 4979:1 5028:1 5426:1 5514:1 5615:1 5632:1 5874:1 5877:1 5888:1 5924:1 5925:1 5958:1 6121:1 6371:1 6931:1 7099:1 7274:1 #
-0.00021863510627283093152445347939761 6:1 18:1 19:1 22:1 40:1 41:1 45:1 48:1 75:1 77:1 123:1 124:1 129:1 171:1 172:1 182:1 212:1 218:1 258:1 339:1 359:1 396:1 410:1 413:1 416:1 423:1 428:1 439:1 440:1 450:1 453:1 472:1 534:1 549:1 552:1 554:1 573:1 579:1 588:1 625:1 638:1 647:1 658:1 691:1 692:1 712:1 748:1 762:1 764:1 773:1 793:1 855:1 900:1 906:1 942:1 945:1 993:1 1006:1 1007:1 1016:1 1032:1 1056:1 1058:1 1070:1 1084:1 1090:1 1091:1 1116:1 1149:1 1199:1 1202:1 1225:1 1234:1 1253:1 1255:1 1265:1 1266:1 1302:1 1325:1 1334:1 1348:1 1370:1 1383:1 1387:1 1399:1 1400:1 1401:1 1432:1 1439:1 1476:1 1491:1 1522:1 1526:1 1528:1 1589:1 1617:1 1618:1 1652:1 1676:1 1690:2 1720:1 1726:1 1730:1 1825:1 1853:1 1903:1 1951:1 1954:1 1981:1 1999:1 2005:1 2008:1 2009:1 2017:1 2018:1 2076:1 2103:1 2104:1 2108:1 2118:1 2134:1 2161:1 2174:1 2180:1 2228:1 2230:1 2237:1 2247:1 2288:1 2289:1 2317:1 2332:1 2422:1 2427:1 2489:1 2504:1 2531:1 2535:1 2609:1 2618:1 2634:1 2639:1 2658:1 2660:1 2719:1 2788:1 2789:1 2847:1 2869:1 2889:1 2896:1 2898:1 2908:1 2913:1 2916:1 2923:1 2930:1 2976:1 3002:1 3006:1 3027:1 3034:1 3050:1 3082:1 3105:1 3113:1 3119:1 3144:1 3149:1 3169:1 3173:1 3174:1 3183:1 3214:1 3232:1 3292:1 3304:1 3317:1 3338:1 3358:1 3372:1 3383:1 3408:1 3464:1 3482:1 3489:1 3491:1 3498:1 3556:1 3589:1 3636:1 3654:1 3686:1 3690:1 3711:1 3735:1 3756:1 3760:1 3803:1 3888:1 3904:1 3925:1 3947:1 4016:1 4086:1 4113:1 4132:1 4133:1 4163:1 4276:1 4357:1 4491:1 4513:1 4586:1 4640:1 4684:1 4813:1 4827:1 4892:1 4925:1 4930:1 4931:1 5010:1 5045:1 5223:1 5261:2 5347:1 5365:1 5380:1 5447:1 5600:1 5640:1 5713:1 6052:1 6123:1 6183:1 6288:1 6337:1 6375:1 6405:1 6504:1 6703:1 6756:1 6822:1 6953:1 7105:1 7277:1 7394:1 #
-0.00073230991516503554823735999690371 33:1 39:1 41:1 65:1 124:1 146:1 155:1 156:1 184:1 196:1 197:2 210:1 236:1 250:1 251:1 263:1 288:1 313:1 321:1 327:1 335:1 349:1 372:1 374:1 375:1 380:1 384:1 385:1 387:1 411:1 431:1 442:1 448:1 479:1 496:1 522:1 534:1 552:1 571:1 593:1 621:1 623:1 648:2 675:1 689:1 730:1 731:1 765:1 773:1 775:1 777:1 785:1 788:1 789:1 804:1 815:1 879:1 880:1 894:1 929:1 937:1 1005:1 1015:1 1022:1 1026:1 1072:1 1079:1 1085:1 1122:1 1147:1 1148:1 1166:1 1170:1 1181:1 1182:1 1210:1 1262:1 1324:1 1333:1 1370:1 1399:1 1416:1 1434:1 1435:1 1449:1 1452:1 1457:1 1476:1 1525:1 1529:1 1573:1 1579:1 1599:1 1621:1 1680:1 1691:1 1718:1 1719:1 1794:1 1815:2 1818:1 1836:1 1885:1 1908:1 1912:1 1919:1 2006:1 2033:1 2051:1 2062:1 2064:1 2094:1 2124:1 2169:1 2201:1 2275:1 2295:1 2327:1 2337:1 2458:1 2476:1 2490:1 2537:1 2551:1 2553:1 2629:1 2660:1 2673:1 2725:1 2783:1 2848:1 2948:1 2952:1 3000:1 3015:1 3070:1 3078:1 3113:1 3218:1 3222:1 3239:1 3288:1 3401:1 3414:1 3449:1 3475:1 3499:1 3500:1 3501:1 3502:1 3558:1 3615:1 3626:1 3632:2 3635:1 3640:1 3646:1 3647:1 3648:1 3694:1 3711:1 3771:1 3834:1 3853:1 3863:1 3864:1 3868:1 3884:1 3885:1 3892:1 3910:1 3918:1 3937:1 4022:1 4024:1 4028:1 4061:1 4124:1 4131:1 4203:1 4205:1 4207:1 4210:1 4212:1 4213:1 4217:1 4222:1 4286:1 4442:1 4446:1 4764:1 #
0.00055280827827502239304319209267646 39:1 58:1 64:1 76:1 80:1 108:1 110:1 147:1 152:1 196:1 203:1 217:3 218:2 220:1 238:1 247:1 313:1 318:1 319:1 380:1 381:1 391:1 624:1 625:1 626:1 641:1 642:1 705:1 734:1 735:1 801:1 802:1 804:1 872:1 875:1 877:1 881:1 882:1 895:1 897:1 899:1 907:1 922:1 923:1 987:1 1056:1 1084:1 1088:1 1116:1 1135:1 1196:1 1201:1 1215:1 1224:1 1231:1 1239:1 1305:2 1346:1 1347:1 1358:1 1365:1 1367:1 1368:1 1395:1 1410:1 1416:1 1421:2 1432:1 1447:1 1449:1 1483:1 1524:1 1535:1 1575:1 1576:1 1577:1 1603:1 1617:1 1634:1 1657:1 1667:1 1720:1 1750:1 1768:1 1805:1 1807:1 1879:1 1918:1 1928:1 1934:1 1935:1 1952:2 1958:1 1963:1 1998:1 2031:1 2048:1 2143:1 2144:1 2148:1 2155:1 2200:1 2275:1 2293:1 2347:1 2358:1 2398:1 2444:1 2466:1 2471:1 2618:1 2634:1 2643:1 2701:1 2732:1 2827:1 2853:1 2887:1 2918:1 2919:1 2946:1 2970:1 3003:1 3039:1 3083:1 3150:1 3161:1 3285:1 3299:1 3398:1 3468:1 3469:1 3478:1 3534:1 3541:1 3696:1 3697:1 3698:1 3871:1 3932:1 3998:1 4137:1 4138:1 4167:1 4172:1 4207:1 4239:1 4333:1 4366:1 4389:1 4395:1 4457:1 4570:1 4616:1 4692:1 4699:1 4851:1 4893:1 4894:1 4916:1 4944:1 5047:1 5060:1 5162:1 5859:1 6215:1 6232:1 6256:1 6315:1 6423:1 6431:1 6452:1 6566:1 6717:2 6781:1 6850:1 6875:1 7018:1 7062:1 7071:1 7076:1 7077:1 7134:1 7211:1 #
0.00091452927176354132949437358846012 2:1 28:1 39:1 40:1 41:1 48:1 157:1 194:1 208:1 264:1 268:2 269:1 281:1 312:1 343:1 397:1 413:1 448:1 453:1 468:1 531:1 536:1 553:1 557:1 579:1 619:1 647:1 693:1 740:1 756:1 773:1 857:1 866:1 872:1 873:1 1021:2 1056:1 1098:1 1121:1 1254:1 1256:2 1301:1 1325:1 1326:1 1327:1 1328:1 1459:1 1479:1 1481:2 1484:1 1532:1 1572:1 1573:1 1600:1 1602:1 1632:1 1642:1 1673:1 1701:1 1741:1 1745:1 1757:1 1759:1 1790:1 1793:1 1857:1 1879:1 1882:1 1928:1 1939:1 1966:1 1973:1 2003:1 2014:1 2040:1 2073:1 2090:1 2095:1 2101:1 2138:1 2158:1 2175:1 2226:1 2259:1 2275:1 2304:1 2336:1 2337:1 2348:1 2353:1 2354:2 2418:1 2421:1 2478:1 2484:1 2491:1 2493:1 2506:1 2514:1 2522:1 2551:1 2579:1 2600:1 2601:1 2660:1 2671:1 2695:1 2755:1 2830:1 2947:1 2960:1 2979:2 2981:1 3010:1 3145:1 3160:1 3213:1 3232:1 3241:1 3292:1 3321:1 3322:1 3457:1 3505:1 3556:1 3631:1 3696:1 3702:1 3770:1 3942:1 4021:1 4113:1 4172:1 4180:1 4191:1 4227:1 4282:1 4284:2 4286:1 4349:1 4498:1 4580:1 4758:1 4785:1 5122:1 5167:1 5711:1 5781:1 6018:1 6183:1 6316:1 6401:1 6449:1 6931:1 7008:1 7058:1 7059:1 7060:1 #
0.00045895862905288782899668187376108 39:1 40:1 41:1 77:1 108:1 183:1 233:1 259:1 269:1 298:1 416:1 472:1 486:1 568:1 588:1 593:1 620:1 626:2 627:1 631:1 650:1 689:1 693:1 766:1 792:2 831:1 841:1 845:1 847:1 873:1 881:1 890:1 933:1 968:1 976:1 1013:1 1068:1 1076:1 1082:1 1121:1 1272:1 1318:1 1325:1 1326:1 1327:1 1333:1 1341:1 1348:1 1350:1 1411:2 1425:1 1483:1 1504:1 1526:1 1549:1 1574:1 1602:1 1603:1 1609:1 1635:1 1643:1 1647:1 1678:1 1720:1 1734:1 1835:1 1935:1 1951:1 1957:1 1976:1 2042:1 2062:1 2084:1 2090:1 2107:1 2141:1 2161:1 2226:1 2295:1 2363:1 2375:1 2406:1 2466:1 2525:1 2595:1 2601:1 2648:1 2655:1 2671:2 2674:1 2711:1 2732:2 2804:1 2850:1 2870:1 2907:1 2979:1 2982:1 2991:1 3001:1 3017:1 3116:1 3199:1 3241:1 3271:1 3299:1 3337:1 3414:1 3474:1 3478:1 3488:1 3513:1 3559:1 3684:1 3707:1 3918:1 4090:1 4113:1 4148:1 4176:1 4209:1 4279:1 4283:1 4340:1 4361:1 4403:1 4605:1 4722:1 4723:1 4751:1 4764:1 4861:1 4979:1 5056:1 5261:1 5362:1 5495:1 5516:1 5667:1 5668:1 5771:1 5817:2 5935:1 5946:1 6012:1 6641:1 6850:1 7061:1 #
0.0010376982736666911805861746032065 17:1 33:1 39:1 40:1 41:1 43:1 75:1 78:1 79:1 83:1 141:1 150:1 158:1 208:1 263:1 303:2 318:1 328:1 340:1 358:1 375:1 380:1 466:1 471:1 474:1 477:1 481:1 495:1 536:1 537:1 561:1 572:1 590:1 611:1 619:1 620:1 621:1 624:1 625:1 626:1 663:1 667:1 677:1 690:1 693:1 731:1 742:1 755:1 756:1 772:1 826:1 844:1 846:1 861:1 872:1 888:1 895:1 908:2 960:1 1021:1 1040:1 1155:1 1195:1 1201:1 1209:1 1230:1 1243:1 1247:1 1253:1 1290:1 1325:1 1375:1 1377:1 1405:1 1434:1 1483:1 1507:1 1508:1 1523:1 1526:1 1528:1 1531:1 1538:1 1569:1 1570:1 1579:1 1580:1 1588:1 1651:1 1713:1 1728:1 1759:1 1823:1 1933:1 1973:1 1995:1 2007:1 2052:1 2059:1 2088:1 2099:1 2108:1 2111:1 2127:1 2136:1 2175:1 2211:1 2219:1 2235:1 2258:1 2264:1 2271:1 2282:1 2295:1 2296:1 2297:1 2330:1 2342:1 2347:1 2412:1 2431:1 2438:1 2500:1 2501:1 2502:1 2503:1 2518:1 2526:1 2529:1 2542:1 2590:1 2597:1 2711:1 2731:1 2762:1 2779:1 2825:1 2871:1 2885:1 2915:1 2926:1 2931:1 3028:1 3050:1 3054:1 3060:1 3070:1 3079:1 3099:1 3114:1 3178:1 3200:1 3218:1 3238:1 3243:1 3245:1 3273:1 3408:1 3410:1 3489:1 3510:1 3528:1 3558:1 3602:1 3625:1 3645:1 3646:1 3658:1 3670:1 3706:1 3707:1 3719:1 3766:1 3863:1 3900:1 3949:1 3950:1 3963:1 4005:1 4017:1 4036:1 4105:1 4158:1 4173:1 4175:1 4182:1 4190:1 4240:1 4307:1 4324:1 4348:1 4425:1 4435:1 4487:1 4501:1 4599:1 4666:1 4744:1 4772:1 4874:1 5042:1 5061:1 5205:1 5260:1 5321:1 5327:1 5355:1 5365:1 5366:1 5478:1 5485:1 5486:1 5493:1 5495:1 5507:1 5522:1 5554:1 5570:1 5664:1 5666:1 5680:1 5780:1 5789:1 5792:1 5858:1 5865:1 5870:1 5877:1 5888:1 6037:1 6076:1 6088:1 6106:1 6362:1 6365:1 6397:1 6405:1 6429:1 6622:1 6745:1 6931:1 6943:1 6992:1 7021:1 7071:1 #
0.0020484172664011900295844004205037 2:1 33:1 39:1 40:1 41:1 61:1 65:1 74:1 76:1 90:1 131:1 150:1 190:1 209:1 325:1 360:1 378:1 394:1 430:1 439:1 500:1 521:1 533:1 549:1 625:1 626:1 657:1 677:1 687:1 689:2 712:1 746:1 747:1 804:1 839:1 866:1 872:1 875:1 881:1 882:1 898:1 900:1 943:1 1004:1 1006:1 1041:1 1078:1 1079:1 1086:1 1182:1 1196:1 1208:1 1209:1 1254:1 1277:1 1303:1 1325:1 1364:1 1476:1 1503:1 1536:1 1573:1 1600:1 1680:1 1685:1 1730:1 1793:1 1794:1 1836:1 1934:1 1935:1 1941:1 1943:1 1959:1 2035:1 2094:1 2095:1 2096:1 2105:1 2137:1 2156:1 2176:1 2264:1 2295:1 2309:1 2323:1 2387:1 2420:1 2469:1 2483:1 2491:1 2539:1 2545:1 2546:1 2566:1 2673:1 2678:1 2717:1 2732:1 2779:1 2788:1 2830:1 2861:1 2863:1 2906:1 2946:1 2983:1 3024:1 3034:1 3041:1 3045:1 3161:1 3173:1 3240:1 3241:1 3256:1 3287:1 3304:1 3410:1 3418:1 3443:1 3447:1 3591:1 3646:1 3649:1 3652:1 3659:1 3671:1 3765:1 3786:1 3819:1 3834:1 3862:1 4152:1 4221:1 4227:1 4256:1 4273:1 4310:1 4326:1 4431:1 4627:1 4686:1 4775:1 5007:1 5081:2 5092:1 5138:1 5146:1 5181:1 5193:1 5306:1 5850:1 6010:1 6031:1 6048:1 6192:1 6215:1 6332:1 6353:1 6371:1 7060:1 7062:1 #
5.9247149746492777135087326456642e-05 4:1 5:1 22:1 27:1 39:1 40:2 41:1 75:1 76:1 109:1 125:1 126:1 150:1 156:1 166:1 208:1 215:1 255:1 256:1 313:1 360:1 393:1 424:1 474:1 477:1 478:1 492:1 525:1 531:1 546:1 555:1 570:1 571:1 572:1 608:1 614:1 622:1 623:1 624:2 625:1 633:1 648:1 649:1 650:1 667:1 693:1 694:1 755:1 831:1 857:1 864:1 872:1 894:1 916:1 992:1 993:1 995:1 1079:1 1080:1 1089:1 1091:1 1111:1 1133:1 1255:1 1287:1 1304:1 1319:1 1325:1 1365:1 1399:1 1416:1 1417:1 1435:1 1436:1 1452:1 1463:1 1476:1 1483:1 1491:1 1529:1 1534:1 1541:1 1573:1 1618:1 1642:1 1643:1 1656:1 1672:1 1673:1 1704:1 1724:1 1742:1 1779:1 1831:1 1853:1 1858:1 1892:1 1903:1 1922:1 1935:1 1954:1 1963:1 1984:1 1996:1 2014:1 2157:1 2171:1 2181:1 2272:1 2347:1 2363:1 2377:1 2398:1 2427:1 2431:1 2453:1 2466:1 2524:1 2534:1 2559:1 2586:1 2599:1 2620:1 2656:1 2671:1 2713:1 2715:2 2780:1 2850:1 2889:1 2897:1 2938:1 2939:1 2946:1 2952:1 2988:1 3049:1 3050:1 3145:1 3146:1 3217:1 3218:1 3244:1 3257:1 3285:2 3304:1 3310:1 3344:2 3348:1 3369:1 3473:1 3579:1 3616:1 3621:1 3625:1 3630:1 3671:1 3746:1 3804:1 3838:1 3902:1 3986:1 3991:1 4161:1 4190:1 4235:1 4276:1 4401:1 4402:1 4406:1 4444:1 4472:1 4473:1 4503:1 4531:1 4536:1 4645:1 4660:1 4786:1 5055:1 5065:1 5167:1 5259:1 5348:1 5484:1 5514:1 5554:1 5615:1 5638:1 5743:1 5888:1 5932:1 6108:1 6162:1 6212:1 6244:1 6252:1 6570:1 6631:1 6970:1 7002:1 7063:1 7064:1 #
-0.00032819159799616558171805880128602 5:1 19:1 22:1 25:1 26:1 40:1 45:1 85:1 124:1 129:1 172:2 210:1 211:1 220:1 224:1 279:1 280:1 290:1 321:1 346:1 364:1 371:1 413:1 439:1 440:1 448:1 457:1 475:1 525:1 534:1 539:1 544:1 573:1 589:1 590:2 625:1 638:1 640:1 644:1 647:1 650:1 658:1 668:1 691:1 756:1 764:1 792:1 853:1 854:1 878:1 894:1 895:1 899:1 908:1 942:1 943:1 945:1 949:1 965:1 968:1 969:1 993:1 1026:2 1039:1 1054:1 1056:1 1058:1 1079:2 1086:1 1124:1 1147:1 1189:1 1242:1 1243:1 1256:1 1291:1 1304:2 1309:2 1325:1 1334:1 1413:1 1435:1 1436:1 1476:1 1491:1 1528:1 1534:1 1547:1 1549:1 1556:1 1573:2 1589:1 1675:1 1677:1 1690:1 1697:1 1727:1 1809:1 1818:1 1857:1 1859:1 1892:1 1935:1 1959:1 1968:1 1972:1 1998:1 2009:1 2015:1 2017:1 2018:1 2061:1 2093:1 2094:1 2134:1 2174:1 2218:1 2229:1 2230:1 2233:1 2247:1 2276:1 2304:1 2317:1 2318:1 2336:1 2395:1 2423:1 2442:1 2471:1 2477:1 2489:1 2493:1 2519:1 2551:1 2586:1 2589:1 2592:1 2618:1 2660:2 2695:1 2748:1 2789:1 2869:1 2889:1 2917:1 2961:1 2970:1 3003:1 3009:1 3034:1 3039:1 3143:1 3144:1 3149:1 3232:2 3239:1 3247:1 3274:1 3330:1 3349:1 3388:1 3394:1 3395:1 3434:1 3465:1 3485:1 3498:1 3525:1 3561:1 3589:1 3618:1 3640:1 3686:1 3695:1 3699:1 3736:1 3784:1 3802:1 3803:1 3869:1 3872:1 3878:1 3893:1 3909:1 3918:1 3925:1 3931:1 3947:1 3977:1 4132:1 4167:1 4176:1 4214:1 4221:1 4223:1 4251:1 4278:1 4347:1 4408:1 4459:1 4470:1 4517:1 4586:1 4606:1 4678:1 4723:1 4749:1 4793:1 4797:1 4892:1 4929:1 4931:1 4932:1 5198:1 5223:1 5347:1 5403:1 5457:1 5534:1 5632:1 5713:1 5723:1 5728:1 5806:1 5807:1 5877:1 5926:1 6052:1 6183:1 6243:1 6298:1 6375:1 6594:1 6822:1 7105:1 7224:1 7444:1 #
-0.0009247637394706883454814638767516 12:1 26:1 34:1 90:1 172:1 245:1 248:1 257:1 323:1 377:1 378:1 383:1 448:3 467:1 468:1 474:1 526:1 571:1 572:1 590:1 591:1 623:1 624:2 645:1 646:1 686:1 766:1 777:1 825:1 847:1 858:1 864:1 875:1 881:1 882:1 908:1 924:1 1002:1 1040:1 1053:1 1070:1 1082:1 1083:1 1121:1 1190:1 1325:1 1357:1 1416:1 1452:1 1480:1 1524:1 1530:1 1533:1 1549:1 1580:1 1581:1 1655:1 1662:1 1755:1 1793:1 1816:1 1867:1 1912:1 1935:1 1938:1 1971:1 2009:1 2010:1 2084:1 2093:1 2108:1 2109:1 2124:1 2167:1 2221:1 2243:1 2347:1 2371:1 2415:1 2450:1 2479:2 2549:1 2623:1 2681:1 2699:1 2701:1 2779:1 2902:1 2913:1 2922:1 2939:1 2990:1 3014:1 3015:1 3030:1 3053:1 3099:1 3120:1 3296:1 3344:1 3369:1 3410:1 3561:1 3594:1 3646:1 3649:1 3666:1 3667:1 3818:1 3829:1 3863:1 3947:1 4108:1 4112:1 4137:1 4296:1 4349:1 4388:1 4484:1 4485:1 4577:1 4585:1 4697:1 4848:1 4939:1 4980:1 5162:1 5223:1 5337:1 5384:1 5629:1 5841:1 5888:1 5947:1 5966:1 6230:1 6231:1 6294:1 6297:1 6362:1 6371:1 6423:1 6523:1 6596:1 6909:1 6997:1 7005:1 7047:1 #
-0.0010013727539130217944474132707455 2:2 3:1 4:1 5:1 48:1 69:1 73:1 90:1 91:1 109:1 128:1 149:1 150:1 183:1 210:1 264:1 265:1 300:1 343:1 413:1 439:1 468:1 572:1 599:1 612:1 622:1 623:1 624:2 625:1 693:1 709:1 718:1 722:1 774:1 804:1 831:1 858:1 866:1 895:1 917:1 943:1 944:1 951:1 965:1 982:1 983:1 1016:1 1070:1 1214:1 1235:1 1246:1 1253:1 1258:1 1309:1 1421:1 1434:1 1525:1 1526:1 1534:1 1559:1 1561:1 1562:1 1572:1 1599:1 1704:1 1709:1 1727:1 1759:1 1861:1 1878:1 1890:1 1897:1 1940:1 1978:1 2008:1 2033:1 2084:1 2093:1 2143:1 2166:1 2209:1 2318:1 2324:1 2325:1 2350:1 2390:1 2393:1 2395:1 2418:1 2421:1 2431:1 2478:1 2585:1 2603:1 2610:1 2648:2 2649:1 2659:1 2695:1 2712:1 2902:1 2907:2 2931:1 2977:1 2985:1 3034:1 3050:1 3178:1 3341:1 3402:1 3515:1 3532:1 3619:1 3671:1 3757:1 3810:1 3863:1 4120:1 4138:1 4142:1 4161:1 4176:1 4211:1 4218:1 4340:2 4385:1 4522:1 4751:1 4763:1 4876:1 4890:1 4931:1 4970:1 4972:1 4985:1 5037:1 5043:1 5114:1 5154:1 5440:1 5507:1 5612:1 5711:1 5734:1 5826:1 5829:1 5898:1 5963:1 6176:1 6180:1 6357:1 7128:1 7747:1 7748:1 #
-0.00077838264012459806515109583813228 5:1 11:1 51:1 98:1 127:1 165:1 166:1 167:1 171:1 198:1 233:1 291:2 323:1 340:1 383:1 429:1 430:1 496:1 519:1 558:1 569:1 590:1 591:1 611:1 689:1 730:1 731:1 747:1 791:1 795:1 831:1 839:1 845:1 846:1 862:1 866:1 937:2 964:1 993:1 1019:2 1026:1 1043:1 1052:2 1053:1 1091:1 1092:1 1209:1 1231:3 1250:1 1253:1 1309:1 1345:1 1362:2 1452:1 1526:1 1553:2 1596:1 1622:1 1709:1 1722:1 1777:1 1804:1 1836:1 1913:1 1934:1 2017:1 2018:1 2057:1 2068:1 2143:1 2154:1 2161:1 2243:1 2254:1 2321:1 2332:1 2398:1 2437:1 2438:1 2444:1 2450:1 2549:1 2579:1 2589:1 2593:1 2618:1 2623:1 2654:1 2715:1 2794:1 2907:1 2917:1 2965:1 3108:1 3120:1 3202:1 3246:1 3279:1 3447:1 3549:1 3615:1 3651:1 3666:1 3673:1 3682:2 3683:1 3775:1 3776:1 3998:1 4040:1 4112:1 4139:1 4146:1 4150:1 4343:1 4403:1 4485:1 4579:1 4619:1 4764:1 4809:1 4831:1 4838:1 4848:1 5091:1 5156:1 5195:1 5243:1 5573:2 5821:1 5850:1 5876:1 5888:1 5937:1 6256:1 6298:1 6909:1 7246:1 7342:1 7538:1 7675:1 #
-5.4690280199589421782774278923966e-05 34:1 39:1 41:1 76:1 77:1 78:1 88:1 124:1 156:1 184:1 196:1 197:2 203:1 236:1 250:1 251:1 263:1 265:1 274:1 279:1 281:1 310:1 313:1 335:1 349:1 359:1 370:1 372:1 380:1 384:1 385:1 387:1 423:1 431:1 484:1 522:1 558:1 571:3 572:1 623:1 648:1 686:1 689:1 691:1 711:1 747:1 773:1 775:1 788:1 789:1 804:1 813:1 815:1 845:1 894:1 895:1 917:1 929:1 937:1 938:1 1005:1 1022:1 1041:1 1072:1 1166:1 1170:1 1182:1 1193:1 1222:1 1256:1 1324:1 1399:1 1434:1 1435:2 1436:1 1449:1 1476:1 1573:1 1599:1 1691:1 1718:1 1719:1 1788:1 1805:1 1815:1 1836:1 1885:1 2014:1 2033:1 2041:1 2051:1 2060:1 2062:1 2094:2 2111:1 2124:1 2141:1 2169:1 2171:1 2213:1 2214:1 2295:1 2303:1 2327:1 2337:1 2384:1 2392:1 2471:1 2479:1 2490:1 2537:1 2550:1 2551:1 2553:1 2629:1 2673:1 2685:1 2740:1 2808:1 2848:1 2849:1 2862:1 2897:1 2906:1 2948:1 3000:1 3012:1 3015:1 3211:1 3361:1 3369:1 3401:1 3403:1 3414:1 3433:1 3499:1 3500:2 3501:1 3502:1 3524:1 3558:1 3597:1 3603:1 3615:1 3626:1 3632:2 3637:1 3638:1 3640:1 3646:1 3649:1 3665:1 3695:1 3771:1 3839:1 3840:1 3853:1 3863:2 3864:1 3865:1 3868:1 3872:1 3878:1 3884:1 3885:1 3908:1 3918:1 4022:1 4133:1 4203:1 4207:1 4217:1 4222:1 4279:1 4442:1 4783:1 4790:1 4868:1 4872:1 4873:1 5019:1 5167:1 5413:1 5418:1 6104:1 #
0.0049155167365925369477031026121949 6:1 41:1 50:1 107:1 173:1 186:1 191:1 193:2 208:1 209:1 219:1 269:2 270:1 273:1 290:2 321:1 327:1 435:1 436:1 437:1 447:1 461:1 462:1 481:1 526:1 535:1 536:1 549:1 557:1 579:1 581:1 591:1 619:1 628:1 645:1 650:1 705:1 714:1 724:1 740:1 768:1 785:1 819:1 846:1 870:1 907:1 931:1 941:1 969:1 1026:1 1032:1 1040:1 1055:1 1071:1 1199:1 1226:1 1237:1 1283:1 1309:1 1318:1 1357:1 1358:1 1370:1 1412:1 1416:1 1459:1 1483:1 1531:1 1550:1 1573:1 1580:1 1608:1 1632:1 1701:1 1705:1 1720:1 1722:1 1759:1 1768:2 1799:1 1881:1 2119:1 2158:1 2170:1 2203:1 2224:1 2254:1 2259:1 2273:1 2276:1 2303:1 2304:2 2330:1 2332:1 2418:1 2478:1 2526:1 2622:1 2672:1 2723:1 2788:1 2795:1 2913:1 2917:1 3143:1 3155:1 3213:1 3218:1 3279:1 3291:1 3321:1 3322:1 3325:1 3397:1 3404:1 3447:1 3452:2 3606:2 3624:1 3651:1 3668:1 3711:1 3821:1 3827:1 3830:1 3893:1 3895:1 3930:1 3965:1 3982:1 4170:1 4207:1 4227:1 4320:1 4381:1 4403:1 4651:1 4658:1 4691:1 4717:1 4744:1 4848:1 4945:1 5235:1 5280:1 5348:1 5639:1 5650:1 5728:1 5841:1 5876:1 5877:1 6088:1 6100:1 6296:1 6371:1 6375:1 6640:1 6680:1 6786:1 6824:1 7060:1 7143:1 #
0.0010281419281706755119998319969454 9:1 21:1 39:1 40:1 41:1 65:1 74:1 137:1 140:1 145:1 146:1 168:1 172:1 183:1 188:1 201:1 207:1 220:1 265:1 267:1 283:1 310:2 317:1 319:1 332:1 360:1 397:1 477:1 497:1 530:1 533:1 536:1 537:1 555:1 663:1 735:1 800:1 872:1 910:1 957:1 986:1 1078:1 1087:1 1165:1 1182:1 1244:1 1274:1 1325:1 1345:1 1376:1 1377:1 1389:1 1412:1 1428:1 1483:1 1493:1 1569:1 1577:1 1588:1 1597:1 1642:1 1653:1 1723:1 1728:1 1733:1 1766:1 1791:1 1907:1 1933:1 1943:1 1944:1 2025:1 2300:1 2342:1 2363:1 2402:1 2448:1 2455:1 2476:1 2483:1 2524:1 2542:1 2550:1 2567:1 2592:1 2611:1 2618:1 2648:1 2652:1 2674:1 2685:1 2700:1 2712:1 2716:1 2722:1 2743:1 2788:1 2814:1 2831:1 2855:1 2907:1 2986:1 3038:1 3060:1 3065:1 3112:1 3213:1 3218:1 3238:1 3261:1 3266:1 3285:1 3368:1 3372:1 3385:1 3408:1 3410:1 3425:1 3512:1 3519:1 3524:1 3535:1 3563:1 3576:1 3588:1 3595:1 3626:1 3634:1 3644:1 3645:1 3680:1 3852:1 3868:1 4003:1 4049:1 4147:1 4190:1 4290:1 4382:1 4420:1 4554:1 4577:1 4624:1 4774:1 4832:1 4851:1 4984:1 5042:1 5043:1 5065:1 5070:1 5316:1 5474:1 5503:1 5554:1 5769:1 5788:1 5792:1 5819:1 6281:1 6291:1 6344:1 6400:2 6472:1 6575:1 6622:1 6639:1 6640:1 6725:1 6992:1 7018:1 7027:1 7067:1 7069:1 7070:1 7071:1 7072:1 7098:1 7147:1 7356:1 #
0.0052498537036790998699942178973288 5:1 15:1 16:1 39:1 47:1 63:1 68:1 90:1 96:1 98:1 110:1 129:1 172:1 203:1 204:1 220:1 293:1 310:1 311:1 388:1 416:1 417:1 429:1 550:1 559:1 568:1 624:1 655:1 820:1 827:1 856:1 866:1 872:1 877:1 883:1 893:1 903:1 937:1 944:1 953:1 1031:1 1043:1 1121:1 1218:1 1237:1 1239:1 1265:1 1291:1 1324:1 1363:1 1365:1 1366:1 1377:1 1483:1 1486:1 1519:1 1675:1 1785:1 1786:1 1805:1 1821:1 1835:1 1919:1 1949:1 2031:1 2036:1 2090:1 2105:1 2113:1 2125:1 2132:1 2133:1 2154:1 2176:1 2196:1 2288:1 2350:1 2363:1 2375:1 2433:1 2451:1 2486:1 2542:1 2633:1 2662:1 2702:1 2756:1 2799:1 2930:1 2953:1 2979:1 3014:1 3135:1 3137:1 3243:1 3266:1 3292:1 3299:1 3318:1 3385:1 3394:1 3398:1 3474:1 3483:1 3509:2 3519:1 3521:1 3544:1 3588:1 3609:1 3731:1 3747:1 3783:1 3829:1 3852:1 3886:1 4033:1 4067:1 4163:1 4256:2 4324:1 4329:1 4339:1 4346:1 4435:1 4473:1 4506:1 4570:1 4641:1 4851:1 5074:1 5138:1 5162:1 5172:1 5207:1 5281:1 5354:1 5433:1 5457:1 5554:1 5603:1 5663:1 5790:1 5906:1 6011:1 6059:1 6271:1 6315:1 6397:1 6467:1 6697:1 6736:1 6932:1 7019:1 7068:1 7069:1 7132:1 7254:1 #
0.0034420569357557716759499211178763 5:1 34:1 39:1 40:1 41:1 69:1 116:1 126:1 143:1 156:1 170:1 175:1 181:1 192:1 193:1 194:2 219:1 266:1 267:1 290:1 302:1 327:1 374:1 398:1 470:1 475:1 506:1 509:1 510:1 520:1 549:1 555:1 569:2 650:1 691:1 706:1 707:1 735:1 740:3 749:1 750:1 768:1 777:1 804:1 840:1 845:1 878:2 887:2 897:1 915:1 930:1 937:1 966:1 1027:1 1035:1 1054:1 1072:1 1105:1 1170:1 1174:1 1180:1 1195:1 1234:1 1250:1 1252:1 1261:1 1301:1 1325:1 1349:1 1412:1 1471:1 1493:1 1533:1 1550:1 1577:1 1578:1 1600:1 1616:1 1634:1 1653:1 1667:1 1697:1 1723:1 1810:1 1865:1 1879:1 1882:1 1989:1 2047:1 2062:1 2118:1 2133:1 2142:1 2158:1 2219:1 2250:1 2258:1 2308:1 2330:1 2342:1 2354:1 2406:1 2428:1 2479:1 2483:1 2551:1 2663:1 2671:1 2674:1 2688:1 2703:1 2732:1 2748:2 2751:1 2780:1 2788:1 2827:1 2875:1 2878:1 2908:1 2957:1 2959:1 3063:1 3076:1 3082:1 3094:1 3113:1 3225:1 3243:1 3266:1 3296:1 3428:1 3479:1 3492:1 3649:1 3668:1 3842:1 3862:1 3873:1 3944:1 3949:1 3982:1 4164:1 4166:1 4172:1 4207:1 4258:1 4262:1 4440:1 4441:2 4536:1 4670:1 4722:1 4744:1 4929:1 4937:1 4997:1 5067:1 5102:1 5123:1 5132:1 5203:1 5266:1 5290:1 5443:1 5523:1 5612:1 5650:1 5930:1 5941:1 5985:1 6183:1 6187:1 6585:1 6992:1 6999:1 7060:1 7105:1 #
0.00090859738489298459175602662440951 39:1 52:1 95:1 98:1 110:1 171:1 172:1 257:1 263:1 266:1 295:1 352:1 387:1 411:1 414:1 416:1 435:1 504:2 516:1 517:1 536:1 537:1 541:1 644:1 655:1 668:1 698:1 784:1 789:1 792:1 800:1 826:1 866:1 872:1 907:1 922:1 923:1 931:2 992:1 1010:1 1026:1 1033:1 1034:1 1043:1 1068:1 1092:1 1132:1 1214:1 1218:2 1234:1 1244:1 1245:1 1282:1 1308:1 1309:1 1387:1 1421:1 1425:1 1440:1 1447:1 1483:1 1501:1 1514:1 1519:1 1573:1 1574:1 1585:1 1596:1 1766:1 1784:1 1789:1 1821:1 1834:1 1843:1 1903:1 1935:1 1949:1 1970:1 2008:1 2031:1 2058:1 2085:1 2118:1 2121:1 2133:1 2139:1 2154:1 2172:1 2189:1 2201:1 2300:1 2354:1 2437:1 2452:1 2479:1 2518:1 2522:1 2630:1 2719:1 2722:1 2773:1 2870:1 2934:1 2942:1 2968:1 2969:1 2987:1 3049:1 3097:1 3161:1 3243:1 3292:1 3398:1 3609:1 3654:1 3696:1 3706:1 3747:1 3852:1 3863:1 4045:1 4112:1 4176:1 4199:1 4201:1 4233:1 4283:1 4286:1 4299:1 4324:1 4349:1 4386:1 4465:1 4552:1 4585:1 4619:1 4666:1 4823:1 4999:1 5162:1 5174:1 5260:1 5261:1 5283:1 5355:1 5393:1 5457:1 5468:1 5850:1 6232:1 6283:1 6447:1 6784:1 6836:1 6931:1 7062:1 7322:1 #
-0.0010696071851762341351627094709897 53:1 97:1 108:1 109:1 149:1 173:2 194:1 209:1 210:1 263:1 323:1 374:1 387:1 416:1 448:1 455:1 496:1 546:1 547:1 557:1 571:1 572:1 611:1 623:2 626:1 713:1 732:1 744:1 754:1 768:1 792:1 840:1 847:1 854:1 861:1 872:1 898:1 906:1 926:1 952:1 969:2 983:1 1006:1 1010:1 1031:1 1082:1 1098:1 1110:1 1190:1 1262:1 1325:1 1452:1 1459:1 1479:1 1526:1 1530:1 1539:1 1540:1 1552:1 1559:1 1568:1 1585:1 1713:1 1766:1 1779:1 1801:1 1804:1 1833:1 1933:1 1959:1 1960:1 2035:1 2075:1 2076:1 2183:1 2191:1 2239:1 2391:1 2399:1 2480:1 2481:1 2508:1 2525:1 2549:1 2576:1 2641:1 2651:1 2659:1 2662:1 2665:1 2673:1 2688:1 2698:1 2699:1 2718:1 2849:1 2902:1 2913:1 2929:1 2936:1 2973:1 2993:1 3003:1 3039:1 3050:1 3087:1 3253:1 3330:1 3401:1 3410:1 3436:1 3532:1 3666:1 3730:1 3808:1 3821:1 4032:1 4105:1 4113:1 4139:1 4158:1 4176:1 4207:1 4209:1 4286:1 4412:1 4443:1 4457:1 4484:1 4485:1 4619:1 4637:1 4658:1 4751:1 4853:1 4970:1 5081:1 5146:1 5156:1 5174:1 5337:1 5418:1 5622:1 5888:1 6555:1 6850:1 7641:1 7680:1 #
-0.00047647853550020631248698710358269 2:1 63:1 104:1 139:1 152:1 190:1 235:1 250:1 263:1 264:1 274:1 281:1 323:2 338:1 370:1 379:1 430:1 477:1 507:1 513:1 514:1 522:1 569:2 570:1 571:1 572:1 591:1 600:1 650:1 658:1 824:1 832:1 833:1 848:1 866:1 888:1 909:1 930:1 931:1 951:1 976:1 1036:1 1039:1 1092:1 1121:1 1135:1 1184:1 1230:1 1259:1 1301:1 1319:1 1325:1 1341:2 1346:1 1364:1 1370:1 1378:1 1388:1 1410:1 1412:1 1417:1 1452:1 1484:1 1486:1 1525:1 1541:1 1620:1 1709:1 1722:1 1723:1 1728:1 1735:1 1821:1 1826:1 1841:1 1842:1 1857:1 1860:1 1869:1 1913:1 1934:1 1949:1 2007:1 2008:1 2042:1 2047:1 2100:1 2123:1 2127:1 2132:1 2133:1 2176:1 2290:1 2308:1 2313:1 2332:1 2374:1 2400:1 2475:1 2549:1 2550:1 2553:1 2577:1 2578:1 2580:1 2685:1 2688:1 2768:1 2811:1 2938:1 2939:1 2987:1 3019:1 3054:1 3205:1 3604:1 3628:1 3650:1 3684:1 3846:1 4063:1 4151:1 4180:1 4223:1 4279:1 4388:1 4420:1 4485:1 4494:1 4701:1 4819:1 4830:1 5081:1 5222:1 5330:1 5389:1 5663:1 5876:1 5881:1 5888:1 5999:1 6471:1 6523:1 6867:1 7721:1 #
-0.00028972185290887411505955650881106 9:1 10:1 13:1 26:1 33:1 34:1 37:1 41:2 42:1 43:1 44:1 45:1 49:1 63:1 69:1 87:1 89:1 90:1 136:1 171:1 172:1 186:1 187:1 191:2 192:1 196:1 197:2 217:1 238:1 249:1 250:1 293:1 361:1 384:1 385:1 388:1 389:1 390:1 402:1 412:1 457:1 479:1 480:2 520:1 532:1 535:1 559:1 564:1 571:1 597:1 602:1 627:1 706:1 721:1 746:1 747:1 765:1 802:1 803:1 804:1 851:1 862:1 892:1 914:2 921:1 937:1 955:1 979:1 1032:1 1059:1 1216:1 1231:1 1267:1 1297:1 1329:1 1330:1 1347:1 1363:1 1390:1 1391:1 1392:1 1393:1 1394:1 1395:1 1396:1 1397:1 1398:1 1399:1 1400:1 1401:1 1402:1 1403:1 1404:1 1405:2 1406:1 1407:1 1408:2 1409:1 1410:1 1411:1 1412:1 1413:1 1414:1 1415:1 1416:1 1417:1 1418:1 1419:1 1420:1 1421:1 1422:1 1423:1 1424:1 1425:1 1426:1 1427:1 1428:1 1429:1 1430:1 1431:1 1432:1 1433:1 1434:1 1435:1 1436:1 1437:1 1438:1 1439:1 1440:1 1441:1 1442:1 1443:1 1444:1 1445:1 1446:1 1447:1 1448:1 1449:1 1450:1 1451:1 1452:1 1453:1 1454:1 1455:1 1456:1 1457:1 1458:1 1459:1 1460:1 1461:1 #
-0.00027966833735735532797533897664266 5:1 6:1 23:1 53:1 71:1 79:1 97:1 122:1 123:1 147:1 173:2 177:1 314:1 323:1 340:1 552:1 560:1 564:1 571:1 572:1 618:1 624:1 625:1 628:1 639:1 667:1 688:1 689:1 798:1 802:1 803:1 844:1 847:1 863:1 864:1 896:1 935:1 943:1 998:1 1010:1 1082:1 1091:1 1109:1 1111:1 1116:1 1190:1 1245:1 1254:1 1262:1 1278:1 1307:1 1308:1 1330:1 1340:1 1410:1 1432:1 1452:1 1468:1 1490:1 1530:1 1539:1 1540:1 1597:1 1605:1 1643:1 1673:1 1674:1 1709:1 1722:1 1746:1 1766:1 1789:1 1835:1 1865:1 1888:1 1913:1 1941:1 1951:1 1986:1 2011:1 2031:1 2043:1 2052:1 2058:1 2075:1 2076:1 2168:1 2201:1 2224:1 2447:1 2450:1 2451:1 2511:1 2549:1 2642:1 2662:1 2671:1 2698:1 2730:1 2907:1 2924:1 2939:1 2993:1 3016:1 3253:1 3278:1 3343:1 3344:2 3404:1 3501:1 3538:1 3621:1 3622:1 3666:1 3678:1 3766:1 3821:1 4124:1 4125:1 4153:1 4176:1 4225:1 4275:1 4483:1 4485:1 4530:1 4572:1 4599:1 4643:1 4691:1 4787:1 4812:1 4839:1 4848:1 4948:1 4967:1 4980:1 5037:1 5138:1 5157:1 5220:1 5550:1 5573:1 5601:1 5622:1 5876:1 5888:1 5909:1 6047:1 6462:1 6635:1 7446:1 #
-0.0011591332527432925657284723541807 26:1 65:1 116:1 170:1 172:1 249:1 291:2 304:1 313:1 319:1 323:1 376:1 415:1 433:1 453:1 455:1 476:1 478:1 498:1 515:1 524:1 526:1 552:2 572:1 573:1 591:1 600:1 601:1 614:1 632:1 659:1 667:1 698:1 723:1 724:1 747:1 828:1 843:1 846:1 895:1 909:1 956:1 957:1 995:1 997:1 1041:1 1042:1 1055:1 1091:2 1132:1 1146:1 1209:1 1212:1 1231:1 1232:1 1234:1 1239:1 1250:1 1254:1 1310:1 1345:1 1346:1 1347:1 1348:1 1350:1 1363:1 1397:1 1438:1 1452:1 1479:1 1492:1 1503:1 1514:1 1525:1 1534:2 1549:1 1626:1 1653:1 1836:1 1858:1 1866:1 1869:1 1873:1 1883:1 1895:1 1939:1 1941:1 1949:1 1951:1 1952:1 1963:1 1973:1 1985:1 1996:1 2032:1 2038:1 2041:1 2049:1 2058:1 2065:1 2068:1 2076:1 2151:1 2156:1 2233:1 2303:1 2316:2 2323:1 2379:1 2444:2 2447:1 2491:1 2511:1 2549:1 2665:1 2690:1 2702:1 2715:1 2783:1 2804:1 2837:1 2847:1 2855:1 2892:1 2968:1 3038:1 3040:1 3045:1 3070:1 3098:1 3112:1 3125:1 3130:1 3187:1 3207:1 3214:2 3224:1 3233:1 3278:1 3285:2 3298:1 3348:1 3447:1 3594:1 3614:1 3620:1 3632:1 3682:1 3699:1 3735:1 3775:2 3776:1 3837:1 3845:1 3846:1 3867:1 3878:1 4020:1 4127:1 4152:1 4154:1 4163:1 4209:1 4259:1 4263:1 4356:1 4434:1 4535:1 4546:1 4708:1 4717:1 4757:1 4773:1 4785:1 4817:1 4850:1 4876:1 4891:1 4944:1 4976:1 4977:1 5029:1 5223:1 5287:1 5311:1 5330:1 5500:1 5540:1 5544:1 5621:1 5677:1 5700:1 5850:1 5888:1 6472:1 6491:1 6804:1 7358:1 7538:1 7543:1 #
0.0040123240238415461972332209938941 3:1 110:1 131:1 154:2 182:1 184:1 190:1 191:1 192:1 211:1 212:1 257:1 327:1 336:1 380:1 396:1 397:1 431:1 435:1 436:1 437:1 469:1 492:1 592:1 667:1 698:1 706:1 715:1 719:1 747:2 773:1 781:1 784:1 792:1 870:1 875:1 881:1 895:1 899:1 920:1 943:1 944:1 970:1 1031:1 1050:1 1068:1 1089:1 1115:1 1118:1 1119:1 1133:1 1156:1 1213:1 1217:1 1223:1 1369:1 1370:1 1408:1 1411:1 1413:1 1414:1 1434:1 1460:1 1483:1 1487:1 1488:1 1573:1 1629:1 1630:1 1668:1 1673:1 1678:1 1679:1 1719:1 1721:1 1726:1 1788:1 1790:1 1803:1 1867:1 1876:1 2139:1 2156:1 2172:1 2183:1 2232:1 2233:1 2293:1 2302:1 2336:2 2345:1 2445:1 2466:1 2477:1 2480:1 2547:1 2556:1 2567:1 2574:1 2595:1 2643:1 2660:1 2671:1 2676:1 2719:1 2751:1 2801:1 2934:1 2981:1 3059:1 3064:1 3097:1 3183:1 3198:1 3221:1 3232:1 3297:1 3307:1 3337:1 3348:1 3469:1 3649:1 3681:1 3697:1 3737:1 3747:1 3821:1 3863:1 3874:1 3944:1 3962:1 3977:1 3981:1 4017:1 4112:1 4138:1 4181:1 4266:1 4308:1 4346:1 4412:1 4424:1 4458:1 4567:1 4580:1 4605:1 4626:1 4667:1 4728:1 4832:1 4967:1 4970:1 5010:1 5046:1 5177:1 5229:1 5288:1 5406:1 5421:1 5432:1 5452:1 5495:1 5500:1 5671:1 5841:1 5864:1 5935:1 6016:1 6036:1 6175:1 6194:1 6643:1 7062:1 #
0.0026203628647253562021501860357375 2:1 4:1 5:1 6:1 20:1 33:1 39:1 40:1 41:1 48:1 56:1 57:1 62:1 63:1 65:1 69:1 81:1 90:1 109:1 142:1 146:1 155:1 157:1 179:1 192:1 201:1 208:1 213:1 218:1 224:1 257:1 272:1 291:1 310:1 351:1 358:1 503:1 520:1 533:1 545:1 554:1 564:1 592:1 598:1 610:1 615:1 624:1 625:1 698:1 706:1 778:1 823:1 866:1 900:1 908:1 983:1 1005:1 1041:1 1043:1 1050:1 1099:1 1170:1 1182:1 1188:1 1225:1 1226:1 1265:1 1266:1 1283:1 1325:1 1341:1 1348:1 1354:1 1401:1 1437:1 1452:1 1503:1 1512:1 1529:1 1541:1 1549:1 1573:1 1597:1 1616:1 1655:1 1656:1 1673:1 1704:1 1727:1 1792:1 1793:1 1794:1 1799:1 1857:2 1859:1 1898:1 1943:1 1946:1 1948:1 1949:1 1961:1 1998:1 2035:1 2045:1 2072:2 2079:1 2175:1 2183:1 2208:2 2218:1 2254:1 2294:1 2295:1 2317:1 2321:1 2330:1 2363:1 2436:1 2453:1 2460:1 2466:1 2470:1 2493:1 2525:1 2565:1 2608:1 2671:1 2678:1 2684:1 2705:1 2773:1 2774:1 2780:1 2788:1 2889:1 3044:1 3050:1 3053:1 3135:1 3176:1 3222:1 3223:1 3348:1 3380:1 3435:1 3443:1 3447:1 3515:1 3610:1 3644:1 3648:1 3658:1 3711:2 3755:1 3805:1 3888:1 3896:1 3999:1 4017:1 4022:1 4026:1 4063:1 4195:1 4209:1 4268:1 4304:1 4310:1 4322:1 4324:1 4345:1 4444:1 4479:1 4622:1 4637:1 4660:1 4698:1 4783:1 4839:1 4853:1 4915:1 4930:1 4931:1 5103:1 5110:1 5115:1 5164:1 5387:1 5456:1 5485:1 5677:1 5724:1 5775:1 5798:1 5888:1 5941:1 6014:1 6055:1 6107:1 6135:1 6183:1 6244:1 6429:1 6481:1 6719:1 6927:1 6932:1 7096:1 7213:1 7221:1 7222:1 7223:1 #
0.0017314686944213098472589162923896 2:1 14:1 39:1 40:1 41:1 50:1 69:1 72:1 85:1 131:1 144:1 149:1 166:1 213:1 343:1 384:1 414:1 432:1 462:1 490:1 501:1 524:1 563:1 610:1 611:1 619:1 651:1 660:1 676:1 684:1 717:1 747:1 776:1 810:1 813:1 814:1 828:1 870:1 872:1 875:1 889:1 929:1 945:1 946:1 965:1 1040:1 1067:2 1106:1 1107:1 1154:1 1162:1 1190:1 1210:1 1219:1 1243:1 1257:1 1282:1 1325:1 1329:1 1336:1 1424:1 1454:1 1574:2 1580:1 1581:1 1582:1 1606:1 1635:1 1673:1 1890:1 1907:1 1960:1 1976:1 2000:1 2003:1 2011:1 2025:1 2026:1 2030:1 2032:1 2080:1 2087:1 2133:1 2137:1 2174:1 2175:1 2187:1 2209:1 2249:1 2268:1 2269:1 2270:1 2303:1 2335:1 2365:1 2375:1 2376:1 2377:1 2453:1 2515:1 2556:1 2575:1 2657:1 2679:1 2688:1 2695:1 2702:1 2723:1 2779:1 2890:1 2891:1 2898:1 2901:1 2913:1 2914:2 2919:1 2952:1 2963:1 2981:1 2991:1 3051:1 3071:1 3094:1 3099:1 3114:1 3138:1 3149:1 3163:1 3181:1 3249:1 3330:1 3361:1 3370:1 3390:1 3430:2 3483:2 3484:1 3496:1 3529:1 3607:1 3644:1 3684:1 3697:1 3698:1 3737:1 3748:1 3766:1 3776:1 3825:1 3874:1 3903:1 3962:1 3974:1 4059:1 4090:1 4108:1 4172:1 4176:1 4190:1 4209:1 4214:1 4222:1 4260:1 4290:1 4296:1 4331:1 4340:1 4341:1 4396:1 4402:1 4406:1 4408:1 4437:1 4445:1 4464:1 4498:1 4511:1 4550:1 4567:2 4587:1 4605:1 4618:1 4655:1 4666:1 4717:1 4737:1 4766:1 4768:1 4769:1 4806:2 4853:1 4877:1 4894:1 4922:1 4965:1 5024:1 5056:1 5144:1 5223:1 5315:1 5345:1 5386:1 5486:2 5550:1 5639:1 5654:1 5788:1 5792:1 5798:1 5820:1 6031:1 6059:1 6095:1 6107:1 6285:2 6326:1 6362:1 6389:1 6417:1 6586:1 6733:1 6832:1 6855:1 7018:1 7068:1 7108:1 7109:1 7110:1 7111:1 7112:1 7120:1 7121:1 7122:1 7123:1 #
0.0014917115203768576553455815769667 3:1 34:1 71:1 75:1 125:1 126:1 199:1 204:1 245:1 256:1 264:1 272:1 303:1 304:1 327:1 328:1 332:1 340:1 349:1 359:1 360:1 362:1 424:1 435:1 436:1 471:1 492:1 574:1 575:1 620:1 621:1 658:1 663:1 668:1 693:1 698:1 730:1 732:1 767:1 792:1 794:1 831:1 838:1 865:1 897:1 926:1 935:1 980:1 997:1 1004:1 1020:1 1040:1 1090:1 1129:1 1172:1 1173:1 1191:1 1207:1 1232:1 1237:1 1334:1 1338:1 1387:1 1395:1 1431:1 1483:1 1526:1 1569:1 1616:1 1632:1 1636:1 1643:1 1653:1 1656:1 1703:1 1717:1 1724:1 1734:1 1735:1 1759:1 1779:1 1847:1 1892:1 1958:1 1996:1 1998:1 2052:1 2056:1 2085:1 2139:1 2153:1 2172:1 2202:1 2226:1 2258:1 2265:1 2278:1 2377:1 2398:1 2404:1 2425:1 2444:1 2518:1 2519:1 2522:1 2523:1 2593:1 2595:1 2643:1 2656:1 2674:1 2685:1 2713:1 2735:1 2801:1 2863:1 2873:1 2901:1 2962:1 3108:1 3172:1 3186:1 3187:1 3199:1 3204:1 3218:1 3237:1 3252:1 3263:1 3277:1 3287:1 3337:1 3352:1 3407:1 3443:1 3525:1 3534:1 3544:1 3628:1 3696:1 3746:1 3769:1 3805:1 3809:1 3878:1 3903:1 3924:1 3990:1 3999:1 4037:1 4239:1 4267:1 4283:1 4433:1 4495:1 4512:1 4551:1 4607:1 4622:1 4667:1 4723:1 4859:1 4876:1 4915:1 4955:1 4967:1 4985:1 5033:1 5073:1 5102:1 5151:1 5160:1 5181:1 5205:1 5261:1 5329:1 5446:1 5495:1 5499:1 5500:1 5554:1 6101:1 6300:1 6772:1 6931:1 7101:1 #
0.0015395825578595858425939857383469 39:1 58:1 64:1 73:1 80:1 90:1 108:1 109:1 110:1 147:1 152:1 189:1 217:3 218:1 238:1 296:1 313:1 391:1 394:1 449:1 518:1 544:1 557:1 619:1 622:1 623:1 624:1 625:1 626:1 641:1 642:1 646:1 647:1 698:1 741:1 801:1 802:1 804:1 821:1 825:1 831:1 864:1 872:1 878:1 922:1 923:1 987:1 990:1 1056:2 1057:1 1084:1 1088:1 1135:1 1146:1 1196:1 1201:1 1239:1 1305:1 1346:3 1358:1 1365:1 1408:1 1410:1 1416:1 1421:1 1432:1 1449:1 1464:1 1483:1 1497:1 1524:1 1535:1 1551:1 1575:1 1578:1 1617:1 1657:1 1670:1 1701:1 1702:1 1720:1 1759:1 1770:1 1807:1 1815:1 1858:1 1879:1 1918:1 1928:1 1935:1 1955:1 1978:1 1996:1 2004:1 2031:1 2049:1 2064:1 2139:1 2148:1 2155:1 2189:1 2203:1 2218:1 2293:1 2301:1 2347:1 2358:1 2389:1 2398:1 2415:1 2434:1 2451:1 2593:2 2618:1 2634:1 2640:1 2658:1 2787:1 2791:1 2804:1 2851:1 2888:1 2917:1 2936:1 2970:1 2982:1 2984:1 3001:1 3049:1 3161:1 3194:1 3218:1 3240:1 3283:1 3297:1 3299:1 3398:1 3414:1 3443:1 3477:1 3489:1 3534:1 3541:1 3614:1 3649:1 3696:1 3826:1 3827:1 3932:1 4036:1 4078:1 4137:1 4138:2 4174:1 4238:1 4366:1 4438:1 4457:1 4496:1 4517:1 4570:1 4616:1 4740:1 4870:1 4876:1 4884:1 4893:1 4894:1 4985:1 5047:1 5060:1 5138:1 5162:1 5342:1 5485:1 6080:1 6215:1 6232:1 6315:1 6431:1 6596:1 6696:1 6717:1 6804:1 6850:1 6875:1 6931:1 7062:1 7071:1 7076:1 7077:1 7078:1 #
-0.00017919842499200037380831240785284 3:1 4:2 56:1 73:1 75:1 119:1 141:1 148:1 196:1 238:1 243:1 253:1 270:1 310:1 311:1 340:1 341:1 371:1 373:1 374:1 387:1 414:1 415:1 458:1 468:1 471:2 506:1 520:1 521:1 522:1 545:1 571:1 607:1 620:1 621:1 689:1 693:2 694:1 708:1 709:1 733:1 734:1 801:1 819:1 825:1 829:1 840:1 862:1 895:1 907:1 922:1 923:1 934:1 982:1 1015:1 1016:1 1026:1 1032:1 1043:1 1044:1 1045:2 1050:1 1055:1 1162:1 1170:2 1171:1 1228:1 1282:1 1357:1 1365:1 1386:1 1411:1 1421:1 1422:1 1440:1 1458:2 1459:1 1525:1 1559:1 1572:1 1579:1 1599:1 1601:1 1602:1 1603:2 1635:1 1672:1 1675:1 1715:1 1831:1 1832:1 1844:1 1922:1 2032:1 2036:1 2072:1 2088:1 2111:1 2121:1 2166:1 2194:1 2200:1 2209:1 2371:1 2425:1 2471:1 2539:1 2597:1 2633:1 2685:1 2695:1 2716:1 2732:1 2735:1 2834:1 2928:1 3016:1 3091:1 3212:1 3238:1 3258:1 3356:1 3439:1 3595:1 3606:1 3733:1 3810:1 3852:1 3944:1 4108:1 4112:1 4137:1 4145:1 4170:1 4185:1 4254:1 4395:1 4553:1 4567:1 4718:1 4751:1 4809:1 5000:1 5046:1 5203:1 5204:1 5245:1 5381:1 5626:1 5697:1 5826:1 5829:1 5846:1 5984:1 6080:1 6112:1 6163:2 6230:1 6246:1 6294:1 6329:1 6464:1 6824:1 7350:1 #
-0.00023591383292754803530089091623267 24:1 33:1 43:1 52:1 73:1 74:1 91:1 119:1 127:1 196:1 218:2 219:1 237:1 250:1 255:1 262:1 265:1 291:1 292:1 293:1 314:1 332:1 333:1 341:1 376:1 380:1 407:1 505:1 506:1 520:1 523:1 532:2 536:3 609:1 622:1 624:1 625:1 626:1 651:1 658:1 708:1 709:1 742:1 783:1 804:1 845:1 892:1 933:1 984:1 1026:1 1080:1 1158:1 1214:2 1219:1 1230:2 1259:1 1310:1 1339:1 1348:1 1357:1 1362:1 1363:1 1364:1 1371:1 1396:1 1399:1 1424:1 1478:1 1521:1 1541:1 1553:1 1559:1 1573:1 1599:1 1601:1 1602:1 1634:1 1651:2 1662:1 1677:1 1680:1 1727:1 1764:1 1800:1 1826:1 1836:1 1858:1 1865:1 1879:1 1940:1 1949:1 1950:1 1951:1 1953:1 1957:1 1961:1 2026:1 2046:1 2049:1 2082:1 2159:1 2258:1 2274:2 2275:1 2302:1 2330:1 2334:1 2391:1 2537:1 2539:1 2594:1 2603:1 2703:1 2773:1 2786:1 2865:1 3016:1 3053:1 3136:1 3246:1 3285:1 3384:1 3586:1 3721:1 3745:1 3784:1 3931:1 3972:1 3991:1 4126:1 4171:1 4207:1 4232:1 4233:1 4244:1 4403:1 4420:1 4483:1 4551:1 4863:1 5012:1 5146:1 5177:1 5274:1 5487:1 5764:1 6112:1 6135:1 6249:1 6464:1 6743:1 7005:1 7025:1 7043:1 7120:1 #
-0.0011715303341857817489429782753518 4:1 5:1 16:1 73:1 90:1 119:1 196:1 231:1 238:1 249:1 253:1 265:1 301:1 313:1 341:1 380:1 449:1 470:2 481:1 491:1 492:1 493:1 506:1 535:1 554:1 593:1 622:1 634:1 635:1 689:1 733:1 740:2 743:1 762:1 775:1 798:1 831:1 840:1 848:1 865:1 922:1 923:1 968:1 983:1 1017:1 1043:1 1055:1 1170:1 1171:1 1238:1 1266:2 1291:1 1345:1 1357:1 1385:1 1417:2 1421:1 1422:1 1432:1 1440:1 1456:1 1460:1 1461:1 1524:1 1559:1 1584:1 1599:1 1609:1 1621:1 1632:1 1721:1 1779:1 1789:1 1831:1 1832:1 1836:1 1861:1 1879:1 1881:1 1883:1 1884:1 1915:1 1935:1 1940:1 1958:1 2055:1 2061:1 2064:1 2082:1 2083:1 2090:1 2236:1 2254:1 2318:1 2347:1 2348:1 2360:1 2431:1 2451:1 2471:2 2481:1 2539:1 2586:1 2597:1 2598:1 2655:1 2658:1 2761:1 2780:1 2870:1 2967:1 3016:1 3077:1 3198:1 3209:1 3238:1 3304:1 3371:1 3413:1 3433:1 3439:1 3443:1 3488:1 3525:1 3595:1 3667:1 3749:1 3814:1 3852:1 3943:1 4008:1 4082:1 4084:1 4161:1 4185:1 4248:1 4335:1 4336:1 4570:2 4626:1 4691:1 4718:1 4751:1 4768:1 4890:1 4972:1 4985:1 5203:1 5296:1 5631:1 5846:1 5986:1 5991:1 6036:1 6112:1 6380:1 6464:1 6508:1 #
-0.0016602384049837937574772839255388 3:1 5:1 6:1 88:1 89:1 90:1 118:1 142:1 150:1 189:2 217:1 269:1 309:1 384:1 451:1 533:1 592:1 632:1 647:1 666:1 667:1 681:1 690:1 706:1 740:1 760:1 780:1 818:1 824:1 825:1 870:1 992:1 1007:1 1010:1 1021:1 1040:1 1041:1 1056:1 1061:1 1069:1 1103:2 1111:1 1115:1 1146:1 1184:1 1189:1 1237:1 1305:1 1348:1 1387:1 1399:1 1406:2 1407:1 1435:1 1452:1 1470:1 1471:1 1500:1 1572:1 1575:1 1655:1 1670:1 1678:1 1697:1 1703:1 1724:1 1836:1 1859:1 1976:1 1980:1 1998:1 2024:1 2031:1 2041:1 2085:1 2087:1 2180:1 2205:1 2231:1 2265:1 2271:1 2418:1 2439:1 2514:1 2549:1 2660:2 2663:1 2665:1 2672:1 2673:1 2693:1 2702:1 2772:1 2792:1 2800:1 2853:1 2869:1 2893:1 2905:1 2918:1 2929:2 2970:1 2983:1 2984:1 2987:1 3019:1 3065:1 3126:1 3135:1 3136:1 3148:1 3177:1 3257:1 3278:1 3279:1 3292:1 3322:1 3449:1 3487:1 3498:1 3518:1 3606:1 3666:1 3668:1 3699:1 3762:1 3763:1 3764:1 3818:1 3867:1 3911:1 3942:1 3974:1 3995:1 4014:1 4017:1 4099:1 4152:1 4203:1 4225:1 4227:1 4255:1 4330:1 4363:1 4501:1 4572:1 4637:1 4708:1 4734:1 4796:1 4803:1 4859:1 4875:1 4916:1 4944:1 4966:1 5008:1 5056:1 5073:1 5105:1 5171:1 5266:1 5333:1 5391:1 5392:1 5540:1 5654:1 5681:1 5728:1 5841:1 5850:1 5888:1 5935:1 6106:1 6180:1 6202:1 6221:1 6235:1 6256:1 6712:1 7167:1 #
-0.0017215631163130093103652562547268 29:1 34:1 35:1 39:1 40:1 68:1 99:1 104:1 122:1 123:1 131:1 184:1 187:1 189:1 281:1 323:1 327:1 379:1 386:1 414:1 423:1 476:1 507:1 541:1 553:1 610:1 638:1 675:1 691:1 731:1 736:1 742:1 780:1 819:1 823:1 846:1 875:1 887:1 916:1 926:1 935:1 1058:1 1158:1 1162:1 1167:1 1302:1 1335:1 1341:1 1352:1 1368:1 1369:1 1379:1 1409:2 1423:1 1429:1 1430:1 1449:1 1465:1 1477:1 1483:1 1525:1 1531:1 1633:1 1673:1 1674:1 1691:1 1692:1 1805:1 1815:2 1830:1 1877:1 1908:1 1962:1 1989:1 1990:1 2023:1 2025:1 2064:1 2069:1 2108:1 2116:1 2124:1 2166:1 2171:1 2186:1 2221:1 2230:1 2261:1 2299:1 2319:1 2324:1 2337:1 2425:1 2427:1 2537:1 2553:1 2643:1 2677:1 2712:1 2723:1 2743:1 2768:2 2788:1 2811:1 2926:1 2948:1 2959:1 3070:1 3125:1 3172:1 3218:1 3238:1 3250:1 3359:1 3430:1 3433:1 3450:1 3499:1 3500:2 3501:1 3502:1 3518:1 3583:1 3587:1 3588:1 3622:1 3629:1 3632:1 3640:1 3641:1 3647:1 3673:1 3676:1 3714:1 3747:1 3776:1 3777:1 3778:1 3839:1 3844:1 3852:1 3853:1 3857:1 3858:1 3859:1 3897:2 3968:1 3977:1 3997:1 4004:1 4024:1 4029:1 4032:1 4033:1 4112:1 4124:1 4164:1 4165:1 4206:1 4214:1 4215:1 4373:1 4374:1 4444:1 4446:1 4456:1 4536:1 4597:1 4629:1 4630:1 4632:1 4633:1 4634:1 4825:1 4925:1 4942:1 5351:1 5433:1 5652:1 5955:1 6049:1 6050:1 6089:1 6090:1 6091:1 6092:1 6093:1 6094:1 #
0.0041058054695588810587003614216428 28:1 39:1 40:1 41:1 42:1 52:1 65:1 74:1 103:1 109:2 116:1 143:1 152:1 208:1 273:1 274:1 287:1 289:1 302:1 303:1 310:1 341:1 364:1 383:1 387:1 397:1 447:1 455:1 473:1 500:1 512:1 522:1 555:1 558:1 575:1 619:1 647:1 650:1 666:1 717:1 724:1 765:1 786:1 839:1 850:1 876:1 888:1 889:1 938:1 968:1 983:1 1026:1 1043:1 1088:1 1112:1 1133:1 1154:1 1184:1 1185:1 1201:1 1202:1 1226:1 1282:1 1305:1 1307:1 1309:1 1348:1 1361:1 1391:1 1404:1 1412:1 1436:1 1437:1 1452:1 1459:1 1479:1 1493:1 1531:1 1549:1 1577:1 1579:1 1590:1 1634:1 1652:1 1656:1 1668:1 1692:1 1703:1 1704:1 1720:1 1721:1 1779:1 1786:1 1790:1 1832:1 1834:1 1839:1 1848:1 1853:1 1859:1 1879:1 1882:1 1885:1 1958:1 1961:1 2033:1 2063:1 2095:1 2118:1 2132:1 2178:1 2180:1 2181:1 2216:1 2254:1 2305:1 2330:1 2337:1 2341:1 2354:1 2405:1 2421:1 2423:1 2466:1 2491:1 2559:1 2576:1 2577:1 2601:1 2602:1 2695:1 2708:1 2729:1 2788:1 2812:1 2830:1 2831:1 2853:1 2888:1 2896:1 2951:1 2973:1 3010:1 3061:1 3099:1 3136:1 3169:1 3353:1 3365:1 3417:1 3457:1 3459:1 3491:1 3516:1 3619:1 3754:1 3784:1 3825:1 3853:1 3864:1 3885:1 3925:1 4017:1 4034:1 4035:1 4063:1 4071:1 4207:1 4208:1 4210:1 4213:1 4257:1 4263:1 4373:1 4382:1 4385:1 4386:1 4434:1 4451:1 4471:1 4601:1 4617:1 4650:1 4669:1 4723:1 4880:1 4958:1 5003:1 5044:1 5046:1 5102:1 5129:1 5232:1 5299:2 5320:1 5356:1 5392:1 5654:1 5683:1 5764:1 5767:1 5779:1 5781:1 5837:1 5854:1 5855:1 5970:1 5984:1 6126:2 6194:1 6401:1 6403:1 6502:1 6519:1 6675:1 6934:1 7031:1 7140:1 7142:1 7208:1 7270:1 7271:1 7272:1 7273:1 #
-3.1181442100761176824084974779083e-05 3:1 4:1 5:1 6:1 7:1 8:1 13:1 53:1 57:1 75:1 90:1 108:2 109:1 127:1 148:1 172:1 176:1 189:1 250:1 263:1 289:1 312:1 323:1 358:1 409:1 419:1 420:1 479:1 501:1 554:1 555:1 589:1 616:1 660:1 661:1 694:1 714:1 746:1 847:1 854:1 872:1 913:1 917:1 995:1 1005:1 1079:1 1088:1 1089:1 1184:1 1207:1 1255:1 1258:1 1265:1 1267:1 1325:1 1341:1 1348:1 1373:1 1406:1 1408:1 1452:1 1479:1 1519:1 1539:1 1559:1 1568:1 1578:1 1676:1 1704:1 1779:1 1878:1 1954:1 2001:1 2026:1 2075:1 2076:1 2079:1 2083:1 2084:1 2085:1 2086:1 2104:1 2118:1 2121:1 2155:1 2239:1 2358:1 2373:1 2374:1 2405:1 2423:1 2493:1 2523:1 2549:1 2576:1 2698:1 2699:1 2718:1 2731:1 2782:1 2824:1 2842:1 2888:1 2894:1 2902:1 2913:1 2929:1 3006:1 3012:1 3233:1 3666:1 3808:1 3821:1 3873:1 3908:1 3920:1 3995:1 4233:1 4357:1 4457:1 4484:1 4485:1 4591:1 4751:1 4945:1 5033:1 5102:1 5348:1 5509:1 5539:1 5573:1 5724:1 5763:1 5839:1 5850:1 5888:1 6004:1 6012:1 6016:1 6070:1 6139:1 6226:1 6272:1 6555:1 6782:1 7221:1 7235:1 #
0.0037424154693202751550962226190222 5:1 6:1 85:1 89:1 110:1 127:1 146:1 147:1 198:1 245:1 266:1 267:1 274:1 290:1 292:1 293:1 352:1 359:1 387:1 436:1 466:1 503:1 516:1 555:1 570:1 572:1 605:1 626:1 627:1 647:1 656:1 658:1 698:1 704:1 756:1 792:1 801:1 851:1 866:1 872:1 900:1 908:1 935:2 937:1 1002:1 1010:1 1026:1 1043:1 1068:1 1086:1 1091:1 1099:1 1173:1 1174:1 1179:1 1182:1 1183:1 1239:1 1245:1 1256:1 1271:1 1302:1 1308:1 1342:1 1363:1 1364:1 1394:1 1412:1 1417:1 1421:1 1447:1 1449:1 1455:1 1504:1 1505:1 1552:1 1569:1 1573:1 1577:1 1662:1 1691:1 1692:1 1723:1 1727:1 1768:1 1835:1 1864:1 1865:1 1872:1 1940:1 1948:1 1949:1 1970:1 1984:1 2008:1 2017:1 2029:1 2031:1 2171:1 2218:1 2276:1 2328:1 2336:1 2375:1 2399:1 2443:1 2467:1 2531:1 2551:1 2556:1 2595:1 2613:1 2674:1 2705:1 2873:1 2904:1 2907:1 2916:1 2918:1 2979:1 3020:1 3049:1 3077:1 3109:1 3192:1 3285:1 3328:1 3346:1 3352:1 3447:1 3474:1 3544:1 3609:1 3810:1 4164:1 4209:1 4286:2 4308:1 4347:1 4399:1 4531:1 4775:1 4925:1 4929:1 5047:1 5110:1 5160:1 5260:1 5261:1 5422:1 5484:1 5603:1 6315:1 6610:1 7008:1 7062:1 7096:1 7376:1 #
0.0030620920253775800110029869927075 2:1 33:1 39:1 40:1 41:1 43:1 63:1 110:1 115:1 130:1 131:1 146:1 165:1 172:1 181:1 214:1 265:1 291:1 303:1 313:1 314:1 420:1 429:1 502:1 542:1 553:1 572:1 591:1 620:1 624:1 703:1 715:1 717:1 845:1 860:1 866:1 872:1 883:1 945:1 955:1 957:1 996:1 1018:1 1137:1 1182:1 1222:1 1253:1 1254:1 1265:1 1290:1 1325:1 1335:1 1345:1 1378:1 1428:1 1463:1 1483:1 1505:1 1556:1 1560:1 1580:1 1615:1 1616:1 1667:1 1725:1 1727:1 1733:1 1767:1 1783:1 1829:1 1843:1 1844:1 1884:1 1897:1 1987:1 2006:1 2015:1 2016:1 2031:1 2070:1 2159:1 2220:1 2254:1 2292:1 2312:1 2331:1 2342:1 2349:1 2355:1 2373:1 2416:1 2447:1 2448:1 2461:1 2483:1 2486:1 2550:1 2595:1 2632:1 2674:1 2702:1 2804:1 2810:1 2863:1 2876:1 2915:1 2991:1 3060:1 3113:1 3218:1 3247:1 3352:1 3361:1 3400:1 3422:1 3471:1 3612:1 3619:1 3645:1 3758:1 3829:1 3878:1 3926:1 3983:1 3993:1 4015:1 4044:1 4157:1 4190:1 4254:1 4282:1 4388:1 4399:1 4670:1 4691:1 4893:1 5003:1 5042:1 5044:1 5203:1 5295:1 5535:1 5554:1 5618:2 5631:1 5663:1 5770:1 5792:1 5798:1 5971:1 6106:1 6639:1 6640:1 6713:1 6726:1 6744:1 6750:1 6988:1 6992:1 7012:1 7018:1 7071:1 7072:1 7168:1 7268:1 #
0.0012211074677103202646560875521686 17:1 39:1 40:1 41:1 62:1 94:1 119:1 146:1 150:1 159:1 174:1 181:1 212:1 250:1 257:1 263:1 283:1 303:1 339:1 340:1 358:1 360:1 366:2 387:1 452:1 477:1 495:1 505:1 522:1 525:1 536:1 537:1 551:1 574:1 587:1 590:1 611:1 620:1 622:1 623:1 663:1 670:1 675:1 688:1 689:1 690:1 693:1 706:1 723:1 731:1 748:1 756:1 772:1 779:1 864:1 866:1 872:1 881:1 906:1 908:1 915:1 965:1 969:1 977:1 985:1 1013:1 1018:1 1026:1 1065:2 1139:1 1155:1 1186:1 1189:1 1201:1 1209:1 1290:1 1307:1 1325:1 1346:1 1374:1 1420:1 1464:1 1482:1 1483:1 1484:1 1525:1 1526:1 1569:1 1570:1 1578:1 1580:1 1634:1 1641:1 1727:1 1776:1 1784:1 1792:1 1815:1 1826:1 1836:1 1936:1 1966:1 2045:1 2047:1 2051:1 2100:1 2136:1 2149:1 2163:1 2168:1 2175:1 2192:1 2201:1 2211:1 2220:1 2231:2 2232:1 2271:1 2282:1 2321:1 2340:1 2342:1 2347:1 2378:1 2412:1 2419:1 2431:1 2443:1 2518:1 2542:1 2601:1 2602:1 2746:1 2792:1 2850:1 2871:2 2915:1 2986:1 2987:1 3028:1 3045:1 3060:1 3078:1 3099:1 3155:1 3178:1 3200:1 3213:1 3218:1 3226:1 3230:1 3243:1 3294:1 3328:1 3348:1 3350:1 3425:1 3489:1 3515:1 3562:1 3579:1 3588:1 3597:1 3670:1 3706:1 3707:1 3863:1 3900:1 3908:1 3931:1 4123:1 4158:1 4163:1 4180:1 4217:1 4240:1 4244:1 4324:1 4343:1 4348:1 4359:1 4382:1 4408:1 4436:1 4443:1 4501:1 4531:1 4537:1 4666:2 4731:1 4840:1 4847:1 4848:1 4869:1 4970:1 5007:1 5042:1 5143:1 5146:2 5177:1 5205:1 5247:1 5260:1 5274:1 5317:1 5355:1 5402:1 5428:1 5495:1 5525:1 5554:1 5650:1 5657:1 5728:1 5730:1 5788:1 5792:1 5817:1 5823:1 5865:2 5910:1 6188:1 6220:1 6284:1 6293:1 6352:1 6365:1 6550:1 6992:1 7018:1 7029:1 7062:1 7065:1 7071:1 7083:1 7115:1 7124:1 7299:1 #
-0.0038628564174075850738698800768134 32:1 33:1 37:1 38:1 39:1 40:2 41:1 65:1 71:1 72:1 82:1 108:1 109:1 119:1 125:1 136:1 137:1 197:1 211:1 249:1 250:1 299:1 340:1 361:1 380:1 396:1 430:1 471:1 491:1 492:1 493:1 494:1 548:1 549:1 551:1 569:2 655:1 659:1 693:1 694:1 702:1 745:1 755:1 756:2 790:1 862:2 884:1 921:1 930:1 931:1 932:1 951:1 985:1 1010:1 1017:1 1079:1 1164:1 1184:1 1216:1 1236:1 1298:1 1299:1 1300:1 1301:1 1302:1 1303:1 1304:2 1305:1 1306:1 1307:1 1308:1 1309:1 1310:1 1311:1 1312:1 1313:1 1314:1 1315:1 1316:1 1317:1 1318:1 1319:1 1320:1 1321:1 1322:1 1323:1 1324:1 1325:1 1326:1 1327:1 1328:1 1329:1 1330:1 1331:1 1332:1 1333:1 1334:1 1335:1 1336:1 1337:1 1338:1 1339:1 1340:1 1341:1 1342:1 1343:1 1344:1 1345:1 1346:1 1347:1 1348:1 1349:1 1350:1 1351:1 1352:1 1353:1 1354:1 1355:1 1356:1 1357:1 1358:1 1359:1 1360:1 1361:1 1362:1 1363:1 1364:1 1365:1 1366:1 1367:1 1368:1 1369:1 1370:1 1371:1 1372:1 1373:1 1374:1 1375:1 1376:1 1377:1 1378:1 1379:1 1380:1 1381:1 1382:1 1383:1 1384:1 1385:1 1386:1 1387:1 1388:1 1389:1 #
-0.0010918121652788070809897424950918 5:1 26:1 49:1 115:1 146:1 172:1 210:1 211:1 220:1 236:1 290:1 319:1 320:1 321:1 335:1 349:1 358:1 360:1 365:1 366:1 380:1 387:1 388:1 389:1 397:1 467:1 473:1 508:1 511:1 534:1 537:1 555:1 572:1 587:2 620:1 626:1 647:1 667:1 681:1 804:1 848:1 916:1 929:1 931:1 1060:1 1094:1 1132:1 1133:1 1156:1 1157:1 1170:1 1208:1 1212:1 1217:1 1218:1 1219:1 1220:1 1229:1 1280:1 1287:1 1297:1 1311:1 1340:1 1345:1 1435:1 1436:1 1479:1 1483:1 1520:1 1537:1 1559:1 1560:1 1584:1 1592:1 1600:1 1617:1 1680:1 1727:1 1728:1 1759:1 1793:1 1809:1 1810:1 1815:1 1875:1 1879:1 1897:1 1907:1 1915:1 1964:1 2026:1 2109:1 2111:1 2114:1 2115:1 2120:1 2164:1 2166:1 2184:1 2221:1 2254:1 2350:1 2357:1 2369:1 2373:1 2442:1 2443:1 2525:1 2530:1 2574:1 2601:1 2619:1 2647:1 2667:1 2695:1 2697:1 2727:1 2845:1 3051:1 3053:1 3068:1 3110:1 3146:1 3169:1 3173:1 3218:1 3457:1 3501:1 3502:1 3509:1 3566:1 3600:1 3611:1 3626:1 3634:1 3640:1 3652:1 3665:1 3694:1 3707:1 3761:1 3835:1 3863:1 3934:1 4004:1 4028:1 4059:1 4060:1 4063:1 4125:1 4170:1 4198:1 4270:1 4304:1 4318:1 4387:1 4488:1 4497:1 4590:1 4601:1 4931:2 4942:1 4945:1 5107:1 5427:1 5453:1 5485:1 5781:1 5809:1 6085:1 6859:1 6919:1 6920:1 6921:1 #
0.00020268553295946421474206522450601 7:1 39:1 40:1 41:1 58:1 61:1 68:1 70:1 79:1 106:1 119:1 141:1 152:1 158:1 208:1 237:1 263:1 281:1 290:1 303:1 358:1 375:1 409:1 495:1 496:1 504:1 512:1 536:1 537:2 561:1 571:2 572:1 574:1 586:1 591:1 611:1 620:2 621:1 626:1 662:1 663:1 690:1 742:2 756:1 794:1 796:1 831:1 872:1 880:1 888:1 907:1 908:2 925:1 960:1 965:1 969:1 990:1 1021:1 1068:1 1111:1 1119:1 1155:1 1189:1 1195:1 1231:1 1232:1 1291:1 1325:1 1371:1 1380:1 1387:1 1394:1 1405:1 1434:1 1443:1 1460:1 1463:1 1483:1 1488:1 1523:1 1526:1 1535:1 1569:1 1570:1 1579:1 1580:1 1588:1 1627:1 1668:1 1721:1 1746:2 1758:2 1779:1 1826:1 1831:1 1867:1 1896:1 1947:1 1961:1 1973:1 1975:1 1996:1 2007:1 2015:1 2016:1 2059:1 2099:1 2107:1 2136:1 2162:1 2168:1 2196:1 2197:1 2232:1 2282:1 2342:1 2347:1 2431:1 2445:1 2500:1 2502:1 2518:1 2542:1 2550:1 2597:1 2630:1 2651:2 2711:1 2731:1 2792:1 2825:1 2871:1 2915:2 2926:1 2930:1 2960:1 2972:1 2979:1 2986:2 3006:1 3026:1 3028:2 3060:1 3070:1 3099:1 3114:1 3118:1 3119:1 3182:1 3198:1 3218:1 3219:1 3226:1 3243:1 3245:1 3266:1 3430:1 3437:1 3514:1 3558:1 3586:1 3623:1 3625:1 3644:1 3649:1 3668:1 3670:1 3706:1 3707:2 3719:1 3854:1 3965:1 4011:1 4074:1 4105:1 4121:1 4160:1 4173:1 4182:1 4258:1 4316:1 4324:1 4348:1 4425:1 4513:1 4570:1 4620:1 4666:1 4718:1 4744:1 4874:1 4883:1 4885:1 5010:1 5021:1 5042:1 5146:1 5229:1 5260:1 5277:1 5321:1 5355:1 5402:1 5426:1 5490:1 5493:1 5495:1 5522:1 5525:1 5554:1 5650:1 5680:1 5728:1 5790:1 5792:1 6064:1 6076:1 6106:1 6171:1 6294:1 6397:1 6401:1 6550:1 6615:1 6890:1 6895:1 6931:1 6992:1 7071:1 7096:1 7235:1 #
-0.0010351252947623840097030045726001 5:1 6:1 49:1 79:1 84:1 90:1 172:1 195:1 216:1 220:1 236:1 240:1 242:1 250:1 263:1 335:1 365:1 383:1 388:1 389:1 455:1 466:1 467:1 468:1 469:1 504:1 514:1 516:1 520:1 534:1 537:1 555:1 602:1 603:1 604:1 611:1 620:2 621:1 626:1 741:1 779:1 793:1 804:1 828:1 845:1 848:1 861:1 862:1 877:1 914:1 929:1 969:1 1022:1 1032:1 1080:1 1100:1 1129:1 1133:1 1150:1 1188:1 1217:1 1218:1 1229:1 1304:1 1311:1 1334:1 1346:1 1350:1 1351:1 1367:1 1380:1 1412:1 1483:1 1496:1 1520:1 1576:1 1577:1 1592:1 1722:1 1728:1 1759:1 1785:1 1807:1 1831:1 1858:1 1875:1 1879:1 1949:1 1954:1 1955:1 1977:1 2026:1 2123:1 2155:1 2211:1 2221:1 2243:1 2256:1 2275:1 2307:1 2346:1 2357:1 2373:1 2431:1 2442:1 2514:1 2566:1 2589:1 2601:1 2671:1 2695:1 2696:1 2712:1 2727:1 2780:1 2782:1 2786:1 2879:1 2917:1 2920:1 2938:1 3008:1 3068:1 3124:1 3125:2 3184:1 3199:1 3218:1 3380:1 3381:1 3483:1 3499:1 3500:1 3501:1 3502:1 3566:1 3583:1 3599:1 3600:1 3640:1 3651:1 3665:1 3676:1 3690:1 3694:1 3735:1 3736:1 3835:1 3876:1 3941:1 4022:1 4028:1 4044:1 4045:1 4057:1 4060:1 4125:1 4155:1 4170:1 4181:1 4255:1 4386:1 4403:1 4478:1 4497:1 4498:1 4671:1 4803:1 4852:1 4944:1 4955:1 5068:1 5405:1 5612:1 5901:1 6728:1 #
-0.0024675401707582129626206146610912 5:1 9:1 15:1 32:1 33:1 37:1 38:1 39:2 40:1 41:1 42:1 43:1 44:1 45:1 60:1 64:1 65:1 69:1 73:1 74:1 90:1 117:1 118:1 119:1 136:1 137:1 145:1 169:1 171:1 196:1 197:1 204:1 250:2 301:1 340:1 380:1 403:1 411:1 466:1 470:1 471:1 492:1 493:1 494:1 505:1 508:1 523:1 608:1 612:1 627:1 632:1 655:1 668:1 693:1 698:1 702:1 756:1 780:1 824:1 828:1 889:1 908:1 921:1 930:1 932:1 956:1 973:1 974:1 988:1 1132:1 1183:1 1226:1 1286:1 1323:1 1324:1 1346:1 1353:1 1361:1 1371:1 1373:1 1378:1 1379:1 1387:1 1395:1 1423:1 1494:1 1586:1 1621:1 1660:1 1661:1 1709:1 1710:1 1723:1 1724:1 1728:1 1759:1 1789:1 1836:1 1849:1 1885:1 1897:1 1955:1 1980:1 2017:1 2018:1 2019:1 2031:1 2032:1 2033:1 2044:1 2047:1 2105:1 2106:1 2116:1 2120:1 2129:1 2130:1 2134:1 2142:1 2143:1 2165:1 2166:1 2195:1 2211:1 2225:1 2330:1 2354:2 2400:1 2415:1 2434:1 2517:1 2518:1 2519:1 2520:1 2521:1 2522:1 2523:1 2524:1 2525:1 2526:1 2527:1 2528:1 2529:1 2530:1 2531:1 2532:1 2533:1 2534:1 2535:1 2536:1 2537:1 2538:1 2539:1 #
0.0048397302342204889108456811186443 14:1 27:1 79:1 104:1 107:1 116:1 265:1 312:1 367:1 378:1 413:1 414:1 417:1 477:1 524:1 588:1 621:1 634:1 701:1 747:1 748:1 749:1 772:1 776:1 779:1 827:1 854:1 875:1 882:1 918:1 958:1 1036:1 1092:1 1149:1 1180:1 1209:1 1224:1 1235:1 1256:1 1275:1 1278:1 1295:1 1315:1 1384:1 1385:1 1387:1 1461:1 1463:1 1483:1 1493:1 1494:1 1495:1 1573:1 1578:1 1635:1 1651:1 1659:1 1691:1 1718:1 1721:1 1734:1 1779:1 1872:1 1873:1 1879:1 1958:2 1961:1 1983:1 2011:1 2041:1 2106:1 2144:1 2204:1 2225:1 2226:1 2254:1 2276:1 2294:1 2344:1 2421:1 2431:1 2474:1 2484:1 2496:1 2506:1 2518:1 2522:1 2536:1 2588:1 2593:1 2632:1 2674:1 2697:1 2704:1 2709:1 2714:1 2733:1 2878:1 2879:1 2898:1 2986:1 3006:1 3015:1 3016:1 3071:1 3134:1 3138:1 3161:1 3173:1 3176:1 3211:1 3217:1 3241:1 3252:1 3299:1 3304:1 3409:1 3430:1 3431:1 3452:1 3468:1 3563:1 3608:1 3644:1 3650:1 3651:1 3686:1 3696:1 3697:1 3852:1 3867:1 3873:1 3908:1 3951:1 4049:1 4081:1 4138:1 4152:1 4173:1 4279:1 4408:1 4447:1 4722:1 4728:1 4734:2 4737:1 4745:1 4763:1 4817:1 4946:1 5033:1 5040:1 5066:1 5102:1 5171:1 5261:1 5309:1 5381:1 5392:1 5408:1 5411:1 5419:1 5458:1 5509:1 5579:1 5650:1 5654:1 5915:1 5985:1 6175:1 6212:1 6401:1 6931:1 7035:1 7060:1 #
0.0011119110139299899064208032584133 5:1 39:1 48:1 68:1 69:1 152:1 182:1 189:1 216:1 217:2 267:1 269:1 272:1 327:1 348:1 388:1 435:1 436:1 437:1 471:1 492:1 520:1 547:1 572:2 590:1 693:1 694:1 698:1 730:1 733:1 741:1 825:1 831:2 862:1 873:1 888:1 922:1 931:1 933:1 999:1 1021:2 1042:1 1082:1 1083:1 1091:1 1097:1 1110:1 1146:1 1147:1 1150:1 1171:1 1195:1 1196:1 1237:1 1253:1 1256:1 1265:1 1278:1 1304:1 1340:1 1341:1 1389:1 1421:1 1425:1 1461:1 1471:1 1483:1 1493:1 1504:1 1519:1 1527:1 1561:1 1569:1 1573:1 1574:1 1607:1 1616:1 1643:1 1651:1 1730:1 1764:1 1788:1 1792:1 1816:1 1857:1 1879:1 1934:1 2039:1 2053:1 2083:1 2084:2 2085:1 2115:1 2153:1 2188:1 2226:1 2454:1 2471:1 2478:1 2506:1 2511:1 2522:1 2593:1 2665:1 2674:1 2737:1 2790:1 2801:1 2833:1 2834:1 2851:1 2870:1 2896:1 2920:1 3050:1 3130:1 3199:1 3218:1 3223:2 3242:1 3322:1 3454:1 3455:1 3602:1 3637:1 3646:1 3653:1 3668:1 3696:1 3704:1 3845:1 3857:1 3977:1 4001:1 4033:1 4081:1 4121:1 4232:1 4255:1 4283:1 4293:1 4436:1 4444:1 4495:1 4537:1 4539:1 4622:1 4723:1 4845:1 4915:1 5001:1 5056:1 5102:1 5160:1 5229:1 5267:1 5269:1 5483:1 5548:1 5618:1 5740:1 5806:1 5888:1 6245:1 6257:1 6703:1 6715:1 6754:1 6772:1 6776:1 6829:1 6907:1 6931:1 7148:1 7280:1 #
0.0013012497099178870450797429469958 3:1 4:1 5:1 26:1 30:1 33:1 39:1 40:1 41:2 77:1 90:1 125:1 143:1 146:1 208:1 209:1 280:1 281:1 374:1 397:1 430:1 500:1 562:1 625:1 626:1 627:1 640:1 646:1 653:1 705:1 751:1 804:1 831:2 866:1 881:1 915:1 958:1 1086:1 1100:1 1255:1 1256:1 1285:1 1325:1 1341:1 1361:1 1386:1 1395:1 1434:1 1445:1 1452:1 1459:1 1476:2 1488:1 1505:1 1528:1 1570:1 1573:1 1600:1 1635:1 1658:1 1730:1 1759:1 1766:1 1819:1 1867:1 1890:1 1912:1 1927:1 1936:1 1955:1 1976:1 2014:1 2132:1 2138:1 2162:1 2187:1 2217:1 2295:1 2328:1 2329:1 2333:1 2370:1 2384:1 2401:1 2418:1 2421:1 2463:1 2502:1 2530:1 2589:1 2656:1 2659:1 2671:1 2673:1 2678:1 2768:1 2800:1 2801:1 2902:1 2946:1 3096:1 3099:1 3128:1 3159:1 3228:1 3239:1 3256:1 3276:1 3436:1 3447:1 3646:1 3649:1 3775:1 3834:1 3853:1 3873:2 3892:1 3908:1 4012:1 4034:1 4070:1 4097:1 4139:1 4167:1 4227:1 4256:1 4323:1 4478:1 4593:1 4725:1 4744:1 4764:1 4765:1 4977:1 4978:1 5027:1 5090:1 5107:1 5148:1 5167:1 5203:1 5216:1 5354:1 5435:1 5451:1 5468:1 5594:1 5604:1 5650:1 5779:1 5888:1 5984:1 6126:1 6329:1 6371:1 6625:1 6640:1 6711:1 6781:1 6925:1 7004:1 #
0.0042011418620438393395355447523798 5:1 6:1 23:1 48:2 80:1 96:1 97:1 116:1 264:1 327:1 411:1 424:1 431:1 434:1 435:1 436:1 437:1 519:1 545:1 590:1 595:1 646:1 659:1 693:1 745:1 748:1 831:1 873:1 897:1 904:1 910:1 995:2 999:1 1011:1 1051:1 1084:1 1087:1 1116:1 1172:2 1195:1 1209:1 1231:1 1237:1 1253:1 1265:1 1278:1 1282:2 1341:1 1360:1 1371:1 1421:1 1422:1 1457:1 1466:1 1483:1 1501:1 1514:1 1559:1 1569:1 1577:1 1609:1 1626:1 1632:1 1643:1 1673:1 1680:1 1710:1 1717:1 1720:1 1759:1 1768:1 1793:1 1883:1 1938:1 1948:1 2084:1 2103:1 2226:1 2372:1 2377:1 2398:1 2420:1 2421:1 2447:1 2449:1 2465:1 2471:1 2522:1 2528:1 2595:1 2656:1 2673:1 2719:1 2759:1 2790:1 2793:1 2801:1 2825:1 2907:1 2968:1 2970:1 2984:1 3019:1 3078:1 3090:1 3099:1 3108:1 3138:1 3214:1 3218:2 3237:1 3246:1 3263:1 3266:1 3278:1 3279:2 3352:1 3544:1 3634:3 3696:1 3796:1 3797:1 3814:1 3861:1 4202:1 4232:1 4512:1 4549:1 4553:1 4582:1 4661:1 4713:1 4765:1 4775:1 4845:1 4967:1 5033:1 5102:1 5199:1 5277:2 5432:1 5457:1 5579:1 5783:1 5852:1 5902:1 6109:1 6931:1 7168:1 #
0.0026224780595866560573004022671739 2:1 3:1 70:1 76:1 216:1 217:1 327:1 348:1 383:1 435:1 436:1 437:1 467:1 469:1 470:1 471:1 492:1 572:1 580:1 593:1 685:1 690:1 708:1 766:1 798:1 802:1 808:1 831:1 873:1 906:1 907:1 930:1 933:1 936:1 1010:1 1057:1 1091:1 1116:1 1146:1 1149:1 1237:1 1243:2 1266:1 1347:1 1361:1 1410:1 1425:1 1461:1 1471:1 1483:1 1497:1 1527:1 1529:1 1574:1 1575:1 1604:1 1606:1 1626:1 1629:1 1632:1 1645:1 1657:1 1697:1 1703:1 1718:1 1719:1 1724:1 1759:1 1762:1 1779:1 1792:1 1837:1 1882:1 1890:1 1892:1 1897:1 1924:1 1958:1 1969:1 1991:1 2026:1 2085:1 2123:1 2133:1 2153:1 2157:1 2188:1 2303:1 2331:1 2353:1 2358:1 2388:1 2427:1 2451:1 2516:1 2522:1 2523:1 2542:1 2585:1 2589:1 2593:1 2601:1 2618:1 2643:1 2671:1 2735:1 2777:1 2829:1 2832:1 2923:1 2925:1 2940:1 2973:1 2987:1 2988:1 3017:1 3051:1 3080:1 3099:1 3176:1 3211:1 3218:1 3244:1 3278:1 3478:1 3542:1 3648:1 3667:1 3696:1 3697:1 3838:1 3988:1 4031:1 4037:1 4078:1 4082:1 4083:1 4112:1 4203:1 4272:1 4282:1 4344:1 4349:1 4457:1 4460:1 4495:1 4570:1 4584:1 4743:1 4744:1 4821:1 4890:1 4891:1 4915:1 5146:1 5215:1 5245:1 5369:1 5554:1 5618:1 5638:1 5741:1 5857:1 5935:1 6368:1 6501:1 6566:1 6676:1 6754:1 6780:1 6931:1 6992:1 7062:1 #
-0.0013312864708452558978185598093091 12:1 26:1 59:1 61:1 84:1 89:1 90:1 94:1 124:1 172:1 173:1 254:1 255:1 270:1 285:1 323:1 383:1 384:1 385:1 432:1 549:1 555:1 556:1 565:1 579:1 622:1 627:1 645:2 653:1 715:1 747:1 776:1 781:1 847:1 851:1 870:1 876:1 1002:1 1010:1 1041:1 1088:1 1089:1 1090:1 1158:1 1209:1 1214:1 1230:1 1401:1 1408:1 1432:1 1459:1 1486:1 1495:1 1529:1 1531:1 1533:1 1562:1 1578:1 1588:1 1621:1 1634:1 1672:1 1770:1 1818:1 1839:1 1934:1 1935:1 1938:1 1971:1 1994:1 2066:1 2089:1 2118:1 2123:1 2173:1 2277:1 2327:1 2414:1 2418:1 2421:1 2479:1 2496:1 2523:1 2548:1 2549:1 2569:1 2603:1 2631:1 2678:1 2704:1 2824:1 2851:1 2878:2 2913:2 2923:1 2940:1 2965:1 3028:1 3088:1 3145:1 3174:1 3175:1 3208:1 3229:1 3244:1 3252:1 3257:1 3426:1 3427:1 3449:1 3478:1 3532:1 3560:1 3570:1 3623:1 3668:1 3681:1 3697:1 3718:1 3732:1 3813:1 3814:1 3819:1 3862:1 3930:1 3942:1 4026:1 4082:1 4083:1 4160:1 4171:1 4255:1 4270:1 4298:1 4401:1 4436:1 4485:1 4599:1 4618:1 4643:1 4670:1 4717:1 4723:1 4736:1 4800:1 4832:1 4883:1 4913:1 4945:1 4980:1 5036:1 5138:1 5215:1 5268:1 5306:1 5348:1 5373:1 5392:1 5518:1 5647:1 5654:1 5691:1 5785:1 5808:1 5812:1 5846:1 5848:1 5868:1 5896:1 5947:1 6026:1 6175:1 6485:1 6592:1 6653:2 6676:1 6693:1 #
-0.0012083548435483668168771709261478 26:1 53:1 68:1 89:1 90:1 108:1 116:1 144:1 149:1 151:1 189:1 194:1 195:1 233:1 259:1 269:2 270:1 271:1 339:1 359:1 387:1 396:1 419:1 447:2 448:1 467:1 471:1 570:1 618:1 624:1 643:1 644:1 647:1 654:1 681:1 749:1 803:1 819:1 820:1 826:1 827:2 897:1 914:1 933:1 940:1 949:1 969:1 994:1 1019:1 1021:1 1037:1 1041:1 1042:1 1049:1 1056:1 1110:1 1184:1 1230:1 1231:1 1267:1 1333:1 1348:1 1367:1 1380:1 1407:1 1433:1 1449:1 1450:1 1452:1 1472:1 1483:1 1532:2 1533:2 1564:1 1574:1 1676:1 1678:1 1702:1 1718:1 1731:1 1736:1 1755:1 1859:1 1867:1 1872:1 1888:1 1902:1 1964:1 2001:1 2031:1 2036:1 2041:1 2048:1 2085:1 2100:1 2109:1 2114:1 2128:1 2143:1 2202:1 2207:1 2268:1 2270:1 2271:1 2308:1 2336:1 2386:1 2449:1 2549:1 2555:1 2593:2 2615:1 2636:1 2660:1 2665:1 2673:1 2689:1 2703:1 2732:1 2740:1 2741:1 2767:1 2830:1 2848:1 2849:1 2853:1 2875:1 2918:1 2930:1 2981:1 3002:1 3030:1 3096:1 3098:1 3099:1 3108:1 3132:1 3163:1 3218:1 3252:1 3254:1 3279:1 3290:1 3370:1 3410:1 3528:1 3536:1 3540:1 3557:1 3594:1 3606:1 3645:1 3649:1 3664:1 3673:1 3721:1 3779:1 3803:1 3805:1 3843:1 3845:1 3873:1 4077:1 4090:1 4107:1 4162:1 4178:1 4203:1 4227:1 4330:1 4402:1 4448:1 4501:1 4567:1 4570:1 4605:1 4643:1 4655:1 4751:1 4870:1 4874:1 4876:1 4955:1 4963:1 4977:1 5008:1 5009:1 5010:1 5046:1 5050:1 5157:1 5171:1 5225:1 5266:1 5330:1 5381:1 5486:1 5493:1 5500:1 5539:1 5540:1 5651:1 5681:1 5826:1 5888:1 6009:1 6180:1 6242:1 6256:1 6636:1 6794:1 #
-0.0010572849134569052998583460478699 18:1 33:1 65:1 67:1 71:1 85:1 86:1 109:1 117:1 124:1 177:1 215:1 258:1 302:1 313:1 323:1 327:1 347:1 349:1 383:1 384:1 385:1 479:1 499:1 502:1 519:1 572:2 619:1 633:1 662:1 667:1 763:1 795:1 844:1 845:1 846:2 886:1 889:1 914:1 945:1 946:1 968:1 970:1 977:1 1021:1 1105:1 1113:1 1124:1 1159:2 1160:1 1207:1 1224:1 1247:1 1305:1 1319:1 1345:1 1346:1 1484:1 1529:1 1530:1 1548:1 1568:1 1673:1 1674:1 1779:1 1811:1 1885:1 1890:1 1949:1 1988:1 1989:1 2016:1 2029:1 2032:1 2044:1 2049:1 2072:1 2082:1 2101:2 2189:1 2220:1 2259:1 2268:2 2311:1 2312:1 2320:1 2440:1 2450:1 2466:2 2467:1 2471:1 2487:1 2523:1 2524:1 2549:1 2576:1 2588:1 2658:1 2665:2 2692:1 2736:1 2801:1 2824:1 2863:1 2873:1 2875:1 2891:1 2902:1 2906:1 2952:1 2957:2 3018:1 3022:1 3086:1 3105:1 3119:1 3156:1 3218:1 3240:2 3241:1 3246:1 3316:1 3323:1 3431:1 3521:1 3526:1 3615:1 3649:3 3665:1 3666:1 3976:1 4018:1 4162:1 4176:1 4200:1 4312:1 4313:1 4335:1 4336:1 4376:1 4439:1 4485:1 4492:1 4510:1 4772:1 4788:1 4789:1 4800:1 4808:1 4848:1 4884:1 4930:1 4951:1 5522:1 5544:1 5553:1 5588:1 5625:1 5687:1 5724:1 5807:1 5888:1 5991:1 6185:1 6355:1 6679:1 6799:1 7445:1 7688:1 #
-0.00041676423024804358204511989249852 14:1 33:1 71:1 85:1 175:1 292:1 323:1 358:1 384:1 385:1 415:1 442:1 448:1 556:1 557:1 571:1 572:1 592:1 608:1 624:1 625:1 638:1 639:1 649:1 659:1 801:1 846:1 847:1 901:1 917:1 944:1 957:1 987:1 997:1 998:1 1005:1 1011:1 1023:1 1024:1 1026:1 1050:1 1055:1 1087:1 1111:1 1120:1 1157:1 1160:1 1161:1 1197:1 1208:1 1230:1 1254:1 1256:1 1265:1 1339:1 1355:1 1387:1 1389:1 1414:1 1415:1 1416:1 1452:1 1463:1 1498:1 1535:1 1546:1 1551:1 1779:2 1870:1 1894:1 1907:1 1968:1 1969:1 1980:1 1988:1 1989:1 2128:1 2141:1 2211:1 2268:1 2284:1 2447:1 2588:1 2602:1 2613:1 2623:1 2711:1 2725:1 2876:2 2883:1 2907:1 2927:1 2939:1 2956:1 3023:2 3240:1 3276:1 3390:2 3410:1 3552:1 3666:1 3688:1 3809:1 3914:1 3995:1 4007:1 4018:1 4030:1 4031:1 4040:1 4330:1 4343:1 4344:1 4434:1 4485:1 4531:1 4545:1 4547:1 4646:1 4719:1 4813:1 4831:1 4878:1 4977:1 4986:1 5073:1 5106:1 5171:1 5176:1 5178:1 5193:1 5205:1 5499:1 5539:1 5621:1 5740:1 5806:1 5876:1 5888:1 6023:1 6106:1 6124:1 6155:1 6297:1 6451:1 6586:1 6715:1 7125:1 7237:1 #
-0.00026852648430067123201669954113413 1:1 24:1 27:1 28:1 43:1 45:1 151:1 172:1 210:1 218:1 220:1 302:1 346:1 354:1 396:1 439:1 475:1 490:1 554:1 573:1 575:1 609:1 610:1 638:1 640:1 712:1 717:1 730:1 734:1 762:1 765:1 870:1 882:1 888:1 999:1 1032:1 1079:1 1145:2 1173:1 1199:1 1202:1 1253:1 1255:1 1325:1 1338:1 1357:1 1382:1 1388:1 1421:1 1488:1 1491:1 1528:1 1536:1 1587:1 1588:1 1589:1 1617:1 1618:1 1629:1 1631:1 1671:1 1690:1 1719:1 1720:1 1786:1 1822:1 1881:1 1882:1 1884:1 1914:1 1929:1 1971:1 2017:1 2018:1 2024:1 2126:1 2155:1 2182:1 2196:1 2216:1 2219:1 2276:1 2362:1 2405:1 2423:1 2496:1 2535:1 2544:1 2564:1 2578:1 2832:1 2864:1 2913:1 2926:1 3034:1 3075:1 3094:1 3148:1 3149:1 3152:1 3169:1 3203:1 3279:1 3343:1 3455:1 3466:1 3478:1 3483:1 3498:2 3504:1 3505:1 3509:1 3625:1 3701:1 3735:1 3755:1 3766:1 3785:1 3873:1 3925:1 4085:1 4139:1 4141:1 4167:1 4170:1 4223:1 4361:1 4362:1 4395:1 4404:1 4487:1 4583:1 4635:1 4678:1 4758:1 4828:1 4878:1 4893:1 4931:1 4963:1 5049:1 5108:1 5254:1 5350:1 5360:1 5628:1 5663:1 5868:1 5951:1 5991:1 6115:1 6161:1 6195:1 6205:1 6307:1 6420:1 6523:1 6566:1 6626:1 6697:1 7061:1 7419:1 7420:1 7525:1 #
0.0027683026451932341710504559273431 39:1 40:1 41:1 65:1 75:1 79:1 118:1 123:1 182:1 192:1 256:1 257:1 264:1 270:1 280:1 290:1 303:1 327:1 410:1 502:1 520:1 591:1 592:1 620:1 800:1 802:1 842:1 846:1 899:1 903:1 998:1 1100:1 1123:1 1146:1 1201:1 1217:1 1224:1 1280:1 1325:1 1357:1 1370:1 1403:1 1447:1 1503:1 1550:1 1551:1 1590:1 1632:1 1642:1 1649:1 1668:1 1681:1 1754:1 1821:1 1857:1 1864:1 1867:1 1914:1 1929:1 1937:1 1946:1 1970:1 2023:1 2119:1 2148:1 2246:1 2254:1 2294:1 2309:1 2342:1 2366:1 2425:1 2466:1 2531:1 2553:1 2609:1 2671:1 2753:1 2763:1 2765:1 2784:1 2788:1 2835:1 2863:1 2873:1 2921:1 2922:1 2924:1 2946:1 2988:1 3016:1 3020:1 3063:1 3090:1 3102:1 3125:1 3164:1 3198:1 3305:1 3312:1 3447:1 3511:1 3534:1 3662:1 3780:1 3816:1 3820:1 3831:1 3844:1 3868:1 3871:1 4017:1 4033:1 4044:1 4048:1 4091:1 4092:1 4093:1 4138:1 4180:1 4238:1 4268:1 4395:1 4420:1 4431:1 4434:1 4472:1 4530:1 4577:1 4731:1 4851:1 4866:1 5065:1 5116:1 5152:1 5172:2 5248:1 5250:1 5319:1 5369:1 5420:1 5554:1 5621:1 6039:1 6121:1 6127:1 6135:1 6221:1 6251:1 6267:1 6332:1 6367:1 6427:1 6429:1 6934:1 6945:1 6992:1 7254:1 #
0.00094383868691565468624776746864313 39:1 40:1 41:1 116:1 147:1 164:1 167:1 168:1 199:1 204:1 208:1 271:1 273:1 337:1 366:1 468:1 492:1 494:1 516:1 547:1 552:1 572:1 623:1 624:1 666:1 667:1 677:1 686:1 742:1 743:2 787:1 866:1 882:1 910:1 926:1 927:1 935:1 999:1 1052:1 1097:1 1116:1 1325:1 1342:1 1345:1 1362:1 1410:1 1415:1 1417:1 1476:1 1483:1 1488:1 1536:1 1553:1 1569:1 1573:1 1603:1 1604:1 1643:1 1670:1 1704:1 1723:1 1724:1 1779:1 1822:1 1835:1 1881:1 1915:1 1928:1 1929:1 1948:1 1951:1 1972:1 1981:1 2001:1 2085:1 2100:1 2104:1 2119:1 2156:1 2163:1 2231:1 2254:1 2273:1 2332:1 2342:1 2346:1 2363:1 2372:1 2431:1 2443:1 2484:2 2582:1 2671:1 2755:1 2845:1 2850:1 2926:1 2939:1 2941:1 3003:1 3034:1 3049:1 3147:1 3158:1 3208:1 3248:1 3299:1 3304:1 3307:1 3344:1 3447:1 3483:1 3517:1 3534:1 3580:1 3608:1 3616:1 3625:1 3686:1 3747:1 3762:1 3820:1 3863:1 3867:1 4203:2 4228:1 4344:1 4380:1 4487:1 4495:1 4570:1 4727:1 4831:1 4851:1 4866:1 4898:1 4933:1 4951:1 5080:1 5348:1 5593:1 5661:1 5821:1 6371:1 6571:1 6572:1 6614:1 6679:1 6716:1 6992:1 7009:1 7104:1 7132:1 7192:1 #
0.0028325559781775450952923112168946 18:1 33:1 39:1 40:1 41:1 61:1 65:1 76:1 79:1 80:1 86:1 123:1 162:1 195:1 215:1 224:1 251:1 273:1 341:1 375:1 378:1 440:1 454:1 486:1 557:1 621:1 625:1 626:1 638:1 644:1 645:1 650:1 687:1 742:1 755:1 761:1 802:1 804:1 819:1 831:1 839:1 866:1 925:1 928:1 1006:1 1097:1 1254:1 1268:1 1278:1 1320:1 1325:1 1334:1 1345:1 1364:1 1401:1 1412:1 1435:1 1461:1 1531:1 1536:1 1569:1 1570:1 1573:1 1577:1 1578:1 1600:1 1626:1 1652:1 1656:1 1721:1 1770:1 1771:1 1822:1 1883:1 1923:1 1935:1 2043:1 2044:1 2098:1 2105:1 2126:1 2181:1 2215:1 2254:1 2291:1 2342:1 2343:1 2346:1 2347:1 2389:1 2474:1 2479:1 2515:1 2516:1 2530:1 2673:1 2677:1 2770:1 2782:1 2788:1 2812:1 2820:1 2866:1 2919:1 2982:1 3034:1 3102:1 3146:1 3162:1 3194:1 3231:1 3232:1 3240:2 3249:1 3266:1 3287:1 3397:1 3413:1 3454:1 3534:1 3652:1 3659:1 3783:1 3944:1 3958:1 4017:1 4020:1 4100:1 4106:1 4178:1 4180:1 4197:1 4238:1 4256:1 4356:1 4654:1 4848:1 4879:1 5037:1 5066:1 5074:1 5081:1 5102:1 5193:1 5284:1 5342:1 5554:1 5593:1 5869:1 5977:1 6183:1 6215:1 6338:1 6345:1 6352:1 6353:1 6388:1 6768:1 6770:1 6992:1 7060:1 7077:1 7123:1 7181:1 #
0.0030526009974143615381680927356456 39:1 76:1 96:1 109:1 208:1 273:1 310:1 365:1 474:1 478:1 479:1 591:1 601:1 620:1 643:1 685:1 742:1 831:1 856:1 864:1 872:1 899:1 984:1 991:1 993:1 1089:1 1112:1 1123:1 1239:1 1345:1 1365:1 1412:1 1454:1 1456:1 1458:1 1483:1 1497:1 1569:1 1577:1 1579:1 1643:1 1649:1 1723:1 1779:1 1857:1 1953:1 1954:1 1957:1 1972:1 1997:1 2025:1 2043:1 2063:1 2074:1 2079:1 2104:1 2138:1 2166:1 2196:1 2234:1 2254:1 2303:1 2346:1 2347:1 2426:1 2431:1 2527:1 2581:1 2582:1 2612:1 2613:1 2671:1 2699:1 2788:1 2865:1 2935:1 2939:1 2968:1 3002:1 3027:1 3055:1 3078:1 3127:1 3135:1 3163:1 3168:1 3187:1 3204:1 3252:1 3254:1 3299:1 3322:1 3398:1 3407:1 3410:1 3456:1 3479:1 3485:1 3486:1 3509:1 3511:1 3610:1 3724:1 3781:1 3838:1 3904:1 3934:1 4146:1 4394:1 4431:1 4731:1 4851:1 4894:1 4984:1 5041:1 5108:1 5143:1 5152:1 5159:1 5162:1 5365:1 5484:1 5632:1 5639:1 5650:1 5729:1 5821:1 5901:1 6002:1 6198:1 6243:1 6244:1 6315:1 6429:1 6824:1 7084:1 7085:1 7104:1 7224:1 7225:1 7226:1 #
0.0026870319171908366162604409055348 5:1 39:1 110:1 146:1 147:1 169:1 174:1 198:1 217:1 220:1 291:1 301:1 332:1 352:1 358:1 385:1 386:1 387:1 393:1 416:1 417:1 422:1 463:1 464:1 466:1 506:1 507:1 513:1 531:1 550:1 555:1 570:1 571:1 572:1 626:1 637:1 655:1 693:1 698:1 789:1 792:1 801:1 872:1 894:1 900:1 917:1 1000:1 1002:1 1026:1 1044:1 1091:1 1099:1 1120:1 1201:2 1219:1 1239:1 1245:1 1246:1 1282:1 1291:1 1339:2 1340:1 1377:1 1411:1 1421:1 1440:1 1447:1 1450:1 1483:1 1519:1 1526:1 1569:1 1677:1 1704:1 1713:1 1720:1 1746:1 1759:1 1784:1 1789:1 1804:1 1834:1 1843:1 1935:1 1949:1 1961:1 1984:1 1991:1 2031:1 2089:1 2103:1 2151:1 2154:1 2176:1 2276:1 2363:1 2437:1 2443:1 2445:1 2453:1 2484:1 2515:1 2516:1 2531:1 2539:1 2549:1 2556:1 2592:1 2832:1 2847:1 2850:1 2916:1 2987:1 2990:1 3049:1 3090:1 3137:1 3163:1 3212:1 3218:1 3232:1 3305:1 3395:1 3398:1 3472:1 3482:1 3754:1 3815:1 3919:1 4036:1 4176:1 4234:1 4347:1 4353:1 4431:1 4435:1 4552:1 4616:1 4688:1 4743:1 4929:1 5047:1 5162:1 5261:1 5278:1 5335:1 5554:1 5599:1 5677:1 6018:1 6243:1 6315:1 6571:1 6572:1 6614:1 6986:1 7062:1 7316:1 #
-0.001118191502604200813011936510577 27:1 33:1 41:1 53:1 73:1 74:1 75:1 97:1 173:1 181:1 201:1 218:1 219:1 245:1 250:1 253:1 291:1 310:1 340:1 373:1 429:1 439:1 481:1 492:1 493:1 494:1 519:1 521:1 584:1 591:1 605:1 609:1 632:1 639:1 655:1 782:1 783:1 789:1 794:1 801:1 807:1 819:1 820:1 830:1 845:1 907:1 932:1 933:1 980:1 981:1 991:1 1040:1 1051:1 1072:1 1087:1 1139:1 1153:1 1162:1 1181:1 1182:1 1219:1 1311:1 1323:1 1324:1 1352:1 1357:1 1370:1 1371:1 1386:1 1394:1 1415:1 1559:1 1576:1 1580:1 1599:1 1603:2 1634:1 1700:1 1704:1 1709:1 1721:1 1817:1 1826:1 1832:1 1835:1 1858:1 1873:1 1876:1 1952:1 1955:1 1992:1 1998:1 2026:1 2027:1 2090:1 2104:1 2156:1 2201:1 2232:1 2235:1 2258:1 2276:1 2328:1 2391:1 2415:1 2438:1 2451:1 2465:1 2466:1 2479:1 2496:1 2523:1 2536:1 2537:1 2645:1 2672:1 2719:1 2773:1 2790:1 2832:1 2842:1 2865:1 2915:1 2986:1 3016:1 3034:1 3049:1 3138:1 3159:1 3186:1 3198:1 3216:1 3246:1 3304:1 3318:1 3414:1 3439:1 3612:1 3638:1 3654:1 3784:1 3922:1 3940:1 4036:1 4113:1 4171:1 4267:1 4271:1 4403:1 4438:1 5012:1 5028:1 5081:1 5162:1 5274:1 5393:1 5501:1 5507:1 6092:1 6112:1 7120:1 7204:1 #
-0.00098659593945098211786870479045319 5:1 11:1 16:1 17:1 24:1 58:1 68:1 73:1 89:1 90:1 119:1 157:1 198:1 199:1 202:1 238:1 253:1 329:1 430:1 431:1 510:1 532:1 614:1 624:1 625:1 688:1 689:1 746:1 780:1 783:1 801:1 877:1 899:1 951:1 980:1 996:1 1039:1 1066:1 1067:1 1080:1 1084:1 1116:1 1219:1 1308:1 1421:1 1440:1 1453:1 1460:1 1471:1 1496:1 1497:1 1512:1 1535:1 1559:1 1599:1 1641:1 1786:1 1793:1 1810:1 1826:1 1828:1 1836:1 1858:1 1861:1 1871:1 1879:1 1940:1 2008:1 2026:1 2043:1 2045:1 2046:1 2101:1 2107:1 2138:1 2163:2 2209:1 2240:1 2318:1 2391:1 2401:1 2424:1 2460:1 2478:1 2483:1 2484:1 2496:1 2564:1 2585:1 2586:1 2659:1 2776:1 2817:1 2833:1 2862:1 2924:1 2934:1 2982:1 3106:1 3209:1 3307:1 3375:1 3430:1 3479:1 3639:1 3667:2 3711:1 3764:1 3784:1 3814:1 3871:1 3902:1 3911:1 3947:1 3976:1 4025:1 4171:1 4211:1 4431:1 4438:1 4461:1 4512:1 4570:1 4587:1 4660:1 4890:1 4915:1 5043:1 5146:1 5151:1 5160:1 5176:1 5199:1 5266:1 5278:1 5326:1 5345:1 5426:2 5446:1 5829:1 5874:1 5986:1 6005:1 6109:1 6151:1 6161:1 6212:1 6352:1 6357:1 6807:1 6978:1 7050:1 7115:1 7170:1 7747:1 7749:1 #
-0.00021156694679775952410739903175596 5:1 36:1 70:1 79:1 84:1 90:1 91:1 97:1 115:1 139:1 147:1 172:1 210:1 236:1 251:1 263:1 285:1 323:1 327:1 328:2 335:1 338:1 363:1 371:1 393:1 423:1 458:1 476:1 488:1 524:1 526:1 551:1 575:1 594:1 595:1 602:1 609:1 619:1 623:1 627:1 682:1 688:1 767:1 773:1 779:2 782:1 795:1 799:1 843:1 845:1 858:1 860:1 878:1 890:1 935:1 942:1 951:1 967:1 970:1 977:1 987:1 990:2 998:1 1018:1 1053:1 1055:1 1081:1 1093:1 1110:1 1147:1 1148:1 1168:1 1172:2 1305:1 1311:1 1340:1 1345:1 1351:1 1400:1 1417:1 1423:1 1432:1 1476:1 1483:1 1500:1 1525:1 1546:1 1586:1 1635:1 1649:1 1661:1 1662:1 1665:1 1692:1 1735:1 1764:1 1767:1 1768:1 1794:1 1804:1 1821:1 1858:1 1885:1 1886:1 1910:1 1936:1 1952:2 1978:1 1979:2 1986:1 1989:1 2021:1 2077:1 2109:1 2123:1 2124:1 2136:1 2152:1 2164:1 2177:1 2180:1 2200:2 2201:1 2275:1 2302:1 2348:1 2357:1 2424:1 2451:1 2489:1 2490:1 2553:1 2578:1 2587:1 2588:1 2625:1 2663:1 2679:1 2686:1 2722:1 2723:1 2725:1 2729:1 2748:1 2759:1 2787:1 2795:1 2837:1 2970:1 2990:1 2999:1 3000:1 3003:3 3073:1 3089:1 3113:1 3142:1 3177:1 3231:1 3235:1 3274:1 3289:1 3290:1 3299:1 3309:1 3314:1 3323:1 3331:1 3385:1 3451:1 3474:1 3475:1 3483:1 3499:1 3500:1 3501:1 3502:1 3517:1 3598:1 3608:1 3615:1 3623:2 3624:1 3625:1 3626:1 3627:1 3700:1 3784:1 3852:1 3853:1 3879:1 3880:1 3895:1 3897:1 3913:1 3917:1 3931:1 3968:1 3986:1 4097:1 4154:1 4170:1 4199:1 4211:1 4234:1 4249:1 4259:1 4260:1 4277:1 4408:1 4442:1 4444:1 4476:1 4507:1 4508:1 4546:1 4570:1 4599:1 4606:1 4660:1 4681:1 4736:1 4751:1 4793:1 4806:1 4986:1 5029:1 5043:1 5104:1 5153:1 5223:1 5229:1 5266:1 5374:1 5380:1 5444:1 5506:1 5543:1 5615:1 5748:2 5875:1 5950:1 6003:1 6055:1 6056:1 6057:1 6058:1 6059:1 6060:1 6061:1 6062:1 6063:1 6064:1 6065:1 6066:1 6067:1 6068:1 6069:1 6070:1 6071:1 6072:1 6073:1 6074:1 6075:1 6076:1 6077:1 6078:1 6079:1 6080:1 6081:1 6082:1 6083:1 6084:1 6085:1 6086:1 #
-0.00098190234062160621636428103897742 13:1 33:1 35:1 45:1 69:1 70:1 79:1 92:1 106:1 129:1 158:1 172:1 181:1 223:1 251:1 272:1 349:1 350:1 374:1 375:1 387:1 388:2 389:1 439:1 448:1 459:1 477:1 532:1 555:1 573:1 623:1 626:1 657:1 662:1 665:1 686:1 743:1 755:1 765:1 792:1 827:1 865:1 934:1 956:1 979:1 992:1 999:1 1015:1 1016:1 1025:1 1051:1 1060:1 1079:1 1091:1 1092:1 1097:1 1116:1 1126:1 1182:1 1202:1 1212:1 1223:1 1231:1 1280:1 1283:1 1325:1 1345:1 1370:1 1402:1 1413:1 1461:1 1485:1 1500:1 1501:1 1521:1 1547:1 1560:1 1642:1 1713:1 1727:1 1745:1 1843:1 1844:1 1859:1 1902:2 1903:1 1931:1 1984:1 1987:1 2003:1 2017:1 2018:1 2028:1 2083:1 2099:1 2109:1 2152:1 2198:1 2213:1 2238:1 2243:1 2261:1 2317:1 2347:2 2358:1 2431:1 2545:1 2546:1 2594:1 2652:1 2675:1 2676:1 2719:1 2731:1 2824:1 2825:1 2834:1 2870:1 2897:1 2912:1 2957:1 2967:1 2977:1 3003:2 3034:1 3039:1 3087:1 3095:1 3140:1 3152:1 3156:1 3194:1 3205:1 3214:1 3247:1 3252:1 3285:1 3308:1 3309:1 3314:1 3429:1 3498:1 3511:1 3549:1 3606:1 3644:1 3649:1 3651:1 3652:1 3665:1 3736:1 3812:1 3834:1 3838:1 3839:1 3840:1 3925:1 3957:1 3995:1 4044:1 4161:1 4164:1 4267:1 4390:1 4406:1 4422:1 4456:1 4553:1 4623:1 4637:1 4736:1 4763:1 4788:1 4831:1 4832:1 4861:1 4958:1 5004:1 5212:1 5316:1 5356:1 5370:1 5374:1 5428:1 5461:1 5470:1 5548:1 5686:1 5732:1 5794:1 6059:1 6084:1 6097:1 6161:1 6194:1 6315:1 6336:1 6429:1 6683:1 6735:1 6781:1 6875:1 6918:1 6926:1 7022:1 7406:1 7407:1 7408:1 #
-0.00040735456180524855229752034802004 45:1 69:1 70:1 128:1 129:1 145:1 151:1 168:1 172:1 181:1 211:1 251:1 272:1 274:1 275:1 284:1 298:1 315:1 347:1 348:1 411:1 417:1 423:1 439:1 469:1 472:1 473:1 495:1 534:1 536:1 555:1 560:1 573:1 577:1 581:1 584:1 619:1 623:1 665:1 710:1 711:1 734:1 741:1 742:1 743:1 792:1 823:1 848:1 887:1 919:1 925:1 987:1 992:1 999:1 1017:1 1021:1 1051:1 1070:1 1091:1 1095:1 1179:1 1182:1 1188:1 1202:1 1280:1 1287:1 1301:1 1306:1 1325:1 1340:1 1345:1 1360:1 1363:1 1370:1 1394:1 1449:1 1465:1 1485:1 1509:1 1533:1 1543:1 1560:1 1582:1 1642:1 1655:1 1667:1 1676:1 1713:1 1726:1 1728:1 1779:1 1790:1 1833:1 1843:1 1844:1 1845:1 1859:1 1882:1 1887:1 1903:1 1938:1 1941:2 1958:1 2004:1 2009:1 2017:1 2018:1 2028:1 2054:1 2082:1 2083:1 2085:1 2097:1 2193:1 2238:1 2261:1 2287:1 2347:1 2352:1 2357:1 2431:1 2559:1 2594:1 2595:1 2632:1 2643:1 2666:1 2675:1 2676:1 2711:1 2724:1 2756:1 2757:1 2776:1 2777:1 2850:1 2897:1 2908:1 2912:1 2957:1 2967:1 3034:2 3100:1 3152:1 3173:1 3194:1 3285:1 3345:1 3390:1 3429:1 3498:1 3558:1 3561:1 3651:1 3665:1 3812:1 3834:1 3925:1 3932:1 3957:1 4040:1 4092:1 4220:1 4267:1 4274:1 4335:1 4336:1 4374:1 4382:1 4390:1 4435:1 4447:1 4623:1 4698:1 4763:1 4775:1 4785:1 4816:1 4859:1 5030:1 5031:1 5122:1 5212:1 5219:1 5287:1 5316:1 5323:1 5363:1 5370:1 5461:1 5544:1 5565:1 5779:1 5841:1 6161:1 6165:1 6172:1 6211:1 6293:1 6336:1 6394:1 6517:1 6638:1 6752:1 6918:1 6927:1 6980:1 7012:1 7022:1 7075:1 7408:1 #
0.0034861698858223632777053602183059 5:1 39:1 40:1 41:1 74:1 88:1 89:1 108:1 109:1 131:1 198:1 217:1 301:1 432:1 449:1 467:1 468:1 474:1 525:1 576:1 593:1 623:1 627:1 632:1 647:1 650:1 651:1 703:1 732:1 764:1 792:1 883:1 892:1 920:1 922:1 964:1 985:1 996:1 1005:1 1100:1 1164:1 1224:1 1325:1 1326:1 1327:1 1370:1 1380:1 1411:1 1412:1 1425:1 1449:1 1461:1 1486:1 1505:1 1573:1 1574:1 1577:1 1643:1 1654:1 1663:1 1678:1 1742:1 1764:1 1776:1 1789:1 1845:1 1873:1 1878:1 1881:1 1916:1 1919:1 1929:1 1935:1 1950:1 1952:1 1958:1 1999:1 2001:1 2011:1 2016:1 2066:1 2093:1 2189:1 2274:1 2275:1 2291:1 2295:1 2310:1 2347:1 2364:1 2518:1 2567:1 2581:1 2586:1 2594:1 2595:1 2658:1 2671:1 2755:1 2788:1 2818:1 2875:1 2885:1 2917:1 2952:1 2969:1 2999:1 3006:1 3017:1 3049:1 3055:1 3087:1 3093:1 3109:1 3173:1 3174:1 3184:1 3186:1 3199:1 3219:1 3250:1 3269:1 3408:1 3488:1 3525:1 3697:1 3746:1 3804:1 3826:1 3868:1 3874:1 3976:1 4157:1 4222:1 4263:1 4277:1 4283:1 4319:1 4336:1 4340:1 4353:1 4420:1 4438:1 4467:1 4547:1 4611:1 4665:1 4669:1 4722:1 4723:1 4737:1 4779:1 4880:1 4979:1 5021:1 5408:1 5495:1 5497:1 5544:1 5579:1 5618:1 5682:1 5877:1 5898:1 5935:1 6012:1 6037:1 6175:1 6176:1 6194:1 6276:1 6314:1 6622:1 6664:1 7035:1 7061:1 #
0.0030870878012307181349760387689685 43:1 47:1 52:1 125:1 126:1 127:1 152:1 170:1 217:2 246:1 267:1 272:1 276:1 289:1 290:1 313:1 327:1 397:1 424:1 430:1 431:1 435:1 436:1 437:1 492:1 558:1 605:1 613:1 667:2 704:1 787:1 814:1 815:1 825:1 831:1 834:1 846:1 873:1 910:1 933:1 968:1 979:1 985:1 1024:1 1052:1 1071:1 1082:1 1083:1 1091:1 1109:1 1147:1 1183:1 1189:1 1227:1 1237:1 1305:1 1312:1 1324:1 1396:1 1424:1 1425:1 1502:1 1534:1 1538:1 1574:1 1596:1 1608:1 1616:1 1643:1 1658:1 1662:1 1717:1 1724:1 1796:1 1821:1 1853:1 1887:1 1952:5 1996:2 2056:1 2064:1 2150:1 2153:1 2161:1 2201:1 2241:1 2259:1 2302:1 2349:1 2372:1 2377:1 2405:1 2467:1 2518:1 2519:1 2524:1 2587:1 2595:1 2640:1 2671:1 2672:1 2674:1 2732:1 2748:1 2801:1 2811:1 2852:1 2873:1 2874:1 2887:1 2907:1 2968:1 2981:1 2984:1 3001:1 3061:1 3115:1 3143:1 3148:1 3187:2 3205:1 3292:1 3338:1 3352:1 3414:1 3447:1 3455:1 3479:1 3594:1 3602:1 3654:1 3678:1 3769:1 3821:1 3878:1 3927:1 3928:1 4001:1 4063:1 4064:1 4092:1 4142:1 4191:1 4277:1 4283:1 4431:1 4495:1 4531:1 4587:1 4661:1 4673:1 4701:1 4708:1 4722:1 4849:1 4851:1 4915:1 4931:1 4945:1 5009:1 5067:1 5208:1 5260:1 5261:1 5264:1 5369:1 5593:1 5621:1 5652:1 5671:1 5677:1 5839:1 5875:1 5979:1 6098:1 6300:1 6315:1 6770:1 6850:1 7062:1 #
0.0026063747346681898423015333321473 4:1 5:1 39:1 40:1 41:1 43:1 71:1 110:1 150:1 182:1 219:1 227:1 280:1 342:1 374:1 449:1 475:1 486:1 511:1 525:1 606:1 643:1 652:1 663:1 705:1 716:1 731:1 743:1 792:1 810:1 872:1 895:1 920:1 925:1 935:1 944:1 982:1 1043:1 1113:1 1122:1 1184:1 1237:1 1254:1 1348:1 1370:1 1411:1 1415:1 1420:1 1425:1 1440:1 1449:1 1460:1 1483:1 1549:1 1573:1 1574:1 1617:1 1651:1 1658:1 1678:1 1701:1 1704:1 1723:1 1759:1 1821:1 1868:1 1913:1 1935:1 2004:1 2035:1 2083:1 2093:1 2145:1 2171:1 2189:1 2192:1 2234:1 2238:1 2250:1 2268:1 2274:1 2295:1 2336:1 2337:1 2347:1 2348:1 2350:1 2354:1 2389:1 2404:1 2428:1 2478:2 2492:1 2503:1 2573:1 2595:1 2640:1 2655:1 2658:1 2758:1 2788:1 2801:1 2831:1 2865:1 2870:1 2872:1 2889:1 2917:1 2948:1 2982:1 2987:1 3017:1 3072:1 3087:1 3096:1 3297:1 3299:1 3330:1 3408:1 3443:1 3479:1 3484:1 3510:1 3517:1 3563:1 3618:1 3684:1 3697:1 3826:1 3830:1 3846:1 3874:1 3875:1 3930:1 3944:1 4004:1 4028:1 4102:1 4112:1 4176:1 4222:1 4319:1 4340:1 4408:1 4457:1 4813:1 4838:1 4893:1 4955:1 5006:1 5068:1 5138:1 5229:1 5309:1 5327:1 5497:1 5898:1 6047:1 6175:1 6176:1 6566:1 6794:1 6804:1 6840:1 6904:1 7062:1 7146:1 #
0.0015588873332960586238354894206282 4:1 5:1 6:1 39:1 40:2 65:1 74:1 97:1 155:1 195:1 196:1 219:1 264:1 265:1 273:1 290:1 312:1 327:1 328:1 344:1 357:1 383:1 437:1 467:1 521:1 553:1 557:1 572:1 620:1 627:1 630:1 631:1 634:1 657:1 713:1 715:1 732:1 804:1 873:1 889:1 890:1 921:1 937:2 985:1 999:1 1041:1 1042:1 1091:1 1103:1 1121:1 1160:1 1253:2 1275:1 1278:1 1411:1 1412:1 1425:1 1483:1 1486:1 1528:1 1529:2 1539:1 1561:1 1574:1 1576:1 1577:2 1584:1 1600:1 1629:1 1643:1 1655:1 1704:1 1718:1 1719:1 1724:1 1779:1 1790:1 1800:1 1801:1 1847:1 1876:1 1882:1 1896:1 1950:1 1958:1 2051:1 2084:1 2136:1 2172:1 2175:1 2295:1 2304:1 2325:1 2338:1 2354:1 2549:1 2567:1 2574:1 2586:1 2671:1 2672:1 2673:1 2687:1 2688:1 2691:1 2697:1 2703:1 2732:1 2767:1 2788:1 2790:1 2801:2 2864:1 2874:1 2907:1 2918:1 2977:1 2994:1 3034:1 3063:1 3070:1 3194:1 3199:1 3206:1 3220:1 3222:1 3240:1 3299:1 3304:1 3329:1 3348:2 3434:1 3469:1 3478:1 3632:1 3649:1 3684:1 3685:1 3732:1 3838:1 3971:1 3978:1 4017:1 4044:1 4098:1 4170:1 4199:1 4209:1 4258:1 4260:1 4395:1 4457:1 4465:1 4481:1 4512:1 4684:1 4723:1 4734:1 4885:1 4890:1 4891:1 4925:1 4937:1 4945:1 4967:1 5081:1 5102:1 5146:1 5267:1 5312:1 5381:1 5618:1 5638:1 5888:1 #
0.001978056412252002238538750589214 4:1 5:1 10:1 18:1 19:1 25:1 39:1 40:1 48:1 59:1 68:1 105:1 106:1 109:1 186:1 204:1 264:1 299:1 327:1 328:1 335:1 426:1 428:1 468:1 469:1 556:1 566:1 623:1 626:1 629:1 645:1 650:1 677:1 706:1 775:1 786:1 801:1 864:1 872:1 873:1 910:1 936:1 942:1 964:1 1017:1 1035:1 1036:1 1183:1 1184:1 1278:1 1339:1 1340:2 1347:1 1410:1 1411:1 1415:1 1425:1 1463:1 1464:1 1483:1 1486:1 1497:1 1504:1 1574:1 1629:1 1632:1 1643:1 1661:1 1670:1 1671:1 1703:1 1704:1 1724:1 1779:1 1790:1 1801:1 1878:1 1882:1 1961:1 1993:1 2001:1 2031:1 2084:1 2103:1 2118:1 2123:1 2175:1 2219:1 2222:1 2224:1 2231:1 2254:1 2304:1 2305:1 2306:1 2416:2 2425:1 2478:1 2483:1 2496:1 2497:1 2522:1 2531:1 2532:1 2579:1 2638:1 2648:2 2671:1 2693:1 2973:1 3002:1 3034:1 3110:1 3133:1 3147:1 3182:1 3199:1 3212:1 3218:1 3222:1 3252:1 3343:2 3344:1 3644:1 3645:1 3696:1 3717:1 3730:1 3770:1 3838:1 3845:1 3918:1 3988:1 4003:1 4044:2 4161:1 4259:1 4260:1 4265:1 4282:1 4405:1 4443:1 4461:1 4473:1 4512:1 4606:1 4680:1 4685:1 4723:1 4764:1 4775:1 4815:1 4884:2 4898:1 4974:1 4997:1 5009:1 5064:1 5082:1 5102:1 5361:1 5371:1 5530:1 5585:1 5638:1 5652:1 5779:1 5798:1 5913:1 6046:1 6048:1 6112:1 6217:1 6315:1 6811:1 6907:1 6931:1 7061:1 7168:1 #
-0.0026316667898695343154324977064107 3:1 12:1 26:1 41:1 53:1 61:1 158:1 298:1 323:1 383:1 437:1 469:1 480:1 505:1 506:1 542:1 576:1 620:1 623:1 624:1 639:1 646:1 651:1 746:1 754:1 792:1 807:1 969:1 976:1 987:1 1001:1 1021:1 1038:1 1051:1 1053:1 1098:1 1243:1 1253:1 1255:1 1281:1 1282:1 1346:1 1392:1 1401:1 1423:1 1424:1 1425:1 1452:1 1539:1 1540:1 1545:1 1559:1 1633:1 1662:1 1723:1 1776:1 1869:1 1878:1 1897:1 1908:1 1935:1 1938:1 1960:1 1991:1 2048:1 2103:1 2159:1 2188:1 2210:1 2211:1 2221:1 2224:1 2238:1 2287:1 2302:1 2387:1 2426:1 2450:1 2475:1 2549:1 2559:1 2567:1 2591:1 2603:1 2671:1 2734:1 2790:1 2796:1 2830:1 2869:1 2895:1 2939:1 3007:1 3069:1 3086:1 3093:1 3132:1 3163:1 3199:1 3212:1 3217:1 3242:1 3249:1 3469:1 3480:1 3544:1 3594:1 3620:1 3635:1 3666:1 3719:1 3814:1 3816:1 3863:1 3874:1 3998:1 4155:1 4219:1 4258:1 4285:1 4286:1 4388:1 4425:1 4461:1 4485:1 4566:1 4603:1 4638:1 4800:1 4913:1 4969:1 5229:1 5235:1 5261:1 5408:1 5485:1 5636:1 5712:1 5728:1 5767:1 5888:1 6097:1 6231:1 6315:1 6372:1 6397:1 6439:1 6585:1 6711:1 6890:1 7258:1 7465:1 7538:1 #
-0.00033388226068435693976235723035018 26:1 39:1 87:1 158:1 184:1 189:1 196:1 219:1 227:1 237:1 249:1 250:1 323:1 352:1 358:1 359:1 385:1 386:1 431:1 516:1 552:1 564:1 626:1 658:1 688:1 729:1 821:1 822:1 825:1 863:1 864:1 872:1 883:1 895:1 915:1 986:1 1001:1 1016:1 1017:1 1019:1 1083:1 1107:1 1143:1 1172:1 1175:1 1231:3 1232:1 1259:1 1305:1 1342:1 1346:1 1395:1 1401:1 1448:1 1449:1 1528:1 1554:1 1584:1 1622:1 1651:1 1680:1 1723:1 1745:1 1779:1 1788:1 1796:1 1821:1 1866:1 1883:1 1902:1 1913:1 1934:1 1951:1 1984:2 1999:1 2016:1 2051:1 2065:1 2068:1 2083:1 2104:1 2121:1 2122:1 2145:1 2201:1 2233:1 2244:1 2268:1 2287:1 2330:1 2358:1 2395:1 2450:1 2475:1 2541:1 2548:1 2549:1 2559:1 2571:1 2573:1 2610:1 2620:1 2623:1 2627:1 2639:1 2641:1 2670:1 2671:1 2692:1 2917:1 2979:1 3049:1 3054:1 3099:1 3125:1 3148:1 3199:1 3202:1 3205:1 3214:1 3224:1 3248:1 3274:1 3280:1 3317:1 3509:1 3519:1 3612:1 3630:1 3666:1 3691:1 3775:1 3776:2 3783:1 4146:1 4171:1 4195:1 4209:1 4485:1 4579:1 4800:1 4831:1 4838:1 4848:1 4908:1 4969:1 4984:1 4986:1 5091:1 5193:1 5235:1 5243:1 5260:1 5283:1 5485:1 5663:1 5715:1 5767:1 5850:1 6409:1 6909:1 7093:1 7538:1 #
-0.0030861374417456687718752661453436 4:1 9:1 10:1 13:1 40:1 97:1 101:1 111:1 123:1 147:1 172:1 177:1 188:1 194:1 195:1 226:1 281:1 291:1 302:1 307:1 308:1 318:1 323:1 347:1 361:1 370:1 375:1 395:1 401:1 410:1 430:1 455:1 496:1 512:1 532:1 534:1 571:1 572:1 583:1 588:1 619:1 623:1 654:1 667:1 714:1 731:1 775:1 779:1 784:1 795:1 830:1 831:2 929:1 936:1 950:1 1021:1 1022:1 1026:1 1107:1 1175:1 1254:1 1290:1 1332:1 1345:1 1346:1 1352:1 1417:1 1420:1 1434:1 1483:2 1486:1 1500:1 1538:1 1553:1 1599:1 1615:1 1723:1 1809:1 1843:1 1844:1 1852:1 1885:1 1892:1 1938:1 1994:1 2026:1 2050:1 2062:2 2108:1 2123:1 2133:1 2155:1 2174:1 2193:1 2259:1 2302:1 2377:1 2388:1 2414:1 2534:1 2555:1 2556:1 2579:1 2595:1 2643:1 2706:1 2708:1 2782:1 2837:1 2890:1 2984:1 2999:1 3000:1 3004:1 3089:1 3110:1 3124:1 3163:1 3204:1 3205:1 3244:1 3249:1 3299:1 3320:1 3338:1 3397:1 3471:1 3490:1 3514:1 3516:1 3558:1 3569:1 3597:1 3603:1 3615:1 3673:1 3710:1 3714:1 3718:1 3730:1 3731:1 3807:1 3863:1 3871:1 3931:1 4037:1 4256:1 4329:1 4431:1 4439:1 4600:1 4601:1 4620:1 4621:1 4644:1 4678:1 4815:1 4856:1 4951:1 4957:1 4984:1 5021:1 5074:1 5355:1 5554:1 5555:1 5556:1 5557:1 5558:1 #
-0.00030264754468613925490055871492245 3:1 5:1 19:1 40:1 41:1 46:1 53:1 97:1 101:1 116:1 171:1 172:1 173:1 183:1 218:1 249:1 265:1 271:1 292:1 313:1 323:1 337:1 340:1 388:1 389:1 394:1 415:1 416:1 435:1 459:1 461:1 470:1 487:1 515:1 519:1 536:1 543:1 570:1 571:1 572:1 590:1 591:1 601:1 626:1 698:1 741:1 754:1 831:1 832:1 839:1 846:1 864:1 882:1 884:1 910:1 912:1 922:1 987:1 1000:1 1021:1 1053:1 1058:1 1063:1 1162:1 1180:1 1209:1 1231:1 1232:1 1296:1 1346:1 1362:1 1373:1 1452:1 1461:1 1514:1 1534:1 1554:1 1572:1 1580:1 1585:1 1596:1 1649:1 1651:1 1677:1 1727:1 1826:1 1844:1 1873:1 1904:1 1958:1 1964:1 1980:1 1984:1 2013:1 2095:1 2104:1 2154:1 2157:1 2203:1 2317:1 2397:1 2425:1 2439:1 2518:1 2519:1 2549:1 2590:1 2593:1 2610:1 2614:1 2635:1 2659:1 2711:1 2747:1 2790:1 2916:1 2938:1 2982:1 2984:1 3115:1 3205:1 3246:1 3330:1 3367:1 3390:1 3504:1 3525:1 3594:1 3602:1 3616:1 3803:1 3908:1 3918:1 3976:1 3998:1 4072:1 4326:1 4485:1 4719:1 4742:1 4745:1 4831:1 4832:1 4838:1 4918:1 5123:1 5128:1 5312:1 5539:1 5664:1 5876:1 5888:1 6552:1 #
-0.0019131031327256826403415690407428 26:1 39:1 65:1 87:1 97:1 158:1 184:1 189:1 196:1 219:1 227:1 237:1 250:1 291:1 323:1 352:1 358:1 359:1 385:1 386:1 516:1 576:1 658:1 688:1 729:1 825:1 872:1 883:1 895:1 908:1 986:1 1001:1 1010:1 1016:1 1017:1 1083:1 1107:1 1143:1 1231:1 1259:1 1305:1 1342:1 1346:1 1395:1 1401:1 1412:1 1448:1 1449:1 1528:1 1554:1 1584:1 1642:1 1651:1 1680:1 1723:1 1745:1 1788:1 1796:1 1821:1 1866:1 1878:1 1902:1 1913:1 1934:1 1951:1 1952:2 1953:1 1954:1 1984:1 1999:1 2016:1 2065:1 2068:1 2083:1 2121:1 2122:1 2127:1 2145:1 2222:1 2244:1 2268:1 2330:1 2358:1 2395:1 2450:1 2548:1 2549:1 2559:1 2571:1 2610:1 2623:1 2627:1 2639:1 2659:1 2670:1 2671:1 2692:1 2777:1 2861:1 2917:1 2979:1 2984:1 3042:1 3054:1 3098:1 3099:1 3112:1 3124:1 3125:1 3148:1 3202:1 3205:1 3214:1 3221:1 3224:1 3248:1 3274:1 3317:1 3509:1 3612:1 3666:1 3775:1 3776:2 3783:1 4146:1 4209:1 4485:1 4512:1 4587:1 4800:1 4831:1 4838:1 4848:1 4908:1 4967:1 4969:1 4986:1 5091:1 5235:1 5243:1 5251:1 5260:1 5485:1 5663:1 5767:1 5850:1 6409:1 6909:1 7093:1 7538:1 7696:1 #
0.00251359707103999529403948187678 33:1 39:1 40:1 41:1 65:2 102:1 107:2 116:2 143:1 154:1 155:1 208:1 264:1 269:1 270:1 271:1 339:1 379:1 397:1 430:1 431:1 434:1 489:1 522:1 543:1 556:1 557:1 564:1 589:1 594:1 637:1 705:1 740:2 748:1 814:1 831:1 843:1 862:1 865:1 933:1 1015:1 1016:1 1017:1 1055:1 1079:1 1097:1 1111:1 1142:1 1174:1 1180:1 1188:1 1201:1 1253:1 1267:1 1268:1 1282:1 1319:1 1325:1 1345:1 1364:1 1401:1 1408:1 1573:1 1615:1 1621:1 1667:1 1676:1 1679:1 1701:1 1709:1 1721:1 1722:1 1723:2 1759:1 1790:1 1802:1 1829:1 1830:1 1831:1 1861:1 1864:1 1889:1 1961:1 1966:1 1972:1 2036:1 2062:1 2109:1 2133:1 2143:1 2155:1 2158:1 2300:1 2315:1 2330:1 2342:1 2346:1 2377:1 2418:1 2447:1 2572:1 2594:1 2596:1 2609:1 2671:1 2674:1 2702:1 2703:1 2725:1 2753:1 2830:1 2832:1 2835:1 2907:1 2950:1 2951:1 2968:1 2990:1 3001:1 3063:1 3109:1 3119:1 3138:1 3167:1 3241:1 3331:1 3338:1 3382:1 3443:1 3447:1 3482:1 3485:1 3651:2 3652:1 3656:1 3668:1 3685:1 3755:1 3804:1 3862:1 3942:1 4019:1 4021:1 4119:1 4174:1 4207:1 4283:1 4322:1 4439:1 4513:1 4514:1 4550:1 4563:1 4587:1 4607:1 4627:1 4744:1 4758:1 4785:1 4861:1 4949:1 5073:1 5181:1 5243:1 5426:1 5498:1 5550:1 5602:1 5646:1 5779:1 5941:1 6371:1 6523:1 6884:1 6992:1 7060:1 7105:1 #
0.0015023132940647678911644247179424 18:1 33:1 39:1 40:1 41:1 47:1 48:1 111:1 143:1 192:1 219:1 264:1 290:1 334:1 343:1 352:1 402:1 409:1 523:1 536:1 537:1 545:1 547:1 549:1 579:1 594:1 607:1 626:1 627:1 645:1 706:1 740:1 750:1 766:1 768:1 778:1 787:1 839:1 843:1 847:1 877:1 878:1 907:1 930:1 931:1 969:1 1039:1 1040:1 1056:1 1115:1 1154:1 1174:1 1234:1 1243:1 1244:1 1261:1 1297:1 1325:1 1345:1 1371:1 1391:1 1405:1 1415:1 1434:1 1457:1 1476:1 1482:1 1493:1 1524:1 1529:1 1530:1 1533:1 1539:1 1577:1 1599:1 1642:1 1658:1 1672:1 1723:1 1756:1 1759:1 1768:1 1826:1 1879:1 1914:1 1941:1 1958:1 1961:1 1970:1 2046:1 2082:1 2193:1 2218:1 2231:1 2233:1 2266:1 2268:1 2269:1 2304:1 2309:1 2316:1 2330:1 2337:1 2342:1 2358:1 2406:1 2418:1 2422:1 2445:1 2471:2 2503:1 2522:1 2543:1 2631:1 2655:1 2665:1 2671:1 2674:1 2702:1 2748:1 2773:1 2840:1 2894:1 2908:1 2946:1 2957:1 2962:1 2970:1 2975:1 2987:1 2990:1 2994:1 3055:1 3134:1 3135:1 3159:1 3177:1 3178:1 3183:1 3232:1 3240:1 3279:1 3436:1 3443:1 3447:1 3459:1 3510:1 3532:1 3561:1 3646:1 3651:1 3696:1 3743:1 3755:1 3764:1 3821:1 3852:1 3863:1 3919:1 3982:1 4080:1 4108:1 4172:1 4207:1 4227:1 4228:1 4263:1 4273:1 4334:1 4345:1 4403:1 4435:1 4460:1 4536:1 4611:1 4744:1 4859:1 4861:1 4876:1 4894:1 4921:1 4980:2 5102:1 5206:1 5279:1 5464:1 5553:1 5648:1 5653:1 5681:1 5868:1 5930:1 6175:1 6183:1 6371:1 6651:1 6931:1 6992:1 7105:1 #
0.0022544059909873179377293173075714 5:1 39:1 40:1 41:1 42:1 51:1 59:1 68:1 90:1 98:1 169:1 204:1 220:1 257:1 281:1 350:1 396:1 411:1 430:1 468:1 488:1 504:1 520:1 626:1 643:1 646:1 655:1 689:1 698:1 801:1 826:1 862:1 866:1 897:1 908:1 909:1 910:1 978:1 979:1 983:1 1000:1 1033:1 1056:1 1099:1 1189:1 1239:1 1308:1 1377:1 1378:1 1411:1 1421:1 1428:1 1447:1 1478:1 1485:1 1496:1 1514:1 1562:1 1569:1 1573:1 1584:1 1585:1 1609:1 1727:1 1746:1 1758:1 1784:1 1785:1 1789:1 1793:1 1805:1 1831:1 1832:1 1903:1 1935:1 1949:1 1951:1 1984:1 2124:1 2139:1 2141:1 2153:1 2176:1 2180:1 2181:1 2219:1 2294:1 2407:1 2416:1 2437:1 2503:1 2512:1 2522:1 2556:1 2566:1 2613:1 2671:1 2674:1 2794:1 2818:1 2832:1 2916:1 2934:1 2936:1 3025:1 3049:1 3091:1 3114:1 3133:1 3180:1 3212:1 3288:1 3338:1 3413:1 3482:1 3489:1 3519:1 3696:1 3903:1 3990:1 4153:1 4201:1 4367:1 4376:1 4473:1 4538:1 4552:1 4620:1 4666:1 4751:1 4876:1 4890:1 4915:1 4929:1 4968:1 5129:1 5193:1 5315:1 5392:1 5422:1 5432:1 5433:1 5550:1 5560:1 5677:1 5864:1 5873:1 6001:1 6103:1 6226:1 6242:1 6607:1 6610:1 6643:1 6713:1 6931:1 7028:1 7062:1 7140:1 7171:1 #
0.0019179751096681969813051438222828 4:1 5:1 39:1 40:1 41:1 63:1 77:1 90:1 105:1 125:1 169:1 175:1 208:1 280:1 281:1 290:1 295:1 310:1 340:1 388:1 449:1 470:1 517:1 520:1 535:1 569:1 572:1 585:1 601:1 608:1 624:1 740:1 792:1 823:1 831:1 864:1 872:1 873:1 874:1 898:1 910:1 957:1 978:1 983:1 984:1 993:1 1034:1 1054:1 1068:1 1078:1 1091:1 1100:2 1111:1 1133:1 1175:1 1182:1 1208:1 1265:1 1304:1 1325:1 1351:1 1452:2 1461:1 1534:1 1569:1 1573:1 1702:1 1739:1 1766:1 1779:1 1785:1 1812:1 1877:1 1883:1 1940:1 1953:1 1954:1 1978:1 2084:1 2104:1 2161:1 2163:1 2221:1 2236:1 2339:1 2351:1 2428:1 2502:1 2522:1 2559:1 2566:1 2609:1 2610:1 2613:1 2658:1 2670:1 2671:1 2683:1 2696:1 2732:1 2756:1 2775:1 2917:1 2935:1 2977:1 2979:1 3029:1 3145:1 3243:1 3369:1 3397:1 3447:1 3452:1 3469:1 3479:1 3625:1 3696:1 3876:1 3902:1 3961:1 4015:1 4121:1 4145:1 4161:1 4209:1 4322:1 4324:1 4444:1 4472:1 4473:1 4503:1 4624:1 4660:1 4664:1 4669:1 4786:1 4823:1 4824:1 4890:1 4951:1 5091:1 5348:1 5514:1 5554:1 5566:1 5615:1 5621:1 5632:1 5888:1 5915:1 5941:1 6048:1 6677:1 6781:1 6931:1 #
-0.001460496171948114747449198880247 9:1 10:1 11:1 37:1 38:1 39:1 40:1 41:1 42:1 43:1 44:1 45:1 46:1 47:1 51:1 52:1 53:1 65:1 68:1 69:1 70:1 71:1 72:1 89:1 90:2 91:1 147:1 197:1 201:1 293:1 344:1 345:1 358:1 456:1 469:1 483:1 484:1 492:1 493:1 515:1 525:1 549:1 552:1 569:1 570:1 609:1 626:1 639:1 644:1 645:1 690:1 691:1 692:1 693:1 702:1 706:1 707:1 718:1 730:1 731:1 732:1 733:1 745:1 746:1 747:1 763:1 786:1 834:1 835:1 836:1 837:1 838:1 840:1 847:1 858:2 878:1 882:1 883:1 884:1 885:1 887:1 888:1 894:1 895:1 921:1 970:1 1016:1 1021:1 1048:1 1055:1 1071:1 1107:1 1243:1 1253:1 1259:1 1265:1 1341:1 1387:1 1415:1 1426:1 1440:1 1449:1 1561:1 1574:1 1580:1 1870:1 1937:1 1941:1 2022:1 2023:1 2059:1 2082:1 2083:1 2089:1 2094:1 2133:1 2247:1 2287:1 2301:1 2303:1 2354:1 2397:1 2427:1 2478:1 2490:1 2559:1 2620:1 2657:1 2664:1 2665:1 2672:1 2673:1 2701:1 2702:1 2894:1 2923:1 2940:1 2941:1 2986:1 2987:1 3146:1 3466:1 3467:1 3468:1 3469:1 3470:1 3471:1 3472:1 3473:1 3474:1 3475:1 3476:1 3477:1 3478:1 3479:1 #
-0.0016983328556001008480952352286408 8:1 12:1 18:2 19:1 20:1 24:1 33:1 39:1 40:1 41:1 42:1 43:1 44:1 48:1 49:1 50:1 51:1 52:1 53:1 60:1 65:1 77:1 85:1 89:1 90:1 117:1 118:1 119:1 142:1 143:1 152:1 197:1 238:1 274:1 323:1 387:1 413:1 429:1 468:1 470:2 471:1 480:1 483:1 484:1 485:1 486:1 487:1 488:1 505:1 529:1 532:1 550:1 551:1 563:1 607:1 611:1 623:1 626:1 635:1 658:1 667:1 693:1 709:1 739:1 745:1 750:1 786:1 801:1 811:1 831:1 832:1 833:1 839:1 840:1 847:1 851:1 852:1 853:1 924:1 985:1 1026:1 1054:1 1055:1 1072:1 1219:1 1270:1 1271:1 1272:1 1273:1 1274:1 1275:1 1279:1 1290:1 1291:1 1315:1 1319:1 1377:1 1387:1 1405:1 1415:1 1524:1 1550:1 1589:1 1687:1 1709:1 1710:1 1724:1 1725:1 2024:1 2026:1 2055:1 2056:1 2060:1 2065:1 2077:1 2078:1 2079:1 2080:1 2081:1 2085:1 2086:1 2092:1 2354:1 2440:1 2685:1 2825:1 2830:1 2888:1 2889:1 2890:1 2891:1 2892:1 2893:1 2894:1 2895:1 2896:1 2897:1 2898:1 2899:1 2900:1 2901:1 2902:1 2903:1 2904:1 2905:1 2906:1 2907:1 #
-0.0027911341351956079834262247629795 45:1 59:1 172:1 413:1 439:1 500:1 638:1 717:1 786:1 853:2 870:1 888:2 889:1 897:1 969:1 998:1 1098:1 1110:1 1131:1 1229:1 1325:1 1402:1 1403:1 1408:1 1528:1 1536:1 1541:1 1701:1 1838:1 1844:1 1914:1 1959:1 1960:1 1996:1 2015:1 2017:1 2018:1 2090:1 2108:1 2182:1 2375:1 2535:1 2712:1 2882:1 3003:1 3034:1 3149:1 3474:1 3476:1 3483:1 3646:1 3681:1 3843:1 3862:1 3981:1 3998:1 4141:1 4222:1 4299:1 4342:1 4683:1 4736:1 4737:1 4874:1 4902:1 4903:1 4931:1 4934:1 4955:1 5031:1 5077:1 5133:1 5389:1 5440:1 5579:1 5643:1 5682:1 5734:1 5841:1 6015:1 6115:1 6173:1 6390:1 6440:1 6523:1 6544:1 6546:1 6582:1 6697:1 6736:1 6788:1 7049:1 7073:1 7087:1 7141:1 7208:1 7265:1 7370:1 #
