SVM-light Version V6.01
0 # kernel type
3 # kernel parameter -d 
1 # kernel parameter -g 
1 # kernel parameter -s 
1 # kernel parameter -r 
empty# kernel parameter -u 
7764 # highest feature index 
4751 # number of training documents 
552 # number of support vectors plus 1 
0.34501076 # threshold b, each following line is a SV (starting with alpha*y)
0.00016388445731616607431609111689141 26:1 33:1 34:1 42:1 65:1 69:1 70:1 87:1 88:1 90:1 91:1 116:1 122:1 123:1 124:1 172:1 173:1 210:1 249:1 278:1 313:1 323:1 359:1 388:1 408:1 416:1 484:1 491:1 524:1 571:3 572:1 585:1 606:1 613:1 657:1 734:1 780:1 813:1 846:1 865:1 997:1 999:1 1004:1 1005:1 1022:1 1040:1 1085:1 1118:1 1231:1 1340:1 1345:2 1346:1 1384:1 1400:1 1401:1 1437:1 1496:1 1525:1 1526:1 1549:1 1551:1 1600:1 1613:1 1614:1 1650:1 1651:1 1658:2 1661:1 1666:1 1728:1 1759:1 1790:1 1851:1 1885:1 1991:1 2016:1 2066:1 2072:1 2153:1 2192:1 2216:1 2254:1 2274:1 2338:2 2362:1 2385:1 2417:1 2450:1 2464:1 2511:1 2538:1 2548:1 2549:1 2610:1 2664:1 2691:1 2692:1 2720:1 2778:1 2820:1 2852:1 2887:1 2890:1 2904:1 2924:1 2926:1 3008:1 3016:1 3065:1 3173:1 3185:1 3235:1 3248:1 3252:1 3317:1 3318:1 3339:1 3346:1 3356:1 3402:1 3406:1 3471:1 3479:1 3518:1 3570:1 3595:1 3626:1 3627:1 3665:1 3666:1 3667:1 3714:1 3735:1 3769:1 3863:1 3867:1 3886:1 3957:1 3979:1 4023:1 4026:1 4053:1 4176:1 4192:1 4221:1 4376:1 4461:1 4485:1 4504:1 4664:1 4800:1 4851:1 4908:1 4974:1 5035:1 5037:1 5091:1 5195:1 5214:1 5256:1 5408:1 5483:1 5492:1 5530:1 5568:1 5726:1 5733:1 5978:1 6031:1 6169:1 6331:1 6409:1 6653:1 6693:1 6779:1 7005:1 7245:1 7304:1 #
0.00073855540421924694739763683770661 18:1 53:1 85:1 116:1 123:1 139:1 193:1 197:1 270:1 301:1 306:1 308:1 323:1 358:1 430:1 442:1 447:1 467:1 468:1 542:2 543:1 569:1 570:1 587:1 588:1 611:1 652:1 686:1 746:1 825:2 829:1 847:1 852:1 877:1 887:1 888:1 918:1 921:1 928:1 929:1 930:1 965:1 1014:1 1023:1 1024:1 1082:1 1086:1 1120:1 1174:1 1200:1 1209:1 1244:1 1346:1 1405:1 1470:1 1524:1 1533:1 1541:1 1551:1 1578:1 1673:1 1674:1 1801:1 1851:1 1961:1 1972:1 2017:1 2018:1 2021:1 2045:1 2065:1 2085:1 2086:1 2131:1 2317:1 2325:1 2342:1 2373:2 2374:2 2377:1 2415:1 2431:1 2451:1 2476:1 2496:1 2517:1 2534:1 2692:1 2773:1 2782:1 2792:1 2794:1 2898:1 2899:1 2920:1 2994:2 3006:1 3061:1 3199:1 3296:1 3372:1 3396:1 3397:1 3401:1 3457:1 3474:1 3478:1 3516:1 3697:1 3823:1 3843:1 4209:1 4256:1 4321:1 4402:1 4485:1 4613:1 4637:1 4742:1 4788:1 4800:1 4899:1 4915:1 5056:1 5120:1 5136:1 5205:1 5228:1 5315:1 5330:1 5388:1 5433:1 5622:1 5663:1 5690:1 5881:1 6056:1 6497:1 6552:1 6795:1 6937:1 6992:1 7360:1 7446:1 #
-0.00015401453939823203263467799040143 34:1 37:1 87:1 88:1 89:1 90:1 118:1 173:1 174:1 175:1 176:1 177:1 182:1 192:1 193:1 194:1 199:1 201:1 207:1 238:1 239:1 240:1 241:1 242:1 249:1 250:1 251:1 261:1 262:1 269:1 281:1 289:1 294:1 295:2 296:2 297:1 298:1 299:1 300:1 301:1 302:1 303:1 304:1 305:1 306:1 307:1 308:1 309:1 310:1 311:1 312:1 313:1 314:1 315:1 316:1 317:1 318:2 319:1 320:1 321:1 322:1 323:1 324:1 325:1 326:1 327:1 328:2 329:1 330:1 331:1 332:1 333:1 334:1 335:1 336:1 337:1 338:1 339:1 340:1 341:1 342:1 343:1 344:1 345:1 346:1 347:1 348:1 349:1 350:1 351:1 352:1 353:1 354:1 355:1 356:1 357:1 358:1 359:1 360:1 361:2 362:1 363:1 364:1 365:2 366:2 367:1 368:1 369:1 370:1 371:1 372:2 373:1 374:1 375:1 376:1 377:1 378:1 379:1 380:1 381:1 382:1 383:1 384:1 385:1 386:1 387:1 388:1 389:1 390:1 391:1 392:1 393:1 394:1 395:1 396:1 397:1 398:1 399:1 400:1 401:1 402:1 403:1 404:1 405:1 406:1 407:1 408:1 #
-0.0020276841438634073816471570239628 2:1 8:1 9:1 10:1 11:1 15:1 26:2 27:1 28:1 29:1 30:1 37:1 45:1 46:1 47:1 48:1 49:1 50:1 51:1 52:1 53:1 54:1 61:1 62:1 63:1 64:1 65:1 66:1 67:1 68:1 69:1 70:1 71:1 79:1 83:1 89:1 90:1 91:1 92:1 93:1 107:1 117:1 118:1 119:1 145:1 146:1 147:1 148:1 172:1 173:1 197:1 201:1 327:1 377:2 409:2 410:1 411:1 412:1 413:1 414:1 415:1 416:1 417:1 418:1 419:1 420:1 421:1 422:1 423:1 424:1 425:1 426:1 427:1 428:1 429:1 430:1 431:1 432:1 433:1 434:1 435:1 436:1 437:1 438:1 439:1 440:1 441:1 442:1 443:1 444:1 445:1 446:1 447:1 448:1 449:1 450:1 451:1 452:1 453:1 454:1 455:1 456:1 457:1 458:1 459:1 460:1 461:1 462:1 463:1 464:1 465:1 466:1 467:1 468:1 469:1 470:1 471:1 472:1 473:1 474:1 475:1 476:1 477:1 478:1 479:1 480:1 481:1 482:1 483:1 484:1 485:1 486:1 487:1 488:1 489:1 490:1 491:1 492:1 493:1 494:1 495:1 496:1 497:1 498:1 499:1 500:1 501:1 502:1 503:1 504:1 505:1 506:1 #
-0.0019208106092259689436085867697557 8:1 9:1 32:1 33:1 73:1 90:2 91:1 104:1 150:1 160:1 181:1 210:1 218:1 250:1 264:1 282:1 299:1 354:1 373:1 379:1 430:1 431:1 439:1 469:1 477:1 478:1 489:1 491:1 492:1 493:1 494:1 521:1 522:1 533:1 553:1 554:2 559:1 571:1 599:1 650:1 686:1 733:1 734:1 741:1 755:1 783:1 788:1 858:1 862:1 863:1 868:1 882:1 883:1 915:1 920:1 985:1 994:1 1019:1 1021:1 1069:1 1080:1 1085:1 1113:1 1114:1 1116:1 1139:1 1214:1 1231:1 1238:1 1254:1 1258:1 1344:1 1385:1 1386:1 1388:1 1398:1 1405:1 1421:1 1422:1 1435:1 1479:1 1524:1 1525:1 1526:1 1531:1 1553:1 1559:1 1561:1 1562:1 1592:1 1599:1 1676:1 1691:1 1709:1 1721:1 1759:1 1774:1 1788:1 1836:1 1878:1 1937:1 1952:1 1953:1 2042:1 2045:1 2055:1 2107:1 2214:1 2234:1 2275:1 2287:1 2318:1 2333:1 2418:1 2431:1 2463:1 2471:1 2499:1 2594:1 2632:1 2648:1 2649:1 2676:1 2735:1 2755:1 2897:1 2954:1 3034:1 3080:1 3184:1 3185:1 3221:1 3404:1 3635:1 3705:1 3785:1 3804:1 3870:1 3922:1 4087:1 4120:1 4142:1 4296:1 4636:1 4763:1 4780:1 5007:1 5114:1 5146:1 5258:1 5419:1 5507:1 5697:1 5734:1 6180:1 6357:1 6378:1 6558:1 7133:1 7310:1 7663:1 7747:1 7748:1 #
-0.0013055669722637692521660657263283 4:1 26:1 28:1 36:2 64:1 69:1 70:1 88:1 89:1 90:2 91:1 104:1 115:1 124:1 150:1 151:1 172:1 173:1 174:1 210:1 233:1 236:1 253:1 263:1 323:1 335:1 340:1 352:1 379:1 380:1 387:1 447:1 467:1 523:1 529:1 556:1 585:1 586:1 619:1 647:1 649:1 667:1 691:1 694:1 699:1 713:1 714:1 715:1 731:2 747:1 780:1 790:1 804:1 853:1 877:1 887:1 934:1 969:1 971:1 979:1 998:1 1018:1 1019:1 1021:1 1026:2 1078:1 1079:1 1085:1 1112:1 1132:1 1181:1 1197:1 1231:1 1251:1 1252:1 1253:1 1287:1 1345:1 1346:1 1405:1 1426:1 1427:1 1449:1 1450:1 1476:1 1491:1 1500:1 1525:1 1526:1 1532:1 1571:1 1596:1 1642:1 1688:1 1718:1 1719:1 1720:1 1733:1 1759:1 1764:1 1776:1 1787:1 1805:1 1809:1 1836:1 1853:1 1858:1 1885:1 1902:1 1919:1 1952:1 1955:1 1987:1 1988:1 2025:1 2078:1 2083:1 2102:1 2109:1 2167:1 2171:1 2190:1 2246:1 2268:1 2287:1 2347:1 2359:1 2425:1 2514:1 2530:1 2579:1 2588:1 2600:1 2650:1 2685:1 2735:1 2769:1 2784:1 2793:1 2796:1 2837:1 2842:1 2971:1 3010:1 3034:1 3146:1 3168:1 3179:1 3235:1 3352:1 3381:1 3468:1 3490:1 3499:1 3500:1 3501:1 3502:1 3539:1 3542:1 3558:1 3598:1 3601:1 3602:1 3626:1 3635:1 3640:1 3665:1 3690:1 3770:1 3807:1 3812:1 3848:1 3867:2 3875:1 3933:1 3934:1 3945:1 3983:1 4060:1 4063:1 4071:1 4186:1 4238:1 4347:1 4450:1 4460:1 4481:1 4500:1 4699:1 4871:1 4893:1 4938:1 5009:1 5076:1 5185:1 5274:1 5308:1 5415:1 5609:1 5717:1 5719:1 5723:1 5724:1 5729:1 5773:1 5784:1 5832:1 5902:1 6051:1 6197:1 6198:1 6199:1 6200:1 6201:1 #
0.0025339027231774469486880185797872 5:1 9:1 23:1 29:1 33:1 41:1 64:1 77:1 78:1 97:1 129:1 147:1 156:1 184:1 205:1 220:1 250:1 273:1 323:1 385:1 426:1 453:1 498:1 517:1 534:1 555:1 585:1 619:1 621:1 647:1 691:1 824:1 849:1 1021:1 1290:1 1325:1 1346:1 1372:1 1452:1 1457:1 1512:1 1651:1 1785:1 1805:1 1885:1 1937:1 1955:1 2006:1 2009:1 2122:1 2202:1 2209:1 2318:1 2330:1 2364:1 2371:1 2463:1 2475:1 2518:1 2519:1 2520:1 2549:1 2586:1 2620:1 2690:1 2692:1 2698:1 2896:1 2905:1 2945:1 2951:1 2984:1 3055:1 3078:1 3154:1 3267:1 3478:1 3558:1 3666:1 3764:1 3770:1 3804:1 3946:1 3995:1 4086:1 4113:1 4286:1 4355:1 4481:1 4485:1 4700:1 4701:1 4800:1 4806:1 4851:1 5258:1 5446:1 5540:1 5603:1 5763:1 5888:1 5928:1 6712:1 6970:1 7016:1 7134:1 7368:1 7653:1 #
-0.00070423535290335247810444840865784 8:1 9:1 10:1 34:1 35:1 36:1 37:1 41:1 42:1 43:1 44:1 49:1 61:1 68:1 69:1 70:1 71:1 72:1 85:1 86:1 87:2 88:1 89:1 90:1 101:1 102:1 108:1 118:1 127:1 136:1 137:1 151:1 172:1 173:1 183:1 196:1 197:1 217:1 218:1 219:1 238:1 311:1 312:1 337:1 417:1 436:1 466:1 514:1 547:1 548:1 551:1 552:1 570:1 572:2 602:1 605:1 622:1 635:1 639:1 645:1 648:1 658:1 663:1 694:1 711:1 721:1 742:1 745:1 757:1 791:1 792:1 847:1 917:1 931:1 934:1 950:1 984:1 1040:1 1056:1 1118:1 1119:1 1243:1 1251:1 1255:1 1283:1 1346:1 1347:1 1349:1 1458:1 1468:1 1476:1 1496:1 1530:1 1534:1 1541:1 1548:1 1549:1 1561:1 1573:1 1574:1 1577:1 1579:1 1586:1 1589:1 1597:1 1616:1 1676:1 1718:1 1722:1 1735:1 1830:1 1865:1 1890:1 1901:1 1937:1 1951:1 2007:1 2029:1 2104:1 2105:1 2148:1 2231:1 2303:1 2309:1 2320:1 2346:1 2416:1 2460:1 2461:1 2462:1 2463:1 2464:1 2465:1 2466:1 2467:1 2468:1 2469:1 2470:1 2471:1 2472:1 2473:1 2474:1 2475:1 2476:1 2477:1 2478:1 2479:1 2480:1 2481:1 2482:1 2483:1 2484:1 #
-0.0012464600979989722343010960514675 9:1 10:1 30:1 31:1 34:1 64:1 69:1 70:1 74:1 87:1 88:1 89:1 90:1 139:1 168:1 171:1 172:1 173:1 193:1 194:1 196:1 197:1 201:1 205:1 210:1 238:1 239:1 240:1 241:1 242:1 245:1 249:1 250:1 251:1 261:2 262:1 322:1 323:1 327:1 328:1 340:1 361:1 372:1 373:1 374:1 380:1 381:1 382:1 383:1 384:1 385:1 391:1 394:1 438:1 496:1 505:1 508:1 519:1 529:1 578:1 589:1 647:1 664:1 666:1 692:1 789:1 888:1 923:1 1026:1 1056:1 1146:1 1183:1 1229:1 1271:2 1341:1 1342:1 1371:1 1390:1 1408:1 1437:1 1441:1 1493:1 1500:1 1510:1 1518:1 1541:1 1560:1 1608:1 1690:1 1727:1 1759:1 1774:1 1793:1 1811:1 1815:1 1818:1 1827:1 1845:1 1846:1 1885:1 1941:1 1955:1 1990:1 1996:1 2107:1 2244:1 2292:1 2308:1 2358:1 2395:1 2406:1 2582:1 2625:1 2639:1 2710:1 2725:1 2740:1 2741:1 2748:1 2772:1 2819:1 2834:1 3012:1 3066:1 3156:1 3157:1 3158:1 3159:1 3160:1 3161:1 3162:1 3163:1 3164:1 3165:1 3166:1 3167:1 3168:1 3169:1 3170:1 3171:1 3172:1 3173:1 3174:1 3175:1 3176:1 3177:1 #
-0.0020228187707905121578422225070426 5:1 39:1 40:1 41:1 64:1 102:1 148:1 156:1 168:1 203:1 204:1 208:1 264:1 313:1 327:1 348:1 364:1 387:1 388:1 435:1 436:1 441:1 458:1 495:1 498:1 517:1 536:1 572:1 582:1 647:1 650:1 698:2 713:1 746:1 845:1 851:1 852:1 857:1 872:1 873:1 874:1 882:1 883:1 910:1 944:1 959:1 975:1 976:1 987:1 1020:1 1034:1 1073:1 1084:1 1085:1 1086:1 1111:1 1133:1 1165:1 1178:1 1220:1 1255:1 1325:1 1342:2 1354:1 1378:1 1379:1 1437:1 1452:1 1471:1 1483:1 1509:1 1528:1 1536:1 1619:1 1643:1 1668:1 1702:1 1720:1 1730:1 1759:1 1777:1 1892:1 1903:1 1915:1 1942:1 1952:1 1954:2 1955:1 1972:1 2063:1 2094:1 2139:1 2216:1 2287:1 2337:1 2363:1 2395:1 2429:1 2443:1 2483:1 2501:1 2520:1 2522:1 2586:1 2614:1 2671:1 2733:1 2734:1 2858:1 2863:2 2870:1 2926:1 2939:1 3038:1 3099:1 3110:1 3130:1 3185:1 3204:1 3218:1 3328:1 3344:1 3383:1 3447:1 3462:1 3466:1 3483:1 3581:1 3625:1 3631:1 3635:1 3668:1 3696:1 3804:1 3816:1 3848:1 3863:1 3867:1 3905:1 4013:1 4036:1 4271:1 4341:1 4386:1 4395:1 4444:1 4604:1 4660:1 4668:1 4693:1 4786:1 4853:1 4909:1 5274:1 5277:1 5393:1 5523:1 5554:1 5576:1 5615:1 5621:1 5817:1 5870:1 5888:1 5944:1 6007:1 6018:1 6215:1 6256:1 6466:1 6562:1 6667:1 6677:1 6864:1 6931:1 7198:1 7319:1 #
-0.0009572721937079057327041331504347 4:1 5:1 27:1 39:1 40:2 41:1 75:1 76:1 97:1 115:1 125:1 126:1 166:1 208:1 255:1 256:1 348:1 393:1 424:1 440:1 477:1 478:1 479:2 492:1 496:1 516:1 531:1 552:1 555:1 570:1 571:1 572:1 600:1 614:1 622:1 623:1 624:1 632:1 649:1 650:1 691:1 693:1 694:1 721:1 735:1 857:1 872:1 882:1 887:1 943:1 944:1 964:1 992:1 995:1 1026:1 1050:1 1056:1 1057:1 1068:1 1080:1 1083:1 1084:1 1089:1 1091:1 1111:1 1121:1 1133:1 1139:1 1144:1 1304:1 1325:1 1342:1 1351:1 1365:1 1397:1 1416:1 1417:1 1435:1 1452:1 1476:1 1483:1 1502:1 1534:1 1541:1 1573:2 1642:1 1643:1 1651:1 1656:1 1704:1 1706:1 1724:1 1742:1 1826:1 1830:1 1831:1 1858:1 1922:1 1935:1 1952:4 1954:1 1962:1 1996:1 2014:1 2090:1 2157:1 2171:2 2254:1 2262:1 2275:1 2293:1 2347:1 2363:1 2377:1 2392:1 2414:1 2427:1 2431:1 2453:1 2534:1 2559:1 2586:1 2594:1 2620:1 2635:1 2656:1 2671:1 2716:1 2850:1 2852:1 2853:1 2897:1 2938:1 2939:1 3002:1 3049:1 3050:1 3078:1 3145:1 3146:1 3180:1 3200:1 3217:1 3218:1 3231:1 3233:1 3259:1 3263:1 3274:1 3292:1 3304:1 3344:2 3369:1 3416:1 3473:1 3495:1 3625:1 3804:1 3838:1 3852:1 3902:1 3946:1 3969:1 3972:1 4161:1 4190:1 4256:1 4356:1 4402:1 4406:1 4428:1 4429:1 4444:1 4472:1 4503:1 4512:1 4522:1 4531:1 4536:1 4660:1 4786:1 4967:1 5011:1 5065:1 5148:1 5167:1 5259:1 5348:1 5426:1 5484:1 5514:1 5554:1 5576:1 5615:1 5638:1 5743:1 5846:1 5888:1 5915:1 5971:1 6171:1 6215:1 6371:1 6965:1 6970:1 6994:1 7064:1 #
-0.0010474127504766670912483839117613 28:1 69:1 70:2 85:1 87:1 89:1 90:2 97:1 110:1 111:1 146:1 196:1 218:1 293:2 300:1 340:1 349:1 413:1 415:1 430:1 439:1 523:1 534:1 638:1 640:1 647:1 662:1 670:1 685:1 693:1 694:1 715:1 863:1 897:1 915:1 1021:1 1032:1 1054:1 1055:1 1058:1 1079:1 1085:1 1090:1 1092:1 1097:1 1110:1 1133:1 1205:1 1207:1 1255:1 1266:1 1302:1 1388:1 1391:1 1396:1 1421:1 1422:1 1434:1 1453:1 1470:1 1476:1 1491:1 1516:1 1522:1 1528:1 1560:1 1589:1 1617:1 1618:1 1631:1 1633:1 1651:1 1652:1 1656:1 1658:1 1675:1 1701:1 1704:1 1717:1 1719:1 1754:1 1759:1 1809:1 1846:1 1872:1 1884:1 1952:1 1959:1 1991:1 1998:1 2018:1 2042:1 2064:1 2065:1 2103:1 2155:1 2167:1 2171:1 2186:1 2227:1 2275:1 2306:1 2331:1 2358:1 2378:1 2389:1 2420:1 2421:1 2427:1 2447:1 2470:1 2488:1 2551:1 2597:1 2601:1 2647:1 2665:1 2692:1 2741:1 2747:1 2748:1 2811:1 2856:1 2864:1 2878:1 2888:1 2913:1 3003:1 3034:1 3125:1 3149:1 3152:1 3161:1 3215:1 3278:1 3296:1 3323:1 3397:1 3411:1 3457:1 3498:1 3504:1 3505:1 3516:1 3588:1 3595:1 3600:1 3605:1 3735:1 3774:1 3818:1 3839:1 3840:1 3852:1 3873:1 3896:1 3906:1 3925:1 3946:1 3964:1 4026:1 4105:1 4167:1 4170:1 4171:1 4264:1 4280:1 4293:1 4324:1 4332:1 4404:1 4434:1 4572:1 4577:1 4583:1 4662:2 4678:2 4699:1 4719:1 4788:1 4793:1 4832:1 4870:1 4875:1 4913:1 4931:1 4941:1 4980:1 5056:1 5135:1 5181:1 5205:1 5254:1 5267:1 5476:1 5566:1 5659:1 5725:1 5806:2 6002:1 6082:1 6098:1 6120:1 6305:1 6523:1 6566:1 6611:1 6678:1 6697:1 6803:1 7033:1 7200:1 7235:1 7528:1 #
0.0025766658357319260561069107495769 10:1 11:1 18:2 24:1 36:1 48:1 89:1 90:1 101:1 139:1 147:1 151:1 152:1 323:1 366:1 376:1 377:1 383:1 384:1 417:1 418:1 430:1 447:1 467:1 468:1 532:1 542:1 560:1 622:1 623:1 627:1 730:1 830:1 841:1 864:1 882:1 887:1 892:1 984:1 1010:1 1013:1 1014:2 1015:1 1080:1 1082:2 1207:1 1227:1 1231:1 1275:1 1345:1 1346:1 1402:1 1409:1 1452:1 1455:1 1476:1 1495:1 1532:1 1551:1 1584:1 1597:1 1600:1 1623:1 1633:1 1680:2 1716:1 1748:1 1801:1 1867:1 1869:1 1873:1 1897:1 1908:1 1953:1 2167:1 2250:1 2300:1 2350:1 2397:1 2398:1 2438:1 2478:1 2511:1 2552:1 2565:1 2574:1 2593:1 2614:1 2644:1 2666:1 2703:1 2773:1 2837:1 2856:1 2895:1 2907:1 2929:1 2988:1 2994:1 3002:1 3125:1 3150:1 3205:1 3216:1 3262:1 3330:1 3341:1 3390:1 3493:1 3510:1 3559:1 3667:1 3680:1 3746:1 3808:1 3843:1 4160:1 4185:1 4321:1 4344:1 4367:1 4444:1 4563:1 4565:1 4584:1 4649:1 4658:1 4679:1 4831:1 4909:1 4915:1 5031:1 5064:1 5073:1 5248:1 5312:1 5330:1 5374:1 5419:1 5569:1 5593:1 5615:1 5663:1 5769:1 5881:1 5888:1 6007:1 6364:1 6523:1 7079:1 7101:1 7187:1 7548:1 7696:1 #
0.0015999468260931789826556626010756 10:1 26:1 29:1 64:1 69:1 87:1 88:1 89:1 90:1 97:1 124:1 127:1 139:1 147:1 172:1 184:1 198:1 249:1 256:1 323:1 359:1 383:1 384:1 385:1 387:1 393:1 400:1 455:1 457:1 477:2 478:1 479:2 492:1 513:1 601:1 628:1 735:1 755:1 757:1 792:1 847:1 865:1 872:1 933:1 949:1 975:1 984:1 996:1 1002:1 1039:1 1040:1 1044:1 1090:1 1092:2 1140:1 1141:1 1184:1 1190:1 1227:1 1228:1 1255:1 1315:1 1316:1 1317:1 1320:1 1348:1 1387:1 1435:1 1436:1 1437:1 1479:1 1496:1 1613:1 1614:1 1788:1 1826:1 1837:1 1859:1 1868:1 1869:1 1898:1 1908:1 1938:1 1945:1 1954:1 1955:1 1971:1 2173:1 2221:1 2293:1 2357:1 2358:1 2422:1 2464:1 2465:1 2541:1 2549:1 2570:1 2732:1 2848:1 2851:1 3119:1 3134:1 3177:1 3252:1 3265:1 3347:1 3402:1 3418:1 3426:1 3494:1 3645:1 3691:1 3809:1 3856:1 3904:1 3930:1 3942:1 3968:1 4023:1 4227:1 4233:1 4246:1 4265:1 4470:1 4485:1 4492:1 4504:1 4709:1 4736:1 4979:1 5090:1 5145:1 5167:1 5330:1 5676:1 5776:1 5876:1 5986:1 5999:1 6202:1 6269:1 6355:1 6653:1 7005:1 7012:1 7014:1 7078:1 7372:1 7668:1 #
-0.00055495857646965622567147846666558 4:1 5:1 6:1 39:1 40:2 65:1 74:1 97:1 155:1 195:1 196:1 219:1 264:1 265:1 273:1 290:1 312:1 327:1 328:1 344:1 357:1 383:1 437:1 467:1 521:1 553:1 557:1 572:1 620:1 627:1 630:1 631:1 634:1 657:1 713:1 715:1 732:1 804:1 873:1 889:1 890:1 921:1 937:2 985:1 999:1 1041:1 1042:1 1091:1 1103:1 1121:1 1160:1 1253:2 1275:1 1278:1 1411:1 1412:1 1425:1 1483:1 1486:1 1528:1 1529:2 1539:1 1561:1 1574:1 1576:1 1577:2 1584:1 1600:1 1629:1 1643:1 1655:1 1704:1 1718:1 1719:1 1724:1 1779:1 1790:1 1800:1 1801:1 1847:1 1876:1 1882:1 1896:1 1950:1 1958:1 2051:1 2084:1 2136:1 2172:1 2175:1 2295:1 2304:1 2325:1 2338:1 2354:1 2549:1 2567:1 2574:1 2586:1 2671:1 2672:1 2673:1 2687:1 2688:1 2691:1 2697:1 2703:1 2732:1 2767:1 2788:1 2790:1 2801:2 2864:1 2874:1 2907:1 2918:1 2977:1 2994:1 3034:1 3063:1 3070:1 3194:1 3199:1 3206:1 3220:1 3222:1 3240:1 3299:1 3304:1 3329:1 3348:2 3434:1 3469:1 3478:1 3632:1 3649:1 3684:1 3685:1 3732:1 3838:1 3971:1 3978:1 4017:1 4044:1 4098:1 4170:1 4199:1 4209:1 4258:1 4260:1 4395:1 4457:1 4465:1 4481:1 4512:1 4684:1 4723:1 4734:1 4885:1 4890:1 4891:1 4925:1 4937:1 4945:1 4967:1 5081:1 5102:1 5146:1 5267:1 5312:1 5381:1 5618:1 5638:1 5888:1 #
0.00084677621523956958776019332546525 10:1 13:1 26:1 29:1 33:1 64:1 69:1 87:1 88:1 89:1 90:1 97:1 124:1 127:1 139:1 147:1 172:1 182:1 184:1 193:1 198:1 218:1 249:1 256:1 291:2 292:1 298:1 323:1 359:1 383:1 384:1 385:1 387:1 393:1 400:1 457:1 477:2 478:1 479:1 492:1 569:1 601:1 602:1 606:1 628:1 735:1 847:1 865:1 872:1 933:1 949:1 975:1 996:1 1002:1 1019:1 1026:1 1039:1 1040:1 1042:1 1044:1 1057:1 1083:1 1090:1 1092:2 1140:1 1141:1 1181:1 1184:1 1190:1 1227:1 1228:1 1229:1 1255:1 1271:1 1315:1 1316:1 1317:1 1320:1 1348:1 1387:1 1410:1 1435:1 1436:1 1437:1 1443:1 1496:1 1503:1 1599:1 1613:1 1614:1 1788:1 1836:1 1837:1 1859:1 1868:1 1869:1 1898:1 1908:1 1938:1 1945:1 1954:1 1955:1 1971:1 2027:1 2051:1 2113:1 2173:1 2221:1 2233:1 2254:1 2293:1 2358:1 2379:1 2422:1 2464:1 2465:1 2541:1 2542:1 2549:1 2570:1 2641:1 2713:1 2732:1 2790:1 2848:1 2851:1 3054:1 3134:1 3136:1 3177:1 3252:1 3265:1 3347:1 3402:1 3418:1 3426:1 3427:1 3494:1 3645:1 3691:2 3834:1 3856:1 3904:1 3930:1 3968:1 4023:1 4067:1 4227:1 4233:1 4246:1 4258:1 4470:1 4485:1 4488:1 4492:1 4504:1 4682:1 4709:1 4719:1 4736:1 4979:1 5061:1 5090:1 5145:1 5146:1 5167:1 5330:1 5618:1 5676:1 5999:1 6202:1 6269:1 6355:1 6653:1 6970:1 7005:1 7014:1 7078:1 7372:1 7668:1 #
0.0046175572301512422465630258727742 9:1 10:1 26:1 29:1 33:1 46:1 53:1 64:1 65:1 81:1 87:1 88:1 113:1 120:1 170:1 172:1 183:1 184:1 193:1 194:1 247:1 250:1 321:2 322:1 323:1 338:1 440:1 448:1 474:1 477:1 478:1 479:1 502:1 513:1 514:1 534:1 535:1 552:1 586:1 595:1 611:1 646:1 704:1 732:1 787:1 788:1 789:1 790:1 917:1 937:1 964:1 1058:1 1072:1 1159:1 1189:1 1254:1 1256:1 1305:1 1309:1 1319:1 1322:1 1346:1 1349:1 1377:1 1409:1 1452:1 1476:1 1528:2 1554:1 1560:1 1585:1 1651:1 1696:1 1702:1 1709:1 1744:1 1761:1 1780:1 1785:1 1789:1 1790:1 1846:1 1913:1 1924:1 1943:1 1944:2 2039:1 2057:1 2062:1 2073:1 2234:1 2302:1 2306:1 2355:1 2426:1 2439:1 2483:1 2494:1 2549:1 2591:1 2625:1 2722:1 2732:1 2748:1 2790:1 2957:1 2959:1 2984:1 3240:1 3255:1 3408:1 3411:1 3418:1 3432:1 3498:1 3619:1 3700:1 3787:1 3800:1 3850:1 3939:1 3966:1 4178:1 4179:1 4206:1 4227:1 4550:1 4694:1 4973:1 5028:1 5048:1 5172:1 5287:1 5546:1 5569:1 5790:1 5807:1 5888:1 5901:1 6155:1 6336:1 6607:1 6693:1 6749:1 7020:1 7034:1 #
0.0047426150739970683936630457822048 9:2 10:1 23:1 29:1 84:1 85:1 86:1 87:1 88:1 90:1 91:1 139:1 177:1 187:1 193:1 203:1 206:1 218:1 219:1 249:1 258:1 280:1 283:1 290:1 308:1 318:1 323:1 338:1 347:1 361:1 387:1 430:1 431:1 477:1 478:1 498:1 504:1 515:1 517:1 552:1 553:1 554:1 575:1 589:1 598:1 603:1 611:1 647:1 658:1 667:1 668:1 689:1 691:1 731:2 732:1 763:1 823:1 872:1 909:1 935:1 937:1 964:1 1032:1 1078:1 1079:1 1169:1 1305:1 1323:1 1341:1 1345:1 1346:1 1347:1 1356:1 1379:1 1390:1 1410:1 1411:1 1609:1 1616:1 1672:1 1692:1 1709:1 1740:1 1776:1 1913:1 1931:1 1951:1 1952:1 1953:1 1996:1 2032:1 2083:1 2101:1 2254:1 2257:1 2258:1 2311:1 2385:1 2405:1 2604:1 2625:1 2659:1 2706:1 2715:1 2737:1 2754:1 2804:2 2849:1 2855:1 2868:1 2873:2 2881:1 2886:1 3027:1 3098:1 3112:1 3146:1 3238:1 3269:1 3376:1 3398:1 3426:1 3427:1 3515:1 3583:1 3597:1 3609:1 3639:1 3735:1 3821:1 3835:1 4301:1 4330:1 4485:1 4789:1 4800:1 4827:1 4831:1 4889:1 4948:2 5084:1 5085:1 5090:1 5316:1 5330:1 5382:1 5539:1 5573:1 5576:1 5577:1 5748:1 6399:1 6519:1 6619:1 6620:1 7446:1 #
0.0029945108716112282115640041979532 2:1 5:1 7:1 11:1 12:1 24:1 32:1 45:1 53:1 57:1 76:1 87:1 88:1 89:1 90:1 102:1 103:1 156:2 195:1 197:1 203:1 218:1 219:1 256:1 263:1 323:1 340:1 343:1 378:1 379:1 380:1 413:1 420:1 438:2 439:1 536:1 537:1 553:1 575:1 585:1 598:1 601:1 606:1 618:1 633:1 634:1 645:1 647:2 650:1 690:1 731:1 794:1 830:1 831:1 847:1 870:1 910:1 1051:1 1055:1 1084:1 1095:1 1229:1 1245:1 1253:1 1267:1 1324:1 1353:1 1387:1 1402:1 1423:1 1471:1 1512:1 1531:1 1539:1 1586:1 1658:1 1662:1 1809:1 1810:1 1845:1 1859:1 1878:1 1880:1 1887:1 1902:1 1952:1 2089:1 2123:1 2254:1 2289:1 2337:1 2354:1 2358:1 2445:1 2471:1 2479:1 2493:1 2705:1 2837:1 2878:1 2892:1 2907:1 2939:1 2948:2 3049:1 3100:1 3159:2 3208:2 3237:1 3257:1 3259:1 3271:1 3304:1 3344:1 3410:1 3414:1 3479:1 3486:1 3594:1 3619:1 3629:1 3666:1 3690:1 3850:1 3873:1 3995:1 4139:1 4166:1 4277:1 4338:1 4551:2 4586:1 4731:1 4827:1 4844:1 5028:2 5256:1 5314:1 5484:1 5539:1 5618:1 5623:1 5978:1 6202:1 6450:1 #
0.00042467467545657418400914528966439 26:1 42:1 65:1 73:1 74:1 87:1 88:1 127:1 172:1 183:1 187:1 219:1 246:1 247:1 248:1 249:1 323:1 342:1 408:1 469:1 473:1 479:1 490:1 509:1 523:1 524:1 536:1 545:2 553:1 571:2 572:1 577:1 581:1 585:1 595:1 597:1 601:1 606:1 663:1 734:1 780:1 847:1 848:1 850:1 1005:1 1077:2 1078:2 1085:1 1099:1 1172:1 1184:1 1190:1 1200:1 1231:1 1280:1 1319:1 1340:1 1348:1 1384:1 1401:1 1437:1 1496:1 1522:1 1599:1 1652:1 1722:1 1728:1 1742:1 1851:1 1871:1 1885:1 1965:1 1991:1 2058:1 2076:1 2216:1 2234:1 2254:1 2358:1 2417:1 2450:1 2464:1 2511:1 2548:1 2549:1 2604:1 2610:1 2621:1 2656:1 2678:1 2687:1 2718:1 2719:2 2749:1 2765:1 2778:1 2876:1 2904:1 2988:1 3209:1 3231:1 3248:1 3291:1 3335:1 3346:1 3363:1 3401:1 3402:1 3406:1 3493:1 3595:1 3651:1 3654:1 3666:1 3667:1 3669:1 3718:1 3735:1 3769:1 3795:1 3836:1 3848:1 3863:1 3867:1 3943:1 3957:1 3979:1 3982:1 4002:1 4018:1 4063:1 4112:1 4201:1 4206:1 4209:1 4233:1 4282:1 4335:1 4336:1 4411:1 4439:1 4485:1 4513:1 4536:2 4571:1 4622:1 4629:1 4654:1 4708:1 4772:1 4930:1 5091:1 5094:1 5112:1 5218:1 5256:1 5258:1 5536:1 5676:1 5724:1 5733:1 5747:1 5779:1 5812:1 5864:1 5874:1 5876:1 6017:1 6515:1 6653:1 6693:1 6719:1 6779:1 6988:1 7665:1 #
0.0010329956345437767747247326255433 4:1 9:1 10:1 11:1 12:1 23:1 25:1 36:1 41:1 46:1 47:1 53:1 65:1 75:1 88:1 90:1 150:1 154:1 161:1 171:1 193:1 218:1 244:1 249:1 250:1 288:1 291:2 311:1 315:2 323:1 333:1 338:1 364:1 379:1 382:1 387:1 388:1 396:1 435:1 436:1 447:1 470:1 524:1 570:1 571:1 572:1 574:1 601:1 613:1 655:1 743:2 842:1 847:1 904:1 932:1 994:1 995:1 1005:1 1058:1 1081:1 1170:1 1190:1 1193:1 1249:1 1267:1 1324:1 1325:1 1340:1 1359:1 1362:1 1370:1 1411:1 1452:1 1453:1 1484:1 1498:1 1499:1 1500:1 1744:1 1764:1 1769:1 1770:1 1824:1 1853:1 1861:1 1888:1 1908:1 1931:1 1953:1 2036:1 2111:1 2154:1 2167:1 2192:3 2212:1 2317:1 2329:1 2549:1 2594:1 2651:1 2685:1 2691:1 2705:1 2790:1 2791:1 2837:1 2849:1 2862:1 2880:1 2969:1 2985:1 2992:1 2997:1 3033:1 3055:1 3137:1 3209:1 3289:1 3489:1 3617:1 3634:1 3829:1 3863:1 3888:1 4063:1 4152:1 4209:1 4258:1 4286:1 4451:1 4704:1 4731:1 4746:1 4791:1 5099:1 5146:1 5250:1 5345:1 5622:1 5888:1 6166:1 6203:1 6325:1 6804:1 6852:1 #
-7.1468635910589804760301851915827e-06 34:1 36:1 58:1 69:2 70:1 77:1 88:1 115:1 123:1 124:1 172:1 174:1 184:1 187:1 217:1 236:1 238:1 250:1 263:1 281:1 323:1 327:1 335:1 359:1 370:1 378:1 379:1 458:1 477:1 495:1 496:1 555:1 571:1 572:2 588:1 592:1 594:1 648:1 659:2 682:1 688:1 691:1 713:1 735:1 741:1 773:1 775:1 779:1 782:1 788:1 789:1 790:1 794:1 814:1 815:1 829:1 845:1 847:1 910:1 917:1 929:1 939:1 969:1 986:1 998:1 1018:1 1026:1 1057:1 1094:1 1181:1 1185:1 1229:1 1248:1 1312:1 1335:1 1342:1 1346:1 1348:1 1353:2 1355:2 1371:1 1409:1 1423:1 1435:1 1476:1 1500:2 1575:1 1596:1 1599:1 1652:1 1691:1 1727:1 1729:1 1759:1 1801:1 1805:1 1820:1 1870:1 1878:1 1885:1 1919:1 1932:1 1943:1 1949:1 1952:1 1990:1 1991:1 2048:1 2049:1 2120:1 2123:1 2124:1 2149:1 2201:1 2229:1 2240:1 2243:1 2260:1 2268:1 2287:1 2327:1 2337:1 2346:1 2370:1 2405:1 2444:1 2450:1 2470:2 2519:1 2537:1 2604:1 2605:1 2625:1 2640:1 2664:1 2718:1 2741:1 2760:1 2820:1 2837:1 2867:1 2875:1 2878:1 2948:1 2989:1 3000:1 3038:1 3097:1 3113:1 3135:1 3149:1 3199:1 3231:1 3235:1 3237:1 3239:1 3261:1 3288:1 3338:1 3375:1 3433:1 3450:1 3475:1 3499:1 3500:2 3501:1 3502:1 3524:1 3561:1 3570:1 3608:1 3626:1 3627:1 3628:1 3629:1 3635:1 3636:1 3637:1 3638:1 3640:1 3643:1 3647:1 3663:1 3673:1 3685:1 3714:1 3755:1 3771:1 3823:1 3838:1 3839:1 3840:1 3848:1 3868:1 3869:1 3888:1 3914:1 3994:1 4021:1 4058:1 4069:1 4116:1 4233:1 4249:1 4429:2 4513:1 4554:1 4683:1 4697:1 4796:1 4829:1 4965:1 5303:1 5370:1 5403:1 5461:1 5486:1 5539:1 5540:1 5541:1 5542:1 5543:1 5544:1 #
-0.0016370036749301037151682614023684 9:1 10:1 33:1 35:1 71:1 76:1 88:1 89:1 90:1 124:1 129:2 148:1 152:1 156:1 171:1 183:1 249:1 250:1 257:1 263:1 281:1 291:1 298:1 309:1 321:1 323:1 335:1 370:1 384:1 385:1 409:1 424:1 447:1 484:1 526:1 534:1 557:1 579:1 606:1 623:1 645:1 667:1 714:1 741:1 774:1 793:1 798:1 830:1 843:1 844:1 845:1 846:1 847:2 865:1 932:1 933:1 947:1 984:1 987:1 1014:1 1042:1 1082:1 1086:1 1145:1 1181:1 1244:1 1306:1 1352:1 1384:1 1409:1 1477:1 1497:1 1498:1 1535:1 1572:1 1639:1 1727:1 1764:1 1789:1 1823:1 1852:1 1878:1 1931:1 1971:1 1989:1 2060:1 2099:1 2131:1 2144:1 2164:1 2197:1 2231:1 2235:1 2236:1 2243:1 2300:1 2328:1 2337:1 2398:1 2444:1 2490:1 2545:1 2546:1 2557:1 2576:1 2585:1 2605:1 2644:1 2690:1 2709:1 2723:1 2768:1 2788:1 2793:1 2806:1 2862:1 2900:1 2946:1 2948:2 2982:1 3005:1 3008:1 3125:1 3233:1 3299:1 3308:1 3309:1 3328:1 3352:1 3365:1 3402:1 3430:1 3433:1 3471:1 3474:1 3499:1 3500:2 3501:1 3502:1 3509:2 3524:1 3538:1 3572:1 3573:1 3583:1 3597:1 3625:1 3631:1 3632:1 3633:1 3635:1 3640:1 3665:1 3764:1 3787:1 3827:1 3834:1 3835:1 3839:1 3840:1 3868:1 3933:1 3934:1 3989:1 3993:1 4024:1 4063:1 4195:1 4256:1 4306:1 4323:1 4510:1 4520:1 4561:1 4578:1 4678:1 4761:1 4809:1 4892:1 4974:1 5017:1 5064:1 5392:1 5426:1 5428:1 5520:1 5544:1 5681:1 5957:1 6106:1 6494:1 6693:1 6772:1 6914:1 7056:1 7057:1 #
-0.0012891466280743675999059805192815 4:1 33:1 34:1 35:1 36:1 88:1 89:1 90:1 115:1 123:1 124:1 152:1 170:1 172:1 174:1 187:1 209:1 210:1 211:1 218:1 236:1 263:1 280:1 291:1 292:1 323:1 335:1 340:1 360:1 376:1 380:1 387:1 415:1 470:1 477:1 479:1 484:1 507:1 509:1 511:1 523:1 531:1 556:1 560:1 563:1 564:1 571:1 586:1 588:1 621:1 632:1 647:1 649:1 661:1 667:1 691:1 713:1 714:1 715:1 731:1 747:1 780:1 783:1 790:1 794:1 795:1 804:1 812:1 853:1 886:1 887:1 917:1 931:1 964:1 971:1 974:2 987:1 991:1 998:1 1010:1 1015:1 1016:1 1019:1 1027:1 1037:1 1062:1 1078:1 1092:1 1132:1 1170:1 1208:1 1231:1 1235:1 1287:1 1309:1 1319:1 1347:1 1399:1 1426:1 1430:1 1435:1 1449:1 1450:1 1452:1 1491:1 1500:1 1532:1 1540:1 1589:1 1596:1 1731:1 1740:1 1741:1 1787:1 1805:1 1807:1 1809:1 1815:1 1826:1 1853:1 1885:1 1914:1 1915:1 1946:1 2013:1 2025:1 2083:1 2103:1 2167:1 2171:1 2190:1 2222:1 2268:1 2330:1 2379:1 2448:1 2471:1 2553:1 2600:1 2604:1 2606:1 2635:1 2643:1 2705:1 2719:1 2765:1 2769:1 2778:1 2792:1 2837:1 2880:1 2889:1 2895:1 2896:1 2912:1 2969:1 2989:1 3010:1 3065:1 3076:1 3082:1 3136:1 3186:1 3483:1 3499:1 3500:1 3501:1 3502:1 3561:1 3598:1 3601:1 3602:1 3607:1 3626:1 3636:1 3640:1 3665:1 3755:1 3756:1 3807:1 3849:1 3853:1 3933:1 3934:1 4060:1 4254:1 4255:1 4344:1 4358:1 4388:1 4434:1 4465:1 4481:1 4551:1 4606:1 4873:1 4893:1 4938:1 5152:1 5303:1 5670:1 5724:1 6109:1 6122:1 6574:1 6591:1 #
0.0052498537036790773185890301988366 8:1 9:1 10:1 13:1 22:1 23:1 34:1 41:1 45:1 85:1 89:1 90:2 91:1 111:1 121:1 172:1 173:2 193:1 194:1 313:1 322:1 323:1 344:1 345:1 361:1 416:1 439:1 479:1 515:1 532:1 542:1 552:1 556:1 560:1 570:1 571:1 608:1 624:2 625:2 628:1 667:1 806:1 833:1 846:1 847:1 851:1 887:1 910:1 947:1 997:1 1010:1 1051:1 1080:1 1085:1 1120:1 1222:1 1265:1 1276:1 1302:1 1316:1 1317:1 1397:1 1434:1 1477:1 1502:1 1533:1 1552:1 1559:1 1576:1 1611:1 1700:1 1709:1 1817:1 1839:1 1858:1 1872:1 1902:1 1903:1 1913:1 1950:1 1971:1 2010:1 2017:1 2070:1 2074:1 2155:1 2156:1 2176:1 2203:1 2292:1 2430:1 2437:1 2494:1 2536:1 2537:1 2552:1 2602:1 2643:1 2662:1 2665:1 2718:1 2725:1 2731:1 2747:1 2907:1 2922:1 2988:2 3034:1 3053:1 3114:1 3115:1 3146:1 3231:1 3247:1 3249:1 3274:1 3318:1 3356:1 3383:1 3443:1 3463:1 3479:1 3594:1 3639:1 3759:1 3798:1 3886:1 3947:1 4207:1 4773:1 4925:1 4986:1 5156:1 5389:1 5553:1 5566:1 5985:1 6008:1 6036:1 6248:1 6296:1 6509:1 6523:1 6661:1 7589:1 #
0.0012439364563946284265860686701899 3:1 5:1 6:1 13:1 14:1 17:1 18:1 71:1 108:1 144:1 151:1 157:1 189:1 246:1 278:1 291:1 300:1 301:1 303:1 315:2 349:1 377:1 419:1 422:1 447:1 453:1 496:1 520:1 524:1 551:1 570:1 614:1 625:2 645:1 647:1 689:1 715:1 825:1 826:1 827:1 828:1 847:1 888:1 895:1 897:1 914:1 920:1 933:1 946:1 950:1 969:1 983:1 984:1 994:1 1019:1 1026:1 1041:1 1054:1 1056:1 1070:1 1087:1 1184:1 1229:1 1230:1 1231:1 1239:1 1265:2 1290:1 1347:1 1348:1 1399:1 1406:1 1427:1 1452:1 1471:1 1573:1 1608:1 1645:1 1655:1 1659:1 1678:1 1679:1 1719:2 1730:1 1736:1 1826:1 1831:2 1843:1 1859:1 1861:1 1935:1 1959:1 1960:1 2041:1 2048:1 2049:1 2089:1 2143:1 2167:1 2207:1 2287:1 2333:1 2334:1 2336:1 2348:1 2424:1 2428:1 2431:1 2439:1 2447:1 2465:1 2489:1 2491:1 2549:1 2555:1 2589:1 2593:1 2643:1 2660:2 2684:1 2689:1 2708:1 2711:1 2749:1 2767:1 2791:1 2830:2 2853:1 2876:1 2892:1 2898:1 2918:1 2929:1 2930:1 2982:1 3009:1 3060:1 3071:1 3096:1 3099:1 3177:1 3257:1 3278:1 3287:1 3317:1 3391:1 3401:1 3455:1 3488:1 3594:1 3643:1 3657:1 3666:1 3730:1 3773:1 3775:1 3875:1 3878:1 3978:1 3995:1 4017:1 4108:1 4179:1 4222:2 4272:1 4284:1 4303:1 4330:1 4363:1 4380:1 4405:1 4435:1 4439:1 4459:1 4479:1 4501:1 4667:1 4682:1 4683:1 4751:1 4757:1 4859:1 4876:1 4891:1 5008:1 5046:1 5049:1 5151:1 5171:1 5231:2 5270:1 5333:1 5391:1 5392:1 5471:1 5530:1 5540:1 5645:2 5681:1 5826:1 5888:1 6016:1 6123:1 6180:1 6195:1 6235:1 6256:1 6903:1 #
0.0024613638617686345831658822902455 22:1 26:1 69:1 70:1 104:1 120:1 139:1 141:1 151:1 178:1 209:1 244:1 250:1 290:1 299:1 323:1 338:1 375:1 379:1 387:1 396:1 416:1 419:1 436:1 457:1 477:2 499:1 514:1 552:1 569:1 570:1 571:1 572:2 574:1 575:2 576:1 591:1 698:1 729:1 820:1 831:1 848:1 861:1 866:2 909:1 1020:1 1091:1 1092:2 1159:1 1160:1 1217:1 1228:1 1289:1 1301:1 1341:1 1346:1 1359:2 1367:1 1452:1 1484:1 1496:1 1509:1 1567:1 1592:1 1620:1 1709:1 1745:1 1811:1 1858:1 1869:1 1896:1 1913:1 1938:1 1947:1 1952:2 2007:1 2049:1 2107:1 2122:1 2127:1 2161:1 2165:2 2175:2 2176:2 2192:1 2204:1 2275:1 2405:1 2444:1 2468:1 2516:1 2531:1 2553:1 2593:1 2611:1 2649:1 2692:1 2715:1 2717:1 2780:1 2849:1 2855:1 2995:1 3040:1 3050:1 3150:1 3382:1 3517:1 3604:1 3617:1 3714:1 3746:1 3846:1 4066:1 4097:1 4183:1 4223:1 4388:1 4444:1 4485:1 4562:1 4697:1 4800:1 5225:2 5330:1 5618:1 5663:1 5765:1 5812:1 5881:1 5888:1 5999:1 6316:1 6355:1 6446:1 6661:1 6733:1 7005:1 #
0.002211556314229251932190756235741 6:1 7:1 8:1 12:1 25:1 36:1 41:1 46:1 47:1 88:1 89:1 90:3 150:1 204:1 210:1 211:1 218:1 219:1 244:1 249:1 250:1 274:1 291:2 311:1 323:1 364:1 366:1 379:1 399:1 413:1 435:1 436:1 470:1 478:1 479:1 480:1 570:1 571:1 572:1 574:2 590:1 591:3 618:1 655:1 689:1 741:1 743:1 842:1 847:1 861:1 862:1 904:1 908:1 958:1 976:1 994:1 1055:1 1058:1 1081:1 1170:1 1190:1 1236:1 1267:1 1324:1 1325:1 1340:1 1366:1 1452:1 1464:1 1500:1 1525:1 1637:1 1701:1 1744:1 1763:1 1764:1 1766:1 1769:1 1770:1 1793:1 1815:1 1831:1 1903:1 1908:1 1941:1 1946:1 1962:1 2167:1 2225:1 2286:1 2307:1 2317:1 2329:1 2355:1 2377:1 2523:1 2524:1 2549:1 2594:1 2685:1 2691:1 2705:1 2790:1 2791:1 2837:1 2880:1 2891:1 3024:1 3055:1 3115:1 3137:1 3211:1 3289:1 3362:1 3489:1 3602:1 3617:1 3629:1 3778:1 3888:1 3913:1 3969:1 4012:1 4052:1 4152:1 4630:1 4704:1 4731:1 4751:1 4791:1 4884:1 5250:1 5513:1 5573:1 5622:1 5663:1 5786:1 5881:1 5888:1 5979:1 6203:1 6325:1 6585:1 7242:1 #
3.5494950300008419033417211840842e-05 25:1 26:1 53:1 59:1 61:1 85:1 86:1 87:1 91:1 139:1 149:1 158:1 277:1 290:1 323:1 375:1 448:1 451:1 521:1 536:1 542:1 587:1 627:1 628:1 639:1 732:1 775:1 802:1 814:1 845:1 847:1 853:1 858:1 861:1 881:1 895:1 896:1 915:1 925:1 966:1 969:1 983:1 1013:1 1054:1 1091:1 1099:1 1121:1 1123:1 1291:1 1307:1 1356:1 1357:1 1370:1 1448:1 1449:2 1450:1 1452:1 1483:1 1657:1 1662:1 1674:1 1729:1 1730:1 1801:1 1837:1 1901:1 1908:1 1975:1 2010:1 2016:1 2017:1 2018:1 2066:1 2089:1 2108:1 2210:1 2287:1 2320:1 2474:1 2490:1 2527:1 2549:1 2567:1 2632:1 2656:1 2658:1 2670:1 2691:1 2692:1 2734:1 2747:1 2783:1 2885:1 2895:1 2913:1 2916:1 2939:1 2992:1 3009:1 3152:1 3173:1 3197:1 3501:1 3509:1 3544:1 3559:1 3594:1 3651:1 3702:2 3711:1 3770:1 3838:1 3873:1 3931:1 3977:1 3998:1 4044:1 4077:1 4109:1 4113:1 4155:1 4182:1 4209:1 4222:1 4403:1 4461:1 4485:1 4530:1 4555:1 4568:1 4603:1 4800:1 4807:1 4850:3 4915:1 5330:1 5337:1 5463:1 5550:1 5728:1 5781:1 5888:1 5896:1 5947:1 6011:1 6216:1 6301:1 6372:1 6500:1 6522:1 6585:1 6635:1 6711:1 7296:1 7495:1 7534:1 7538:1 7741:1 #
-0.00031031930150406182404576593825141 6:1 24:1 28:1 45:1 47:1 54:1 97:1 108:1 139:1 151:2 157:1 172:1 218:1 253:1 293:2 400:1 439:1 454:1 534:1 554:1 555:1 590:1 619:1 621:1 624:1 625:1 638:1 668:1 689:1 693:1 694:1 699:1 729:1 762:2 773:1 827:1 828:1 888:1 892:1 897:1 901:1 914:1 945:1 996:1 997:1 1021:1 1032:1 1054:1 1055:1 1058:1 1070:1 1076:1 1078:1 1079:1 1085:1 1092:1 1097:1 1103:1 1107:1 1134:1 1229:1 1253:1 1255:1 1266:1 1325:1 1370:1 1396:1 1411:1 1421:1 1422:1 1491:1 1522:1 1528:1 1533:1 1536:1 1538:1 1559:1 1560:1 1578:1 1579:1 1589:1 1617:1 1618:1 1631:1 1652:1 1656:1 1676:1 1690:1 1701:1 1717:1 1744:1 1766:1 1793:1 1836:1 1952:1 1965:1 1999:1 2001:1 2017:1 2018:1 2026:1 2051:2 2103:1 2108:2 2139:1 2155:2 2171:1 2232:1 2239:1 2259:1 2291:1 2306:1 2358:1 2386:1 2389:1 2465:1 2479:1 2493:1 2565:1 2619:1 2637:1 2638:1 2648:1 2705:1 2706:1 2748:1 2811:1 2864:1 2910:1 2922:1 3034:2 3096:1 3112:1 3115:1 3125:1 3149:1 3152:1 3168:1 3222:1 3279:1 3323:1 3397:1 3408:1 3411:1 3465:1 3516:1 3519:1 3540:1 3557:1 3558:1 3588:1 3601:1 3602:1 3608:1 3735:1 3774:1 3841:1 3863:1 3867:1 3873:1 3906:1 3930:1 3949:1 3976:1 3982:1 4026:1 4099:1 4133:1 4158:1 4167:1 4182:1 4199:1 4251:1 4256:1 4271:1 4280:1 4347:1 4404:2 4434:2 4536:1 4678:1 4688:1 4699:1 4751:1 4761:1 4832:1 4913:1 4922:1 4931:1 5018:1 5081:1 5179:1 5254:1 5348:1 5566:1 5659:1 5979:1 6027:1 6056:1 6061:1 6080:1 6107:1 6243:1 6566:1 6651:1 6665:1 6855:1 7204:1 7235:1 7569:1 #
-0.0021475807556691410386828788858793 5:1 18:1 29:1 30:1 33:1 36:1 37:1 38:1 42:1 43:1 44:1 48:2 49:1 50:1 51:1 52:1 53:1 68:1 69:1 88:1 89:1 90:1 94:1 142:1 143:1 144:1 145:1 146:1 150:1 152:1 156:1 167:1 168:1 209:1 238:1 249:1 252:1 274:1 291:1 301:1 371:1 390:1 409:1 422:1 436:2 468:1 469:1 488:1 524:1 551:1 561:1 563:1 575:1 585:1 602:2 605:1 612:1 623:1 631:1 635:1 639:1 648:1 649:1 658:1 706:1 750:1 751:1 757:1 765:1 837:1 838:1 841:1 847:1 882:1 888:1 924:1 933:1 949:1 976:1 977:1 978:1 979:1 980:1 981:1 990:1 1026:1 1224:1 1236:1 1366:1 1370:1 1420:1 1445:1 1457:1 1499:1 1500:1 1535:1 1536:1 1561:2 1562:1 1577:1 1709:1 1710:1 1776:1 1856:1 1857:1 1935:1 1946:1 1952:1 2011:1 2089:1 2099:1 2143:1 2200:1 2287:1 2385:1 2426:1 2451:1 2476:1 2491:1 2518:1 2545:1 2872:1 2893:1 2938:1 2939:1 2983:1 3093:1 3134:1 3143:1 3151:1 3218:1 3219:1 3220:1 3221:1 3222:1 3223:1 3224:1 3225:1 3226:1 3227:1 3228:1 3229:1 3230:1 3231:1 3232:1 3233:1 3234:1 3235:1 3236:1 #
-7.9528920103229855018654725906657e-05 2:1 3:1 18:1 40:1 43:1 48:1 64:1 69:1 155:1 182:1 192:1 217:1 256:1 267:1 283:1 327:1 349:1 357:1 371:1 400:1 435:1 436:1 437:1 453:1 469:1 492:1 496:1 626:1 658:1 691:1 698:1 706:1 715:1 716:1 743:1 746:1 780:1 792:1 831:1 873:1 1027:1 1156:1 1171:1 1189:1 1195:1 1196:1 1221:1 1237:1 1243:1 1253:1 1254:1 1267:1 1274:1 1278:1 1304:1 1342:1 1347:1 1351:1 1364:1 1365:1 1370:1 1413:1 1436:1 1483:1 1488:1 1502:1 1529:1 1585:1 1643:1 1651:1 1657:1 1678:1 1696:1 1724:1 1728:1 1764:1 1788:1 1790:1 1803:1 1867:1 1955:1 2076:1 2139:1 2156:1 2179:1 2183:1 2221:1 2224:1 2226:1 2238:1 2258:1 2302:1 2303:1 2304:1 2353:1 2376:1 2427:1 2477:1 2547:1 2593:2 2594:1 2595:1 2638:1 2643:1 2671:1 2674:1 2734:1 2743:1 2752:1 2790:1 2801:1 2870:1 2896:1 2940:1 2941:1 3108:1 3129:1 3152:1 3169:1 3198:1 3199:1 3217:1 3242:1 3244:1 3310:1 3322:1 3348:1 3411:1 3591:1 3710:1 3747:1 3764:1 3765:1 3767:1 3784:1 3821:1 3838:1 3863:1 3920:1 4020:1 4075:1 4096:1 4207:1 4240:1 4364:1 4437:1 4439:1 4448:1 4461:1 4504:1 4505:1 4511:1 4546:1 4606:1 4678:1 4723:1 4755:1 4764:1 4796:1 4828:1 4832:1 4967:1 4968:1 4970:1 4995:1 5151:1 5160:1 5177:1 5215:1 5225:1 5229:1 5277:1 5281:1 5495:1 5498:1 5602:1 5638:1 5671:1 5817:1 5841:1 5935:1 6016:1 6148:1 6195:1 6268:1 6376:1 6406:1 6478:1 6597:1 6635:1 6663:1 6850:1 7062:1 7065:1 #
-0.0045244167999440292743384972595777 9:1 10:1 32:1 33:1 37:1 41:1 42:1 51:1 52:1 53:1 65:1 73:1 87:1 88:1 89:1 90:1 91:1 101:2 102:1 147:1 172:1 173:1 197:1 237:1 317:1 332:1 336:1 361:1 389:1 400:1 411:1 434:2 435:1 436:1 496:1 497:1 514:1 517:1 559:1 574:1 575:1 614:1 620:1 639:1 655:1 668:1 691:1 692:1 693:1 694:1 735:1 835:1 836:1 847:1 884:1 895:1 915:1 917:1 921:1 934:1 937:1 940:1 950:1 991:1 1001:1 1056:1 1077:1 1079:1 1085:1 1087:1 1171:1 1191:1 1232:1 1255:1 1256:1 1291:1 1323:2 1324:1 1339:1 1366:1 1378:1 1379:1 1380:1 1389:1 1401:1 1420:1 1449:1 1475:1 1495:1 1496:1 1526:1 1547:1 1559:1 1576:1 1599:1 1818:1 1866:1 1876:1 1907:1 1998:1 2006:1 2007:1 2025:1 2045:1 2047:1 2117:1 2120:1 2122:1 2126:1 2158:1 2159:1 2160:1 2244:1 2289:1 2295:1 2318:1 2363:1 2386:1 2405:1 2540:1 2541:2 2542:1 2543:1 2544:1 2545:1 2546:1 2547:1 2548:1 2549:1 2550:1 2551:1 2552:1 2553:1 2554:1 2555:1 2556:1 2557:1 2558:1 2559:1 2560:1 2561:1 2562:1 2563:1 2564:1 2565:1 2566:1 2567:1 2568:1 2569:1 2570:1 2571:1 2572:1 2573:1 2574:1 2575:1 2576:1 2577:1 2578:1 2579:1 #
-0.0019508252070854841756647468642427 5:1 6:1 7:1 8:1 9:1 10:1 14:1 43:2 44:1 53:1 73:1 90:2 91:1 167:1 202:1 238:1 299:1 366:1 371:1 414:1 417:1 479:1 551:1 554:1 570:1 609:1 619:1 723:1 731:1 733:1 768:1 780:1 800:1 801:1 803:1 829:1 858:1 930:1 1007:1 1017:1 1019:1 1032:1 1033:1 1054:1 1084:1 1085:1 1180:1 1186:2 1219:1 1224:1 1231:1 1264:1 1339:1 1367:1 1370:1 1387:1 1401:1 1432:1 1461:1 1479:1 1490:1 1496:1 1497:1 1521:1 1533:1 1535:1 1541:1 1551:1 1559:1 1588:1 1599:1 1679:1 1715:1 1731:1 1772:1 1958:1 1959:1 1976:1 1978:1 2016:1 2026:1 2066:1 2071:1 2094:2 2120:1 2144:1 2233:1 2255:1 2258:1 2261:1 2265:1 2348:1 2423:1 2431:1 2487:1 2490:1 2496:1 2603:1 2613:1 2639:1 2647:1 2703:1 2773:1 2813:1 2877:1 2907:1 3042:1 3213:1 3223:1 3250:1 3307:1 3377:1 3404:1 3431:1 3436:1 3439:1 3452:1 3552:1 3586:1 3611:1 3612:1 3644:1 3683:1 3701:1 3784:1 3819:1 3940:1 3980:1 4040:1 4171:1 4343:1 4363:1 4386:1 4401:1 4403:1 4467:1 4678:1 4752:1 4851:1 4915:1 4969:1 5003:1 5006:1 5012:1 5135:1 5285:2 5331:1 5426:1 5996:1 6012:1 6112:1 6119:1 6460:1 6464:1 6513:1 6846:1 6884:1 7035:1 7097:1 7120:1 7477:1 #
0.0023622906795237492982852955947237 8:1 14:1 36:1 46:1 47:1 51:1 52:1 53:1 79:1 85:1 97:1 116:1 150:2 173:1 250:1 310:1 311:1 315:1 323:1 330:1 344:1 345:1 377:1 386:1 415:1 419:1 450:1 502:1 508:1 563:1 564:2 587:1 588:1 621:1 622:1 623:1 687:1 882:1 887:1 986:1 1000:1 1010:1 1018:1 1022:1 1080:1 1094:1 1191:1 1205:1 1235:1 1306:1 1307:1 1319:1 1346:1 1447:1 1448:1 1476:1 1505:1 1529:1 1548:1 1552:1 1559:1 1600:1 1618:1 1685:1 1688:1 1699:1 1706:1 1723:1 1728:1 1731:1 1780:1 1851:1 1861:1 1896:1 1900:1 1932:1 1943:1 2001:1 2054:1 2212:1 2317:1 2327:1 2353:1 2392:1 2400:1 2410:1 2420:1 2450:1 2453:1 2475:1 2572:1 2605:1 2606:2 2620:1 2651:1 2677:1 2837:1 2849:1 2874:1 2875:1 2898:1 2981:1 2984:1 2993:1 3033:1 3097:1 3214:1 3215:1 3253:1 3277:1 3409:1 3411:1 3590:1 3666:1 3714:1 3783:1 3804:1 3820:1 3874:2 3931:1 4077:1 4112:1 4184:2 4282:1 4312:1 4498:1 4538:1 4568:1 4575:1 4629:1 4757:1 4829:1 4876:1 4882:1 4948:1 4979:1 5016:1 5046:1 5129:1 5200:1 5300:1 5612:1 5622:1 5640:1 5658:1 5663:1 5711:1 5770:1 5881:1 5933:1 6122:1 6330:1 6403:1 6453:1 6596:1 6657:1 6787:1 6801:1 7057:1 7157:1 7176:1 7265:1 7446:1 #
0.0041664352267730365639297751556569 3:1 9:1 10:1 13:1 35:1 36:2 37:1 38:1 48:1 53:1 54:1 59:1 76:1 97:1 137:1 177:1 207:1 214:1 215:1 227:1 250:1 269:1 308:1 310:1 311:1 323:1 328:1 401:1 408:1 468:1 556:1 587:1 633:1 645:1 652:1 653:1 746:1 795:1 828:1 843:1 847:1 876:1 881:2 897:1 912:1 920:1 943:1 1016:1 1018:1 1033:1 1070:1 1085:1 1111:1 1115:1 1158:1 1174:1 1190:1 1201:1 1245:1 1246:1 1272:1 1343:1 1378:1 1379:1 1385:1 1423:1 1476:1 1482:1 1531:1 1546:1 1548:1 1549:1 1578:1 1579:1 1679:1 1731:1 1736:1 1775:1 1788:1 1883:1 1890:1 1943:1 1954:1 1994:1 2023:1 2032:1 2072:1 2095:1 2101:1 2268:1 2300:1 2317:1 2323:1 2376:1 2445:1 2450:1 2476:1 2529:1 2586:1 2587:1 2619:1 2650:1 2660:1 2676:1 2698:1 2837:1 2898:1 2924:1 2997:1 3034:1 3067:1 3099:1 3173:1 3194:1 3225:1 3320:1 3328:1 3645:1 3659:1 3664:1 3666:1 3697:1 3721:1 3747:1 3845:1 4049:1 4112:1 4149:1 4175:1 4259:1 4408:1 4848:1 4970:1 5204:1 5222:1 5299:1 5476:1 5530:1 5597:1 5622:1 5663:1 5869:1 5881:1 6088:1 6116:1 6213:1 6523:1 6649:1 6684:1 6687:1 6712:1 7056:1 7160:1 #
0.0047849166455399229011535844335867 6:1 16:1 76:1 86:1 88:1 147:1 158:1 195:1 323:1 378:1 414:1 448:1 537:1 563:1 571:1 572:2 587:1 588:1 592:1 623:1 624:1 662:1 781:1 802:1 804:1 825:1 840:1 858:1 864:1 988:1 1021:1 1025:1 1026:1 1032:1 1053:1 1079:1 1098:1 1108:1 1164:1 1174:1 1184:1 1231:1 1345:1 1346:1 1347:1 1348:1 1359:1 1364:1 1399:1 1456:1 1483:1 1500:1 1533:1 1534:1 1551:1 1580:1 1588:1 1589:1 1597:1 1737:1 1779:1 1809:1 2032:1 2047:1 2091:1 2094:1 2224:1 2266:1 2268:1 2342:1 2347:1 2447:1 2470:1 2490:1 2523:1 2578:1 2596:1 2623:1 2648:2 2651:1 2657:1 2675:1 2699:1 2813:1 2827:1 2837:1 2849:1 2894:1 2924:1 2927:1 2938:1 2939:1 2990:1 3128:1 3185:1 3218:1 3257:1 3282:1 3308:1 3340:1 3341:1 3371:1 3392:1 3401:1 3404:1 3406:1 3412:1 3570:1 3583:1 3666:1 3693:1 3831:1 3863:1 3976:1 3995:1 4030:1 4214:1 4225:1 4296:1 4344:1 4564:1 4678:1 4765:1 4793:1 4830:1 4859:1 4925:1 5072:1 5235:1 5246:1 5270:1 5533:1 5622:1 5817:1 5826:1 5966:1 6294:1 6297:1 6364:1 6451:1 6529:1 6534:1 6716:1 6850:1 6992:1 7656:1 7667:1 #
0.0042981164006300207405808500027433 26:1 28:1 31:1 48:1 53:1 64:1 68:1 75:1 76:1 107:1 109:1 173:2 174:1 175:1 176:1 220:1 226:1 235:1 252:1 280:1 323:1 378:1 424:1 433:1 470:1 478:1 498:1 526:1 591:1 620:1 621:1 639:1 667:1 731:1 747:1 754:1 827:1 846:1 847:1 850:1 872:1 875:1 928:1 972:1 977:1 980:1 992:1 997:1 1010:1 1011:1 1058:1 1078:1 1197:1 1230:1 1236:1 1239:1 1245:1 1278:1 1281:1 1325:1 1326:1 1344:1 1348:1 1352:1 1367:1 1387:1 1423:1 1432:1 1448:1 1449:1 1530:1 1531:1 1552:2 1559:1 1595:1 1599:1 1611:1 1633:1 1673:1 1674:1 1702:1 1720:1 1764:1 1768:1 1801:1 1884:1 1885:1 1954:1 1955:1 2056:1 2064:1 2123:1 2127:1 2212:1 2293:1 2394:1 2432:1 2491:1 2527:1 2576:1 2596:1 2602:1 2651:1 2690:1 2698:1 2699:1 2735:1 2837:1 2849:1 3012:1 3060:1 3061:1 3121:1 3133:1 3137:1 3146:1 3225:1 3241:1 3321:1 3335:1 3336:1 3364:1 3405:1 3498:1 3558:1 3583:1 3610:1 3630:1 3682:1 3683:1 3856:1 3888:1 3949:1 3950:1 3976:1 3980:1 4036:1 4074:1 4094:1 4098:1 4165:1 4205:1 4233:1 4277:1 4392:1 4408:1 4496:1 4622:1 4646:1 4752:1 4755:1 4790:1 4812:1 4821:1 4829:1 4867:1 4915:1 4929:1 4933:1 4955:1 5028:1 5204:1 5388:1 5451:1 5540:1 5622:1 5632:1 5652:1 5671:1 5710:1 5716:1 5826:1 5980:1 6687:1 6736:1 7103:1 7179:1 7396:1 7518:1 7536:1 7697:1 #
0.0052498537036790773185890301988366 9:1 10:1 11:1 23:1 24:1 29:1 33:1 36:1 37:1 41:1 64:1 75:1 77:1 117:1 119:1 151:1 174:1 175:1 184:1 218:1 220:1 250:1 251:1 255:1 263:1 268:1 300:1 319:1 359:1 371:1 426:1 430:1 436:1 454:1 455:1 495:1 496:1 532:1 561:1 601:1 621:1 647:1 687:1 688:1 694:1 730:1 731:1 755:1 756:1 800:1 900:1 901:1 940:1 991:1 1016:1 1023:1 1024:1 1025:1 1026:3 1035:1 1079:1 1084:1 1095:1 1119:1 1120:1 1158:1 1164:1 1229:1 1231:1 1243:1 1247:1 1253:1 1265:1 1271:1 1290:1 1300:1 1302:1 1325:1 1346:1 1347:1 1348:1 1422:1 1433:1 1436:1 1452:1 1476:1 1504:1 1534:1 1540:1 1549:1 1599:1 1609:1 1632:1 1653:1 1668:1 1680:1 1692:1 1759:1 1793:1 1805:1 1831:1 1888:1 1896:1 1955:1 1957:1 1973:1 2109:1 2202:1 2223:1 2229:1 2287:2 2406:1 2629:1 2648:1 2656:1 2725:1 2873:1 2896:1 3007:1 3039:1 3159:1 3199:1 3242:1 3278:1 3290:1 3475:1 3640:1 3877:1 3904:1 3995:1 4165:1 4185:1 4197:1 4227:1 4283:1 4343:1 4348:1 4444:1 4583:1 4683:1 4924:1 4942:1 5040:1 5146:1 5500:1 5682:1 5888:1 5953:1 6124:1 6245:1 7143:1 #
-0.0021946095883620467259511599422694 10:1 13:1 15:1 47:1 48:2 64:1 128:1 170:1 172:2 187:1 216:1 247:1 280:1 283:1 322:1 323:1 340:1 367:1 473:1 477:1 488:1 510:1 542:1 572:1 573:1 587:1 591:1 604:1 614:1 618:1 639:1 647:1 669:1 689:1 693:1 705:1 782:1 794:1 831:1 839:1 848:1 874:1 927:1 964:1 977:1 978:1 1036:1 1058:1 1092:1 1172:1 1178:1 1190:1 1203:1 1217:1 1218:1 1230:1 1231:1 1280:1 1287:1 1292:1 1303:1 1305:1 1310:1 1326:1 1344:1 1395:1 1401:1 1450:1 1452:1 1469:1 1481:1 1522:1 1565:1 1581:1 1583:1 1591:1 1611:1 1633:1 1640:1 1642:1 1655:1 1658:1 1659:1 1665:2 1713:1 1767:1 1776:1 1805:1 1829:1 1836:1 1857:1 1859:1 1908:1 1922:1 1952:1 1955:1 1965:1 2008:1 2035:1 2048:1 2119:1 2153:1 2160:1 2201:1 2221:1 2234:1 2271:1 2307:1 2328:1 2345:1 2394:1 2414:1 2434:1 2437:1 2442:1 2443:1 2490:1 2496:1 2508:1 2534:1 2573:1 2579:1 2589:1 2595:1 2604:1 2650:1 2659:1 2693:1 2730:1 2774:1 2791:1 2806:1 2841:1 2944:1 3028:1 3030:1 3105:1 3107:1 3129:1 3258:1 3314:1 3377:1 3393:1 3443:1 3466:1 3498:1 3500:2 3509:1 3512:1 3513:1 3594:1 3639:1 3665:1 3784:1 3863:1 3868:1 3908:1 3933:1 4017:1 4079:1 4149:1 4150:1 4164:1 4165:1 4209:1 4268:1 4270:1 4387:1 4421:1 4441:1 4476:1 4522:1 4567:1 4615:1 4621:1 4628:1 4735:1 4765:1 4816:1 4859:1 4950:1 4963:1 5031:1 5038:1 5254:1 5284:1 5350:1 5447:2 5448:1 5449:1 5450:1 5451:1 5452:1 5453:1 5454:1 5455:1 5456:1 5457:1 5458:1 5459:1 5460:1 5461:1 #
-0.0015981119600570064826633442933712 4:1 9:1 10:1 11:1 17:1 24:1 33:1 68:1 73:1 89:1 90:1 97:1 102:1 157:1 172:1 218:1 221:1 345:1 346:1 350:1 355:1 379:1 384:1 419:1 498:1 521:1 522:2 533:1 536:2 559:1 567:1 716:1 733:1 754:1 781:1 801:1 825:1 831:1 866:1 894:1 917:1 922:2 923:1 929:1 932:1 957:1 965:1 983:1 1026:2 1039:1 1062:1 1080:1 1085:1 1116:1 1157:1 1158:1 1162:1 1231:1 1314:1 1342:1 1411:1 1421:1 1422:1 1440:1 1453:1 1457:1 1458:1 1472:1 1501:1 1512:1 1559:1 1592:1 1597:1 1599:1 1677:1 1691:1 1769:1 1786:1 1794:1 1828:1 1844:1 1896:1 1947:1 1953:1 2042:1 2043:1 2091:1 2118:1 2209:1 2275:1 2318:1 2346:1 2350:1 2355:1 2357:1 2394:1 2438:2 2463:1 2471:1 2472:1 2476:1 2478:1 2496:1 2603:1 2648:1 2659:2 2706:1 2714:1 2735:1 2812:1 2813:1 2831:1 2868:1 2897:1 2982:1 3064:1 3082:1 3152:1 3182:1 3209:1 3210:1 3283:1 3299:1 3372:1 3397:1 3431:1 3667:1 3902:1 3922:1 4022:1 4209:2 4220:1 4228:1 4242:1 4344:1 4363:1 4512:1 4584:1 4793:1 4924:1 4951:1 4968:1 4985:1 5027:1 5129:1 5146:1 5154:1 5174:1 5345:1 5446:1 5653:1 5711:1 5713:1 5734:1 5829:1 5986:1 6181:1 6399:1 7357:1 7740:1 7747:1 7748:1 #
0.00090364083424291350744861350818837 11:1 13:1 52:1 87:1 90:1 108:1 139:1 175:1 176:1 182:1 209:1 238:1 262:1 263:1 285:1 318:1 359:1 376:1 415:1 479:1 486:1 514:1 530:1 542:1 553:1 576:1 618:1 639:1 754:1 807:1 820:1 825:1 841:1 845:1 983:1 1013:1 1014:1 1015:1 1018:1 1036:1 1053:1 1054:1 1055:1 1065:1 1098:1 1325:1 1329:1 1330:1 1345:1 1346:1 1370:1 1452:1 1559:1 1560:1 1580:1 1649:1 1759:1 1780:1 1872:1 1984:1 2051:1 2092:1 2111:1 2131:1 2225:1 2234:1 2241:1 2254:2 2287:1 2331:1 2416:1 2448:1 2549:1 2574:1 2651:1 2692:1 2719:1 2722:1 2749:1 2762:1 2783:1 2849:1 2861:1 2862:1 2937:1 2983:1 2990:1 3061:1 3150:1 3185:1 3199:1 3290:1 3318:1 3339:1 3390:1 3409:1 3559:1 3597:1 3628:1 3637:1 3669:1 3711:1 3775:1 3821:1 3837:1 3863:1 3874:1 3902:1 3998:1 4161:1 4185:1 4242:1 4343:1 4344:1 4543:1 4561:1 4622:1 4827:1 4859:1 4867:1 5136:1 5265:1 5319:1 5329:1 5330:1 5429:1 5485:1 5615:1 5618:1 5622:1 5663:1 5805:1 5840:1 5881:1 5888:1 5935:1 6109:1 6239:1 6248:1 6314:1 6364:1 6458:1 6591:1 6780:1 6890:1 6901:1 6986:1 7538:1 #
-0.0012461801000678933686732774432926 13:1 14:1 19:1 59:1 77:1 90:1 104:1 154:2 161:1 195:1 280:1 302:1 323:1 401:2 415:1 427:1 466:1 473:1 534:1 541:1 562:1 573:1 595:1 610:1 628:1 631:1 633:1 638:1 677:1 692:1 841:1 843:1 882:2 883:1 940:1 969:1 986:1 998:1 1004:1 1005:1 1020:1 1055:1 1058:1 1080:1 1085:1 1099:1 1121:1 1201:1 1224:1 1230:1 1256:1 1301:1 1339:1 1340:1 1347:1 1360:1 1427:1 1434:1 1452:1 1511:1 1533:1 1534:1 1537:1 1551:1 1562:1 1581:1 1585:1 1597:1 1600:1 1658:1 1664:1 1728:1 1785:1 1791:1 1824:1 1844:1 1922:1 1992:1 1996:1 2003:1 2043:1 2073:1 2097:1 2100:1 2117:1 2139:1 2156:1 2170:1 2292:1 2295:1 2316:1 2414:1 2442:1 2448:1 2458:1 2512:1 2553:1 2574:1 2578:1 2595:1 2647:1 2649:1 2798:1 2837:1 2878:1 2881:1 2916:1 2969:1 2993:1 3003:1 3051:1 3082:1 3176:1 3218:1 3252:1 3278:1 3331:1 3390:1 3410:1 3418:1 3433:1 3435:1 3490:1 3498:1 3499:1 3500:2 3501:1 3502:1 3503:1 3507:1 3519:1 3524:1 3597:1 3602:1 3622:1 3652:1 3665:1 3685:1 3716:1 3747:1 3818:1 3850:1 3877:1 3897:1 3978:1 4045:1 4105:1 4131:1 4148:1 4149:1 4150:1 4151:1 4160:1 4163:1 4164:1 4165:1 4172:1 4206:1 4227:1 4264:1 4291:1 4298:1 4308:1 4311:1 4328:1 4344:1 4381:1 4491:1 4658:1 4734:1 4765:1 4830:1 4876:1 5114:1 5155:1 5539:1 5623:1 5902:1 6355:1 6468:1 6826:1 #
-1.1907820427449565520551869046706e-05 5:1 39:1 40:1 41:1 74:1 88:1 89:1 108:1 109:1 131:1 198:1 217:1 301:1 432:1 449:1 467:1 468:1 474:1 525:1 576:1 593:1 623:1 627:1 632:1 647:1 650:1 651:1 703:1 732:1 764:1 792:1 883:1 892:1 920:1 922:1 964:1 985:1 996:1 1005:1 1100:1 1164:1 1224:1 1325:1 1326:1 1327:1 1370:1 1380:1 1411:1 1412:1 1425:1 1449:1 1461:1 1486:1 1505:1 1573:1 1574:1 1577:1 1643:1 1654:1 1663:1 1678:1 1742:1 1764:1 1776:1 1789:1 1845:1 1873:1 1878:1 1881:1 1916:1 1919:1 1929:1 1935:1 1950:1 1952:1 1958:1 1999:1 2001:1 2011:1 2016:1 2066:1 2093:1 2189:1 2274:1 2275:1 2291:1 2295:1 2310:1 2347:1 2364:1 2518:1 2567:1 2581:1 2586:1 2594:1 2595:1 2658:1 2671:1 2755:1 2788:1 2818:1 2875:1 2885:1 2917:1 2952:1 2969:1 2999:1 3006:1 3017:1 3049:1 3055:1 3087:1 3093:1 3109:1 3173:1 3174:1 3184:1 3186:1 3199:1 3219:1 3250:1 3269:1 3408:1 3488:1 3525:1 3697:1 3746:1 3804:1 3826:1 3868:1 3874:1 3976:1 4157:1 4222:1 4263:1 4277:1 4283:1 4319:1 4336:1 4340:1 4353:1 4420:1 4438:1 4467:1 4547:1 4611:1 4665:1 4669:1 4722:1 4723:1 4737:1 4779:1 4880:1 4979:1 5021:1 5408:1 5495:1 5497:1 5544:1 5579:1 5618:1 5682:1 5877:1 5898:1 5935:1 6012:1 6037:1 6175:1 6176:1 6194:1 6276:1 6314:1 6622:1 6664:1 7035:1 7061:1 #
0.0013440785016044808942992094813462 9:1 10:1 29:1 46:1 64:1 76:1 97:1 116:1 147:1 172:2 173:1 184:1 249:1 263:1 264:1 265:1 313:1 323:1 351:1 359:1 366:1 371:1 388:1 389:1 399:1 415:1 416:1 427:1 435:1 459:1 461:1 466:1 470:1 530:1 555:1 577:1 601:1 626:1 645:1 740:2 741:1 746:1 804:1 831:1 839:1 847:1 864:1 865:1 882:1 884:1 910:1 925:1 950:1 984:1 1021:1 1034:1 1035:1 1037:1 1058:1 1080:1 1085:1 1190:1 1255:1 1353:1 1373:1 1386:1 1398:1 1434:1 1440:1 1452:1 1461:1 1516:1 1549:1 1553:1 1554:1 1586:1 1609:1 1642:1 1651:1 1662:1 1702:1 1703:1 1727:1 1844:1 1879:1 1904:1 1913:1 1919:1 1929:1 1953:1 1955:1 1959:1 1980:1 1984:1 2026:1 2035:1 2036:1 2094:1 2104:1 2155:1 2204:1 2266:1 2307:1 2330:1 2386:1 2397:1 2414:1 2425:1 2438:1 2439:1 2454:1 2479:1 2549:1 2559:1 2590:1 2659:1 2916:1 3049:1 3078:1 3115:1 3125:1 3132:1 3147:1 3221:1 3330:1 3390:1 3525:1 3594:1 3615:1 3616:1 3803:1 3853:1 3908:1 3998:1 4149:1 4270:1 4485:1 4742:1 4838:1 4891:1 5128:1 5317:1 5539:1 5664:1 5676:1 5817:1 5876:1 5888:1 5922:1 5971:1 5977:1 6552:1 #
0.0029532978917023566117761035343392 12:1 26:1 59:1 61:1 84:1 89:1 90:1 94:1 124:1 172:1 173:1 254:1 255:1 270:1 285:1 323:1 383:1 384:1 385:1 432:1 549:1 555:1 556:1 565:1 579:1 622:1 627:1 645:2 653:1 715:1 747:1 776:1 781:1 847:1 851:1 870:1 876:1 1002:1 1010:1 1041:1 1088:1 1089:1 1090:1 1158:1 1209:1 1214:1 1230:1 1401:1 1408:1 1432:1 1459:1 1486:1 1495:1 1529:1 1531:1 1533:1 1562:1 1578:1 1588:1 1621:1 1634:1 1672:1 1770:1 1818:1 1839:1 1934:1 1935:1 1938:1 1971:1 1994:1 2066:1 2089:1 2118:1 2123:1 2173:1 2277:1 2327:1 2414:1 2418:1 2421:1 2479:1 2496:1 2523:1 2548:1 2549:1 2569:1 2603:1 2631:1 2678:1 2704:1 2824:1 2851:1 2878:2 2913:2 2923:1 2940:1 2965:1 3028:1 3088:1 3145:1 3174:1 3175:1 3208:1 3229:1 3244:1 3252:1 3257:1 3426:1 3427:1 3449:1 3478:1 3532:1 3560:1 3570:1 3623:1 3668:1 3681:1 3697:1 3718:1 3732:1 3813:1 3814:1 3819:1 3862:1 3930:1 3942:1 4026:1 4082:1 4083:1 4160:1 4171:1 4255:1 4270:1 4298:1 4401:1 4436:1 4485:1 4599:1 4618:1 4643:1 4670:1 4717:1 4723:1 4736:1 4800:1 4832:1 4883:1 4913:1 4945:1 4980:1 5036:1 5138:1 5215:1 5268:1 5306:1 5348:1 5373:1 5392:1 5518:1 5647:1 5654:1 5691:1 5785:1 5808:1 5812:1 5846:1 5848:1 5868:1 5896:1 5947:1 6026:1 6175:1 6485:1 6592:1 6653:2 6676:1 6693:1 #
0.0037301306004654437645240427912086 37:1 46:1 47:1 97:1 150:1 172:1 195:1 264:1 310:1 327:1 373:1 384:1 385:2 430:1 478:1 479:1 480:1 520:1 532:1 537:1 575:1 583:1 589:1 590:1 591:1 624:2 645:1 647:1 667:1 757:1 801:1 825:1 839:1 847:1 915:1 955:2 964:1 986:1 1015:1 1016:1 1017:1 1019:1 1070:1 1161:1 1188:1 1190:1 1231:1 1309:1 1315:1 1353:1 1354:1 1370:1 1375:1 1401:1 1457:1 1554:1 1578:1 1733:1 1743:1 1766:1 1836:1 1856:1 1865:1 1869:1 1870:1 1946:1 1988:1 2004:1 2041:1 2053:1 2065:1 2068:1 2201:1 2419:1 2425:1 2444:1 2479:1 2511:1 2541:1 2548:1 2549:1 2559:1 2571:1 2582:1 2590:1 2623:1 2639:1 2655:1 2685:1 2713:1 2714:1 2725:1 2729:1 2787:1 2820:1 2871:1 2877:1 2883:1 2939:1 3024:1 3054:1 3113:1 3196:1 3296:1 3416:1 3525:1 3615:1 3685:1 3775:1 3776:1 3832:1 3845:1 3846:1 3863:1 3875:1 3877:1 3892:1 3998:1 4043:1 4209:1 4326:2 4573:1 4600:1 4614:1 4617:1 4828:1 4848:1 5421:1 5500:1 5590:1 5673:1 5743:1 5805:1 5856:1 5927:1 5977:1 5986:1 6261:1 6409:1 6463:1 6771:1 6909:1 7039:1 7093:1 7349:1 7538:1 #
0.00068420016565045823665747182218411 23:1 36:1 37:1 53:1 65:1 76:1 87:2 88:1 90:1 91:1 114:1 125:1 126:1 127:1 128:1 177:1 187:1 189:1 194:1 208:1 244:1 249:1 267:2 308:1 309:1 328:1 337:1 338:1 339:1 360:1 361:1 369:1 373:1 383:1 384:2 435:1 438:1 515:1 521:1 525:1 560:1 561:1 571:1 572:1 632:1 639:1 647:2 716:1 758:1 794:1 800:1 848:1 897:1 911:1 922:1 995:1 1005:1 1018:1 1034:1 1091:1 1092:1 1147:1 1172:1 1209:1 1254:1 1255:1 1258:1 1342:1 1346:1 1435:2 1452:1 1476:1 1559:1 1560:1 1701:1 1709:1 1765:1 1779:1 1796:1 1806:1 1866:1 1916:1 1944:1 1945:1 1946:2 1949:1 1953:1 2013:1 2017:1 2018:1 2049:1 2059:1 2075:1 2076:1 2107:1 2114:1 2115:1 2209:1 2254:2 2275:1 2287:1 2300:1 2302:1 2328:1 2354:1 2406:1 2523:1 2541:1 2549:1 2604:1 2635:1 2636:1 2692:1 2705:1 2706:1 2764:1 2792:1 2794:1 2824:1 2828:1 2857:1 2944:1 2988:1 3033:1 3095:1 3148:1 3199:1 3211:1 3279:1 3465:1 3496:1 3619:1 3637:1 3665:1 3712:1 3812:1 3814:1 3821:1 3863:1 3995:1 4047:1 4100:1 4183:1 4228:1 4258:1 4264:1 4267:1 4276:1 4283:1 4409:1 4448:1 4450:1 4563:1 4583:1 4800:1 4825:1 4890:1 4907:1 4948:1 5046:1 5158:1 5325:1 5388:1 5446:1 5464:1 5469:1 5498:1 5537:1 5622:1 5639:1 5725:1 5764:1 5888:1 5920:1 5943:1 5974:1 5999:1 6104:1 6136:1 6771:1 6804:1 6901:1 #
0.0028985901380106106860201631292284 3:1 4:1 23:1 34:1 37:2 41:1 49:1 77:1 84:1 85:1 89:1 90:2 149:1 175:1 227:1 302:1 359:1 369:1 370:1 374:1 384:1 400:1 434:1 448:1 469:1 489:1 508:1 509:1 514:1 517:1 545:1 564:1 632:1 645:1 677:1 712:1 768:1 814:1 847:1 927:1 934:1 969:1 997:1 1053:1 1080:1 1200:1 1229:1 1231:1 1249:1 1278:1 1325:1 1349:1 1429:1 1437:1 1452:1 1456:1 1457:1 1496:1 1603:1 1611:1 1643:1 1673:1 1706:1 1744:1 1750:1 1791:1 1865:1 1870:1 1898:1 1899:1 2016:1 2068:1 2116:1 2167:2 2218:1 2221:1 2296:1 2450:1 2479:1 2549:1 2590:1 2597:1 2629:1 2630:1 2721:1 2779:1 2836:1 2894:1 2906:1 2919:1 2939:1 3082:1 3091:1 3128:1 3129:1 3178:1 3183:1 3190:1 3240:1 3248:1 3274:1 3408:1 3540:1 3655:1 3749:1 3779:1 3834:1 3883:1 3972:1 3995:1 4043:1 4161:1 4170:1 4230:1 4265:1 4343:1 4432:1 4577:1 4583:1 4594:1 4595:1 4708:1 4800:1 4955:1 4988:1 4994:1 5025:1 5064:1 5079:1 5262:1 5356:1 5374:1 5419:1 5501:1 5539:1 5566:1 5600:1 5622:1 5842:1 5888:1 5953:1 5977:1 6087:1 6325:1 6357:1 6380:1 6465:1 6475:1 6514:1 6555:1 6678:1 6696:1 6801:1 6870:1 6952:1 6974:1 7255:1 7650:1 7686:1 #
-0.0032874962395343845095174728498932 3:1 4:1 5:1 14:1 26:1 33:1 37:1 40:1 41:2 45:1 50:1 57:1 64:1 69:1 70:1 71:1 72:1 75:1 87:2 88:1 89:1 90:2 109:1 116:1 117:1 118:1 155:1 156:1 173:2 174:1 175:1 196:1 197:1 198:1 238:2 249:1 290:1 313:1 349:1 377:1 380:1 395:1 417:1 436:1 442:1 449:1 451:1 468:1 469:1 470:1 515:1 519:1 542:1 562:1 589:1 605:1 624:1 625:1 626:1 648:1 667:2 694:1 748:1 753:1 757:1 814:1 832:1 839:1 865:1 922:1 923:1 956:1 957:1 1010:1 1019:1 1040:1 1079:1 1085:1 1120:1 1127:1 1158:1 1179:1 1209:1 1246:1 1248:1 1265:1 1345:1 1346:1 1434:2 1533:2 1552:1 1553:1 1561:1 1562:1 1573:1 1577:1 1589:1 1590:1 1591:1 1599:1 1759:1 1775:1 1817:1 1882:1 1934:1 2017:1 2030:1 2167:1 2219:1 2249:1 2330:1 2353:1 2354:1 2361:1 2362:1 2383:1 2494:1 2499:1 2563:1 2659:1 2667:1 2794:1 2825:1 2884:1 2902:1 2989:1 2993:1 3004:2 3016:1 3246:1 3247:1 3248:1 3249:1 3250:1 3251:1 3252:1 3253:1 3254:1 3255:1 3256:1 3257:1 3258:1 #
-0.00055435046874935389737970581336413 5:1 39:1 40:1 41:2 65:1 109:1 110:1 217:1 257:1 265:1 273:1 294:1 303:1 318:1 373:1 387:1 405:1 416:1 436:1 440:1 497:1 498:1 518:1 547:1 591:1 601:1 632:1 643:1 724:1 735:1 756:1 800:2 801:1 831:1 872:1 873:1 874:1 908:1 910:1 932:1 993:1 1026:1 1056:1 1068:1 1088:1 1120:1 1146:1 1201:1 1239:1 1249:1 1265:2 1287:1 1319:1 1325:1 1363:2 1377:1 1412:1 1428:1 1434:1 1452:2 1470:1 1471:1 1483:1 1502:1 1514:1 1515:1 1518:1 1519:1 1527:1 1569:1 1575:1 1577:1 1585:1 1601:1 1616:1 1619:1 1620:1 1650:1 1733:1 1773:1 1782:1 1819:1 1831:1 1832:2 1849:1 1879:1 1903:1 1912:1 1963:1 1998:1 2031:1 2047:1 2058:1 2079:1 2111:1 2154:1 2195:1 2254:1 2277:1 2337:1 2340:1 2342:1 2472:1 2499:1 2511:1 2549:1 2559:2 2605:1 2606:1 2630:1 2671:1 2674:1 2698:1 2713:1 2715:1 2732:1 2737:1 2762:1 2788:1 2804:1 2852:1 2933:1 2938:1 2939:1 2959:1 3001:1 3027:1 3055:1 3089:1 3130:1 3143:1 3187:1 3244:1 3296:1 3299:1 3337:2 3356:1 3407:1 3408:1 3447:1 3468:1 3645:1 3655:1 3704:1 3803:1 3831:1 3838:1 4033:1 4076:1 4105:1 4341:1 4344:1 4431:1 4435:1 4460:1 4475:1 4496:1 4520:1 4575:1 4700:1 4773:1 4774:1 4785:1 4820:1 4851:1 4878:1 4890:1 4907:1 4940:1 5143:1 5207:1 5252:1 5254:1 5258:1 5274:1 5324:1 5494:1 5537:1 5543:1 5554:1 5588:1 5632:1 5650:1 5676:1 5741:1 5789:1 5859:1 5916:1 5978:1 6192:1 6198:1 6244:1 6315:1 6419:1 6496:1 6640:1 6869:1 6992:1 7008:1 7062:1 7084:1 7085:1 7116:1 7117:1 #
-0.0013412346758834080111266739976372 28:1 39:1 40:1 41:1 42:1 52:1 65:1 74:1 103:1 109:2 116:1 143:1 152:1 208:1 273:1 274:1 287:1 289:1 302:1 303:1 310:1 341:1 364:1 383:1 387:1 397:1 447:1 455:1 473:1 500:1 512:1 522:1 555:1 558:1 575:1 619:1 647:1 650:1 666:1 717:1 724:1 765:1 786:1 839:1 850:1 876:1 888:1 889:1 938:1 968:1 983:1 1026:1 1043:1 1088:1 1112:1 1133:1 1154:1 1184:1 1185:1 1201:1 1202:1 1226:1 1282:1 1305:1 1307:1 1309:1 1348:1 1361:1 1391:1 1404:1 1412:1 1436:1 1437:1 1452:1 1459:1 1479:1 1493:1 1531:1 1549:1 1577:1 1579:1 1590:1 1634:1 1652:1 1656:1 1668:1 1692:1 1703:1 1704:1 1720:1 1721:1 1779:1 1786:1 1790:1 1832:1 1834:1 1839:1 1848:1 1853:1 1859:1 1879:1 1882:1 1885:1 1958:1 1961:1 2033:1 2063:1 2095:1 2118:1 2132:1 2178:1 2180:1 2181:1 2216:1 2254:1 2305:1 2330:1 2337:1 2341:1 2354:1 2405:1 2421:1 2423:1 2466:1 2491:1 2559:1 2576:1 2577:1 2601:1 2602:1 2695:1 2708:1 2729:1 2788:1 2812:1 2830:1 2831:1 2853:1 2888:1 2896:1 2951:1 2973:1 3010:1 3061:1 3099:1 3136:1 3169:1 3353:1 3365:1 3417:1 3457:1 3459:1 3491:1 3516:1 3619:1 3754:1 3784:1 3825:1 3853:1 3864:1 3885:1 3925:1 4017:1 4034:1 4035:1 4063:1 4071:1 4207:1 4208:1 4210:1 4213:1 4257:1 4263:1 4373:1 4382:1 4385:1 4386:1 4434:1 4451:1 4471:1 4601:1 4617:1 4650:1 4669:1 4723:1 4880:1 4958:1 5003:1 5044:1 5046:1 5102:1 5129:1 5232:1 5299:2 5320:1 5356:1 5392:1 5654:1 5683:1 5764:1 5767:1 5779:1 5781:1 5837:1 5854:1 5855:1 5970:1 5984:1 6126:2 6194:1 6401:1 6403:1 6502:1 6519:1 6675:1 6934:1 7031:1 7140:1 7142:1 7208:1 7270:1 7271:1 7272:1 7273:1 #
-0.00030596687671540423111848916448707 8:1 9:1 10:1 11:1 19:1 26:1 28:1 36:1 45:1 68:1 69:1 95:1 97:1 123:1 125:1 151:1 155:1 172:1 189:1 195:1 209:1 210:1 217:1 244:1 293:1 311:1 372:1 380:1 413:1 431:1 439:1 448:1 459:1 470:1 507:1 512:1 520:1 521:1 534:1 552:1 560:1 574:1 638:1 640:1 647:1 668:1 694:1 709:1 730:1 740:1 742:1 775:1 785:1 847:1 848:1 894:1 917:1 933:1 967:1 977:1 1025:1 1054:1 1086:1 1112:1 1181:1 1189:1 1190:1 1244:1 1255:1 1266:1 1301:1 1302:1 1325:1 1346:1 1355:1 1359:1 1370:1 1373:1 1398:1 1400:1 1401:1 1413:1 1419:1 1432:1 1436:1 1450:1 1465:1 1484:1 1500:1 1586:1 1617:1 1618:1 1652:1 1657:1 1661:1 1719:1 1749:1 1884:1 1926:1 1934:1 2009:1 2017:1 2018:1 2064:1 2107:1 2152:1 2155:1 2157:1 2168:1 2176:1 2211:1 2306:1 2332:1 2355:1 2384:2 2402:1 2450:1 2526:1 2597:1 2600:1 2641:1 2642:1 2660:1 2729:1 2755:1 2783:1 2800:1 2850:1 2864:1 2889:1 2910:1 2940:1 2956:1 2965:1 2981:1 3003:1 3034:1 3149:1 3152:1 3188:1 3242:1 3266:1 3383:1 3411:1 3452:1 3498:1 3505:1 3521:1 3587:1 3588:1 3595:1 3651:1 3658:1 3667:1 3695:1 3711:1 3736:1 3737:1 3812:1 3873:1 3892:1 3909:1 3918:1 3933:1 3947:1 3948:1 3951:1 3957:1 4137:1 4186:1 4222:1 4239:1 4247:1 4259:1 4363:1 4366:1 4434:1 4531:1 4549:1 4555:1 4570:1 4583:1 4597:1 4832:1 4859:1 4931:1 4932:1 4942:2 4949:1 5012:1 5120:1 5193:1 5230:1 5547:1 5573:1 5728:1 5733:1 5827:1 6027:1 6067:1 6180:1 6243:1 6330:1 6404:1 6426:1 6810:1 6822:1 6825:1 6880:1 6937:1 7101:1 7274:1 7512:1 7569:1 7610:1 #
-0.0012154177141664604475806976680019 5:1 39:1 40:1 41:2 65:1 109:1 110:1 193:1 257:1 265:1 303:1 314:1 347:1 373:1 387:1 405:1 411:1 416:1 436:1 497:1 518:1 591:1 601:1 632:1 643:1 735:1 756:1 800:2 801:1 823:1 831:1 872:1 873:1 874:1 908:1 910:1 932:1 940:1 993:1 1010:1 1026:1 1056:1 1068:1 1088:1 1120:1 1146:1 1201:1 1239:1 1249:1 1265:2 1287:1 1296:1 1319:1 1325:1 1363:2 1377:1 1412:1 1428:1 1434:1 1470:1 1471:1 1483:1 1515:1 1518:1 1519:1 1569:1 1575:1 1577:1 1585:1 1601:1 1616:1 1620:1 1650:1 1651:1 1733:1 1740:1 1773:1 1819:1 1849:1 1878:1 1879:1 1912:1 1919:1 1943:1 1963:1 1998:1 2031:1 2047:1 2058:1 2062:1 2079:1 2154:1 2254:1 2272:1 2274:1 2275:1 2340:1 2342:1 2499:1 2549:1 2559:1 2671:1 2674:1 2717:1 2732:1 2737:1 2762:1 2780:1 2788:1 2804:1 2852:1 2938:1 2939:1 2959:1 2961:1 3001:1 3027:1 3041:1 3055:1 3089:1 3130:1 3184:1 3244:1 3248:1 3296:1 3299:1 3356:1 3407:1 3414:1 3447:1 3645:1 3655:1 3704:1 3803:1 3831:1 4033:1 4105:1 4204:1 4341:1 4344:1 4431:1 4435:1 4496:1 4520:1 4575:1 4773:1 4774:1 4785:1 4878:1 4890:1 4907:1 4978:1 5143:1 5252:1 5274:1 5494:1 5543:1 5554:1 5588:1 5632:1 5650:1 5741:1 5761:1 5789:1 5859:1 5916:1 6192:1 6198:1 6244:1 6294:1 6315:1 6601:1 6640:1 6869:1 6890:1 6992:1 7062:1 7084:1 7085:1 #
0.0014868469099230624628354968663757 20:1 32:1 46:1 53:1 64:1 77:1 83:1 89:1 90:1 137:1 173:2 190:1 225:1 226:1 281:1 313:1 323:1 378:1 417:1 449:2 469:1 495:1 501:1 536:1 544:1 557:1 622:1 623:1 639:1 658:1 659:1 768:1 785:1 795:1 847:1 857:1 872:1 875:1 878:1 879:1 880:1 946:1 1005:1 1010:1 1017:1 1039:1 1041:1 1058:1 1078:1 1085:2 1105:1 1116:1 1119:2 1120:1 1160:1 1237:1 1244:1 1256:2 1300:1 1352:1 1371:1 1387:1 1422:1 1479:1 1485:1 1549:1 1552:1 1558:1 1559:1 1596:1 1597:2 1606:1 1609:1 1643:1 1645:1 1656:1 1669:1 1701:1 1722:1 1746:1 1747:1 1948:1 1949:1 1954:1 1955:1 1999:1 2011:1 2083:1 2089:1 2148:1 2168:1 2176:1 2216:1 2268:1 2287:1 2325:1 2331:1 2394:1 2414:1 2425:1 2439:1 2458:1 2587:1 2593:1 2602:1 2605:1 2651:1 2656:1 2687:1 2695:1 2698:1 2711:1 2712:1 2718:1 2782:1 2849:1 2851:1 2913:1 2952:1 3019:1 3099:2 3125:1 3146:1 3149:1 3183:1 3233:1 3240:1 3263:1 3278:1 3344:1 3348:4 3405:1 3409:1 3410:1 3444:1 3454:1 3474:1 3498:2 3558:1 3630:1 3650:1 3661:1 3690:1 3702:1 3728:1 3729:1 3731:1 3796:1 3808:1 3949:1 3950:1 4020:1 4066:1 4086:1 4108:1 4121:1 4154:1 4170:1 4210:1 4260:1 4263:2 4275:1 4343:1 4345:1 4413:1 4434:1 4485:1 4727:1 4761:1 4785:1 4812:1 4970:1 4979:1 5032:1 5033:1 5155:1 5190:1 5299:1 5342:1 5392:1 5419:1 5447:1 5520:1 5528:1 5539:1 5558:1 5798:1 5863:1 5876:1 6193:1 6298:1 6408:1 6566:1 6711:1 6717:1 6754:1 6810:1 6926:1 7064:1 7501:1 #
0.0026036988335407136585519793925414 2:1 3:1 9:1 10:1 28:1 36:1 45:1 53:1 88:1 108:1 170:1 257:1 263:1 314:1 323:1 340:1 358:1 360:1 401:1 435:1 439:1 478:1 525:2 532:1 533:1 552:1 571:1 572:1 601:1 613:1 632:1 690:1 694:1 741:1 831:1 847:1 870:1 910:1 969:1 979:1 998:1 1005:1 1018:1 1053:1 1058:1 1079:1 1080:1 1095:1 1121:1 1161:1 1197:1 1219:1 1266:1 1318:1 1339:1 1392:1 1399:1 1464:1 1476:1 1499:1 1500:1 1502:1 1503:1 1539:1 1540:1 1602:1 1662:2 1766:1 1769:1 1772:1 1775:1 1883:1 1896:1 1915:1 1941:1 1944:1 1951:1 1952:1 1953:1 1954:1 1963:1 2047:1 2147:1 2165:1 2219:1 2222:1 2259:1 2349:1 2350:1 2399:1 2478:1 2489:1 2493:1 2552:1 2553:1 2578:1 2597:1 2651:1 2659:1 2703:1 2772:1 2837:1 2849:1 2874:1 2875:1 2883:1 2892:1 2939:1 2953:1 3034:1 3052:1 3099:1 3100:1 3178:1 3202:2 3225:1 3331:1 3351:1 3468:1 3594:1 3602:1 3619:2 3628:1 3635:1 3778:1 3826:1 3855:1 3863:1 3873:1 3990:1 4176:1 4266:1 4349:1 4391:1 4487:1 4704:1 4751:1 4791:1 4859:1 5091:1 5622:1 5694:1 5928:1 5992:1 6325:1 6767:1 #
0.00083018941307349647211466514562517 29:1 30:2 31:1 32:1 46:1 53:1 64:1 94:1 95:1 97:1 119:1 147:1 173:1 174:1 175:1 176:1 180:1 215:1 217:1 218:1 245:2 313:1 323:1 348:1 372:1 373:2 378:1 382:1 428:1 435:1 449:2 509:1 534:1 536:1 542:1 557:1 605:2 622:1 632:1 634:1 639:1 658:1 831:1 847:1 854:1 932:1 1000:1 1005:1 1040:1 1058:1 1078:1 1085:1 1138:1 1190:1 1244:1 1256:1 1281:1 1301:1 1305:1 1338:1 1352:1 1376:1 1395:1 1422:1 1451:1 1452:1 1522:1 1538:1 1589:1 1620:1 1650:1 1652:1 1722:1 1777:1 1880:1 1885:1 1931:1 1940:1 1948:1 1952:2 1954:1 1955:1 2066:1 2176:1 2232:1 2294:1 2302:1 2304:1 2425:1 2439:1 2444:1 2549:1 2579:1 2602:1 2605:1 2614:1 2646:1 2651:1 2715:1 2716:1 2718:1 2737:1 2749:1 2795:1 2805:1 2849:1 2852:2 2853:1 2855:1 2889:1 2913:1 2952:1 2982:1 3048:1 3148:1 3180:1 3187:1 3209:1 3251:1 3290:1 3292:1 3408:1 3410:1 3474:1 3498:1 3558:1 3594:1 3650:1 3949:1 3950:1 3953:1 4034:1 4162:1 4174:1 4186:1 4263:1 4275:1 4299:1 4334:2 4345:1 4382:1 4410:1 4485:1 4536:2 4574:1 4647:1 4682:1 4700:1 4756:1 4769:1 4781:1 4812:1 4867:1 4945:1 4981:1 5086:1 5105:1 5134:2 5471:1 5502:2 5539:1 5542:1 5633:1 5675:1 5697:1 5717:1 5747:1 5754:1 5757:1 5779:1 5798:1 5876:1 5888:1 5928:1 6026:1 6039:1 6378:1 6384:1 6487:1 6530:1 6625:1 6921:1 7493:1 #
0.0050261818157785916050261931786736 34:1 46:1 50:1 58:1 95:1 97:1 109:1 128:1 129:1 175:1 184:1 186:1 188:1 202:1 249:1 323:1 342:1 359:1 415:1 435:1 515:1 519:1 524:1 542:1 549:1 569:1 589:1 619:1 627:1 628:1 631:1 666:1 719:1 741:1 750:1 762:1 790:1 804:1 909:1 931:1 987:1 991:1 1051:1 1054:1 1058:1 1087:1 1096:1 1197:1 1232:1 1246:1 1339:2 1341:1 1342:1 1346:1 1363:1 1392:1 1435:1 1473:1 1486:1 1494:1 1541:1 1553:1 1599:1 1651:2 1662:1 1736:1 1758:1 1769:1 1770:1 1835:1 1845:1 1858:1 1883:1 1904:1 1945:1 1978:1 2057:1 2058:1 2063:1 2161:1 2216:1 2217:1 2274:1 2276:1 2330:1 2344:1 2350:1 2400:1 2425:1 2439:1 2466:1 2527:1 2562:1 2632:1 2712:1 2772:2 2787:1 2847:1 2892:1 2981:1 2984:1 3022:1 3078:1 3112:1 3125:1 3130:1 3137:1 3167:1 3205:1 3223:1 3224:1 3237:1 3246:1 3320:1 3447:1 3492:1 3549:1 3594:1 3747:1 3803:1 3849:1 3887:1 3964:1 4081:1 4120:1 4230:1 4274:1 4282:1 4345:1 4638:1 4678:1 4698:1 4742:1 4779:1 4831:1 5033:1 5268:1 5389:1 5539:1 5621:1 5775:1 5781:1 6410:2 6511:1 6523:1 7029:1 7056:1 7324:1 7352:1 7465:1 7538:1 7588:1 #
0.00074615431335944110927821393275394 17:1 53:1 85:1 123:2 139:1 166:1 193:1 210:1 250:1 308:1 323:1 387:1 388:1 447:2 542:2 569:1 570:1 587:1 588:1 611:1 621:1 660:1 661:1 698:1 714:1 775:1 825:2 829:1 887:1 894:1 928:1 929:1 1014:1 1082:1 1111:1 1112:1 1120:1 1133:1 1174:1 1203:1 1204:1 1242:1 1244:1 1245:1 1256:1 1346:1 1385:1 1405:1 1516:1 1545:1 1551:1 1673:1 1674:1 1687:1 1727:1 1729:1 1801:1 1889:1 1972:1 1980:2 2017:1 2018:1 2048:1 2066:1 2096:1 2101:1 2131:1 2154:1 2317:1 2342:1 2431:1 2487:1 2496:1 2534:1 2669:1 2670:1 2703:1 2773:1 2794:1 2807:1 2876:1 2883:1 2898:1 2909:1 2931:1 2957:1 2984:1 2993:1 2994:1 3069:1 3087:1 3159:1 3180:1 3184:1 3185:1 3252:1 3254:1 3296:1 3397:1 3436:1 3478:1 3509:1 3589:1 3651:1 3652:1 3669:1 3707:1 3843:1 3947:1 4089:1 4209:1 4284:1 4286:1 4449:1 4484:1 4485:1 4742:1 4768:1 4785:1 4909:1 4915:1 5056:1 5136:1 5157:1 5222:1 5315:1 5330:1 5433:1 5573:1 5622:1 5663:1 5690:1 5700:1 5881:1 6171:1 6262:1 6517:1 6552:1 6594:1 6664:1 6761:1 6795:1 6992:1 7032:1 #
-0.0032100479901671090561532384555221 9:1 10:1 11:1 22:1 29:1 49:1 64:1 73:1 76:1 89:1 90:1 115:1 160:1 161:1 171:1 172:1 173:1 175:1 184:2 219:1 238:1 239:1 240:1 241:1 242:1 245:1 249:1 250:1 251:1 269:1 319:1 322:1 323:1 327:1 328:1 329:1 330:1 358:1 361:1 370:1 374:1 375:1 379:1 391:1 392:1 393:1 399:1 416:1 498:1 517:1 532:1 533:1 537:1 538:1 539:1 540:1 542:1 552:1 568:1 569:1 570:1 571:1 572:1 576:1 590:1 591:1 592:1 601:1 603:1 611:1 731:1 746:1 755:1 910:1 930:1 931:1 937:1 1052:1 1077:1 1224:1 1234:1 1254:1 1301:1 1329:1 1330:1 1363:1 1371:1 1475:1 1478:1 1486:1 1501:1 1502:1 1503:1 1510:1 1525:1 1545:1 1673:1 1674:1 1764:1 1776:1 1815:1 1818:1 1821:1 1858:1 1870:1 1883:1 1885:1 1897:1 1945:2 1959:1 1996:1 2035:1 2200:1 2224:1 2243:1 2518:1 2519:1 2535:1 2553:1 2577:1 2595:1 2606:1 2845:1 2847:1 2884:1 2897:1 2937:1 2993:1 3028:1 3034:1 3044:1 3051:1 3052:1 3055:1 3060:1 3065:1 3067:1 3068:1 3069:1 3071:1 3072:1 3074:1 3115:1 3142:1 3169:1 3205:1 3206:1 3269:1 3337:1 3356:1 3357:1 3358:1 3359:1 3360:1 3361:1 3362:1 3363:1 3364:1 #
-0.0014510843510165949681728347897547 8:1 9:1 13:1 23:1 33:1 36:1 45:1 65:1 86:1 87:1 88:1 90:1 102:1 108:1 109:1 123:1 129:1 155:1 172:1 174:1 204:1 219:1 266:1 270:1 335:1 337:1 389:1 394:1 396:1 398:1 423:1 439:1 445:1 453:1 525:2 534:1 573:1 578:1 579:1 590:1 591:1 640:1 674:1 675:1 681:1 684:1 768:1 820:1 848:1 908:1 909:1 930:1 931:3 938:1 995:1 1015:1 1086:1 1092:1 1094:1 1116:1 1164:1 1200:1 1202:1 1216:1 1217:1 1255:1 1278:1 1302:1 1306:1 1325:1 1350:1 1441:1 1484:1 1500:1 1515:1 1534:1 1540:1 1541:1 1589:1 1590:1 1606:1 1617:1 1618:1 1651:1 1652:1 1690:1 1691:1 1859:1 1873:1 1888:1 1899:1 1941:1 1968:1 1996:1 2009:1 2017:1 2018:1 2085:1 2107:1 2118:1 2176:1 2202:1 2218:1 2274:1 2315:1 2384:1 2422:1 2432:1 2527:1 2564:1 2603:1 2615:1 2659:1 2804:1 2811:1 2889:1 2893:1 2918:1 2958:1 2999:1 3003:1 3007:1 3034:2 3035:1 3040:1 3070:1 3100:1 3109:3 3115:1 3132:1 3146:1 3149:1 3180:1 3288:1 3313:1 3325:1 3337:1 3358:1 3362:1 3438:1 3498:1 3549:1 3588:1 3594:1 3641:1 3678:1 3687:1 3718:1 3726:1 3750:1 3763:1 3812:1 3846:1 3878:1 3925:1 3946:1 3955:1 3972:1 3992:1 4063:1 4100:1 4164:1 4312:1 4340:1 4374:1 4439:2 4512:1 4607:1 4645:1 4752:1 4769:1 4885:1 4931:1 4979:1 5154:1 5185:1 5295:1 5296:1 5322:1 5325:1 5369:1 5373:1 5428:1 5443:1 5509:1 5598:1 5646:1 5678:1 5704:1 5755:1 5848:1 5875:1 5932:1 5985:1 6011:1 6122:1 6123:1 6161:1 6473:1 6544:1 6571:1 6602:1 6625:1 6627:1 6761:1 6777:1 6824:1 6885:1 7094:1 7100:1 7154:1 7251:1 7296:1 7305:1 7328:1 7438:1 7439:1 #
0.00053447001060655740471011521108835 26:1 53:1 68:1 89:1 90:1 108:1 116:1 144:1 149:1 151:1 189:1 194:1 195:1 233:1 259:1 269:2 270:1 271:1 339:1 359:1 387:1 396:1 419:1 447:2 448:1 467:1 471:1 570:1 618:1 624:1 643:1 644:1 647:1 654:1 681:1 749:1 803:1 819:1 820:1 826:1 827:2 897:1 914:1 933:1 940:1 949:1 969:1 994:1 1019:1 1021:1 1037:1 1041:1 1042:1 1049:1 1056:1 1110:1 1184:1 1230:1 1231:1 1267:1 1333:1 1348:1 1367:1 1380:1 1407:1 1433:1 1449:1 1450:1 1452:1 1472:1 1483:1 1532:2 1533:2 1564:1 1574:1 1676:1 1678:1 1702:1 1718:1 1731:1 1736:1 1755:1 1859:1 1867:1 1872:1 1888:1 1902:1 1964:1 2001:1 2031:1 2036:1 2041:1 2048:1 2085:1 2100:1 2109:1 2114:1 2128:1 2143:1 2202:1 2207:1 2268:1 2270:1 2271:1 2308:1 2336:1 2386:1 2449:1 2549:1 2555:1 2593:2 2615:1 2636:1 2660:1 2665:1 2673:1 2689:1 2703:1 2732:1 2740:1 2741:1 2767:1 2830:1 2848:1 2849:1 2853:1 2875:1 2918:1 2930:1 2981:1 3002:1 3030:1 3096:1 3098:1 3099:1 3108:1 3132:1 3163:1 3218:1 3252:1 3254:1 3279:1 3290:1 3370:1 3410:1 3528:1 3536:1 3540:1 3557:1 3594:1 3606:1 3645:1 3649:1 3664:1 3673:1 3721:1 3779:1 3803:1 3805:1 3843:1 3845:1 3873:1 4077:1 4090:1 4107:1 4162:1 4178:1 4203:1 4227:1 4330:1 4402:1 4448:1 4501:1 4567:1 4570:1 4605:1 4643:1 4655:1 4751:1 4870:1 4874:1 4876:1 4955:1 4963:1 4977:1 5008:1 5009:1 5010:1 5046:1 5050:1 5157:1 5171:1 5225:1 5266:1 5330:1 5381:1 5486:1 5493:1 5500:1 5539:1 5540:1 5651:1 5681:1 5826:1 5888:1 6009:1 6180:1 6242:1 6256:1 6636:1 6794:1 #
-0.0014880220655184852544122842132879 1:1 8:1 61:1 62:1 79:1 97:1 115:1 147:1 150:1 161:1 170:1 172:1 182:1 184:1 195:1 214:1 236:1 244:1 263:1 290:1 318:1 323:1 380:1 395:1 420:1 425:1 430:1 455:1 478:1 479:1 487:1 501:1 506:1 534:1 537:1 560:1 574:1 612:1 623:1 662:1 667:1 668:1 712:1 757:1 773:1 776:1 807:1 821:1 844:1 845:1 847:1 854:1 878:1 883:1 887:1 920:1 951:1 955:1 976:2 992:1 998:1 1025:1 1026:1 1047:1 1120:1 1121:1 1142:1 1170:1 1190:1 1222:1 1224:1 1280:1 1309:1 1310:1 1318:1 1357:1 1385:1 1429:1 1432:1 1465:1 1500:1 1504:1 1578:1 1579:1 1589:1 1615:1 1620:1 1634:1 1678:1 1713:1 1719:1 1735:1 1768:1 1784:1 1801:1 1815:1 1866:1 1870:1 1871:1 1929:1 1968:1 1981:1 2050:1 2109:1 2112:1 2120:1 2124:1 2161:1 2174:1 2242:1 2254:1 2310:1 2316:1 2398:1 2434:1 2445:1 2450:1 2470:1 2552:1 2553:1 2599:1 2602:1 2681:1 2692:1 2695:1 2706:1 2770:1 2837:1 2889:1 3000:1 3003:1 3017:1 3113:1 3144:1 3149:1 3182:1 3183:2 3225:1 3338:1 3352:1 3372:1 3395:1 3412:1 3413:1 3414:1 3476:1 3482:1 3485:1 3499:1 3500:2 3517:1 3524:1 3626:1 3645:1 3666:1 3667:1 3672:1 3698:1 3710:1 3746:1 3755:1 3763:1 3900:1 3988:1 3991:1 4032:1 4124:1 4127:1 4221:1 4256:1 4284:1 4325:1 4336:1 4664:1 4666:1 4819:1 4820:1 4821:1 4947:1 4951:1 5116:1 5158:1 5189:1 5251:1 5274:1 5319:1 5335:1 5612:1 5901:1 6038:1 6241:1 6272:1 6324:1 #
-0.00087481887197486869235663053956387 3:1 9:1 10:1 18:1 21:1 38:1 45:1 69:1 97:1 101:1 117:1 186:1 188:1 189:1 218:1 244:1 264:1 265:1 278:1 312:1 359:1 360:1 371:1 379:1 396:2 413:1 430:1 439:1 442:1 459:1 534:1 555:1 574:1 575:1 608:1 631:1 638:1 640:1 646:1 647:1 674:1 693:1 732:1 735:1 756:1 764:1 775:1 815:1 837:1 841:1 848:2 854:1 873:1 1004:1 1020:1 1032:1 1040:1 1077:1 1086:1 1191:1 1226:1 1233:1 1291:1 1325:1 1338:1 1339:1 1341:1 1346:1 1363:1 1388:1 1398:1 1413:1 1476:1 1484:1 1499:1 1522:1 1528:1 1550:1 1553:1 1652:1 1690:1 1857:1 1859:1 1861:1 1884:2 1896:1 1934:1 1942:1 1943:1 1944:1 1946:1 1951:1 1959:1 2017:1 2018:1 2024:1 2064:1 2083:1 2141:1 2151:1 2168:1 2176:1 2182:1 2196:1 2317:1 2336:1 2349:1 2353:1 2402:1 2422:1 2439:1 2444:1 2489:1 2512:1 2518:1 2519:1 2550:1 2598:1 2626:1 2636:1 2643:1 2659:1 2719:1 2772:1 2773:1 2776:1 2847:1 2856:1 2861:1 2893:2 2929:1 2932:1 2983:1 2991:1 3010:1 3034:1 3125:1 3127:1 3136:1 3145:1 3149:1 3151:1 3159:1 3173:1 3188:1 3247:1 3263:1 3402:1 3426:1 3498:1 3516:1 3525:1 3570:1 3589:1 3611:1 3735:1 3736:1 3808:1 3839:1 3840:1 3845:1 3933:1 3946:1 4064:1 4089:1 4112:1 4133:1 4167:1 4182:1 4220:1 4264:1 4279:1 4437:1 4511:1 4512:1 4640:1 4662:1 4820:1 4860:1 4931:1 4998:1 5007:1 5008:1 5090:1 5204:1 5223:1 5254:1 5260:1 5346:1 5363:1 5403:1 5486:1 5725:1 5870:1 5877:1 6052:1 6080:1 6091:1 6244:1 6285:1 6310:1 6523:1 6697:1 6807:1 6822:1 6930:1 7017:1 7101:1 7105:1 7299:1 7333:1 7446:1 #
0.0052498537036790773185890301988366 8:1 33:2 34:1 41:1 45:1 89:1 90:2 116:1 135:1 173:1 192:1 216:1 238:2 247:1 274:1 290:1 323:1 358:1 361:1 416:1 431:1 439:1 440:1 451:1 470:1 519:1 570:1 571:2 589:1 611:1 624:1 625:1 663:1 667:1 716:1 742:1 745:1 786:1 792:1 833:1 846:1 847:1 860:1 865:1 871:1 875:1 910:1 932:1 940:1 941:1 950:1 956:1 957:1 996:1 997:1 1005:1 1019:1 1026:1 1053:1 1085:1 1121:1 1197:1 1254:1 1265:2 1361:1 1386:1 1526:1 1530:1 1539:1 1559:1 1585:1 1669:1 1697:1 1709:1 1721:1 1727:1 1856:1 1913:1 1950:1 2096:1 2165:1 2176:1 2214:1 2250:1 2254:1 2268:1 2340:1 2405:1 2432:1 2451:1 2493:1 2494:1 2604:1 2662:1 2697:1 2907:1 2913:1 2922:1 2990:1 3034:1 3046:1 3053:1 3083:1 3115:1 3246:1 3380:1 3443:1 3455:1 3478:1 3522:1 3623:1 3717:1 3775:1 3811:1 3888:1 3976:1 4019:1 4085:1 4133:1 4176:1 4254:1 4255:1 4256:1 4461:1 4480:1 4775:1 4945:1 4986:1 5007:1 5049:1 5060:1 5156:1 5261:1 5566:1 5627:1 5654:1 5790:1 6073:1 6781:1 7224:1 7709:1 #
0.00032048511109713145915758869541889 15:1 26:1 33:1 65:1 66:2 69:1 87:1 88:1 90:1 91:1 124:1 146:1 172:1 173:1 187:1 190:1 219:1 281:1 323:1 328:1 332:1 355:1 359:1 381:1 385:1 416:1 420:1 428:1 469:1 477:1 490:1 553:1 571:2 572:1 592:1 597:1 606:1 644:1 766:1 780:1 842:1 854:1 935:1 997:1 1004:1 1040:1 1077:1 1085:1 1087:1 1092:1 1111:1 1113:1 1172:1 1224:1 1227:1 1231:1 1239:1 1303:1 1323:1 1325:1 1345:2 1346:1 1354:1 1378:1 1379:1 1384:1 1389:1 1434:1 1437:1 1452:1 1484:1 1496:1 1522:1 1551:1 1589:1 1599:1 1621:1 1696:1 1703:1 1743:1 1749:1 1758:1 1759:1 1858:1 1865:1 1870:1 1884:1 1914:1 1921:1 1934:1 1965:1 1979:1 2046:1 2153:1 2216:1 2254:1 2268:1 2310:1 2341:1 2417:1 2464:1 2474:1 2549:1 2604:1 2610:1 2687:1 2692:1 2831:1 2843:1 2865:1 2889:1 3042:1 3055:1 3150:1 3155:1 3185:2 3248:1 3346:1 3356:1 3375:2 3406:1 3430:1 3493:1 3637:1 3645:1 3650:1 3651:1 3658:1 3669:1 3735:1 3795:1 3863:1 3867:1 3886:1 3979:1 3988:1 4018:1 4023:1 4040:1 4192:1 4411:1 4470:1 4485:1 4504:1 4533:1 4539:1 4713:1 4772:1 4800:1 4907:1 4975:1 5007:1 5035:1 5108:1 5156:1 5256:1 5258:1 5365:1 5407:1 5625:1 5686:1 5740:1 5826:1 5888:1 5991:1 6106:1 6216:1 6399:1 6636:1 6779:1 7035:1 7245:1 7304:1 #
0.0026216757302135480084404051126512 15:1 26:1 33:1 65:1 66:1 69:1 70:1 87:1 88:1 90:1 91:1 124:1 146:1 172:1 173:1 190:1 219:1 323:1 355:1 359:1 381:1 385:1 416:1 420:1 428:1 432:1 433:1 469:1 477:1 490:1 491:1 553:1 571:2 572:1 592:1 606:1 644:1 762:1 766:1 780:1 831:1 842:1 854:1 997:1 1004:1 1040:1 1077:1 1085:1 1092:1 1111:1 1227:1 1231:1 1303:1 1314:1 1323:1 1325:1 1345:2 1346:1 1354:1 1378:1 1379:1 1384:1 1437:1 1452:1 1496:1 1522:1 1533:1 1551:1 1589:1 1599:1 1696:1 1703:1 1743:1 1758:1 1759:1 1858:1 1865:1 1882:1 1884:1 1885:1 1921:1 1934:1 1965:1 1969:1 1979:1 2046:1 2153:1 2163:1 2164:1 2216:1 2240:1 2254:1 2268:1 2341:1 2388:1 2389:1 2417:1 2464:1 2549:1 2610:1 2633:1 2643:1 2687:1 2692:1 2831:1 2865:1 2889:1 3042:1 3055:1 3065:1 3150:1 3155:1 3185:1 3248:1 3311:1 3316:1 3317:1 3318:1 3346:1 3356:1 3375:1 3406:1 3430:1 3479:1 3493:1 3637:1 3646:1 3650:1 3651:1 3714:1 3735:1 3795:1 3863:1 3867:1 3871:1 3886:1 3979:1 3988:1 4008:1 4023:1 4032:1 4040:1 4098:1 4192:1 4411:1 4470:1 4485:1 4504:1 4713:1 4772:1 4800:1 4866:1 4907:1 4975:1 5007:1 5035:1 5108:1 5156:1 5256:1 5258:1 5350:1 5365:1 5384:1 5407:1 5625:1 5686:1 5826:1 5888:1 5991:1 6106:1 6399:1 6779:1 6890:1 7035:1 7245:1 7304:1 #
-0.0014399107600306596931732938671189 9:1 10:1 20:1 48:1 68:1 73:1 90:2 91:1 119:2 157:1 171:1 172:1 173:1 180:1 183:1 199:1 238:1 299:1 329:1 373:1 383:1 430:1 431:1 466:1 510:1 524:1 562:1 570:1 571:1 599:1 614:1 624:1 625:1 697:2 708:1 709:1 734:1 754:1 780:1 786:1 795:1 801:1 863:1 864:1 868:1 877:1 915:1 956:1 957:1 997:1 998:1 1017:1 1039:1 1050:1 1084:1 1085:1 1098:1 1127:1 1219:1 1265:1 1295:1 1347:1 1348:1 1371:1 1439:1 1440:1 1496:1 1518:1 1521:1 1559:1 1561:1 1562:1 1599:1 1656:1 1700:1 1723:1 1776:1 1779:1 1786:1 1793:1 1821:1 1826:1 1844:1 1878:1 1928:1 1938:1 1966:1 1980:1 1997:1 2026:1 2027:1 2215:1 2245:1 2318:1 2391:1 2431:1 2478:1 2484:1 2485:1 2486:1 2585:1 2606:1 2659:1 2703:1 2735:1 2776:1 3029:1 3042:1 3048:1 3063:1 3078:1 3121:1 3129:1 3177:1 3181:1 3182:1 3198:1 3209:1 3231:1 3375:1 3545:1 3560:1 3639:1 3703:1 3784:1 3814:1 3852:1 3911:1 3947:1 4009:1 4026:1 4040:1 4171:1 4211:1 4343:1 4457:1 4487:1 4538:1 4751:1 4915:1 4924:1 5002:1 5018:1 5114:1 5176:1 5211:1 5278:1 5649:1 5881:1 5897:1 5991:1 6005:2 6008:1 6023:1 6151:1 6259:1 6711:1 7050:1 7170:1 7313:1 7747:1 7748:1 #
0.0015552925380587711515906201853454 26:1 33:1 38:1 69:1 70:1 87:1 88:1 108:1 124:1 172:1 173:1 187:1 210:1 280:1 312:1 315:1 321:1 323:1 348:1 349:1 350:1 355:1 358:1 359:1 381:1 385:1 420:1 440:1 469:1 517:1 525:1 529:1 571:1 572:1 595:1 597:1 606:1 614:1 650:1 651:1 654:1 667:1 674:1 762:1 766:1 856:1 882:1 930:1 941:1 961:1 1010:1 1040:1 1080:1 1184:1 1227:1 1231:1 1255:1 1295:1 1302:1 1303:1 1325:1 1345:2 1346:1 1378:1 1452:1 1484:1 1496:1 1525:1 1526:1 1586:1 1599:1 1600:1 1617:1 1696:1 1729:1 1749:1 1758:1 1759:1 1811:1 1826:1 1836:1 1858:1 1865:2 1872:1 1905:1 1969:1 2022:1 2039:1 2107:1 2109:1 2220:1 2254:1 2416:1 2417:1 2422:1 2424:1 2440:1 2464:1 2466:1 2474:1 2475:1 2484:1 2549:1 2604:1 2610:1 2633:1 2676:1 2677:1 2687:1 2692:1 2807:1 2831:1 2848:1 2865:1 2875:1 2876:1 2904:1 2983:1 3016:1 3027:1 3063:1 3091:1 3113:1 3173:1 3248:1 3270:1 3307:1 3309:1 3310:1 3346:1 3356:1 3406:1 3471:1 3485:1 3493:1 3608:1 3639:1 3645:1 3651:1 3661:1 3714:1 3735:1 3739:1 3795:1 3837:1 3867:1 3979:1 4005:1 4014:1 4023:1 4165:1 4192:1 4485:1 4494:1 4504:1 4618:1 4772:1 4800:1 4866:1 4870:1 4968:1 5013:1 5035:1 5108:1 5213:1 5223:1 5256:1 5258:1 5365:1 5389:1 5407:1 5625:1 5686:1 5772:1 5779:1 5888:1 5892:1 6342:1 6636:1 6816:1 6835:1 6841:1 7035:1 7245:1 7542:1 7550:1 7620:1 7737:1 #
-0.0040238566145575707655446251465037 11:1 12:1 27:1 43:1 44:1 47:1 73:1 74:1 75:1 89:1 90:1 107:2 116:1 118:1 203:1 207:1 253:1 297:1 352:1 420:1 459:1 501:1 520:1 571:2 601:1 645:1 691:1 708:1 709:1 733:1 734:1 790:1 843:1 877:1 1096:1 1210:1 1219:1 1230:1 1244:1 1261:1 1290:1 1361:1 1421:1 1426:1 1471:1 1482:1 1485:1 1559:1 1586:1 1599:1 1622:1 1638:1 1667:1 1679:1 1713:1 1810:1 1812:1 1818:1 1835:1 1846:1 1892:1 1908:1 1979:1 2026:1 2033:1 2080:1 2081:1 2095:1 2096:1 2113:1 2145:1 2166:1 2174:1 2202:1 2246:1 2247:1 2327:1 2334:1 2361:1 2398:1 2413:1 2428:1 2439:1 2478:1 2485:1 2489:1 2582:1 2639:1 2643:1 2651:1 2658:1 2659:1 2691:1 2695:1 2807:1 2815:1 2931:1 3006:1 3054:1 3119:1 3177:1 3182:1 3205:1 3364:1 3430:1 3481:1 3509:2 3644:1 3733:1 3763:1 3818:1 3935:1 3967:1 3985:1 4049:1 4086:1 4156:1 4171:1 4176:1 4215:1 4228:1 4233:1 4236:1 4265:1 4270:1 4273:1 4279:1 4360:1 4362:1 4449:1 4469:1 4570:1 4800:1 4811:1 4878:1 5005:1 5049:2 5125:1 5213:1 5222:1 5320:1 5341:1 5350:1 5355:1 5484:1 5772:1 5826:1 5832:1 5991:2 6089:1 6177:1 6350:1 6431:1 6445:1 6575:1 6665:1 6684:1 6685:1 6726:1 6988:1 7369:1 #
-0.0014995603265933097301976228976628 18:1 19:1 20:1 21:1 22:1 23:1 33:1 38:1 41:1 42:1 43:1 44:1 45:1 46:1 47:1 48:1 51:1 52:1 53:1 60:1 65:2 68:1 69:1 77:1 78:1 86:1 90:1 91:1 92:1 93:1 116:1 117:1 123:1 142:1 143:1 149:1 153:1 158:1 197:1 258:1 323:1 385:1 415:1 424:1 435:1 436:1 456:1 468:1 469:1 472:1 482:1 483:1 484:1 488:1 498:1 501:1 502:1 536:1 557:1 588:1 622:1 623:1 626:1 638:1 639:1 667:1 690:1 691:1 692:1 702:1 711:1 712:1 745:1 748:1 756:1 778:1 802:1 820:1 831:1 832:1 834:1 835:1 836:1 840:1 846:1 847:1 848:1 849:1 850:1 851:1 852:1 857:1 874:1 875:1 882:1 893:1 894:1 915:1 945:1 946:1 1050:1 1053:1 1058:1 1074:1 1075:1 1076:1 1082:1 1085:1 1140:1 1188:1 1210:1 1219:1 1255:1 1256:1 1550:1 1578:1 1579:1 1609:1 1654:1 1665:1 1666:1 1671:1 1687:1 1792:1 1793:1 1928:1 1960:1 2009:1 2016:1 2080:1 2081:1 2086:1 2206:1 2213:1 2429:1 2520:1 2593:1 2638:1 2904:1 2919:1 3138:1 3216:1 3299:1 3339:1 3340:1 3341:1 3342:1 3343:1 3344:1 3345:1 3346:1 3347:1 3348:1 #
-0.002058567350040816073403204811143 12:1 13:1 37:1 58:1 73:1 88:1 161:1 168:1 184:1 193:1 194:1 195:1 241:1 242:1 243:1 249:1 250:1 251:1 273:1 295:1 297:1 298:1 315:1 316:1 327:1 330:1 331:1 332:1 339:1 340:1 353:1 354:1 355:1 356:1 361:2 362:1 363:1 373:1 374:1 385:1 429:1 517:1 519:1 533:1 539:1 553:1 560:1 571:1 589:1 590:1 594:1 598:1 599:1 600:1 601:1 620:1 626:1 628:1 667:1 846:2 847:1 919:1 931:1 991:1 992:1 1059:1 1077:1 1088:1 1089:1 1090:1 1121:1 1183:1 1184:1 1206:1 1224:1 1229:1 1305:1 1319:1 1353:1 1360:1 1371:1 1411:1 1423:1 1437:1 1494:1 1496:1 1497:1 1510:1 1529:1 1592:1 1616:1 1650:1 1700:1 1758:2 1815:1 1816:1 1830:2 1831:2 1832:1 1833:1 1834:1 1835:2 1836:1 1837:1 1838:1 1839:1 1840:1 1841:1 1842:1 1843:1 1844:1 1845:1 1846:1 1847:1 1848:1 1849:1 1850:1 1851:1 1852:1 1853:1 1854:1 1855:1 1856:1 1857:1 1858:1 1859:1 1860:1 1861:1 1862:1 1863:1 1864:1 1865:1 1866:1 1867:1 1868:1 1869:1 1870:1 1871:1 1872:1 1873:1 1874:1 1875:1 1876:1 1877:1 1878:1 1879:1 1880:1 1881:1 1882:1 #
-0.001138182298320823508663846013178 5:1 6:1 11:1 18:1 26:1 38:1 41:1 59:1 69:1 123:1 124:1 166:1 167:1 169:1 176:1 201:1 204:1 283:1 290:1 323:1 335:1 360:1 365:1 379:1 380:1 385:1 400:1 401:1 430:1 511:1 534:1 548:2 559:1 587:1 588:1 600:1 689:1 720:1 734:1 741:2 786:1 847:1 853:1 861:1 862:1 877:1 895:1 931:1 964:1 969:1 1023:1 1036:1 1054:1 1089:1 1092:1 1116:1 1121:1 1170:1 1179:1 1188:1 1217:1 1218:1 1229:1 1287:1 1311:1 1345:1 1380:1 1431:1 1436:1 1516:1 1576:1 1586:1 1607:1 1672:1 1687:1 1759:1 1809:1 1815:1 1870:1 1903:1 1994:1 1995:1 2047:1 2081:1 2095:1 2096:1 2111:1 2117:1 2120:1 2166:1 2168:1 2182:1 2234:1 2269:1 2320:1 2338:1 2396:1 2428:1 2431:1 2434:1 2450:1 2451:1 2475:1 2524:1 2531:1 2592:1 2648:1 2727:1 2780:1 2840:1 2915:1 2938:1 2981:1 3055:1 3110:1 3116:1 3213:1 3218:1 3298:1 3351:1 3418:1 3501:1 3502:1 3602:1 3626:1 3640:1 3665:1 3666:1 3667:1 3670:1 3672:1 3692:1 3693:1 3734:1 3736:1 3754:1 3767:1 3859:1 3871:1 3923:1 4030:1 4044:1 4057:1 4059:1 4060:1 4065:1 4091:1 4115:1 4139:1 4160:1 4170:1 4206:1 4233:1 4282:1 4481:1 4483:1 4484:1 4485:1 4486:1 4488:1 4495:1 4496:1 4497:1 4498:1 4499:1 4516:1 4537:1 4555:1 4861:1 4915:1 5314:1 5423:1 5503:1 5855:1 6036:1 6395:1 6714:1 6715:1 #
-0.0012982840272239019787509084480348 18:1 33:3 69:1 73:1 79:1 88:1 89:1 90:1 127:1 173:1 183:1 196:1 218:1 238:1 250:1 468:1 524:1 525:1 526:1 532:1 536:1 577:1 591:1 599:1 609:1 612:1 623:1 624:1 625:1 626:1 655:1 691:1 699:1 708:1 709:1 718:1 731:1 780:1 783:1 786:1 831:1 843:1 853:1 906:1 929:1 984:1 1011:1 1040:1 1080:1 1087:1 1171:1 1173:1 1183:1 1208:1 1231:1 1248:1 1311:1 1339:1 1346:1 1348:1 1371:1 1387:1 1395:1 1416:1 1432:1 1440:1 1468:1 1496:1 1501:1 1512:1 1559:1 1579:1 1580:1 1597:1 1599:1 1602:1 1603:1 1609:1 1634:1 1785:1 1794:1 1826:1 1858:1 1878:1 1879:1 1896:1 1949:1 1950:1 1955:1 1959:1 2011:1 2018:1 2027:1 2029:1 2030:1 2049:1 2094:1 2129:1 2159:1 2196:1 2216:1 2250:1 2258:1 2310:1 2318:1 2373:1 2451:1 2461:1 2465:1 2466:2 2479:1 2490:1 2613:1 2636:1 2645:1 2659:1 2675:1 2794:1 2902:1 2969:1 2976:1 2989:1 3050:1 3099:1 3138:1 3176:1 3202:1 3213:1 3231:1 3263:1 3308:1 3454:1 3470:1 3495:1 3922:1 4021:1 4036:1 4152:1 4223:1 4265:1 4304:1 4338:1 4403:1 4420:1 4429:1 4728:1 4819:1 4872:1 5012:1 5068:1 5132:1 5222:1 5350:1 5858:1 5887:1 6036:1 6041:1 6112:1 6352:1 6649:1 7025:1 7120:1 7370:1 #
0.0016473582959698274477688961781041 8:1 13:1 53:1 54:1 89:1 90:1 118:1 154:1 157:1 158:1 169:1 203:1 209:1 290:1 377:1 381:1 388:1 389:1 396:1 415:1 448:1 453:1 470:1 504:1 506:1 519:1 551:1 576:1 625:1 638:1 647:1 707:1 741:1 760:1 797:1 801:1 826:1 831:1 863:1 880:1 881:1 894:1 895:2 907:1 937:1 955:1 964:1 969:1 983:1 987:1 992:1 1010:1 1051:1 1056:2 1057:1 1061:1 1078:1 1097:1 1111:3 1146:1 1157:1 1171:1 1178:1 1184:1 1188:1 1189:1 1190:1 1209:1 1239:1 1287:1 1304:1 1348:1 1385:1 1399:1 1407:1 1432:1 1452:2 1486:1 1501:1 1531:1 1533:1 1551:1 1573:1 1574:1 1575:1 1718:1 1719:1 1721:1 1725:1 1755:1 1831:1 1859:1 1872:1 1879:1 1885:1 1896:1 1902:1 1934:1 1936:1 1948:1 2009:1 2015:1 2031:1 2085:1 2118:1 2159:3 2205:1 2222:1 2348:1 2419:1 2436:1 2439:1 2449:1 2485:1 2486:1 2549:1 2580:1 2598:1 2615:1 2632:1 2651:1 2656:1 2660:1 2663:1 2666:1 2686:1 2711:1 2736:1 2825:1 2853:1 2891:1 2893:1 2908:1 2949:1 2975:1 2992:1 3003:1 3045:1 3092:1 3127:1 3136:1 3257:1 3292:1 3361:3 3370:4 3391:1 3411:1 3469:1 3502:1 3536:1 3540:1 3558:1 3664:1 3666:1 3803:1 3845:1 3867:1 3874:1 3910:1 3918:1 3957:1 3978:1 3995:1 4031:3 4052:1 4157:1 4172:1 4214:1 4227:1 4246:1 4399:1 4478:1 4501:1 4539:1 4546:1 4547:1 4555:1 4572:1 4629:1 4658:1 4757:1 4859:1 4865:1 5003:1 5008:1 5049:1 5074:1 5105:1 5129:1 5228:1 5333:1 5391:1 5392:1 5435:1 5497:1 5540:1 5681:1 5850:1 5888:1 6235:1 6256:1 6511:1 6566:1 6596:1 7204:1 #
0.0029577513068417488409367344104339 2:1 5:1 48:2 56:1 75:1 76:1 89:1 90:1 114:1 126:1 189:1 199:1 202:1 299:1 309:1 387:1 397:1 411:1 412:1 473:1 474:1 500:1 533:1 548:1 579:1 593:1 625:1 647:1 667:1 681:1 690:1 698:1 707:1 723:1 733:1 760:1 766:1 777:1 780:1 801:1 892:1 967:1 992:1 1010:1 1020:1 1035:1 1048:1 1056:1 1061:1 1103:1 1120:1 1188:2 1189:1 1239:1 1260:1 1348:1 1371:1 1399:1 1406:2 1407:1 1435:1 1452:1 1470:1 1471:1 1501:1 1532:1 1562:1 1599:1 1602:1 1654:1 1678:2 1703:1 1714:1 1795:1 1859:1 1896:1 1932:1 1965:1 1980:1 2026:1 2031:1 2047:1 2085:1 2126:1 2140:1 2156:1 2182:1 2222:1 2233:1 2259:1 2271:1 2303:2 2323:1 2324:1 2397:1 2404:1 2479:1 2514:1 2517:1 2549:1 2648:1 2660:2 2665:1 2673:1 2679:1 2689:1 2702:1 2712:1 2758:1 2853:1 2893:1 2898:1 2905:1 2907:1 2919:1 2929:1 2982:2 3088:1 3097:1 3135:1 3136:1 3146:1 3201:1 3220:1 3257:1 3370:1 3378:1 3411:1 3449:1 3487:1 3518:1 3525:1 3594:1 3604:1 3606:1 3607:1 3615:1 3666:1 3672:1 3701:1 3761:1 3807:1 3818:1 3942:1 3995:1 4014:1 4020:1 4022:1 4038:1 4163:1 4178:1 4203:1 4204:1 4215:1 4227:1 4255:1 4330:1 4458:1 4501:1 4788:1 4796:1 4859:1 4875:1 4879:1 4944:1 4950:1 4966:1 5008:1 5031:1 5105:1 5135:1 5171:1 5176:1 5180:1 5218:1 5231:1 5266:1 5327:1 5333:1 5391:1 5392:1 5540:1 5681:1 5888:1 5977:1 6046:1 6123:1 6235:1 6256:1 6687:1 6712:1 7353:1 #
0.0024283149904697175214263182851937 2:1 9:1 10:1 11:1 15:1 18:1 24:1 27:1 68:1 69:1 70:1 118:1 151:1 171:1 249:1 250:1 309:1 323:1 342:1 364:1 412:1 430:1 458:1 468:1 473:1 532:1 585:1 587:1 623:1 624:1 625:1 631:1 665:1 667:1 687:1 730:1 749:1 764:1 803:1 827:1 828:1 839:1 846:1 847:1 864:1 882:1 895:1 900:1 901:1 983:1 1015:1 1018:1 1026:1 1055:1 1068:1 1069:1 1071:1 1171:1 1178:1 1280:1 1312:1 1325:1 1374:1 1435:1 1452:1 1453:1 1531:1 1572:1 1634:1 1635:1 1704:1 1727:1 1847:1 1851:1 1887:1 1888:1 1896:1 1931:1 1946:1 1961:1 1962:1 2011:1 2025:1 2082:1 2105:1 2152:1 2171:1 2223:1 2291:1 2292:1 2358:1 2373:1 2415:1 2447:1 2453:1 2466:1 2478:1 2481:1 2549:1 2572:1 2640:1 2659:1 2664:1 2690:1 2695:1 2702:1 2725:1 2735:1 2791:1 2832:1 2902:1 2905:1 2909:1 2919:1 3027:1 3146:1 3152:1 3242:1 3376:1 3390:1 3429:1 3478:1 3490:1 3651:1 3666:1 3685:1 3838:1 3960:1 4176:1 4248:1 4380:1 4484:1 4485:1 4520:1 4731:1 4796:1 5146:1 5178:1 5193:1 5540:1 5682:1 5856:1 5888:1 #
0.0052498537036790773185890301988366 2:1 5:1 7:1 18:1 27:3 37:1 41:1 64:1 69:2 70:1 77:1 87:1 90:1 97:2 118:1 147:1 152:1 189:1 196:1 238:1 263:1 273:1 274:1 348:1 364:1 369:1 387:1 477:1 496:1 515:1 612:1 624:1 638:1 647:1 652:1 681:1 694:1 760:1 761:1 764:1 794:1 825:1 829:1 830:1 831:1 839:1 863:1 915:1 1015:1 1016:1 1018:1 1021:1 1026:1 1040:1 1054:1 1055:1 1083:1 1098:1 1104:1 1111:1 1140:1 1186:1 1209:1 1229:1 1230:1 1231:1 1265:1 1346:1 1363:1 1390:1 1394:1 1434:1 1435:1 1471:1 1502:1 1519:1 1531:1 1533:1 1572:1 1597:1 1649:1 1651:1 1701:1 1704:2 1759:1 1779:1 1783:1 1888:1 1896:1 1946:1 1955:1 1962:1 2143:1 2219:1 2223:1 2254:1 2306:1 2330:1 2347:1 2358:1 2478:1 2549:1 2588:1 2636:1 2658:1 2672:1 2690:1 2692:1 2708:1 2830:1 2832:1 2939:1 2984:1 3054:1 3114:1 3128:1 3129:1 3287:1 3411:1 3651:1 3765:1 3878:1 3995:1 4380:1 4429:1 4583:1 4731:1 4800:1 5002:1 5146:1 5221:1 5265:1 5415:1 5434:1 5540:1 5662:1 5682:1 6012:1 6381:1 6754:1 6756:1 #
0.0031123067479962001485871425643381 4:1 5:1 6:1 7:1 8:1 53:1 75:2 76:1 90:1 91:1 97:1 101:1 102:1 136:1 149:1 153:1 189:1 258:1 263:1 270:1 271:1 323:1 415:1 494:1 498:1 515:1 536:1 542:1 547:1 570:1 644:1 660:1 686:1 694:1 715:1 731:1 748:1 749:1 755:1 756:1 801:1 802:1 827:1 876:2 913:1 977:1 1015:1 1079:1 1085:1 1092:1 1097:2 1109:1 1116:1 1133:1 1229:1 1263:1 1291:1 1346:1 1352:1 1370:1 1373:1 1395:1 1452:1 1501:1 1530:1 1559:1 1576:1 1680:1 1681:1 1682:1 1683:4 1704:1 1709:1 1720:1 1779:1 1816:1 1913:1 1935:1 2016:1 2054:1 2268:2 2450:1 2575:1 2650:1 2689:1 2690:1 2692:1 2702:1 2719:1 2779:1 2790:1 2863:1 2904:1 2913:1 2946:1 2984:1 3016:1 3134:1 3211:1 3233:1 3250:1 3274:1 3438:1 3490:1 3569:1 3593:1 3614:1 3666:1 3707:1 3750:1 3835:1 3839:1 3902:1 3920:1 3977:1 4024:1 4113:1 4134:1 4135:1 4138:1 4205:1 4209:1 4222:1 4227:1 4254:1 4273:1 4346:1 4394:1 4485:1 4775:1 4800:1 4832:1 4848:1 5046:1 5316:1 5319:1 5583:1 5682:1 5861:1 5902:1 5939:1 5947:1 6009:1 6010:1 6109:1 6216:1 6326:1 6408:1 6914:1 7180:1 7186:1 7373:1 #
-0.0026145102317930626195652266119396 25:1 33:1 34:1 35:1 69:1 70:1 77:1 78:1 87:1 97:1 147:1 149:1 150:1 165:1 166:1 179:1 210:1 248:1 263:1 302:1 323:1 371:1 377:1 448:1 518:1 563:1 593:1 619:1 621:1 623:1 663:1 664:1 700:1 706:1 711:1 722:1 776:1 777:1 779:1 811:1 828:1 887:1 922:1 969:1 1016:1 1031:2 1210:2 1271:1 1346:1 1368:1 1369:1 1416:1 1477:1 1500:1 1504:1 1517:1 1525:1 1532:2 1547:1 1594:1 1604:1 1668:1 1711:1 1759:1 1807:1 1878:1 1905:1 1972:1 1986:1 2019:1 2032:1 2303:1 2304:1 2346:1 2358:1 2436:1 2445:1 2468:1 2486:1 2490:1 2514:1 2541:1 2572:1 2594:1 2658:1 2723:1 2783:1 2844:1 2873:1 2874:1 2984:1 3030:1 3318:1 3475:1 3483:1 3490:1 3499:1 3500:1 3501:1 3502:1 3512:1 3518:1 3546:4 3547:1 3548:1 3549:1 3550:3 3551:2 3552:1 3553:1 3554:1 3555:1 3556:1 3557:1 3558:1 3560:1 3561:1 3562:2 3564:1 3565:1 3566:1 3567:1 3568:2 3569:1 3570:1 3571:1 3572:1 3573:1 3576:1 3577:1 3578:1 3579:1 3580:1 3581:1 3582:1 3583:1 3584:1 3585:1 3586:1 3587:1 3588:1 3879:1 3880:1 3921:1 3967:1 4319:1 4459:1 4518:1 4595:1 4636:1 4803:1 4902:1 5150:2 5481:1 5696:1 5963:2 5964:1 5965:1 5966:1 5967:1 #
-0.00095056320198372572412293113330861 2:1 39:1 40:1 41:1 50:1 72:1 79:1 131:1 144:1 501:1 530:1 563:1 588:1 610:1 611:1 651:1 660:1 676:1 684:1 717:1 747:1 776:1 810:1 814:1 828:1 870:1 872:1 875:1 965:1 1067:1 1210:1 1219:1 1243:1 1325:1 1329:1 1336:1 1415:1 1424:1 1574:1 1580:1 1581:1 1582:1 1635:1 1900:1 1976:1 2000:1 2001:1 2011:1 2025:1 2026:1 2032:1 2090:1 2125:1 2133:1 2137:1 2175:1 2187:1 2249:1 2268:1 2270:1 2303:1 2309:1 2365:1 2375:1 2376:1 2466:1 2515:1 2657:1 2679:1 2688:1 2702:1 2723:2 2779:1 2800:2 2810:1 2891:1 2898:1 2914:1 2919:1 2963:1 2981:1 2991:1 3051:1 3071:1 3094:1 3099:1 3114:1 3138:1 3147:1 3181:1 3249:1 3296:1 3375:1 3430:1 3484:1 3606:1 3607:1 3684:1 3748:1 3760:1 3761:1 3825:1 3874:1 3903:1 3962:1 3974:1 4059:1 4176:1 4190:1 4211:1 4222:1 4273:1 4290:1 4296:1 4331:1 4340:1 4341:1 4396:1 4402:1 4406:1 4437:1 4464:1 4498:1 4511:1 4567:1 4587:1 4605:1 4618:1 4641:1 4655:1 4666:1 4737:1 4766:1 4768:1 4769:1 4806:1 4831:1 4877:1 4894:1 4922:1 4965:1 5024:1 5083:1 5144:1 5174:1 5223:1 5315:1 5486:1 5550:1 5639:1 5788:1 5792:1 5798:1 5820:1 6010:1 6059:1 6095:1 6285:2 6326:1 6362:1 6397:1 6417:1 6733:1 6832:1 7018:1 7068:1 7108:1 7109:1 7110:1 7111:1 7112:1 #
-0.004165353034365652795667500640775 6:1 11:1 12:1 24:1 39:1 40:1 41:1 42:1 43:1 44:1 48:1 49:1 53:1 60:1 68:1 69:1 70:1 71:1 72:1 77:1 89:1 90:1 112:1 118:1 119:1 120:1 121:1 122:1 123:1 128:1 136:1 137:1 145:1 152:1 153:1 194:1 238:1 274:1 322:1 323:1 344:1 447:2 451:1 458:1 467:1 505:1 526:1 563:1 569:1 570:1 614:1 628:1 635:1 643:1 658:1 702:1 707:1 745:1 750:1 756:1 764:1 831:2 833:1 839:1 840:1 847:1 851:1 852:1 881:1 887:1 893:1 924:1 1014:1 1015:1 1016:1 1039:1 1040:1 1055:1 1120:1 1121:1 1122:1 1133:1 1145:1 1170:1 1171:1 1190:1 1242:1 1247:1 1260:1 1266:1 1270:1 1279:1 1286:1 1287:1 1318:1 1357:1 1382:1 1383:1 1456:1 1481:1 1574:1 1615:1 2052:1 2055:1 2056:1 2074:1 2075:1 2076:1 2077:1 2080:1 2082:1 2083:1 2084:1 2085:1 2086:1 2090:1 2091:1 2092:1 2096:1 2101:1 2144:1 2146:1 2177:1 2178:1 2270:1 2447:1 2589:1 2643:1 2702:1 2755:1 2898:1 2917:1 2918:1 2919:1 2920:1 2921:1 2922:1 2923:1 2924:1 2925:1 2926:1 2927:1 2928:1 2929:1 2930:1 2931:1 2932:1 2933:1 2934:1 2935:1 #
-0.0012660304275955828762906252293874 2:1 39:1 40:1 41:1 149:1 161:1 166:1 178:1 213:2 279:1 280:1 297:1 342:1 382:1 418:1 427:1 448:1 467:1 524:1 535:1 575:1 608:1 611:1 625:1 631:1 651:1 706:1 747:1 756:1 777:1 813:1 814:1 825:1 863:1 870:1 872:1 889:1 929:2 933:1 965:1 966:1 1003:1 1007:1 1041:1 1091:1 1154:1 1172:1 1174:1 1179:1 1219:1 1243:1 1245:1 1246:1 1316:1 1325:1 1329:1 1336:1 1432:1 1434:1 1462:1 1580:1 1632:1 1633:1 1673:1 1677:1 1720:1 1721:1 1725:1 1730:1 1827:1 2000:1 2011:1 2026:1 2032:1 2133:1 2187:1 2190:1 2205:1 2220:1 2222:1 2235:1 2238:1 2249:1 2268:1 2270:1 2335:1 2342:1 2354:1 2365:1 2372:1 2376:1 2405:1 2456:1 2477:1 2657:1 2658:1 2679:1 2688:1 2694:1 2702:1 2723:1 2740:1 2743:1 2779:1 2805:1 2851:1 2852:1 2884:1 2889:1 2891:1 2894:1 2901:1 2909:1 2914:1 2934:1 2952:1 2963:1 2981:1 3019:1 3033:1 3039:1 3051:1 3099:1 3114:1 3138:1 3220:1 3253:1 3268:1 3330:1 3340:1 3370:1 3385:1 3422:1 3430:1 3454:1 3492:1 3496:1 3549:1 3558:1 3607:1 3644:1 3684:1 3765:1 3766:1 3819:1 3834:1 3861:1 3874:1 3903:1 3912:1 3960:1 3974:1 3983:1 4138:1 4156:1 4172:1 4181:1 4190:1 4209:1 4214:2 4263:1 4266:1 4268:1 4296:1 4331:1 4402:1 4406:1 4413:1 4437:1 4464:1 4511:1 4567:1 4587:1 4605:1 4612:1 4618:1 4638:1 4666:1 4736:1 4768:1 4769:1 4874:1 4877:1 4921:1 4922:1 4965:1 4979:1 5020:1 5024:1 5080:1 5099:1 5144:1 5152:1 5223:1 5266:1 5315:1 5386:1 5513:1 5550:1 5618:1 5722:1 5788:1 5820:1 5977:1 6059:1 6180:1 6201:2 6285:1 6417:1 6586:2 6615:1 6718:1 6744:1 6804:1 6832:1 6855:1 6875:1 6884:1 6992:1 7018:1 7048:1 7068:1 7108:1 7109:1 7110:1 7111:1 7136:1 7189:1 7190:1 7191:1 #
0.0052498537036790773185890301988366 8:1 9:1 10:1 26:1 33:1 36:1 53:1 64:1 103:1 123:1 184:1 193:1 208:1 232:1 233:1 250:1 323:1 336:1 359:1 377:1 405:1 415:1 436:1 478:1 497:1 506:1 531:1 562:1 587:1 588:1 590:1 597:1 626:1 627:1 639:1 698:1 756:1 892:1 922:1 976:1 994:1 1023:1 1024:1 1025:1 1026:1 1036:1 1050:1 1052:1 1056:1 1057:1 1120:1 1174:1 1204:1 1346:1 1366:1 1373:1 1405:1 1435:1 1436:1 1438:1 1476:1 1492:1 1540:1 1549:1 1575:1 1609:1 1709:1 1721:1 1736:1 1776:1 1857:1 1878:1 1887:1 1896:1 1991:1 2017:1 2018:1 2042:1 2043:1 2075:1 2076:1 2102:1 2164:1 2167:1 2175:1 2194:1 2234:1 2287:1 2342:1 2398:1 2460:1 2493:1 2521:1 2617:1 2623:1 2626:1 2706:1 2716:1 2793:1 2794:1 2825:1 2837:1 2880:1 2935:1 2973:1 3023:1 3087:1 3106:1 3138:1 3163:1 3169:1 3180:1 3199:1 3205:1 3247:1 3346:1 3448:1 3644:1 3666:1 3821:1 3863:1 3909:1 3995:1 4191:1 4228:1 4251:1 4264:1 4286:1 4326:1 4404:1 4487:1 4488:1 4489:1 4699:1 4708:1 4746:1 4812:1 4831:1 4846:1 5120:1 5216:1 5225:1 5243:1 5470:1 5622:1 5663:1 5881:1 5882:1 6232:1 6297:1 6502:1 6649:1 6937:1 6992:1 7105:1 #
0.0048099481961577971247945306743077 9:1 10:1 11:1 23:1 33:1 36:1 38:1 45:1 46:1 47:1 53:1 54:1 83:2 87:1 90:1 150:1 190:1 191:1 200:1 244:1 245:1 273:1 323:1 343:1 386:1 400:1 415:1 429:1 439:1 453:1 478:1 517:2 535:1 536:2 618:1 645:1 659:1 689:1 730:1 731:1 751:1 828:1 845:1 847:1 879:1 880:1 994:1 995:1 1079:1 1200:1 1217:1 1303:1 1314:1 1332:1 1347:1 1352:2 1361:1 1388:1 1440:1 1476:1 1501:1 1559:1 1560:1 1585:1 1601:1 1651:1 1673:1 1674:1 1723:1 1727:1 1760:1 1770:1 1851:1 1883:1 1885:1 1890:1 1896:1 1902:1 1950:1 1951:1 1954:1 2032:1 2089:1 2093:1 2153:1 2239:1 2287:1 2353:1 2376:1 2394:1 2475:1 2481:1 2518:1 2519:1 2573:1 2587:1 2684:1 2698:1 2706:1 2715:1 2760:1 2783:1 2837:1 2849:1 2896:1 2939:1 2961:1 2977:1 2993:1 3004:1 3034:1 3101:1 3105:1 3200:1 3253:1 3344:1 3379:1 3402:1 3409:1 3473:1 3513:1 3660:1 3707:2 3848:1 3949:1 3950:1 4066:1 4124:1 4134:1 4142:1 4152:1 4165:1 4312:1 4448:1 4636:1 4667:1 4676:1 4699:1 4945:1 4980:1 5186:1 5195:1 5222:1 5499:1 5622:1 5625:1 5658:1 5686:1 6161:1 6859:1 7120:1 7439:1 #
